ImageId,PredictionString
ID_18fb86d04,0.15047849714756012 0.01384557440979749 -3.0878679752349854 -1.3614089354320316 8.784225583104726 45.24210006924425 0.8595215602484927 0.15152651071548462 0.01862989521638775 -3.0883069038391113 -1.5438926396640003 4.800965636979518 20.28451695556365 0.8482574246375111
ID_ce06d4dc1,
ID_afe07078f,0.14275644719600677 -3.135532776525235 -3.1055588722229004 -13.306297146169317 9.28142246392746 58.477818237822596 0.8619522641188719 0.14044295251369476 -0.01431239258989099 -3.085721015930176 -12.5800095906634 17.153088244094935 104.12167446453904 0.8812862621587487 0.1399783194065094 0.006172922483117388 -3.0886757373809814 -11.580833306508781 21.346245113768212 128.18564013968918 0.692828746972346 0.1341467797756195 0.002552392714862773 -3.0942182540893555 -5.956936315762297 16.61513562370397 99.66007961260482 0.7975873495346972 0.14781631529331207 -3.1280481395564634 -3.113457202911377 -13.98474685914462 4.291779154639368 26.266858620584273 0.6747761431716818 0.14638543128967285 -3.108478280515946 -3.1095876693725586 -13.511394755131429 7.3400362325743185 44.53084766868329 0.6365310630519968 0.14449547231197357 0.005108706153209809 -3.086491823196411 6.360805675409706 10.196176058273634 58.43584161618441 0.8549490713211709 0.14829090237617493 0.007741460294237596 -3.0865681171417236 12.84179441689071 13.813009758238593 75.55704133316091 0.8982466480082693 0.15654754638671875 -0.010158678240768748 -3.0843286514282227 9.900679326768412 7.77087597324074 40.04581868652082 0.8130128846127287 0.1552906632423401 0.05607879510634797 -3.0715384483337402 11.70847790794152 6.634378742213175 30.430312157998866 0.5379659697055661 0.15488848090171814 -0.013653282301158986 -3.098679780960083 -5.137288137416296 2.943789645979083 10.552895069148503 0.5326800580355658
ID_37caf75aa,0.14223803579807281 0.012768754199042597 -3.0846261978149414 -27.415224208124165 6.811273098022023 42.47049822923253 0.9347347302312828 0.1459580510854721 -0.03322858406056034 -3.0841174125671387 -29.663261997545376 8.891556427713887 55.61926509371137 0.7003222622242532 0.1497153639793396 0.0007716520404961646 -3.09378719329834 -37.640605158590496 12.014646828210122 76.7575800419209 0.576331747356481 0.14901788532733917 -0.005028125446586083 -3.0932576656341553 -25.00633273527938 10.103570964971937 62.28503614712824 0.6739187753755652 0.15016990900039673 0.020791508709242908 -3.0913443565368652 -28.85529398437293 12.08481216907992 76.36500921498462 0.6399195901821113 0.1361982673406601 0.03684803968446725 -3.0820772647857666 -16.277873643803808 11.792762170135614 71.7323031250355 0.6982845466857893 0.15270847082138062 -0.014925313234520685 -3.0943562984466553 -17.519202612974492 9.560187320961557 54.220105662293925 0.6685752516848361 0.15617169439792633 0.005416724292575262 -3.0879878997802734 -10.788467245759602 11.254305500960363 63.791847332697074 0.9577481761838348 0.1595682054758072 0.004656118958796358 -3.0956921577453613 -12.754852451799405 15.76013724920751 90.5426268491631 0.9019037600924954 0.1508796066045761 0.008382535988168047 -3.092965841293335 -6.866363062997517 14.229217556883293 81.45673485010535 0.9488341031877665 0.1539987027645111 0.010065043340680318 -3.07515811920166 3.8137296883774066 2.1571987535977923 5.645642802144381 0.7347982494096167
ID_7655363ca,0.14605146646499634 -3.1077865163455476 -3.102992534637451 -18.38909956319396 5.122322261555696 31.77427947524673 0.542112997228464 0.1542825996875763 -3.140574964548228 -3.1063756942749023 -22.541458638789944 7.986533980383596 45.76824307445264 0.9448056982673493 0.1536443531513214 3.057927631363603 -3.099764347076416 -23.259503369354498 9.390701527509124 54.64885379305219 0.7729378220369628 0.14981555938720703 -1.5272483172479232 -3.0933947563171387 23.811119289614613 7.3221542295149415 33.0182664135663 0.5481664204899532 0.1635672152042389 3.0647087984736077 -3.094491481781006 8.944889884425745 5.516396295914884 22.325483208579115 0.8389324343432375
ID_ecb7edbb8,0.1551961749792099 -1.0306793794726126 -3.100893974304199 10.257089020546212 6.934188385832625 35.357531151204306 0.5224589040306701 0.15780727565288544 -0.7291792035422547 -3.104034662246704 0.8664397743824781 5.155762733170602 25.029508724093386 0.840700705019211 0.14947332441806793 -0.032719856006620904 -3.099544048309326 10.183632049039215 6.305532737617228 29.839798282195495 0.6864876565159022
ID_e3b680bf6,0.148360937833786 0.005100078294121303 -3.0955843925476074 -2.855313575230371 10.798199362305466 61.646127928054334 0.8059906379317914 0.1582079827785492 -0.00322461585818523 -3.0944674015045166 -0.8164157006159719 8.309546858107666 43.84312067353302 0.9413296773981515 0.16583356261253357 -0.06429026662426356 -3.086122989654541 7.266098469262302 12.754946947133309 67.83453137608323 0.555156340661146 0.16591204702854156 0.022487914421366384 -3.0854833126068115 9.524600818634841 9.923529624939242 47.92045984596075 0.9459596029648294 0.15684092044830322 -0.030474327944888684 -3.082425832748413 -3.0203078253986755 2.9300686127452127 11.070501804388195 0.7062029726734075
ID_c51c8de2b,0.15404216945171356 3.083898038990506 -3.0936670303344727 283.10076812202846 208.16074916265387 1144.4112735811573 0.5102494432857001 0.15971794724464417 3.0688049925137237 -3.100132703781128 18.536657900171452 11.286719612706685 60.23683364144675 0.7546729225249177 0.1577572524547577 3.077846774242536 -3.096444606781006 15.963600114608345 8.416684398209092 45.127595034944704 0.6534139494857581 0.15261903405189514 2.837691295255698 -3.084084987640381 -69.18338797894602 -21.084871288587326 -113.98728646897052 0.5330747205953279 0.1545497626066208 2.820974353592237 -3.094344139099121 1.0758075170939276 0.3047763260861338 1.6934008829927538 0.5570301448800916 0.1611882895231247 0.008271112317502632 -3.089360237121582 -3.5127067712137308 10.606622777691062 56.02951656223086 0.5218307641604142 0.16161702573299408 3.089867651967433 -3.1029160022735596 20.508599801816555 8.036762195819927 40.467975075453616 0.6532998342842993 0.1514732539653778 -0.036869961358754456 -3.1041946411132812 3.653941022452648 7.107198983465699 34.765931527676884 0.5806334301423951 0.15501128137111664 -0.004864480241485074 -3.0996570587158203 0.06567719699770207 6.0705536807007565 26.240874205436377 0.5585611554000203
ID_bbe2505b7,0.16108112037181854 3.0675041680032624 -3.092663288116455 -4.968339667757035 4.513146512091313 21.89300507310606 0.8670133185241351 0.16058211028575897 2.996279536132808 -3.109865665435791 0.09148199929054511 7.519913337247388 35.61741124032037 0.6285329610661867 0.16042929887771606 3.019676331533194 -3.108912467956543 9.58966460314045 9.085596628164598 44.80649493373606 0.8382583751404756 0.15290118753910065 0.13001772374405288 -3.1033339500427246 17.006487262268017 10.366339344951049 49.65651418602747 0.5898867215490647
ID_b2f337d86,0.14953309297561646 3.0896020504398263 -3.104147434234619 -20.849091041231386 7.01353645837937 38.02786343101486 0.6884996815776137 0.16288046538829803 0.022018075339572313 -3.094788074493408 -3.2321748498856895 8.605533666849938 42.503067443330515 0.904680599540944 0.16382473707199097 0.006973009499638473 -3.0889265537261963 4.318345801487215 8.47774830883538 39.41131830213142 0.9483968014108698 0.17178751528263092 0.017499272076617015 -3.0771560668945312 10.274260458545863 8.428939393479094 36.88394530223119 0.831201733189611 0.15237309038639069 0.02164062588971867 -3.0887386798858643 -3.073157595623806 4.1916608810780485 16.97228997946248 0.9381735014273452 0.17210732400417328 0.014676376528743774 -3.071837902069092 10.606086666040607 7.996979640658474 32.873926500929954 0.8785490559280102 0.1615813970565796 0.005991393234598223 -3.0802853107452393 8.061108156464604 5.681126665924743 20.809318153765844 0.5889749328165783 0.16733427345752716 0.012844860244404196 -3.074937343597412 11.663690414361545 5.110736142033832 16.869464574948058 0.8592210524218729
ID_99bc4d11b,0.14763690531253815 -0.03327348653520386 -3.0888352394104004 17.91951527160532 17.438192004080793 95.48269434284296 0.5149820490686824 0.14595317840576172 0.006662502771331521 -3.0827653408050537 13.817347347666445 8.775359091868399 47.224532285600816 0.7748041926633402 0.14849449694156647 -0.00810966011166502 -3.0805962085723877 11.73229280305035 7.43749124269763 38.05903795990537 0.5187651612477117 0.14219193160533905 -0.0200489681958244 -3.088801383972168 11.25632094603611 6.857704836549499 34.79819681871167 0.8102396906090049 0.15866892039775848 -0.04025187358601056 -3.0811543464660645 9.918038921703126 5.154575687645424 24.800953269030696 0.7860203279939969 0.16262835264205933 0.03576107252270998 -3.0857670307159424 2.5512387483969965 5.943598004602482 26.40388577212736 0.5213959956420471 0.15840278565883636 -0.019670492902062315 -3.0880064964294434 9.958829409225087 4.513125050492546 18.040569574278113 0.8936788661578718
ID_9bd02b06b,0.15525998175144196 3.13459006868884 -3.107224941253662 -12.829950774780267 8.103705930506068 47.030129653584694 0.913833542953947 0.15201590955257416 0.010267338004415493 -3.0862393379211426 -10.866772941952725 11.291298270261056 64.20491944191949 0.8173510724537661 0.15607747435569763 -3.132117165213515 -3.1173577308654785 -13.78351713824087 6.8443225843072595 36.3036557577733 0.9355369684157875 0.14659275114536285 0.006411205028417159 -3.088998556137085 -5.160975985830632 6.444982724093296 34.30554829276774 0.7824022980888728 0.15225335955619812 3.1363902616250154 -3.1166727542877197 -14.773555816392347 4.717593874246082 23.100186059321278 0.9700581570442293 0.16119490563869476 -0.00732087744575802 -3.0826573371887207 -3.337822463837202 2.085322640285767 6.4491719007721935 0.818925961701805
ID_3eb110281,0.15446710586547852 3.099125604904219 -3.1134448051452637 -10.628776143813644 15.088833868539101 86.99858308609909 0.7540670702044393 0.15677104890346527 3.0948980801429355 -3.11434268951416 -4.581034275965481 9.628497489499692 50.668656929737644 0.9444416164976632 0.15217626094818115 3.107429509800359 -3.114663600921631 -0.8987715089158735 13.138011902681477 71.22958261375969 0.6994826117519779 0.15270772576332092 0.03252496633107239 -3.102247953414917 1.5702376518272987 10.320168992942836 52.85112272141473 0.8320614538185988 0.15101724863052368 0.007070100404683106 -3.0829596519470215 5.321847504675071 12.728323895907415 66.41187082169549 0.5418311901559483 0.15878058969974518 -0.0233397116532662 -3.0926973819732666 4.700939904512268 10.186133138366108 49.23524849146423 0.7793971793265202 0.1628694087266922 0.007071015415064327 -3.0888278484344482 4.030990247725642 4.244576257399179 14.491109550029526 0.982269240593511
ID_223276b96,0.16070541739463806 3.1236603891163965 -3.109264373779297 -14.765184581339263 7.347238808900162 38.97399748790707 0.9038028049094549 0.15748636424541473 2.6680794254988376 -3.100827693939209 14.069954685269536 8.02944990108293 36.42088010424554 0.8693667375484814
ID_1f8605bdc,0.1579475849866867 -0.016739203536446545 -3.088580369949341 -9.631827501931157 5.305953442677786 24.590610597257726 0.6323968788334586
ID_089d5b041,0.16157247126102448 0.05237830766274087 -3.0919601917266846 -5.474356467139133 2.7767620108374054 12.913601828550506 0.5568287594883202 0.16472786664962769 -0.017143455672542232 -3.102719306945801 -8.898107382730004 3.895211948132273 15.879818882125974 0.7235993317714997
ID_b4fc9fa2c,0.15711131691932678 3.0682592893596 -3.11228084564209 -10.923275937654235 12.436439842028328 73.049341345209 0.6132280024145748 0.15448106825351715 3.090292929231183 -3.119978666305542 -9.315209625519378 11.598761225867403 68.24544464480658 0.6169785818479199 0.1500040739774704 3.1090598265858578 -3.1076154708862305 -15.825366365670977 6.393425911702535 34.505026795905565 0.5586152938554307 0.15549901127815247 0.00041498190331954945 -3.0931715965270996 1.757922148357628 7.043841535807898 36.31357907568124 0.6970278193279126 0.15142154693603516 0.026864469401645975 -3.092111587524414 -0.38513324753822786 6.0649679296544186 28.866789597633314 0.8598616305333308 0.15419244766235352 0.02278327901305806 -3.0869784355163574 2.1854552464498003 4.81382592627176 22.73218899001524 0.899642792465035 0.15544024109840393 -3.1276169079538665 -3.118969440460205 -4.452028617162144 3.6406617349328037 14.601284265556753 0.6529422771743005 0.1598602682352066 0.0030328405397009443 -3.089388608932495 2.7152149037784015 3.761336042299758 13.470098376305089 0.9566522665207482 0.15623968839645386 0.0038827751261392533 -3.0758216381073 3.1354670690821167 2.4168427291772825 6.577837467230573 0.6446325587929062
ID_0a2bb53de,0.15195435285568237 -3.129587993988014 -3.1247968673706055 -26.394870071184197 7.4377120482230215 42.90332794193006 0.6761369761643122 0.15313103795051575 0.057429768128338526 -3.090475082397461 -10.811529580492616 7.1151769967300345 36.837814110877936 0.9022078708409023 0.15735796093940735 0.03817782848691974 -3.0880048274993896 -7.7575874048560705 6.89724071796133 36.6756692074809 0.7712506716522184 0.16400612890720367 0.02160823737866726 -3.083782196044922 -7.856665010974323 8.117169576768102 42.98210106528971 0.566199942175926 0.1517408937215805 -0.016451053722647522 -3.0972776412963867 -4.663198787018476 7.194072254055581 37.08112123665398 0.8043171865512918 0.15637068450450897 0.04005778226450968 -3.077165365219116 1.6899380021573842 9.61849425564525 50.097119911890196 0.721948232498591 0.15778782963752747 0.014245912015755868 -3.0952439308166504 -7.232588545455917 6.094669167293939 29.87924958696699 0.9560566161210072 0.1633613109588623 0.017177424030499256 -3.0788207054138184 2.8912576705360964 7.575958069968179 36.89324866177768 0.9484172279407964 0.1720680147409439 0.046518752798930064 -3.068572998046875 3.3447974467349533 5.569203041190849 23.760578036343823 0.8016933924222386 0.17084597051143646 0.021251068377666084 -3.0774850845336914 4.27528908509259 4.9236956142411 19.734340906178723 0.5677781951275261 0.1574118733406067 0.018628415389866673 -3.091886281967163 4.6870857519332185 3.980000916467305 14.407235723875214 0.9665683189678748 0.15675275027751923 0.0037674956032308538 -3.0828564167022705 4.038924168395137 2.6359724170882726 7.533281533626067 0.9201395312180616
ID_58921d231,0.16974188387393951 0.02015505377897263 -3.083179473876953 4.16639678899529 5.925236560297724 24.217500283685975 0.7590363786925212 0.16564534604549408 -0.022494903546372808 -3.0773251056671143 7.861903020220667 6.561204675984218 25.441335570295003 0.5324980550121777 0.1629272699356079 0.004202346563045198 -3.084825038909912 -3.918977512531251 4.662345925553356 17.075553399002445 0.7099966254752329 0.16677750647068024 0.006676558460846559 -3.0719234943389893 9.240104605907963 5.732110087836756 19.92916856991707 0.7150578016438914 0.15636534988880157 -0.0033120045194247514 -3.0790183544158936 9.01478241624706 4.635858633714962 14.629578618859417 0.5130468077551178
ID_f89d8e6cd,0.15496845543384552 0.08832765416598971 -3.086602210998535 -1.1299401221601806 7.372593318362128 39.25299952862756 0.5872888826564172 0.1541573405265808 0.0004624716082354878 -3.097003221511841 3.0474506318675583 9.327220916765812 48.660930986427104 0.5762510810794101 0.15699556469917297 0.02614966732602077 -3.091338634490967 -3.80901519489737 6.393195314335964 30.544898766639662 0.9149298332986939 0.16143205761909485 -0.010482600230554544 -3.0838325023651123 3.5534202110583317 6.68796572282948 33.06636844009222 0.7546075128920765 0.16186070442199707 0.032892726739500895 -3.0856897830963135 3.186358625915873 4.383596966492405 18.638080204692592 0.8007925056485407 0.1679307222366333 0.018147665487078062 -3.0940892696380615 -0.23544526595925758 4.579433154593626 18.400594592129956 0.7211114179519057
ID_9f9c04c6f,0.15579041838645935 -0.023151416001564337 -3.0940191745758057 -2.977310035918864 19.325274437371448 110.54450185038957 0.5227235700304567 0.14987267553806305 3.1017592046012816 -3.101893424987793 3.963777423004197 7.805234799505567 42.71984459162794 0.5826773710013294 0.1552474945783615 3.1174087414197684 -3.102926254272461 107.3486581968348 100.3135019223642 559.7129201641719 0.7436910141699086 0.15400512516498566 -0.0038553222456655435 -3.0975594520568848 -6.463231101769844 7.916013844426507 42.14680503247278 0.557453819514613 0.1561708301305771 0.002835384434350469 -3.0933048725128174 -3.530107793971225 9.349152303428811 48.228031500600224 0.7316983296824846 0.15212731063365936 3.1352161113373462 -3.1229000091552734 7.944152757613653 4.564084790154876 20.639719069034562 0.8879521914530899 0.14288172125816345 0.009032590122952861 -3.0982143878936768 2.7500418375400666 4.131374611763779 17.689850926429273 0.5534633719640977
ID_0591a0910,0.14820848405361176 0.05299859249763293 -3.086986541748047 -20.52160226043681 10.609410084233259 61.444213611256814 0.5215981671518262 0.14997799694538116 -0.03134360249297925 -3.100041389465332 -21.71582877634179 11.669214069862347 68.19392751570356 0.769887255209911 0.14893986284732819 0.023708850358433533 -3.096562623977661 -21.715880796973337 15.1598933122021 86.5757126238673 0.7416674500484429 0.13777390122413635 0.027570574010273456 -3.0955848693847656 -13.172537169234253 4.11007963124005 22.12383653105226 0.5689732764048596 0.15574435889720917 0.05829969986901686 -3.086332321166992 -4.6655329521539874 7.999059239819939 39.46923160068173 0.6005172249080757 0.1506635695695877 0.03672817220927083 -3.0931172370910645 -11.868431140604326 4.268271955348017 19.47773098949518 0.5160115298196201 0.15397845208644867 0.03499373237854576 -3.0850539207458496 2.83212098508678 7.808409579671959 35.86136985168089 0.7806572768598634 0.15574757754802704 0.02309195675345282 -3.086423873901367 -2.9864335554156236 4.842724993061959 19.84893828633949 0.7452357022427921 0.16368572413921356 0.03348004718393792 -3.071244955062866 3.9814924463276173 4.724384763569272 17.060496141143716 0.7103330342354776
ID_1a96a868e,0.15672588348388672 3.130069910473419 -3.1054277420043945 -12.390196645698488 7.393834427272275 38.42380057688388 0.9475322123429936 0.15331695973873138 3.134588408905153 -3.1081418991088867 -10.999229024783254 7.4997810184524765 40.490686725307846 0.9497152735909646 0.1561521738767624 -3.1406527208446455 -3.1134567260742188 -10.31935870463817 5.9116289019866155 29.317376017604303 0.9539869289779466 0.1537470519542694 -3.1109183937590625 -3.121354103088379 -10.382553686517898 5.216156130754955 24.386621403547633 0.7617602460303629 0.16013607382774353 0.01576652887772382 -3.0788910388946533 -2.5592987471395614 5.265186727081848 23.909361176919433 0.7860139572486905 0.15257465839385986 3.1149630902000984 -3.108999252319336 -10.524280050395815 3.924392908841819 16.848284843282787 0.7648593395191605 0.158759206533432 -0.015048156432833528 -3.081298351287842 0.03124661686924189 3.21855396035197 11.602037719517746 0.7212305340495679
ID_f164fabf2,0.15194982290267944 -0.034729241749777 -3.0995748043060303 5.222697647755752 11.036977913305423 56.92309747574823 0.6406442758577132 0.16214312613010406 -0.023674257800107488 -3.0999021530151367 1.8481091835912575 7.817313613425664 38.752868875246214 0.6380405391067 0.15208080410957336 -0.022835890090798533 -3.1054458618164062 5.037278561947602 7.305055648189925 35.942545157997806 0.7463619438694732 0.15461979806423187 0.0007213516647250257 -3.097041130065918 -4.4807696836597835 6.029788668167698 24.794862954793807 0.5688742673511199 0.15325282514095306 0.017850399823086432 -3.0960640907287598 -4.265884541114491 3.707599440319407 12.880824887911565 0.889427664483651 0.16594856977462769 -0.0006400325527511822 -3.07905912399292 -4.725684384049973 3.333037809619321 8.878185399042804 0.5236579576553847
ID_2749c3f78,0.14868783950805664 2.5154666993937314 -3.092907667160034 -28.276673141123315 13.453181165357456 83.72736897725936 0.5178579040529105 0.1591874212026596 3.1131245045059908 -3.1203527450561523 -11.544318288798154 13.072091341054207 74.63872344227586 0.5742647147919198 0.16800479590892792 3.1230735481363148 -3.094822406768799 -10.85953781774239 18.20275049330429 104.83738738916269 0.7745299316624747 0.16897709667682648 3.1398417090420065 -3.0995802879333496 -7.527948472475468 19.140731082931065 107.54251288975117 0.6323270905232588 0.15279439091682434 3.036443776362749 -3.092343330383301 -12.139808757804078 4.6881917408743545 24.92808785730335 0.6186344744399618 0.14469321072101593 -0.014181762608276121 -3.088852882385254 -0.003560396413045385 5.976826795481823 31.782155174935774 0.5328882332379555 0.16178692877292633 -0.041304077213379815 -3.0973877906799316 3.694664167406989 10.613272148013083 56.91015146008756 0.6894531343104974 0.15491995215415955 -3.139185878451121 -3.1227822303771973 -8.478632695735632 4.58968935995791 22.318315506015892 0.9783492892846718 0.1595429629087448 0.011329290716381677 -3.0861241817474365 0.3945271759646667 4.955434308514136 22.190518631843087 0.9424683251077963 0.15402540564537048 -3.14006604168606 -3.106316566467285 -8.898691829929687 3.111779664338601 13.271394372024968 0.5565988225550168 0.15639619529247284 0.01838387950188949 -3.090076446533203 6.474386740018849 3.864028028688641 13.155765831499798 0.9459558960860218
ID_1a5257d65,0.14114141464233398 3.0731875757346296 -3.102682590484619 -30.166625116060583 11.55780463930677 73.21423027843296 0.7021183680915185 0.14195233583450317 3.1294894752875546 -3.0923001766204834 -28.109796332085768 13.84202241901136 86.73029686441754 0.6871839729642032 0.15866340696811676 2.99144757605706 -3.112241268157959 -27.02139525351909 10.141419619816274 58.60137179013799 0.5506827038425387 0.15600936114788055 3.1329956392286036 -3.119506359100342 -24.89077712108803 12.13408277536341 71.02619654994146 0.8889161989572775 0.14665423333644867 -3.113912341320922 -3.107011318206787 -13.154460381270974 8.682645857369668 50.21751523021436 0.8220292980071889 0.15725331008434296 3.120298841701667 -3.119417667388916 -10.353585568989509 10.745140131959477 61.066061362009215 0.5187775770006972 0.1704150289297104 -0.018347022931233706 -3.070629596710205 12.158730176150888 7.532954724074901 34.085156987716125 0.6743308361468106 0.15475893020629883 0.0033206686813992844 -3.0945305824279785 12.249388262435142 6.427868455680828 29.458187247024266 0.6970000634383617 0.16144533455371857 -0.0040350362755216225 -3.0889666080474854 12.180729165789394 6.015297108192509 24.081770176568124 0.8288219019184878 0.16284950077533722 0.021662826981125108 -3.0759940147399902 12.434023759431208 5.073314284738358 19.27977800371803 0.5897366821125047 0.16847746074199677 -0.009551992807963273 -3.0869271755218506 11.508730364255436 4.612428114612664 17.431619763407397 0.5143032996682623
ID_e88770830,0.15068034827709198 3.1335515711473727 -3.104992628097534 -21.994969256744103 9.717836873609313 55.885993950758056 0.9632321387448648 0.15055540204048157 3.1365717451378807 -3.09913969039917 -22.704253387056504 14.103385564627002 81.60636756750368 0.9529847298972112 0.1501513123512268 3.1150191858428347 -3.093087911605835 -21.331626068377478 14.926054132172487 87.11121092675225 0.8004282763332717 0.15077297389507294 3.1048947310389696 -3.0986275672912598 -18.772291400792753 16.22215309968637 94.63765035508172 0.6258277040215132 0.15975841879844666 0.07218352757815324 -3.0895371437072754 0.1966331206531 14.416177530277963 77.67252932427422 0.6526094043161366 0.1548711657524109 -0.04407497672161813 -3.10254168510437 1.4497946104502817 15.208547607735039 80.49596558449761 0.5068206174764072 0.15778414905071259 0.04107474109175749 -3.090461254119873 10.007966166222797 8.231626659391852 39.8813446625344 0.8063205353924416 0.17190034687519073 0.04652088286823089 -3.07110595703125 11.957918261140101 8.072472286885183 36.96116353498735 0.760165313097921 0.17426280677318573 0.03703716531420625 -3.0734400749206543 14.161145720310474 8.537276419532025 36.73810649415019 0.9334341420325805 0.17330041527748108 0.03137523496757608 -3.0722808837890625 11.539725457040271 6.4012184739336 25.84986984733559 0.6185389102308344 0.1575576514005661 0.003899469636044 -3.08453106880188 11.625389745728093 5.269610988015413 21.06336331517421 0.8421725699411938 0.15937590599060059 0.00473132410130158 -3.080775499343872 11.179614324576445 4.2397264391528875 15.473474688333432 0.8722827156821162
ID_5eb629235,0.1596202254295349 3.0944920069763557 -3.103309154510498 0.05070206742407107 9.424619278360732 48.727898904998646 0.8187142182372332 0.16414590179920197 -0.011904702227138256 -3.0950121879577637 -2.8030823916073504 7.515748590246363 35.99577867005515 0.5288775998111612 0.14712701737880707 3.1255178980057914 -3.116342067718506 4.528346779223901 2.7510533114182802 11.765106767449002 0.8083816393004392
ID_3dc4de7a4,0.1537698209285736 3.135305853992135 -3.1163158416748047 -14.336617611588625 8.435707539355523 49.013276244330534 0.8776905542130945 0.1535618007183075 -0.004661776573848559 -3.0947580337524414 4.680701895440334 9.02124370444001 49.504931045703195 0.7336741883956777 0.16449445486068726 0.029735082168221665 -3.0743274688720703 4.898305667788495 7.620642531256277 38.645960995872365 0.651443147183563 0.15816174447536469 0.004543441483669543 -3.0843915939331055 4.6460867346804315 5.075966409982318 23.075108230149517 0.9550429576656915 0.1525159627199173 0.018230791875153113 -3.092095375061035 4.9584513171821865 3.429051852889691 11.109179258377186 0.9683844366009814
ID_298d74636,0.15377934277057648 -0.019231111707867482 -3.0891735553741455 -1.5119817896004395 18.21095259404379 103.74189526774964 0.7991316313180784 0.16363613307476044 3.125842738411385 -3.1034352779388428 -11.491079016435684 8.948450564495639 46.89133412699835 0.9371298005813794 0.15638835728168488 0.021504422576627234 -3.093078851699829 3.32192117899262 12.807512572473073 69.32143019770436 0.5579296218937319 0.1569814532995224 -3.1404263848338343 -3.1150689125061035 -11.020646564565627 6.527417343286408 32.13110801061287 0.9407710070635561 0.1547408252954483 3.131804988198608 -3.116922378540039 -10.681536079835597 7.805328168719188 39.20012479700389 0.9751608072168628 0.1576552838087082 0.002385449589194761 -3.093937397003174 -2.0065464079221793 6.717985123415211 32.006400640944676 0.9616439296815026 0.15123672783374786 -3.1411735795128295 -3.1191043853759766 -9.60594531944504 4.92322897076186 22.57243995858629 0.6285527647461105 0.16360852122306824 -0.009790967415390673 -3.0953292846679688 1.5114436041321693 6.783978576932314 30.35678352749629 0.692086231753458 0.15898342430591583 0.024664837942143105 -3.074259042739868 5.74926002173029 4.1705182550778925 14.93716388943848 0.7509250712020161
ID_521f0b21f,0.14832273125648499 3.1309799652264005 -3.1195945739746094 -13.94009655900902 4.705376148619866 25.2354081219792 0.6351563465090077 0.15677319467067719 3.114048242028256 -3.1091318130493164 -15.75804821354938 7.191399900941459 38.411434181171046 0.8184101722435619 0.15001609921455383 3.1099163436958013 -3.1143317222595215 -8.889855748962166 8.318201511775502 43.87841998875251 0.8151218732286574 0.16137005388736725 3.1046031662319664 -3.104027271270752 -11.75984766085198 14.252275410505518 78.16040483432381 0.8005914957419825 0.16279952228069305 0.05358847063978927 -3.09179425239563 -6.72292781105871 14.323959541699926 77.23840144915211 0.7227622993048656 0.16113510727882385 -3.1055891764880306 -3.1245064735412598 -11.888450447416895 7.434780639381381 37.33928298214726 0.5175645613913531 0.16826914250850677 0.0023873181461221884 -3.1061434745788574 -2.4406841171454112 8.341739916621316 40.99666122896415 0.543838060550047 0.15610557794570923 0.02268017127816185 -3.0847606658935547 6.13196641208518 11.55111230569733 56.87304570789061 0.7358032253221115 0.1624903678894043 0.06328405352499555 -3.0770983695983887 15.094152162922063 14.92737684553014 74.22780065764829 0.7367264101776102 0.1613025963306427 -3.1150787393724477 -3.1343963146209717 -12.001180520106393 5.443129603367407 25.45864789203862 0.9754250322827945 0.1617523431777954 0.03416546209930094 -3.0807607173919678 6.437944826467087 9.063311273381673 42.02829269610283 0.937985711262872 0.16003713011741638 0.0479820510689031 -3.0839285850524902 15.687978138666693 9.31625820776316 42.8146610095815 0.5537112101033222 0.17245197296142578 0.04605405482716945 -3.077186107635498 8.294346751641394 7.347526430123113 31.593945622479687 0.885049334257813 0.16314849257469177 0.02223361774070553 -3.0915403366088867 9.20271515319064 7.249246346418113 29.80954583577373 0.9703041439713397 0.16457320749759674 0.03982123640645229 -3.081193685531616 10.306391076901122 6.5170822004180815 23.910160479200037 0.7723366450421788
ID_f83fe5925,0.15786112844944 3.1115518222911485 -3.1200380325317383 335.51505417492615 281.0773636360769 1557.6357895044944 0.7966892117740954 0.15591935813426971 3.1267334970686744 -3.1156258583068848 3.876112401496445 7.069390145053593 36.109749818989854 0.9419660487848699 0.15951098501682281 3.125365760006914 -3.109666585922241 6.695610324257238 6.826657801888446 35.48175692561841 0.6224294000446977 0.1421656608581543 0.05388241363662541 -3.0827889442443848 -8.06832302832073 3.7452902508909607 18.29223632816514 0.6578816913611917 0.15352456271648407 3.1209981061544165 -3.105893611907959 9.414056650624238 4.791691114336375 20.41293978693998 0.8453863690849556 0.1505134552717209 3.133194011181896 -3.1087775230407715 9.112596300785418 3.653402513887324 13.802331686044797 0.877260647844752
ID_818a14ac7,0.1414118856191635 3.1325560618882275 -3.1092047691345215 -27.699446030181694 6.4688821299105825 40.4073894024293 0.8158004563284023 0.1414114534854889 3.120932291197969 -3.106289863586426 -32.30161114769585 13.225865210262047 82.64127403542571 0.9179951991499201 0.13985726237297058 3.1077813172039663 -3.0995545387268066 -30.116266322982963 13.183250869479881 81.3586968431767 0.760967121105494 0.14440669119358063 3.115663838010918 -3.094212293624878 -33.89292999402778 16.670648116233778 104.34131025318868 0.8601080270905164 0.14869706332683563 -0.009668462527983543 -3.0930304527282715 -1.0101746054031682 15.716317296063668 90.29803882477776 0.8623545834626427 0.16348007321357727 0.0032427396866045576 -3.0870914459228516 6.511205434816961 8.063348382722745 38.55547856610378 0.8696157501935093 0.15979477763175964 0.008199970256001759 -3.080258369445801 8.658696895134133 6.93970397116858 34.16861295703626 0.9204369462622025 0.15541577339172363 -0.0017273695022428715 -3.082427978515625 13.818196562405012 6.181538248937566 26.44332647326631 0.7396257168214279 0.1596881002187729 -0.2344415127637406 -3.0916712284088135 11.912108525260393 5.137383564987438 22.13138387725441 0.5233679681776906 0.15232297778129578 -0.0005641219497243966 -3.083986759185791 2.0974114314803143 4.3284781718403 17.325020393066833 0.9514805673180174
ID_124673c47,0.14991848170757294 3.1223898273258666 -3.1095354557037354 -49.31243299460366 11.645339422652013 74.09564732640135 0.904593926122514 0.14660970866680145 3.134075592908364 -3.11421537399292 -38.8683647301168 11.511551231046989 72.70534048913018 0.8581909175009063 0.1423713117837906 3.138021876329827 -3.0992846488952637 -39.01100568679328 12.335284586741695 77.6269973361303 0.7448374212477311 0.14789846539497375 0.007685407977293044 -3.1045351028442383 -8.123132281887944 15.51035355448571 89.02282129170626 0.6408392827703885 0.1562543362379074 4.277768092824547e-05 -3.0877559185028076 -6.279765120026422 3.6438966305901586 16.53023362161771 0.7059431276866871
ID_35e87c9c8,0.16017508506774902 0.01217993200183117 -3.0845162868499756 3.184564129125403 4.5425039646418925 13.70983206980067 0.9133961337945324 0.15745477378368378 -0.008132640276021574 -3.0805270671844482 -2.467299894367322 3.9245648577867582 10.880204347864051 0.7303716188478291
ID_fe4a3f32a,0.14860379695892334 -0.0029604589874675973 -3.100611686706543 2.2868260741411484 12.749746069790845 71.7961570760575 0.6768282928253837 0.15615034103393555 0.042526180461067965 -3.0974907875061035 3.442686824839298 8.347606965822768 44.25990591881769 0.6529968655619873 0.1577381044626236 0.03880096779896806 -3.079343795776367 3.034419668556278 6.843400200922471 33.246850592238495 0.6771939361064829 0.17028756439685822 0.0631255031381149 -3.078434467315674 8.805298511763509 11.43874771330846 55.82494042955558 0.8150659184030025 0.1571991890668869 -0.0007590652874711976 -3.093238115310669 6.94631532969967 7.662055604639965 36.64261187947077 0.7013381980894351 0.1464782953262329 -3.138990586630708 -3.116713523864746 -5.238372570351983 3.120465834927742 13.25929909947138 0.5533445366266688 0.1575581431388855 -3.124370507931952 -3.1286911964416504 -6.155301783190085 3.842076286707936 15.547269673193538 0.5762654706841898 0.15861910581588745 0.04007326169561875 -3.0808591842651367 5.730842400016659 5.132107107997857 20.62749117616574 0.9320966512114388
ID_b4803dad5,0.16311834752559662 0.07065621361323 -3.074367046356201 1.7720862187741682 10.907990066347228 58.22719247074877 0.5482943484087446 0.15746381878852844 0.01921894602506173 -3.083491563796997 2.4797090393982675 10.008418331280847 52.527350291034885 0.5530481271929046 0.1487051248550415 -0.10280081954920098 -3.089172601699829 2.9493578564829193 8.741149225701424 45.685872539300995 0.5355436206904807 0.15884163975715637 0.004619066130135945 -3.0836806297302246 -0.7163833128415864 5.317016724242031 24.083945155179272 0.9177698987328872 0.16130787134170532 -0.0038718097438825345 -3.078256130218506 6.150895561000757 3.4913906417557263 12.502652406727158 0.859723120655849 0.15685690939426422 -0.006128767340146271 -3.085991859436035 3.404841958132757 3.805949646739185 12.969362735769444 0.871394363004937
ID_8edf7f1e2,0.1528491973876953 3.1080403125618075 -3.091749668121338 -27.267807199435843 11.393953942052535 66.12758903731748 0.5971142565928901 0.16702604293823242 -0.03754037110334073 -3.101320266723633 14.482624669086071 6.649151444467079 28.525057435065197 0.6909234492866164 0.16379642486572266 0.0026956514634579936 -3.0807790756225586 -2.6578243006665394 2.801675094987348 7.95736238363812 0.7306312591096378
ID_32f8110e0,0.1412123143672943 -3.1397398603648954 -3.1062934398651123 -70371282.69254732 42408667.27454283 272781661.50431395 0.9258563006826005 0.1423426866531372 -3.1294876210093645 -3.0976226329803467 16.665398402260635 -12.049140096860318 -79.0493422348524 0.6052130622322511 0.1362551599740982 3.119156120922343 -3.104968547821045 -71644908.35008581 58642011.234999776 369425990.1215196 0.6676866297304648 0.12939129769802094 -0.0068965933377193415 -3.093956232070923 -6.913553164347712 15.276198871816524 92.1618298303049 0.5918623902557781 0.14285309612751007 -3.1249812546253013 -3.1165127754211426 -19.11552764683626 5.498305715777176 33.91571938995099 0.8690809724314328 0.14449796080589294 -3.1273480419477404 -3.112905979156494 -17.52519733911504 6.036042182962949 37.155571579968694 0.8824692884377537 0.15218666195869446 -3.1019188791992964 -3.100613832473755 -15.194898989928713 6.294914489810738 38.44945132735944 0.5486103483446108 0.15065377950668335 3.138758401240876 -3.1026201248168945 -17.473364267012442 9.312588203956608 56.76526571741437 0.9717140523506522 0.14815309643745422 0.003282749652175162 -3.0875563621520996 -8.909935372740675 14.129550162683554 84.07012396749093 0.9167301195303943 0.15037845075130463 0.0025376811359056855 -3.089353084564209 -1.9889689402869386 7.849386933409792 43.23686032523557 0.7307944437425437 0.15073753893375397 -0.008413909867099337 -3.089963912963867 -0.9681735207892042 6.115755552372903 29.699799418484936 0.7417481470516996
ID_c441a81c5,0.15229915082454681 3.1364770325759173 -3.1048388481140137 -7.571461675191316 17.93817281726576 104.7684135221603 0.7941079153534555 0.14941677451133728 0.0180788618041478 -3.0874626636505127 1.32016464950709 18.171271681821118 104.47514977694016 0.8547847235169141 0.15859811007976532 3.139229003927092 -3.1181440353393555 -10.760167169675949 8.288674585161202 44.42450366653178 0.9582487685184692 0.1638970524072647 0.0281938171327699 -3.065338373184204 6.066816770913725 3.224368153972773 8.782137930422937 0.5410154888318518
ID_6f1cbf7b8,0.1460442692041397 0.018492132694683423 -3.086967945098877 -13.019685975584261 10.590042520004795 64.32278752330643 0.9311293522067424 0.1453576534986496 -0.020308671029999493 -3.0882177352905273 -9.868104757734006 11.999546877604002 71.5833045637583 0.9207241824761064 0.1449117511510849 0.00691226494472499 -3.0906174182891846 -8.906709838371677 14.265016026930029 84.84841407608096 0.8328219042694045 0.14481520652770996 0.01344329093950818 -3.088442802429199 -7.44147391500812 14.020019167299294 82.97592276734318 0.7325652522449013 0.13847775757312775 -0.011896273209771943 -3.0989270210266113 -4.834112553618492 13.935177129123236 81.68320863481988 0.6281466975660294 0.1471874713897705 -0.008493800952699733 -3.0832901000976562 -3.0227014892474813 18.067704260112315 105.63921531964363 0.6638201807599795 0.1404666006565094 0.03951725439076336 -3.0945329666137695 -17.456561551650175 6.581152230523598 38.054144382512334 0.6713553291909679 0.13922378420829773 0.006740541041346035 -3.082145929336548 -8.337258389962997 4.747255171267926 27.206847985445528 0.6987215833576049 0.1622011810541153 -0.028775962421370833 -3.0870742797851562 -5.067830487376735 15.53141347399976 89.95237953161826 0.6716972648917184
ID_5b0b480bb,0.15503954887390137 0.01190292357888525 -3.08744478225708 -2.232041176946771 4.635383361688714 21.03379368785597 0.778771637128004 0.15237952768802643 0.03178397056657783 -3.0995020866394043 -11.015258299632388 4.135877885167916 18.0353088301499 0.9461456309139024
ID_2710bd411,0.14350208640098572 0.0020707706570673437 -3.088715076446533 -20.826106267536975 5.8865071005114045 36.962038278612184 0.8884632360240222 0.14628833532333374 -0.007987031294816191 -3.0878772735595703 -22.500517805384405 10.544847697043608 66.12715152035385 0.8466462627056492 0.14753274619579315 -0.021469032358812853 -3.0894153118133545 -27.05028105456272 15.715964138525608 96.78842309094149 0.6342385913846958 0.15874998271465302 -0.006875404925083272 -3.082683801651001 -12.368246140234922 5.464173784538986 30.89528381828047 0.596148928216058 0.152670755982399 0.031068769133947412 -3.0954079627990723 -1.4616752751911852 20.3079159781922 111.21383477399986 0.6599329226962081 0.14989033341407776 0.006416251372660976 -3.0839874744415283 5.546625168004729 12.564973880136343 69.3496975693385 0.6836111660621599 0.14868126809597015 0.023458871157111063 -3.085996150970459 6.664462718558339 5.579213915003124 25.378130222526302 0.902539496757191 0.15883959829807281 -0.01609710231316676 -3.1021695137023926 9.760895996674636 6.01951218487783 27.307444810902844 0.9174443777626885 0.1472465544939041 0.0022051883374202687 -3.081573963165283 -3.49996536158972 4.09493438627104 17.426934838330517 0.8863826899936531 0.15549249947071075 -0.012957046683067347 -3.084620714187622 4.67774801630278 2.7952146966164055 9.505299073909791 0.6627113063760998
ID_e9e080023,0.1415165364742279 -0.007310955785218606 -3.0836563110351562 -23.808474416124053 12.231295586873395 76.22931470963093 0.9564135268035829 0.1423097848892212 -0.006680491600869731 -3.0938844680786133 -24.556966940742704 14.620046378099383 90.87082754014031 0.9295550392920259 0.1440892368555069 0.015869717695421105 -3.094222068786621 -23.069856521839775 15.041248500377796 93.13755940315724 0.8245672260421782 0.14192214608192444 -0.010814158585028303 -3.0988993644714355 -23.04105172346461 19.96498603983753 122.73829673660642 0.598337266502307 0.13581758737564087 0.02142155833543594 -3.0909135341644287 -4.572526158950168 17.746564161919114 104.20431304429496 0.6299661860794097 0.14326933026313782 -0.0061207052547634045 -3.0868306159973145 -23.90832319154109 6.06683000877425 34.861308336284566 0.883277630138243 0.15149468183517456 0.0016657777520005033 -3.089883327484131 -11.578075670986232 5.353238955151835 27.973675201964987 0.5588242465246223 0.14681003987789154 -0.005170738978871531 -3.097848415374756 5.242797438958559 8.112918824848792 42.692569001894164 0.6569366479550922 0.15256711840629578 -2.1128667312743588 -3.0924668312072754 9.339806438505748 5.425812008990215 23.321199417152954 0.8621381307925123 0.15648125112056732 0.0011373903815673802 -3.086337089538574 5.592826192471604 4.705644398959046 18.96943741280058 0.9603686286620787 0.14737990498542786 -0.010135730507365244 -3.092761993408203 -1.8665781498539074 2.2885300505856034 8.755719814836327 0.6309579241063328 0.15211613476276398 0.003206385406463124 -3.0775504112243652 5.709067838163836 2.734011511712625 8.451400697264688 0.5228564028297894
ID_04ea999fc,0.1604502648115158 3.1161762395338406 -3.0998177528381348 16.831360268460458 16.264503652499656 88.93409609513951 0.594426605734561 0.15420863032341003 3.1001978845556337 -3.1081206798553467 9.069718627331042 5.998199070313797 32.69354977745092 0.5025009109714751 0.1569623500108719 3.127167392040601 -3.095522403717041 4.547840671532956 6.367510718125746 32.356844205024665 0.5124291093371647 0.15757493674755096 3.133298919654286 -3.10231876373291 9.134592621230766 4.207030290030399 19.823650648502372 0.5845824352191382 0.15974561870098114 3.1108792803418406 -3.1010847091674805 11.039440424761562 4.072427799370329 17.532494104223435 0.6442997392649263 0.16120892763137817 0.0037506973211464643 -3.080280303955078 -4.74060782794702 3.4344568894126053 13.005514442955219 0.852658661009488 0.15708154439926147 -0.01004682324386468 -3.0838570594787598 -4.87318816936092 2.7835320681552593 8.380480110670426 0.7838265910296437
ID_5510e0e03,0.15245266258716583 -3.138269677662629 -3.1061959266662598 -12.414212328097225 6.5764231925681385 37.329234137401485 0.9239275040148194 0.160026416182518 -3.133364030877749 -3.100414752960205 -9.348613223367225 7.702856280858784 44.17573474086497 0.868771494885243 0.15942011773586273 3.1073752575402187 -3.1165385246276855 -10.4357184517888 11.808408182343669 69.52173208613952 0.9171940564819056 0.1474558711051941 3.13971996505325 -3.1048836708068848 -6.950750958679044 13.278412665096031 77.45277197094713 0.8855658179795601 0.1507190614938736 0.01505155375859016 -3.0857439041137695 1.1680649131491816 13.041882487986012 72.17020303936754 0.7907062925898455 0.1544044017791748 -3.139352241849517 -3.1150002479553223 -12.35195158986708 6.02239321658962 31.705601359613183 0.9817902332865104 0.16054773330688477 0.0467791085128897 -3.0771684646606445 3.1508023936607614 11.39609486287926 59.64863798683612 0.5069466693349741 0.15963812172412872 0.003579693543944358 -3.092503070831299 3.4082561782823504 10.194743621424374 54.288934776504384 0.6996341907331627 0.15334805846214294 -3.1414425392843897 -3.110259771347046 -12.781144710611377 5.350831467193802 26.24644935133468 0.7254303833720716 0.1541510373353958 0.030158139765722146 -3.081517219543457 -1.1911088747825065 5.611892693703603 27.47428263651171 0.656573943668035 0.15140007436275482 0.03852461348912763 -3.096158504486084 2.9590316335749343 4.959389194882611 21.092115188804378 0.6678955781777594
ID_d4d060b51,0.14593683183193207 3.138658472572827 -3.1095218658447266 -26.110261496187764 11.188848152962564 69.12241739760867 0.9278374800508454 0.14759905636310577 3.130569900754693 -3.1051278114318848 -26.265770623669205 11.82045659398998 74.95444608751609 0.900808608541778 0.14538046717643738 3.0873557973162216 -3.0969858169555664 -29.37767151019865 14.199156905379997 89.26628351983017 0.5000756050212465 0.1429940015077591 -3.135397555358966 -3.0847883224487305 -27.03879563593668 15.750361825156343 99.048724080917 0.7336782149419471 0.15398406982421875 -3.099312990458757 -3.0939853191375732 -24.536854308903045 6.061973493250432 34.7023500454099 0.9679119427817195 0.14856381714344025 0.0048459493792608575 -3.0874640941619873 -3.8710874094555203 11.282753199374444 65.3944385127859 0.9593867254927028 0.13996869325637817 0.007607521767960382 -3.094966173171997 -0.6651533745734586 13.119540498420488 74.14048422819533 0.5938132093051176 0.14243297278881073 -0.020658967540270544 -3.102295398712158 -0.09105502385767363 12.11174753211844 67.36704435608011 0.726549301399816 0.17070402204990387 0.048950468311630455 -3.0723772048950195 11.740646115342638 14.420422757833238 75.46001671795614 0.5027265153524385 0.17003487050533295 0.016779523780775688 -3.0688860416412354 11.051305773637914 11.070658474873378 59.43604436161041 0.7957886781129839 0.16455604135990143 -1.129267807732839 -3.090437412261963 25.784081276792808 12.191503202145066 61.98870089399904 0.6037294794175052 0.15862339735031128 0.007930446506637122 -3.0955710411071777 -0.41266808999993376 6.755185127274837 31.899759363426377 0.878727778620017 0.16428525745868683 0.0076522911095457 -3.077308416366577 12.22600012803147 11.024909685546762 52.32946891239926 0.9127812049741474 0.16275033354759216 0.018423318911900792 -3.0818567276000977 13.639962259308023 10.408722609299305 50.94289802525687 0.7935650962617496 0.16886524856090546 0.015007939871370645 -3.088564395904541 11.985973714465242 8.139260613177408 38.86483743302835 0.8296559025799595 0.15775978565216064 -0.02300972836079352 -3.092438220977783 2.869943241567747 5.76267984905136 25.554203679460734 0.9300551036140986 0.1642211377620697 0.03158265958914904 -3.0954079627990723 12.274886295758373 7.6240378217789715 34.608487631049854 0.9662451078064006 0.16162796318531036 0.004577559956723327 -3.0917468070983887 13.98732343842123 6.653847712014746 26.755586266541233 0.9727196511096602 0.16244590282440186 0.009993994026643143 -3.084320068359375 13.530349501009173 5.457406136657375 19.58611905577633 0.8831878316739996
ID_c8a27d85f,0.1583639532327652 -3.136479532977616 -3.1166598796844482 -8.940958646504097 5.360274076685158 28.053379058873425 0.9685644321280137 0.15436212718486786 3.1404848971489727 -3.119938850402832 -5.197575845074613 5.878673587545 31.387110009101388 0.7387448918024789 0.15789175033569336 0.028933750262018162 -3.0749671459198 4.411837423677077 5.152593180573828 21.89799233790945 0.5246529945301321 0.15671424567699432 -3.134855628423774 -3.107248306274414 -5.605763978000041 2.850075034408365 10.253077517665162 0.8153751619083518
ID_7ce563e3a,0.142865851521492 -3.1299894976835985 -3.09092378616333 -25.76806127220866 7.346297602751475 42.2889394254085 0.7187083430460379 0.13779889047145844 -3.1334539917668485 -3.096768856048584 -31.164789248963334 9.648009237574728 56.761318407654116 0.5216840953511944 0.13860346376895905 -3.1412066515153927 -3.105041980743408 -16.50445728455009 8.428325350216369 48.805938507285816 0.6292982284190752 0.14735043048858643 0.0011637767517227162 -3.1052796840667725 -1.5493199729702762 9.869092269328025 54.18213616250055 0.7808539151533114 0.14561277627944946 0.0010108538156815934 -3.1011905670166016 2.97361986163791 12.000873249245405 67.24456455790427 0.7586225279774347 0.1446438878774643 -3.1309832427934348 -3.1267480850219727 -15.26325251022215 7.264354079989978 38.01356091611717 0.8608380933679698 0.15189778804779053 -3.122494122739259 -3.1191885471343994 -12.528100932323174 8.184929035729587 43.503417029245526 0.7042788070282653 0.15011641383171082 0.03109543881473008 -3.091855764389038 6.257303804177335 8.597414059161494 45.40386806841506 0.8884334896985975 0.15409539639949799 3.1315370887933405 -3.1062822341918945 -16.363852682724747 4.562530830508432 22.36415296796 0.8524038888819946 0.154481902718544 -3.139710328121139 -3.1097214221954346 -12.637167866182828 5.255272121249188 24.531729570305334 0.758819872764864 0.16256606578826904 0.030192108629908156 -3.0777177810668945 3.740466819915184 3.747871576504373 12.76081502439951 0.5431188821004669
ID_b4bf2f347,0.1390461027622223 0.02503758461343469 -3.08174729347229 -20.04157739716157 7.68018811950184 47.72865668070601 0.6536829457612614 0.1399669498205185 -0.002101361771148161 -3.0836660861968994 -17.789941508145954 8.246984164641 50.31510735982979 0.817548655506234 0.13986174762248993 0.008055949429096449 -3.1010754108428955 -4.176889369750436 16.254230946624478 95.23543030603932 0.7750373464378572 0.14726659655570984 -0.046947483405537144 -3.0710606575012207 -20.518220362754235 5.773847621902321 32.848641276384214 0.5292199495529952 0.14972779154777527 0.00121885587518809 -3.0941669940948486 -5.263864206652673 8.750128686564429 48.825388261993275 0.9599312808593772 0.15110424160957336 0.031488853006094664 -3.087819814682007 4.723313839697131 14.627879718416562 82.51870870593763 0.8222149353025594 0.14857903122901917 -0.026573994435663842 -3.1009464263916016 0.6547729949495477 6.747252340827664 35.822188957910704 0.7786695828458009 0.15847723186016083 -0.002970343688261894 -3.087217330932617 -3.0386471119971885 2.6929629484835393 8.061558425334562 0.8601557511959873
ID_dc7d38630,0.1534760594367981 0.0015358455562175153 -3.0935754776000977 -4.188509254743614 7.030835179252236 39.02792666286291 0.8644808015736677 0.15026313066482544 0.025631579042108533 -3.0904953479766846 -1.2509472668065869 7.449135817433972 40.92794790382109 0.6889887892203574 0.1598607897758484 0.01762325194298515 -3.0998454093933105 1.145322347835151 11.513493626324985 63.38709007142083 0.5895804618143944 0.15526969730854034 -0.017413779079987927 -3.101630926132202 1.9005753448734326 10.334190394524656 56.7018524174321 0.8064640697531246 0.16036494076251984 0.015504054681369799 -3.0908043384552 3.303777740027182 5.808093648612323 29.493462731737345 0.8363336818759884 0.15627604722976685 0.009254986438308558 -3.089571714401245 -4.730639381930492 4.465153068340214 22.051866274888873 0.9254006033049413 0.15831054747104645 -0.018761187525220324 -3.089033603668213 4.34292857363527 5.148188654922207 23.342750966584454 0.6141126444593821 0.15257112681865692 -0.005912985558069112 -3.0948710441589355 -5.087985366673735 2.915818476257134 10.450142622027993 0.8057320201115845 0.15819014608860016 0.02263738684832352 -3.086963415145874 2.2427968306209496 2.8285479896621193 9.669814258849712 0.9118702315086935
ID_5428a3a8f,0.16209319233894348 0.03837806202674252 -3.081138849258423 10.54850980529264 12.559509485688338 67.27187545027034 0.5754277967799164 0.16568957269191742 0.012768092518923272 -3.0824570655822754 10.776875974209627 11.812794416868758 63.78269838420744 0.5699934018600836 0.1627800464630127 0.026036641266256186 -3.081916332244873 11.63392027749359 10.29340791004897 50.773966610880436 0.8717222215510891 0.17504149675369263 -0.04616501697624805 -3.088892936706543 12.802679539912305 8.3692985244007 37.78631831634126 0.5239328717503667 0.1562710404396057 0.01539948450410953 -3.093451499938965 -2.763252705319129 4.28125333001001 18.21395009757865 0.9626838985458881 0.15641358494758606 0.0130558311446521 -3.091679811477661 11.188705505765599 5.716138333106533 23.315575718913266 0.9147405838822148 0.1647714525461197 -0.007244486722128502 -3.083829164505005 10.299869473088284 4.563640665524751 16.35333597663581 0.8210963697761876
ID_beb50a6f0,
ID_910d907cc,0.13681171834468842 -0.015153884925009619 -3.080465078353882 -29.90163527277027 9.331042411017366 61.40387058261609 0.8740877718547231 0.14400871098041534 -0.03726158790971801 -3.0942435264587402 -22.613344695361377 6.10266487741845 38.04315328601575 0.5541556930531597 0.1389366239309311 0.031613749418722914 -3.0926969051361084 -92.96120602996372 246.08105392338516 1480.6117908464598 0.6768059583330182 0.1442599594593048 0.007954512329613838 -3.0832436084747314 -6.804992737910145 7.752189515490951 44.64628309937273 0.9177128065496074 0.15072481334209442 0.016786800502210965 -3.094743490219116 -3.954050016881323 3.8469105390715463 17.423534393345996 0.6647561463595333
ID_7973af9f9,0.15115077793598175 3.051174087762418 -3.099170207977295 -16.55943111154611 12.114034593159037 69.88182683694977 0.6019199265578886 0.16748778522014618 3.101933750444409 -3.1153688430786133 -3.662228895753008 11.46235051797883 61.29055033562677 0.5406415973576736 0.15095177292823792 0.014238605472980335 -3.1030619144439697 3.2436128305759477 9.89309387163212 53.31536578262439 0.6413859783751303 0.1609204262495041 0.020498443770171737 -3.090580701828003 6.054632311263339 10.319288319618806 55.69252491758741 0.7859602335101499 0.15558618307113647 -3.1302075975488783 -3.109222412109375 -8.373339892843235 5.9220351075169795 28.454528595140914 0.8088252171071394 0.15722894668579102 3.1384908388571486 -3.1108264923095703 -9.208498444503451 4.353329479658926 20.116094211666542 0.7736042990025811 0.15325576066970825 2.5525710730512876 -3.0989723205566406 3.9627633550039683 5.116758734498821 23.191560651031246 0.8205650909634605 0.14941655099391937 3.1246801970530385 -3.1105055809020996 -8.325522960664058 2.991165593302371 12.730920305402774 0.635591033330348 0.15191780030727386 0.020126358506410168 -3.0899288654327393 0.9013275899433149 4.360013634241548 18.52035209056448 0.8987300265052841 0.1604222059249878 -3.130730395661019 -3.1189417839050293 -9.520333064991277 3.5469425443615687 14.506645571430948 0.55304482743605 0.1526661068201065 0.012205737299443796 -3.0870602130889893 5.745427174855268 3.720974601097237 12.062267959154688 0.8980976481661709
ID_f765cad92,
ID_ea4983b8e,0.15687724947929382 0.041784915102751195 -3.0810320377349854 5.523902658818633 11.104200196720365 58.19320590236268 0.783103077760383 0.16912731528282166 0.045991583407653316 -3.0647029876708984 5.385815894098465 8.829489817756695 43.758969444955305 0.8335371648356278 0.16805759072303772 0.023009425600218205 -3.062533140182495 5.19674383584806 7.310512506616017 32.72425915634913 0.845866946746512 0.17100544273853302 -0.004705364832389946 -3.080066680908203 4.8738162901290805 6.124864141732536 26.18521585576866 0.885554436068769
ID_e3a9cccfb,0.15498943626880646 3.139555123382099 -3.103360176086426 -10.939020830042026 9.602388459192985 54.111152991037535 0.8554175237929215 0.15531596541404724 3.141285641842609 -3.1070382595062256 -9.374307892180115 9.761130273571853 57.108773000802465 0.9123086977538772 0.1632399559020996 3.132772797157591 -3.1073389053344727 -9.932883070672196 13.876213133370644 79.31613237591539 0.77951235409189 0.1583361029624939 3.134839317535823 -3.10446834564209 -7.707098747900877 15.309803187882668 87.63363916299033 0.8732433260263408 0.15991875529289246 -3.1413034671001694 -3.1061201095581055 -9.88646325261679 7.206662012659609 38.410995855239385 0.9323511521723354 0.16474361717700958 3.138791363202272 -3.104825019836426 -10.129612936282976 8.347090059636544 44.7378989282963 0.8988682319373784 0.15064643323421478 -3.139347289600683 -3.117985248565674 -10.482422652221143 4.486710256043276 22.186493149664326 0.8996230681763958 0.1566695272922516 -3.1346628462891357 -3.1100494861602783 -10.842323272698348 5.7788107343749235 28.295123577147102 0.90377048290718 0.15472953021526337 -0.034047678002865865 -3.0880954265594482 0.05326058310967109 4.696708250003571 21.301533281838665 0.5987826847996349 0.15357662737369537 -3.137094063513806 -3.1230828762054443 -11.461630541502508 4.193876305510975 18.354704574740467 0.9771625610295336
ID_fd8ff86ab,0.15179575979709625 -3.0984810467399355 -3.097846508026123 -21.09903572939014 5.379937895903482 30.765017867119674 0.8856915175685581 0.1502925604581833 3.136971713254276 -3.0921480655670166 -10.837320647142416 4.814847585589722 24.570016562961726 0.6268945314441271 0.1553967148065567 -3.11567584211189 -3.10355544090271 -13.312241851270056 4.709101460065244 23.002044856588853 0.7489507759701097
ID_822983735,0.17048104107379913 3.0738089311263885 -3.1116232872009277 -1.3045844468489585 8.305494010316849 40.80550037059351 0.6564681233208227 0.1675759255886078 3.1065344556517194 -3.1150217056274414 2.524252818475002 8.043131787376556 38.190955027322936 0.6187859551522608 0.16788312792778015 3.116470752213549 -3.112236976623535 3.997047794904135 8.620119831457359 41.18430624840753 0.6011587950706975 0.16510410606861115 3.0887207680967066 -3.1125669479370117 8.233892943775878 10.828347208079975 51.87371391705319 0.9691623837652025 0.16162903606891632 3.074196527643831 -3.1132636070251465 13.039019911424587 12.991054854941442 63.7734403475396 0.9507838781543388 0.16503608226776123 3.0693188297240446 -3.1089963912963867 16.764478359367722 13.714665305591225 66.50403701492158 0.6071279969434464 0.17449162900447845 3.04872359579668 -3.115339517593384 16.616222774499878 13.01502261130871 62.407505502746176 0.5211892853908737 0.1617773473262787 -0.3121959065983164 -3.0878419876098633 27.10592118151782 10.68149339647543 51.63887739185071 0.5372299019139766 0.1629723161458969 0.05476191267984361 -3.0756051540374756 49.736351585877806 15.092831958509313 69.0520615470171 0.5165589861694397
ID_70a367b7e,0.1314200460910797 -3.097926166284276 -3.080657482147217 -62.555065634374735 16.876681357332274 113.48145614506531 0.5262524840776718 0.13603539764881134 0.06047800844937134 -3.098228931427002 -24.749657303327417 9.416910260951287 59.50187589159345 0.7556447256197535 0.14278057217597961 -0.03063328522913908 -3.091325521469116 -38.75466903385685 21.717441082036267 134.78782783391196 0.5812416939320493 0.1422823816537857 0.01650077087137071 -3.0932939052581787 -29.699699451562992 18.89037325494191 115.99002988078861 0.5454171892010542 0.14823029935359955 0.03230259957284034 -3.082561492919922 -20.820693563224403 11.111842840935651 64.22245646948386 0.677097924707656 0.14952147006988525 0.0013007440938942348 -3.084196090698242 -5.211495111282202 10.071185231244332 58.427176144120416 0.9411099754774367 0.15580672025680542 0.02270767095617514 -3.0892996788024902 -2.0415978620851383 8.741295530821638 45.112585136611806 0.6860343651481201 0.15404658019542694 -0.00417735281781259 -3.1069018840789795 -14.615406088151873 4.491328019280759 22.194959052186213 0.8040810674571932 0.14963006973266602 -0.008604304477977909 -3.087961435317993 -3.0767085420341855 2.9604148434582305 11.274782847083976 0.7643798038940224
ID_8ddd4a836,0.1481245905160904 -0.04834012731198253 -3.078230857849121 -28.335186045897053 6.559071515514781 40.414842963254216 0.7730466252113445 0.1475830227136612 -0.0030688061191161725 -3.0839662551879883 -36.3426823170123 12.217315685677466 77.1995563608773 0.9465099365797284 0.15085002779960632 0.017760813116595775 -3.090893507003784 -4.207445740415047 15.896169957685323 92.66090959309413 0.8590700360157544 0.1506119668483734 0.03581098467809975 -3.0858571529388428 -1.7029289657740407 20.479961349727688 117.81020807374925 0.6088925770464935 0.15583913028240204 0.008701512997862804 -3.0999855995178223 -3.8564113954953734 8.106274902854045 41.75164709923761 0.8602419524323397 0.16065099835395813 0.06888165761775406 -3.079064130783081 3.176262523676733 17.66634529907706 93.95566851348401 0.5056802316749414 0.1627790331840515 0.010132337097439003 -3.0919675827026367 -4.0227437518950815 4.444703070715249 20.511712603701557 0.806043465731847
ID_69183a385,0.16710302233695984 3.1080192184769553 -3.0965776443481445 -3.1659528957893106 4.686656496592501 19.07728021317543 0.5236452745172745 0.16868221759796143 0.0007475389008914429 -3.0856668949127197 1.4361742296054376 5.45513559412083 22.09912207249897 0.5595261154626655 0.1633746176958084 0.04513318445490425 -3.085280656814575 3.94985340413668 5.684679230123922 23.0793847334446 0.5114108349908172 0.15887147188186646 3.097672837922017 -3.0943102836608887 -8.884732764379892 4.068920857039491 15.778438790491032 0.5200563341128447 0.1625901460647583 -3.13061020521452 -3.109590530395508 -7.853450528226723 5.386632018048594 20.836000190482533 0.5281301634431163 0.17102660238742828 0.06524647759127164 -3.073378562927246 4.54757768606993 5.343167452309284 20.393573117891115 0.5073829053689082 0.1595110148191452 3.120334740451156 -3.095576047897339 -8.904729639889728 3.6494471611301798 12.704593554164683 0.6322571984798135
ID_8d2791fc9,0.16200314462184906 3.0983857179343777 -3.0964932441711426 -0.30122068154705745 4.280625671079054 12.851731587718964 0.9014875757266244
ID_84f2f637e,0.1556064337491989 3.1168326099108947 -3.1125705242156982 -10.198477028856287 9.226606522719456 48.96828196679346 0.7920459162608587 0.1609249860048294 3.1197509742298193 -3.107909917831421 -10.937290710470906 12.180140943733438 65.84826434399821 0.8953932491689903 0.1548682600259781 3.126429631457494 -3.1131677627563477 -6.371995980138545 8.701303304879513 46.35446976063745 0.9128061229475992 0.16020314395427704 3.116110228200761 -3.111478090286255 -3.507241019971909 8.795244464448569 46.23054872395858 0.9102760525660426 0.16073085367679596 0.03820343383800923 -3.0892224311828613 4.9672122960488405 10.005719805925676 53.214906761367665 0.660739659716958 0.1519329845905304 -3.1214202671650653 -3.1089766025543213 -9.307896559700382 5.359607562451808 26.334992051160107 0.8590855311763526 0.16232021152973175 -3.135470432230479 -3.108290910720825 -10.024797771682511 6.952712970526445 34.79374647140358 0.694501608785206 0.15960872173309326 0.028553322908068376 -3.0776116847991943 0.09058018814053977 7.350263649769113 36.434085349489294 0.6976882994454433 0.1717178076505661 0.05830741612325111 -3.0740771293640137 5.621881680741968 9.217466590607408 45.651948555689025 0.5840645418344724 0.17564037442207336 0.021862361426641906 -3.0778887271881104 5.948000007324957 8.674817112894692 42.96770129531683 0.6127756359131792 0.17257152497768402 0.03696339766484409 -3.0634102821350098 5.174405243616787 7.3279306292769215 33.48828814658686 0.7292938601067898 0.1662195324897766 0.03626255900215648 -3.0742719173431396 5.534137252289489 6.056377284678881 27.47553720590185 0.8469161369722948 0.1505386382341385 -3.137540464752941 -3.1067638397216797 -8.671239490979378 3.25656368159165 14.198756397721914 0.684773104636673 0.1585565209388733 0.008697094321298018 -3.0790693759918213 5.002443472222449 4.740077463679868 20.23365646604549 0.9473160447157822 0.157766193151474 -3.1399002759549877 -3.125655174255371 -11.05915639401161 4.415282287015549 18.156244438202567 0.8119989608754105 0.15982991456985474 0.008694086163144958 -3.087644100189209 5.077458445698986 3.9731394499879538 14.326707988597356 0.973825421239998
ID_6188e27be,0.14832836389541626 -3.1346097293099695 -3.110426187515259 -8.702205896803923 11.111206561344746 64.8094923388542 0.6215636654052906 0.150468111038208 3.1051735390925446 -3.11082124710083 -8.248388404601569 11.860423480917056 67.50529418824212 0.7165213530501082 0.1483730971813202 3.1400788028577167 -3.1151304244995117 -2.6843748982149935 12.082323431979292 69.14937805052412 0.8631599502335041 0.1608564406633377 0.0020132617723120625 -3.0993857383728027 6.411110777138098 11.724161047866389 61.36708182419821 0.9400455985163697 0.15995419025421143 3.1158751997419887 -3.1055431365966797 -7.353170439806596 3.8160993605591327 18.544191122089813 0.7205761064300014 0.1669829785823822 -0.042885640650579156 -3.0908780097961426 0.7385055431051166 4.910198702784081 21.664835204977244 0.5291276661988882 0.16935697197914124 0.01777316585574447 -3.070434331893921 5.586501897213013 5.318018443302574 22.58105411645483 0.8258803456951701 0.16247279942035675 -0.003284996635255899 -3.082153081893921 4.6564305948632 3.6341650062311492 13.786412932511153 0.7620741859698257
ID_dc5878537,0.14585019648075104 -0.0019640269638216325 -3.0907397270202637 4.201606294529428 14.868045895013017 83.37885947439362 0.6581484412592131 0.16131749749183655 -0.043739300309871935 -3.0879437923431396 3.1987528693163427 8.312207144254787 41.17784808514612 0.591798129910945 0.16544654965400696 -0.004596684834991409 -3.0851712226867676 -0.9983123428763233 5.239196622860151 21.794588556188792 0.8238826444200428 0.16238366067409515 0.00392598341339542 -3.0789334774017334 4.362258632361616 5.014128759059458 20.464638993618912 0.9424105241471051 0.1598367542028427 -0.006702904176871818 -3.08331298828125 4.260415850514216 3.6740846735251056 13.161090016393242 0.875008825534564 0.16561323404312134 -0.011319216303438705 -3.0804569721221924 6.9349103472976745 3.2538151012638936 11.860272508463778 0.5076632040388859
ID_5d0c7468e,
ID_f4161f129,0.1523444950580597 -0.026411509557280447 -3.0825555324554443 0.15641836787977198 22.380378007505144 129.49969634069416 0.7011693814218919 0.16747353971004486 -3.1359967866103338 -3.132129669189453 -5.88217589529614 10.319082415896634 55.280023916940856 0.844557169194785 0.14330759644508362 -0.0009167952016484413 -3.093839168548584 -1.2913809377574512 8.473222293109748 44.99998997090356 0.748232036357267 0.1618257761001587 0.018692067506062227 -3.080936908721924 2.0154635825878824 10.413862019812829 55.515097686895224 0.9365324937305094 0.1628050059080124 0.011679199630254551 -3.0856847763061523 2.493314434038643 4.621779918682403 19.301937366673574 0.7702780713030853
ID_bbf2e7374,0.15025217831134796 3.1336744751938523 -3.102970600128174 -11.449304344702233 8.118616204630642 41.949608667051876 0.789614460889396 0.15445174276828766 3.0977863571244955 -3.1109166145324707 -10.889528430483848 13.356995767919344 72.58810125565537 0.83724420702287 0.15396219491958618 -0.07221141045044566 -3.0911684036254883 10.117439926734104 6.499691307566204 29.823297262227307 0.80462264795113 0.15122278034687042 -0.002711889444049972 -3.080505132675171 3.9845292693537684 5.040890317845395 21.404948676791896 0.8974007885974388
ID_efdc95f06,0.13495661318302155 -0.05747085934974532 -3.080315589904785 -26.067427183800405 10.631502615937254 68.52387236741664 0.606438642118333 0.13115915656089783 -0.0275511052260337 -3.087362766265869 -25.845955727946347 17.026708535499647 106.3783576197229 0.7925595128852211 0.13361856341362 -0.05574792682229169 -3.076580286026001 -18.137144134870027 7.068800335137795 44.157935633528936 0.6999516940671816 0.14895345270633698 -0.05003963827052091 -3.092808246612549 -3.265967969611726 19.493780035539697 114.16905590163698 0.8666879508821504 0.13453705608844757 -0.0017055948434775742 -3.1022846698760986 0.16125277632535495 15.219447912683002 87.78570614494977 0.5582954693726283 0.14740535616874695 0.008618950965815214 -3.0946383476257324 5.699725999310034 20.86022060395205 119.55641009073189 0.6132910377425566 0.1535746157169342 -0.0066143591813423094 -3.090338706970215 -0.12734138988953853 11.44689068650898 64.5330191695501 0.9048883540879573 0.15080216526985168 0.022338524709198213 -3.0913197994232178 -4.1651254243717 7.486651092799025 38.24299882290857 0.8382672962758955 0.15781907737255096 -0.013023729766026218 -3.092557430267334 -2.946102168748567 3.016809711462758 10.808398574627393 0.6711708852802822
ID_cf4f677c7,0.13984856009483337 -3.1288048859118383 -3.105673313140869 -8.335843149952312 18.846673775605847 111.86732006836665 0.7696534113231409 0.1503160446882248 3.1375939000527535 -3.102050304412842 -7.887576553524026 15.713734879378867 88.69856046764856 0.9233577463613589 0.1556197553873062 -0.012027586950999557 -3.0915961265563965 -1.0069992801533143 15.981831493923542 90.74333916543023 0.86851783983442 0.1592373549938202 0.008535157169828281 -3.0858144760131836 2.0911444073416665 18.246215690372857 103.21343865654093 0.8576980469625428 0.16288504004478455 -3.139005720894665 -3.101638078689575 -8.168984652348717 9.470161295420548 48.88893664621676 0.7822034205305404 0.1639314740896225 -3.130329592193714 -3.1136667728424072 -5.743149407811096 8.960831557380548 48.114300038819145 0.8826464057460451 0.15966615080833435 -3.128822438658793 -3.1114554405212402 -5.658673156329616 5.885408313548421 28.841246619088565 0.7991114387683563
ID_27a33218b,0.15445442497730255 3.0606150391250755 -3.095712900161743 -29.9487226463712 7.506582140952309 47.90961689810889 0.9750615027166415 0.14152024686336517 2.8880209398193615 -3.092526435852051 -27.72090117654184 7.6882958412525735 49.041742972442314 0.5162771691708983
ID_81d82a824,0.15321531891822815 -0.0033023351337089844 -3.0978846549987793 -2.8792177660707856 8.885348712912233 45.673331722002196 0.7323404530412646 0.14079540967941284 -0.031523964694107266 -3.099398136138916 0.6054673199555325 7.565516256909565 40.15658806202905 0.510514090533915 0.1521739810705185 0.02340433589906673 -3.095341682434082 -3.538173584010415 5.746491503947064 25.635939528841227 0.5229373019743723
ID_9f8495aa0,0.14511166512966156 0.010020597341843367 -3.0905869007110596 -7.490491658682644 16.64850994464468 96.97863371105943 0.6892604967286944 0.14350625872612 -0.029255889958085767 -3.0923428535461426 -3.006069251732141 11.319528366255891 64.85919267854781 0.6790641121847879 0.14607132971286774 0.026201500132894073 -3.0901496410369873 -1.3717049475213048 17.206370938992517 97.77599484654222 0.7542491662432864 0.15197911858558655 -0.058241186402900914 -3.1027698516845703 -0.2676975900907266 18.23196876347709 103.81599145941831 0.8075893649883878 0.14595381915569305 0.023734109998417033 -3.089595317840576 3.7668506435688394 14.334754645842198 79.3587773990858 0.8603308510789136 0.14807207882404327 -0.037825662104818344 -3.0955286026000977 6.230871101225931 17.9714342227399 99.76936490269456 0.6401440509703321 0.1630256474018097 -0.022625629538504166 -3.097134590148926 -2.3505782616607993 10.066729933585048 52.70771504219956 0.7888214572848007 0.1520739048719406 0.023432241163089517 -3.086899995803833 9.208270945811952 9.470502484923536 48.52266620038049 0.7305332242576842 0.16435682773590088 0.04304923675834319 -3.0733258724212646 9.849641865582349 8.748517918488146 41.981871500901086 0.9374229683452495 0.15930046141147614 0.028447667733434514 -3.081353187561035 9.88617837431065 7.731592655200757 37.46370624821743 0.5776479594849404 0.15011905133724213 -0.01056218264096879 -3.093627691268921 -2.0309566157370136 5.016295767331136 22.74951189759947 0.8431417256406817 0.1652737408876419 0.01367633612714069 -3.0838465690612793 9.886928891082926 6.097895279562859 24.612441920549504 0.8825075959270828 0.16118738055229187 -0.005893918416749864 -3.084261655807495 10.622180151768346 5.371141413753356 20.356264710462852 0.8409359039482815
ID_a9a8c1292,0.1520410180091858 -3.1265682943755477 -3.1162946224212646 -8.722835166216512 7.208105041751579 41.218950969350075 0.6415036465286619 0.15990135073661804 3.123537806128282 -3.1168770790100098 -9.803066830841372 10.18636581450279 59.57859874543137 0.827252829656896 0.15246790647506714 0.0027426810120142952 -3.081148624420166 3.811567956353326 14.235012482389962 78.47516448231492 0.8475796612700613 0.15723523497581482 3.1119551210976906 -3.120993137359619 -3.3035597487806774 8.038080930000614 42.709183796625304 0.9798456904899455 0.15640757977962494 0.05264710000508456 -3.092404842376709 4.564337347024798 9.142852628949356 47.444200619440245 0.6535395095326452 0.16777659952640533 0.02242560971223149 -3.066072463989258 3.963755382348241 7.298463363813512 35.4934514606177 0.7889033754162591 0.16824159026145935 0.03138493743911493 -3.0627787113189697 3.678121447140334 5.781148323459315 25.606882264513224 0.8033356410720349 0.15226970613002777 3.1336926525111064 -3.104628086090088 -8.243822853031679 2.883282795612934 12.56525715724903 0.6701275698444319 0.15470600128173828 0.03111343333101524 -3.0750327110290527 3.733217906279769 3.8761211507755395 15.409839185028085 0.8026898111258399 0.15416572988033295 0.011631224204050281 -3.0891757011413574 3.7095046061432226 2.9969548917035485 9.269307553804655 0.9539348966720769
ID_1411dc012,0.14383253455162048 -0.009853180863125106 -3.0885837078094482 -1.6709749374687644 10.56775785191517 58.51282487748163 0.5684452921565182 0.160985067486763 0.019407886603431363 -3.1028637886047363 -10.657135545168812 6.652747629970104 33.27199818005037 0.8351392524631736
ID_b60f5638c,0.13919004797935486 -0.021611709800151833 -3.085803508758545 -4.633502947764493 18.17970056214203 106.79114203552149 0.6914734430548843 0.13953863084316254 0.0035256490562049435 -3.0917789936065674 -1.435646134472131 18.459182014477335 107.4799225844581 0.718683574725573 0.14036768674850464 0.026360302424576706 -3.0976452827453613 199348.26106786937 1642463.2592046887 9678915.690585196 0.7688826558424121 0.1424621343612671 0.012998343784565844 -3.093364953994751 5.074542987332991 18.625618998601134 106.49526021799743 0.5839348663273807 0.1456601470708847 -0.03393770956757389 -3.0910305976867676 7.288993055602669 20.33814209941467 115.9793466686737 0.7617697057755176 0.14662890136241913 -0.01346781536146555 -3.096104383468628 10.188169574540634 16.58559765316963 93.65298759197867 0.8459511501392818 0.13791567087173462 0.001558714236545377 -3.097888708114624 -1.3586858205227283 9.284791669242788 51.02371583817499 0.7524028977969099 0.14440536499023438 0.022696011835019042 -3.0954067707061768 0.4735504513128658 5.413584129687154 25.7063892387335 0.8797974221328737 0.15776826441287994 -0.03340105084064529 -3.0810201168060303 -0.6555269057706912 3.7779849206908995 15.108759701287514 0.5684722382463346
ID_237729793,0.1597248762845993 3.128853281210806 -3.103606700897217 -10.597613736003696 9.37802691585764 49.43373463786814 0.9418844740330206 0.1612476259469986 3.07279376375368 -3.101310968399048 -11.261461426909309 10.800730892551435 58.167080614904705 0.5192381011685137 0.1558949053287506 3.1151925195036303 -3.103095054626465 -11.619323750042692 15.646158549035377 86.38313576274736 0.7885607567265689 0.15356993675231934 -0.012126822378516092 -3.099234104156494 0.1303257270755279 9.383480147791001 50.500604775058484 0.5426611849870222 0.15468564629554749 -0.0027890510804690397 -3.095778226852417 0.8597539510850358 8.91259815474056 47.34045873520868 0.7548700516058194 0.15367630124092102 -0.024775136519647453 -3.092480182647705 3.1365024051300305 12.145191175781408 63.84930024983565 0.6406205229308418 0.1703350692987442 3.1345324432991477 -3.121385335922241 -4.030379198978624 6.439299196466939 29.734109282096913 0.9033793576180201 0.14893217384815216 0.002760614018691907 -3.0936858654022217 0.04910878342121656 4.475074880974457 19.033633018699398 0.7789313415010269 0.15940526127815247 -3.1388539242082034 -3.100780963897705 -3.640526062604739 3.3086547316020414 10.85160407034795 0.7863287513490318
ID_73b210da5,0.15743152797222137 0.031101134616892297 -3.084852457046509 -6.150918482883184 8.310358971392876 44.316180004942794 0.6218442238190811 0.1585477739572525 3.1375986226109065 -3.1097025871276855 3.5395472627430475 7.37133586693354 39.158426068599354 0.6772434146070808 0.16366606950759888 0.01662036140069756 -3.0960354804992676 -7.459920561503662 6.2551652088728575 27.375432782399393 0.8185294792753207 0.15916261076927185 -0.0003562418210174004 -3.096541404724121 -7.513270271972157 5.474764168263546 22.512810085133413 0.7679182118359587 0.15872424840927124 -0.012634642550695782 -3.0891575813293457 -5.965208495578052 3.381138355916783 11.197916300900228 0.6945291947924187
ID_c6628179f,0.14861199259757996 3.128270894539317 -3.1047778129577637 -25.444277199437664 6.5478714389366885 35.50523595263649 0.7845220565370463 0.14872902631759644 3.1408059917878486 -3.1048383712768555 -22.001555350420613 6.834091527049332 37.05664040926327 0.8939430807707563 0.15032024681568146 -3.111035179190474 -3.114016532897949 -17.694815523106996 6.73516295149883 36.03500902222289 0.7431082546451309 0.15324316918849945 -3.102777309856103 -3.101137161254883 -12.926992245640655 5.72435797648945 30.069580674206982 0.7836643058326304 0.16071578860282898 -0.0014161406961326832 -3.076817512512207 -2.095352567132464 9.719861404704627 48.56005097452617 0.7424075457407565 0.16756385564804077 -0.015934480950525014 -3.0852301120758057 10.814935475042088 8.0002230780077 36.872725143306575 0.8007585558729463 0.17039263248443604 0.00638770534828549 -3.0824286937713623 11.154835659405757 7.676469552763478 32.89883434776044 0.9437773816623974 0.15484599769115448 -0.007738618202320778 -3.0974395275115967 11.746266409581432 5.459787982708697 19.634431972033397 0.9742478230991366
ID_f188d7b12,0.13534535467624664 -0.005603400296006153 -3.0907301902770996 -27.908217243761566 7.649998186447723 46.83149408621737 0.915340171589837 0.14037424325942993 0.05064413160346942 -3.0898218154907227 -5.456108111288203 15.684153302010442 92.2424550205416 0.5711689980390809 0.14294378459453583 -0.03797392998037499 -3.091171979904175 -17.427004663867724 6.826149035668388 39.509931206742124 0.5833264519754875 0.15280847251415253 -0.0009409223362253015 -3.086378574371338 -6.8203336214337185 11.170450090736345 63.74345514880684 0.9648311892259326 0.1537768542766571 0.025567783956395612 -3.087379217147827 -5.525804881649397 6.41120008237722 33.35868264661697 0.5397029101923337 0.15266521275043488 -0.009438981283817838 -3.095107316970825 -1.4522236913177071 9.632631552768052 50.40128053006119 0.9158782124211238 0.1579245924949646 0.00511254792082068 -3.0905137062072754 -2.982506529136386 3.28302663095629 13.142424821878887 0.9778177109884872
ID_35ff1963d,0.15315216779708862 0.24054425973378135 -3.1029396057128906 11.859995433386246 5.8512888849040845 23.895840346842036 0.6617660243670497 0.1770707219839096 1.1894252643609018 -3.0916552543640137 4.478963562541007 5.656776082556748 21.852219107164977 0.6107325554774965 0.1520812213420868 0.011856431642087757 -3.0908052921295166 -0.22393531665668195 4.835496707869381 17.7408635274073 0.6524114823720314 0.15904657542705536 3.110805798057949 -3.0980420112609863 8.480481045340504 3.855035396843363 13.797098398246966 0.5150971536804518
ID_9a18f5678,0.1611073613166809 3.1398119089543335 -3.097174644470215 -7.1264571026213765 4.302114339782737 19.54596638682932 0.8338623165760743
ID_db699f0ba,0.14773565530776978 3.1024049807652925 -3.1116764545440674 -38.8767757003681 9.848529608950884 61.86196352476646 0.7730897275728991 0.14518918097019196 3.1262096101212964 -3.0990569591522217 -38.673536476686465 13.905541443570286 87.65544305680291 0.7421962346534423 0.14674869179725647 -3.130133585346708 -3.1100099086761475 -28.618926682883856 11.898812497814124 75.2073426348336 0.9021596233326383 0.14793303608894348 3.1372012977399377 -3.0952892303466797 -31.632880853498538 16.6625872254727 103.72406155803284 0.5813518639092109 0.14370082318782806 3.1274546559775476 -3.095867395401001 -22.044841152757733 17.968645440227128 110.43956897488857 0.8259174044246563 0.1456625610589981 -3.133243899374217 -3.0829758644104004 -19.74635902417194 20.626255189939585 125.87529319988657 0.5801991644506447 0.14147479832172394 0.06386024236975828 -3.098853826522827 -6.842490115923241 7.20221605318928 37.20356072416639 0.7969930230398895 0.15286250412464142 -0.012577639815061046 -3.078765392303467 -3.664211040275485 7.531708597108721 40.07346044419305 0.5352882744055862 0.15373727679252625 0.010838665747187032 -3.094851016998291 -0.5862807721378408 8.531168134969906 43.69603703858585 0.8874652998632162 0.16179323196411133 -4.568261263040202e-05 -3.078562021255493 13.142709574248522 13.174887001549966 71.3319903315894 0.7319486316277184 0.15551500022411346 0.015142967325032758 -3.0875818729400635 12.416531549333506 10.241647120245844 52.56310115693109 0.8865192668362879 0.1594618260860443 -0.009132523118581584 -3.0859017372131348 -3.6762270181312107 6.933826705452201 33.290718159366904 0.6772701250677005
ID_fcfc2f0e3,0.16051878035068512 0.07224621539270872 -3.07848858833313 1.4644573447243967 15.075894085114586 81.31989251015679 0.5195638816425365 0.16115015745162964 0.026022521336040345 -3.0853004455566406 2.521044420628555 14.021048320369633 75.21214495537774 0.7278730283347296 0.15931206941604614 0.053617764920587216 -3.085263252258301 4.655503445365738 15.274557259080604 79.44231628422506 0.5955093768713695 0.15274810791015625 0.054999758384382993 -3.0848231315612793 5.507189132251943 14.384322359639619 74.22095536236532 0.6103166522992912 0.16091503202915192 3.053299330805822 -3.0954432487487793 23.323608647407788 6.8976365740379935 34.54930483661283 0.6303913083846074 0.16602544486522675 0.32486906186365916 -3.0847115516662598 -6.076936603153579 5.176951393339968 23.61000300735453 0.6157992067498388 0.15644021332263947 0.009326705983432397 -3.088754653930664 -6.006370587716334 2.7147125171261943 9.393751769765203 0.5038086052837272
ID_66e5f439a,0.1585061252117157 3.1386447196386253 -3.107672929763794 7.047053906100458 5.302315442296606 24.041424691712628 0.7569278796698227 0.16182748973369598 -3.1410971697988197 -3.085655450820923 7.913940852578914 3.581775556894991 12.271089851886149 0.5012215942734385
ID_145aff094,0.14921480417251587 0.027239802411269876 -3.095371723175049 -6.6392669133627065 9.874442219762987 55.61202492969567 0.691604877373731 0.15857739746570587 0.06336670507719865 -3.105142593383789 -10.821111166091843 7.988555551079101 42.17982325875336 0.7065012076206062 0.1601853370666504 0.026155159872880706 -3.088294744491577 -7.606600149350599 8.477275142215829 45.26223830908355 0.8904598246645504 0.15205493569374084 -0.006688166454053322 -3.086728096008301 -9.094856074076374 4.84467633071937 23.88924211266385 0.7691528079091382 0.16088691353797913 0.030070253137965165 -3.0878689289093018 -6.211879539879971 6.275193393262428 30.79006209489416 0.9125337937951737 0.1565188318490982 0.04653702234758904 -3.090851306915283 -2.801192128327994 7.394481484772794 35.60603048241419 0.7606291936897107 0.15695087611675262 0.0067210490384555215 -3.0831165313720703 -3.2492933427061192 2.461710370839971 9.302192181375101 0.8875432107680348
ID_5f80c94a6,0.16540786623954773 3.1317102043267835 -3.108713150024414 -2.1988595912090045 7.218838472796367 38.45475326416986 0.8816911982684453 0.15989837050437927 3.11004484021372 -3.1127686500549316 -0.7312161493012926 10.19721031192134 54.91053190480397 0.939389371594494 0.14955048263072968 -0.016147114331856685 -3.102787494659424 2.970122797624201 8.896389449801935 47.56283969612871 0.7164878157107907 0.15364551544189453 3.1413028689010094 -3.1165952682495117 -4.684731742274513 2.760597286317765 11.85433119538071 0.9508890101958466 0.15993328392505646 -1.2768214830992757 -3.1016972064971924 17.235973547296084 6.793906516751449 28.835021762752355 0.5678454551506866
ID_b0dd0220a,0.1454077810049057 -3.1055926419687716 -3.1009254455566406 -10.175711967734209 22.45885310301496 133.8355178357127 0.581396447286159 0.14929258823394775 -3.1285687057972877 -3.10392165184021 -8.851833835999887 16.894776239158688 97.06763536670289 0.811714686614164 0.16820983588695526 3.138822840922201 -3.104013442993164 -8.246057981383688 9.41670294227468 48.557484075723266 0.7152494880619845 0.15739567577838898 3.1330779454810203 -3.108511447906494 -5.866051032527646 5.866869166525209 29.175608157868872 0.8904041834712128
ID_ed6b208cd,0.15707896649837494 -0.013937035644597702 -3.0848848819732666 -2.556937032965674 10.938291996752886 57.073830673416005 0.5435244513525476 0.16215507686138153 -0.01021726157583098 -3.1070711612701416 -4.9195182250616805 9.172261611260359 45.96599405329413 0.7038627563748904 0.16423910856246948 -0.002962246225483069 -3.0899007320404053 -3.418703660853547 3.4763171823754346 11.870150268111743 0.9403007900944227
ID_92244eb19,0.14029629528522491 -0.01388036703024331 -3.0949978828430176 2.9898366997468844 11.088479791201935 62.038065447715276 0.6605898329379308 0.15629777312278748 0.05142110040960301 -3.086761713027954 -7.275612652284022 9.915444437944267 53.17005227919234 0.6036253682303002 0.1664537936449051 0.02427525125309555 -3.0989763736724854 -12.572660648621731 5.8105968831387145 28.426734774580066 0.721858461500069 0.1672774851322174 0.016370266019771793 -3.0874319076538086 -5.5286931515408195 4.67190260832152 19.211154994148526 0.6691824203410649
ID_e825cd6ba,0.15478436648845673 1.941648858868908 -3.0952939987182617 -32.39715587277607 7.119162769509992 44.33542609417925 0.7200373091002432 0.14817102253437042 0.008371398262624211 -3.0868959426879883 -34.49505714773559 9.07003488326477 56.04675679435178 0.8603325385773885 0.1577996015548706 0.04675940185712481 -3.0881590843200684 -25.208025582121923 7.964155094622617 45.98746001723981 0.8400270410420928 0.15195156633853912 2.989208802044192 -3.104124069213867 7.139775520604825 8.039947530547792 41.039517820330204 0.7683711069711824 0.15791133046150208 0.6633430253161026 -3.102386474609375 -3.1575241874826094 6.0800240640543946 28.96288122570796 0.7191118343808656 0.1607629656791687 3.0561676093621712 -3.111577033996582 13.721449130936012 10.770801814422883 51.77085970178851 0.5872375123767367 0.162545844912529 3.040826304780799 -3.1067256927490234 18.040043341417867 11.487004824584048 55.24545215212028 0.5807448974237094
ID_984c81491,
ID_886b3e1ee,0.14799270033836365 0.0018310727434829265 -3.0973052978515625 3.2330966136263437 12.986476719413085 73.10357418302509 0.8367912687538995 0.15260319411754608 3.137466098081299 -3.1224732398986816 -9.580566316074531 4.479067120436345 21.742552518869967 0.9747997489147293 0.160354882478714 -0.003502877790679632 -3.081226110458374 -0.458161468245153 7.393500233846997 36.59304391260756 0.8072664691101853 0.15714484453201294 3.0658935172595636 -3.0898966789245605 8.535753563516435 6.27726295142837 30.11671273936674 0.6490472548443865 0.14785611629486084 3.1178203070877593 -3.1212029457092285 -10.21566502580292 3.513493682695394 15.963846445109684 0.8038889863104528
ID_95e5e13ae,0.1485917568206787 -0.00583636022353092 -3.094074249267578 -11.649238976325032 18.799507726407068 110.24468865643665 0.7279766363165455 0.15711629390716553 0.07113066423326289 -3.091357946395874 -11.62997950672846 15.659047285551608 86.4627889755916 0.6367740576950783 0.16518723964691162 0.02037749341513525 -3.09224271774292 -4.612441278028658 3.9208828307829995 16.012602909778636 0.7317174290823949
ID_aa7aa518e,0.1466367393732071 -3.1266591638643724 -3.103724956512451 -3.805136278641748 14.825734184766983 86.65231068652872 0.6081078137314029 0.15461550652980804 -3.1410565435540714 -3.110865354537964 -5.656826530882415 9.386045028064284 52.523510763366566 0.9132863792850132 0.14985141158103943 0.00843742857470538 -3.0954549312591553 4.791350786258908 10.98061528170527 60.665732622182134 0.835595980275766 0.15450556576251984 0.1572087734726078 -3.0777664184570312 -14.145686713008246 4.349030431708725 23.202807070620864 0.535802581662055 0.16487090289592743 -3.132896484468973 -3.115227699279785 -6.107124739702882 6.939100589369708 36.84832118190501 0.5952336789856727 0.15344543755054474 -0.038350040274269415 -3.099936008453369 0.5612022267303073 6.049609538540428 30.672185558999495 0.5952796144247199 0.15988706052303314 -3.1341029568516015 -3.116468906402588 -5.581418921390101 4.766741410801093 21.672973036801586 0.9736616739974753
ID_5ef969c1f,0.14935775101184845 3.043787283632535 -3.106992721557617 8.336194705675787 4.403138316855414 18.687678873564003 0.7281995384280472
ID_db9cc3657,0.13916558027267456 0.005993001381169911 -3.0881948471069336 -29.319173283094702 13.411231339013344 84.90010619934982 0.6829267657278325 0.1332593709230423 -0.06927748251540926 -3.0833725929260254 -29.618194277651764 14.736718001059419 88.93467363034675 0.5293908480144028 0.14333190023899078 0.0366231579441533 -3.0820374488830566 -15.385207343193914 4.240645064491029 24.04220253232601 0.731045051329469 0.14953452348709106 0.002847477707833314 -3.0899317264556885 -16.133509789399856 10.331021249329812 59.99229354520876 0.8163538429154371 0.15042363107204437 0.03952955730921076 -3.1031787395477295 -4.3771151453078945 15.887720882910374 92.11919020529402 0.5943369841291715 0.15913429856300354 0.01821837178447621 -3.097726821899414 -0.6875029298838671 9.938556802787566 53.147744247634755 0.8511589833608348 0.16032348573207855 0.0798410429864701 -3.079021453857422 4.419981651156209 10.48361718170656 56.412348415856194 0.5333965800362758 0.15463371574878693 0.006242539913456937 -3.0892105102539062 -1.4549863233019404 6.417993515452154 30.642096361805265 0.9765598992215616 0.16593614220619202 0.027241957707950584 -3.0738046169281006 5.288452678400148 9.861486929745517 47.04848546437069 0.935729520035973 0.16631774604320526 0.045517429689923776 -3.0787432193756104 5.2907732771210085 7.7700466974471665 38.38441703647436 0.9076604648057658 0.16290533542633057 0.017002045460478173 -3.077413320541382 4.668732168065433 5.543581286164576 25.079385782447567 0.9222816413666989 0.15742436051368713 0.024451792650141326 -3.0852396488189697 -3.3964820205993047 3.9721246808880224 17.093796592159155 0.7968727954564254 0.1600566953420639 -0.0032269761212710794 -3.0852599143981934 5.453861720318532 4.8874814063531655 19.600369036226983 0.9585678117414368 0.16783227026462555 0.002798275048841509 -3.088989496231079 5.9797235335749335 3.867645950859506 12.544749677214725 0.5143711808193925
ID_826d8a694,0.1645476073026657 3.072639783209057 -3.1126914024353027 10.219669801497243 7.72996172311886 38.04304435366397 0.7764027148153867 0.15949410200119019 0.20422208787737103 -3.1037096977233887 10.574747005642545 6.474575399395302 29.822182655376473 0.7111943095014032 0.16346649825572968 0.03783584696125974 -3.0900683403015137 22.564676600046877 9.809675812759364 44.50626506921361 0.6014431582052252 0.15420690178871155 0.020962715792282607 -3.0912411212921143 16.435142518857973 5.994051425217633 25.473672151588463 0.7939547961265613 0.1624780148267746 3.126772185200877 -3.1010208129882812 1.534228780003875 3.6068677017034827 12.28689849380099 0.804139706031695
ID_b61a1ab3a,0.1605197638273239 0.01048652009011036 -3.08915638923645 -4.026401312372428 6.288067059333227 28.856360912358532 0.9278098875266894 0.1586170345544815 3.133869285497571 -3.107179641723633 -8.743540481702897 3.5538148365795545 14.349354803582962 0.8516173681717525 0.15705320239067078 0.00027418718064643613 -3.0876851081848145 -2.565800556300211 2.9046214903857765 9.954381065777271 0.8242631916062622
ID_9f4b166b8,0.14196883141994476 3.061995624154454 -3.0930557250976562 -10.585591287447263 -2.2925776286983606 -17.368476005685842 0.5620327871576374 0.13003244996070862 -0.05042357714371014 -3.0915708541870117 -2.3175084981284675 -3.8081923667172717 -24.993406375678568 0.5189923159377404 0.13011695444583893 -0.002143913304124985 -3.101100444793701 0.0002943595880637134 8.484071710404919e-05 0.0005449034476988906 0.8003701682259639 0.14450415968894958 0.011951055328999418 -3.0924062728881836 5.041780778787961 6.00583963099388 29.414801254136176 0.8489882105662021
ID_b11a8e209,0.1412368267774582 -3.126794948522108 -3.102691650390625 -27.4143474300358 8.009699452533516 50.01249313358045 0.8540431572327449 0.14194712042808533 3.141195155594694 -3.1046292781829834 -28.542008061674924 9.789504319195926 61.99824645635198 0.8806626527139311 0.1476651281118393 3.1274963273201037 -3.1159064769744873 -26.4452149156707 10.312605315996779 64.42773602637811 0.9588391400490388 0.14152860641479492 3.117530307969383 -3.109037160873413 -23.315817117673273 11.284985733887279 70.12691210623396 0.6974514105822017 0.1403215378522873 -0.03083407492579845 -3.097400665283203 -4.134577976591088 16.081619609419622 94.1990856280159 0.5875632768469219 0.14730535447597504 -3.1254646380635314 -3.1084535121917725 -25.707136646611662 6.950088386714268 39.96321692580355 0.8760437658562069 0.14652660489082336 -3.127056868296368 -3.10087251663208 -25.84627568512653 8.770737051986563 51.59871211359053 0.9179863274079579 0.16101710498332977 0.033738087905082474 -3.0742783546447754 11.631584898870026 10.843437165057427 57.75086195193709 0.9329300039934835 0.1592656522989273 0.02618482246970135 -3.077742099761963 11.424106854413488 9.505738560446174 48.7787458691007 0.8547955024130645 0.16605526208877563 0.030328248770782735 -3.075995445251465 12.256487751823215 9.611341393005814 46.1487242165832 0.9170287865483442 0.16071152687072754 0.03806457128128843 -3.085033416748047 12.548019989938199 8.273276413998852 40.10161428679868 0.8801082618371516 0.1693398505449295 -0.011392654786838728 -3.0800487995147705 12.002775443245852 7.089587225789292 32.16601445788418 0.9402902830745508 0.16445530951023102 0.042338540325717725 -3.0773022174835205 12.321992211234504 6.506362557444744 27.655559778245447 0.7031981734435224 0.14670249819755554 0.01196043660256245 -3.0855679512023926 12.28468852731993 5.228457846590108 21.044711768663383 0.734568202314913 0.16004672646522522 0.01749859793653689 -3.0938186645507812 -4.612722967041778 3.2549922197869456 11.680227518115325 0.9559034086627574
ID_f72f7d1e9,0.14145790040493011 -0.04421095605476478 -3.0885190963745117 -24.71554233705408 11.699030548362261 73.66204681813062 0.8650718164202743 0.13426055014133453 -0.02858315036867949 -3.092167854309082 -22.621919106268866 12.68136501315809 77.15466032860772 0.6669693969860503 0.1400046944618225 -0.00655826545230744 -3.091158151626587 -24.931667950916253 18.153211570442064 110.84583614408903 0.5604877119069449 0.1410762518644333 -0.005516567683903636 -3.095566749572754 -2.7902598058675085 11.419664739503048 64.1552926146795 0.6127753225767453 0.14991167187690735 -0.015002278042051755 -3.0939066410064697 0.4424311836733271 11.568187836132175 64.63034531560085 0.6971812188022746 0.14361771941184998 -0.02393749462119512 -3.090752124786377 -5.55844058602132 5.7670486702377675 30.056986463151087 0.5350059923917687 0.1502876877784729 -0.0015349470598416454 -3.087055206298828 -2.081390936970608 9.203385718234886 47.361361095691535 0.9269647369862932 0.15222565829753876 0.006344817061546414 -3.087508201599121 0.39243551580456243 4.811987439765411 21.219235350984782 0.9315203972933037
ID_cf563dbb0,0.15664514899253845 -3.1315418601782734 -3.1125521659851074 -17.38072881843537 9.015502242740546 51.8791525813919 0.8604650444166343 0.15433163940906525 3.109357733996105 -3.0965309143066406 -18.3989904416479 11.432988941704995 66.85293052524388 0.660676588383583 0.15158669650554657 -3.1223237474555026 -3.1062211990356445 -12.758431719538185 10.974391549861199 63.770261743963374 0.5201976210807395 0.14970159530639648 -3.107410471445017 -3.1022346019744873 -9.892761498925674 9.399600710182726 53.16078391324208 0.6534762016901434 0.15508779883384705 0.004389331768926116 -3.0846011638641357 4.884207810261014 13.91643596897065 78.19213595629196 0.8003300883817415 0.1508796066045761 2.5309561123663427 -3.1017255783081055 -14.36840685862876 5.00651840831495 26.212546229398527 0.7740656422005724 0.15204162895679474 0.9114142656887219 -3.110861301422119 -8.286311566404374 6.579566976417596 34.22928596961893 0.7190323972275201 0.16416823863983154 -0.024747511657286583 -3.100430965423584 -3.535706819138767 8.958741899217811 46.412512763719725 0.6924069927212152 0.15833508968353271 0.012673060511582419 -3.0839221477508545 -1.1133643542406946 7.529159682460659 39.40987001302229 0.9576670396484505 0.16267146170139313 0.04900192547709851 -3.090669631958008 6.772792339341458 13.408215570155955 71.96557731836707 0.7125646179419949 0.15691491961479187 0.02931327351060866 -3.0847370624542236 -2.987820064674165 5.003954082555477 24.31885733720373 0.7619953912067218 0.14358997344970703 -0.04283637222329811 -3.106884002685547 18.451444995148634 6.212595551540211 27.96322405341304 0.6695870642249929 0.15647326409816742 0.01767121755140633 -3.0889852046966553 -7.706486631251731 3.1811353080327196 10.535465489267505 0.6070025711077877
ID_c0656f73a,0.16139714419841766 2.853328872898035 -3.0913448333740234 -7.605421906721656 5.615429229037739 27.31823027137495 0.6299754114867029 0.1549254208803177 3.13008120169393 -3.1031432151794434 13.695036719436157 5.308885669784616 21.23506218197378 0.8921546742949509
ID_e53e450e9,0.14550085365772247 3.134520443190967 -3.0995688438415527 -11.80791850197214 10.378399987025865 60.80788420760004 0.6445634860734856 0.16656394302845 -3.1251262137047 -3.107876777648926 -5.0424666787771155 7.972496747984445 42.61963974352492 0.5569194970733472 0.15520067512989044 0.0005952593956814481 -3.0897982120513916 -0.5513159332614077 7.919542186144117 42.11587022183435 0.9388550669404432 0.15693409740924835 0.014382998653313288 -3.0881919860839844 4.156446804698528 9.962242385371923 51.656139000635314 0.8084695601299384 0.16189327836036682 0.016096347374864723 -3.0853257179260254 1.9035610605260502 8.025384324919054 39.82997845051782 0.9555983690617263 0.15985138714313507 0.023785839633987803 -3.0986390113830566 15.437779318544425 9.366901013049725 44.94852392901822 0.8766659449606452 0.1663476526737213 0.04518956349241316 -3.082156181335449 4.557516001945668 7.117264962751514 31.859485167625376 0.9506366616472196 0.1559237688779831 -3.1254323891225675 -3.1113779544830322 -4.4662270844482626 4.936554041431093 21.137874140173846 0.9354191950111135 0.15409773588180542 -3.133181088206839 -3.1109933853149414 -4.641778395514366 2.7249643604560556 10.901740193405914 0.8050265794022756
ID_74c5f2bdc,0.15597417950630188 0.013424283335699203 -3.0935330390930176 -5.730892107723177 13.668463706568506 73.2962250709889 0.7864528778662421 0.15831200778484344 0.0280977542056045 -3.0882203578948975 -2.758544232951046 11.20626404885095 58.51455341218011 0.9256724765402851 0.16874678432941437 0.005055404645839632 -3.089494466781616 7.129435419375265 9.012711688920003 41.75252914432059 0.9837896706665268 0.1615295708179474 0.02711123902819113 -3.095541477203369 8.961239276965758 7.13592464355869 30.57178988572668 0.9692980688850028 0.1536162942647934 0.010946820195843945 -3.0902254581451416 0.04461991772567512 4.439351626341985 17.845705151593457 0.9669817930103403 0.1626787781715393 -0.006741678884322695 -3.0853190422058105 9.082648402698311 5.020981345307095 19.054317474394033 0.9794201833971987 0.15747450292110443 0.007177173254746525 -3.094733476638794 9.751967276022787 4.345626545252961 14.79956851031436 0.97068143317349
ID_f6a5de7f1,0.15244294703006744 3.062168807159903 -3.103518009185791 7.892828434204099 4.362000113829773 16.55821651224145 0.9070113113901944 0.1689537763595581 -0.009395383638256476 -3.0929179191589355 -4.957103578804612 3.3482678671758497 11.442894203874735 0.745020925661817
ID_d5b13d65d,0.1361452341079712 0.08591958426008575 -3.1006131172180176 -26.12957605763821 12.821663279509558 81.09577319852139 0.6914808101501992 0.14432275295257568 -3.1290989940434875 -3.1116862297058105 -11.611020353797798 -3.182095424971755 -18.966369851016708 0.5175476853728168 0.14648497104644775 3.135763364243751 -3.1062703132629395 -22.810856968383966 -5.847160106280371 -36.242074380337606 0.5987165498154876 0.15622645616531372 0.015571648959488881 -3.0877301692962646 -3.933220048611951 3.8108695084851814 15.272921323803793 0.9140066819636558
ID_019cd6743,0.1606314778327942 3.083502243035951 -3.0998473167419434 21.71335137944181 13.468702402052545 74.3275572927608 0.5515920839516486 0.15700481832027435 3.1189529713558617 -3.1182000637054443 -19.397617056814674 -9.942777128476562 -61.059185332468815 0.7964893393360996 0.16511234641075134 3.059109963922867 -3.080925464630127 0.002423632942803339 0.0010067217939047943 0.006156253864899309 0.6675467703458987 0.16363805532455444 0.024864795220293615 -3.1007328033447266 -7.853646638265135 6.718808124522057 33.01251434140846 0.5682705416638864 0.1560114473104477 0.020029411179957966 -3.0926454067230225 0.9994911387742311 6.136994975303115 29.22039597262785 0.8809236373560213 0.14555296301841736 -0.021100137111821543 -3.0864999294281006 9.414149432760667 4.917134442678544 22.624754998651298 0.5808233883423043
ID_09b7b1a98,0.1602582335472107 3.0839218333633935 -3.0894017219543457 -27.360805646273867 -6.970843988175354 -38.50937170082634 0.552285346235034 0.15359705686569214 3.108765438695743 -3.1127421855926514 19.156065437699542 7.971176130332575 40.22658868787596 0.876673686706609 0.16466018557548523 0.0008745165646469845 -3.0954556465148926 -2.4054598641485962 7.24395978565187 35.41347038488489 0.601928499980626
ID_2c0dadb64,0.15319973230361938 3.049659524985204 -3.1018247604370117 13.387603111285767 7.204782217774337 35.153585146476196 0.6595290479946361 0.16226918995380402 3.1133346855293023 -3.1083240509033203 10.696858005315978 6.9873457085685216 31.553331017529736 0.9214947471781921 0.15957924723625183 -0.0036926423504748136 -3.0819637775421143 -3.2817667164012048 4.56052049898403 16.731951562555643 0.8073169197447353 0.15990515053272247 -0.0032225855892532903 -3.085359811782837 -4.276661408855877 3.5881970271197963 10.829697419904146 0.6861218300220792
