ImageId,PredictionString
ID_18fb86d04,0.14659973978996277 -0.006605870844297811 -3.0954742431640625 -1.0203175804304978 7.139946520326462 38.48086526581891 0.7039260585481713
ID_ce06d4dc1,0.13874667882919312 0.007859387277504765 -3.079274892807007 -32.67217215743052 7.05947930414565 49.10224489915175 0.7296307373202687 0.16210508346557617 0.012497320266407983 -3.0914363861083984 -9.88104862845109 5.655700845740891 29.583251476323376 0.6033734387908778 0.16269999742507935 0.04931935534092244 -3.084872245788574 -7.458524454488982 2.8078790667515343 10.638190060874788 0.6844698196328769
ID_afe07078f,0.13555964827537537 -3.136161511184568 -3.095431089401245 -15.656128220194274 6.634068254681532 42.89972019824778 0.7399141195556515 0.1329113245010376 -3.1060974933744614 -3.0868563652038574 -14.411411629110775 10.080290894202523 63.33022583091674 0.8447070916934811 0.14180409908294678 -0.002814902722150448 -3.0904476642608643 -12.96716452791375 17.691458697963665 107.27927963932638 0.8701380198922805 0.14686913788318634 0.020401018494489092 -3.0852904319763184 -12.670114441746502 23.877118532358487 143.00889103664576 0.5445774054864274 0.13976988196372986 -3.133705993345164 -3.099534511566162 -14.447504660136946 7.549908757240185 46.71689281237383 0.5561678173758949 0.14808832108974457 0.016841094185945846 -3.090379238128662 6.838405885907964 10.996951280436564 62.84610117229948 0.7942440604782294 0.15690262615680695 0.03066060455914526 -3.079420328140259 13.8005832187084 14.50317028682503 79.40779603156196 0.8557421974780898 0.1469404399394989 0.03015603805612949 -3.080509901046753 9.56131830581533 6.151566920627594 31.16953074648038 0.5624263599542032 0.15271510183811188 0.015205425294850815 -3.0894129276275635 -5.952418337230546 3.40000756859828 12.223462760481773 0.8353289456847504
ID_37caf75aa,0.14773117005825043 -0.015388182467582908 -3.090932846069336 -24.90736605470987 6.311198777740608 38.95329784797773 0.9134956622139953 0.14420264959335327 -0.007561930587802253 -3.0882837772369385 -31.520810964722184 9.527544677295657 59.42846201099131 0.8586554484523302 0.15082967281341553 0.014738576803490921 -3.079773426055908 -33.658603435287844 10.99190596328702 68.94098530648247 0.8640953880629105 0.1455412656068802 0.012634447877118383 -3.091001033782959 -26.741212606412287 10.499833370396717 67.21282303371392 0.5468024365361924 0.1517680585384369 0.032789199466098436 -3.0938708782196045 -29.05526602775224 11.931173986618095 76.11709572915488 0.7308463343814819 0.14982520043849945 -0.003181584168747244 -3.090524196624756 -29.545633376634484 12.997815221314609 79.75839394978328 0.5436349132706583 0.14641626179218292 0.021233977924051683 -3.079875946044922 -18.672670410925665 11.067593387818423 67.28765560217975 0.5202426742529271 0.14183279871940613 -0.017248186496531252 -3.0951364040374756 -14.339823528350822 11.156543465951097 67.13038634581515 0.5068208012021682 0.15353019535541534 0.017405141578774597 -3.0954036712646484 -11.035482785723493 11.377735511102404 64.91277860735707 0.9055590866795563 0.15809470415115356 0.03953889296275817 -3.0925140380859375 -11.080894497657214 14.468327010837303 83.78821025727288 0.8528382106249173 0.1549942046403885 0.014665948207198482 -3.092421054840088 -6.378158641513911 12.05781086799215 68.66624365685479 0.9105677298655444 0.1507863998413086 -0.00946076626124034 -3.0923640727996826 -6.591292450128597 3.9634570855163087 18.078152835389666 0.7055293367869917 0.15776027739048004 -0.0010749765381782316 -3.0944087505340576 5.498898726163499 3.048767654457841 7.959292829075499 0.7620545939202253
ID_7655363ca,0.14642277359962463 3.132173362382526 -3.1097211837768555 -22.14972151164744 7.79758691791273 45.41022479536447 0.9545488922003046 0.16416068375110626 -3.141349917179127 -3.10768723487854 -22.210815013270622 9.018260510734793 51.79914832118726 0.8750556731161226 0.16756226122379303 0.02103663842908368 -3.084996461868286 8.047005991051185 5.030070693256236 20.20281458904176 0.8074578264592756
ID_ecb7edbb8,0.14937274158000946 0.07514154265804633 -3.0867528915405273 10.693315625201105 6.438602195782392 31.575369834935437 0.7714016132141781
ID_e3b680bf6,0.1514376550912857 0.009919824222200972 -3.0842392444610596 -3.0174029990853035 11.613152921217564 66.88471745367659 0.6817740575327484 0.16295452415943146 -0.04746790449571853 -3.0902178287506104 -3.8928840147665045 9.74494676986243 51.99053893921869 0.5501033893828036 0.15512733161449432 0.022691791596139304 -3.095158100128174 -0.7785064255712403 8.472923326222192 43.39700351593988 0.8988078573824534 0.16430673003196716 0.025671196725343258 -3.0877246856689453 9.677060721129187 9.845450685076955 47.117719511474135 0.9064808616444328 0.14810597896575928 -0.00897627732810575 -3.08223557472229 -3.4523709504260407 3.324122611592548 12.575037777460395 0.790174718111495
ID_c51c8de2b,0.15316711366176605 3.0912613138399725 -3.109391450881958 15.887738522822806 9.629862053679188 51.617637855053296 0.6829373016919424 0.15806639194488525 3.1046747977571574 -3.0893852710723877 17.873468101002775 8.83068090508065 44.7016249642117 0.5044972811113051 0.15369020402431488 3.08614793633527 -3.092175006866455 19.515568888991453 7.638512053760649 38.5033759079381 0.5447916243514467 0.15691524744033813 0.07476903289751631 -3.103299140930176 0.06156062160329836 5.125359121216409 21.241683620574904 0.5506433931011838
ID_bbe2505b7,0.15430082380771637 3.1276524427179537 -3.124046564102173 -5.307206979183928 4.452519290183683 21.88756614925707 0.6913502776460677 0.17004726827144623 2.9436230246412793 -3.107804298400879 0.0954417252855117 7.403058783526816 36.766141761499775 0.590399475745247 0.15847420692443848 3.0839226076062216 -3.1047286987304688 2.255045110988592 5.949306287673041 28.313469579118937 0.6722382211372023 0.16642378270626068 3.1122572310443255 -3.094348430633545 2.9215134279653356 6.496316863211624 31.010435476211068 0.5819545087886071 0.1572403758764267 3.0792713700943044 -3.107783317565918 9.010415138285966 8.459252872270367 41.020354253460454 0.8304300766348597 0.15174540877342224 3.011225835009576 -3.107553243637085 14.949607645123425 8.918145298993355 44.13462910974726 0.5675988809341941
ID_b2f337d86,0.15338733792304993 3.0121156655682384 -3.094266891479492 -20.317341560979823 6.8554983970204635 37.135039522846085 0.6176327934825173 0.16570129990577698 0.016465669150584124 -3.0957109928131104 -3.290397375424701 8.702830217460086 43.057415912785224 0.8307893080174221 0.16125579178333282 -0.005235938303589979 -3.0916969776153564 4.097983784475224 8.14192593230992 37.42997050288892 0.8642081102957865 0.1615963727235794 0.01245483958447974 -3.082768440246582 7.409252164675179 8.394050586776272 36.735995835079414 0.8447792388695965 0.1585332453250885 0.023574699730052672 -3.0846405029296875 -3.379492388808078 4.632253665702299 18.66609454158148 0.8962249673592173 0.16792602837085724 0.023179726384233625 -3.0858092308044434 6.8838853791507075 4.946894198693974 17.869369728051634 0.9008525275153625 0.16640181839466095 -0.0012389792906103928 -3.0709099769592285 10.907993165084132 4.9274094509350315 16.14199213185786 0.6161537064269766
ID_99bc4d11b,0.16318032145500183 0.01869535556017995 -3.0842671394348145 13.58507577927066 8.622706066281975 46.436200920312835 0.5936162361662785 0.15447348356246948 -0.01053160372737844 -3.0919106006622314 10.497635049537491 5.402684484883842 26.006851936519375 0.5313516897348939 0.15393295884132385 -0.015185100668549719 -3.09519624710083 2.746474459476022 5.5178962908016915 24.415951659578532 0.8650715933948765 0.14424723386764526 0.023309420202501378 -3.069322109222412 7.847244635543242 3.3063083887496525 14.022840559520017 0.5631087903986841 0.1634068787097931 0.021242371051269398 -3.057058334350586 10.043351810500054 4.540848835166059 18.16386878494216 0.6308518255042022
ID_9bd02b06b,0.16458508372306824 3.1277949870306543 -3.1013236045837402 -12.778109354274866 7.908235490346632 46.291445667898735 0.7681609907716103 0.1610288918018341 -0.01962789960429257 -3.099339485168457 -9.80028100853441 10.26745966199785 59.850847937977576 0.7006132385341257 0.14656183123588562 3.1381476352055 -3.1126461029052734 -13.982301656333705 7.038973644420781 37.23595872044239 0.8905993274235563 0.15544524788856506 -3.1284497113450027 -3.111609697341919 -15.567279421361913 4.9844043931326585 24.501265516628244 0.9695450921731392 0.15237084031105042 0.0014925434591878594 -3.0823469161987305 -5.100842121661982 3.12165028312633 9.858835774277273 0.7794808636938196
ID_3eb110281,0.15177994966506958 3.10084074151815 -3.106660842895508 -20.474980758393446 13.512815407078005 77.80485982123929 0.5228215671948883 0.15853896737098694 3.1223398609520627 -3.1032841205596924 -9.408028730582743 13.179898262059456 76.85382873745714 0.5652363723591955 0.16579724848270416 3.112567997161799 -3.0964908599853516 -3.936750883024035 8.352346961326369 42.67131100533502 0.8564106562055608 0.16720490157604218 3.1230085362449755 -3.1182637214660645 -0.8656048554260466 12.56614928139997 66.6782797420158 0.8517547053168213 0.1483350694179535 0.01613800782493874 -3.089772939682007 1.3982866090887387 9.633457147905384 49.811856971608805 0.8889236169418782 0.164533793926239 0.014149817599504417 -3.073277473449707 4.38272453362666 11.497112148422596 58.663313418395106 0.5766448473371584 0.16847921907901764 0.008164668342822803 -3.1030328273773193 4.261958458284524 9.182919016900149 45.63004086850183 0.6942100269251709 0.1583075076341629 0.006047747438451213 -3.0856757164001465 3.635574839329142 3.810185427469137 13.05570870923957 0.9557804860067953
ID_223276b96,0.14944520592689514 3.116367372047787 -3.1089625358581543 -13.884336105343886 7.100628114421906 36.696408877466915 0.6549108744019141 0.146244615316391 2.9655993771758484 -3.0979397296905518 -1.1790269716177701 5.471015066955605 25.942260879638624 0.6116390157889934 0.1635141670703888 3.028786885337016 -3.0992705821990967 5.98882032173718 7.748035448331374 37.66470215956461 0.6551212390171863 0.16595517098903656 0.5462534462887187 -3.073061466217041 12.937112753205062 7.447867008164522 33.61193835738874 0.5574660445846146
ID_1f8605bdc,0.16332490742206573 0.0005483666954937467 -3.079045057296753 -9.512086470421078 5.310130747265152 24.45557909674854 0.6157106625056118 0.17519395053386688 -0.0006684314164772061 -3.080348014831543 -4.641272510034733 5.62614323399389 25.706669328828 0.5950136040623971
ID_089d5b041,0.16231153905391693 0.01415987831782002 -3.0975430011749268 -9.858184873579576 5.024155676199653 23.15370407375565 0.6045788701306208 0.15057696402072906 0.00845799029604143 -3.088149309158325 -11.30230095681607 3.8261076851094127 16.21556430542531 0.83578195687454 0.14381174743175507 0.005938865409260735 -3.100983142852783 -8.246426841253477 3.6307112842331364 14.53938804855601 0.592023018625707
ID_b4fc9fa2c,0.14561595022678375 -3.1307910637541303 -3.101801872253418 -15.847013704645454 6.069754824396456 34.72367227081037 0.6922914930965579 0.1573527455329895 3.13655948172447 -3.1037068367004395 -10.89035696535197 12.304206192528708 70.8223815638757 0.747058431288775 0.15686506032943726 3.109521571556478 -3.0973124504089355 -9.437584876996395 11.865721642988804 69.46790841349404 0.7452776626630737 0.1589529663324356 0.024219443533221238 -3.091637134552002 2.1219133846889533 8.121568319501625 43.26999397001358 0.9057229188109512 0.15209054946899414 0.02336936894334039 -3.095985174179077 -0.38974906704239265 6.331406419624004 29.835288787716895 0.9294505519815792 0.15181005001068115 0.020926734233313274 -3.0915863513946533 2.5681341917549436 5.596552623459637 26.571917226213664 0.7614810040690166 0.15745630860328674 0.013083925115160424 -3.0891661643981934 2.8408661582783785 3.9706826210377066 14.30186242081371 0.9352876470033383
ID_0a2bb53de,0.1508627086877823 -3.139159256159371 -3.087448835372925 -27.615996839708213 7.100352269059021 41.18058928719271 0.7770176001228614 0.14907903969287872 -3.134892676120274 -3.0978951454162598 -16.04986163427572 5.532176792653796 31.856874248961333 0.858215556142174 0.1612069457769394 0.05866387062133764 -3.0918474197387695 -11.432928562650229 7.783056795647092 40.53823005484366 0.8615583832962634 0.15025167167186737 0.04525495028553221 -3.0772383213043213 -8.520788699376546 7.762278244356456 40.42612325068129 0.6421910693834555 0.14855730533599854 0.01095362580029282 -3.0954015254974365 -7.571536610520523 6.257983624565851 30.649836207595577 0.9190220817793817 0.1618887484073639 0.004596065232485964 -3.1058454513549805 -4.567853322277892 7.724583076797158 37.397768785852634 0.5703309222938288 0.16080859303474426 0.015057729974238751 -3.0800700187683105 3.1446490931908437 8.206960558903287 40.557730306345356 0.896459511417422 0.17172127962112427 0.01129532840616716 -3.069324016571045 3.9599667872287156 6.580657531040892 28.627992794392533 0.8882060414544992 0.15614338219165802 0.006161793449669576 -3.082296371459961 4.562842681423311 4.938970153290789 21.061661839520703 0.54363281703516 0.15799766778945923 0.019624208493486124 -3.0859954357147217 5.142170746913618 4.625480242758158 16.67277812961637 0.9464845562038647 0.15448564291000366 0.029339623813808786 -3.080451011657715 6.043512059323173 3.9948859172196833 11.54307044381937 0.8298622201357908
ID_58921d231,0.1658325344324112 -0.01808195515553502 -3.0993027687072754 -3.0415098757472165 3.7279754519945456 13.402423262633226 0.6347728053770471 0.1691068857908249 0.018194807897083196 -3.066329002380371 10.759305528113945 6.693100535370596 23.29956927659626 0.5926844526000556 0.15541084110736847 0.01026098991369181 -3.084099769592285 8.84792707086349 4.559331814557298 14.399377070334065 0.6080837012795834
ID_f89d8e6cd,0.15303350985050201 0.02557876376082893 -3.07533597946167 -4.493341015311855 9.71707402662583 52.251544187687244 0.5078408134937836 0.15386487543582916 -0.02837373485323195 -3.0840647220611572 -3.160487332845817 6.2432737774153 29.737077316929167 0.7180309932288242 0.16478866338729858 -0.0028073409822760185 -3.070803642272949 3.550384753112287 6.6681818383158165 32.42381955611713 0.8419905842504821 0.14754770696163177 0.0009179163962854409 -3.097046375274658 -0.24349291218587418 4.331250253820459 18.422145987716426 0.618727740729087 0.15691900253295898 0.009288881953353933 -3.086433172225952 3.6981034050647437 5.104313633367498 21.731400489842663 0.7880589723753118
ID_9f9c04c6f,0.15247787535190582 0.04571443057908471 -3.093513011932373 -2.0220987415701255 16.00745245182366 90.32480727078647 0.5312572484078716 0.1595364511013031 0.013510790643791402 -3.097989559173584 1.812503983306302 15.358966435134871 87.65403952840676 0.5631056907949499 0.14804081618785858 0.034817109314044074 -3.0962564945220947 4.724991136486238 9.106525400916214 49.984792358446484 0.6924103504295379 0.15134328603744507 3.082785904931037 -3.11863112449646 12.00374066371346 11.929132699214964 64.6887294730732 0.6209617280494317 0.16160713136196136 3.0966254709578203 -3.099165916442871 129.78449841202556 116.07679072180274 641.181887663431 0.6258516099831913 0.1474846750497818 -0.0009462046743133976 -3.0952420234680176 2.942017050004031 4.456434847687393 18.924745917355786 0.5249352287328016
ID_0591a0910,0.14561012387275696 -0.05992833025646789 -3.083923578262329 -21.424753653639925 11.588297583518342 66.98271823938934 0.6411282060296688 0.14018674194812775 0.008342748906301085 -3.0887136459350586 -19.82963065998906 13.25375305762566 77.66905473792809 0.7558185441659022 0.15884338319301605 0.02523222804962473 -3.0934646129608154 -4.948259786632921 8.365334786096689 41.2622381192877 0.6336607576493902 0.1539774239063263 0.03320200413300232 -3.0889134407043457 -11.874042441255819 4.222530023962966 19.472566969570533 0.7698299907623426 0.14793603122234344 0.02190457894174322 -3.089573383331299 -2.7694415455792605 4.57381961821023 18.406729400188702 0.85554837805756 0.16238752007484436 0.010602946437808864 -3.072199821472168 4.130131849033936 4.874877177899401 17.796067441600957 0.9275136310946199 0.1512250006198883 0.00370849174598567 -3.0858213901519775 -2.14329082004038 2.5239582980110464 7.807692702711621 0.8606743106851645
ID_1a96a868e,0.15498118102550507 3.116607014636251 -3.102177143096924 -13.40733941016417 9.613601656865526 54.08605031698761 0.6865776954948242 0.15745754539966583 3.1395950511645854 -3.1063051223754883 -14.553101300922027 8.673104560814465 46.274543971664144 0.9179942071136412 0.1692882776260376 3.128867162945024 -3.1093268394470215 -13.059971137113708 9.274667567613442 49.04707907178807 0.7681982210696015 0.1543545424938202 -3.1345396272751427 -3.111830711364746 -10.235419418422666 4.912898238557992 23.92157316211439 0.6746130479308269 0.14944574236869812 3.138370347807196 -3.1243791580200195 -10.737602152894413 6.251842017984997 30.74565715769047 0.9537304194123254 0.16518209874629974 0.019688537633760127 -3.0690619945526123 -2.7730008743490715 5.680592381172866 25.303202559847087 0.5970450901137873 0.1531227082014084 3.137643777410455 -3.110429286956787 -9.736481545352184 3.5389958938688206 15.218952298196701 0.557069318526422
ID_f164fabf2,0.16747501492500305 0.00946245302948206 -3.081373453140259 6.649645393547847 10.938892097058575 57.2660675738086 0.7109366385931458 0.16233040392398834 -0.006637496341094801 -3.091580867767334 -3.9785936896447622 3.598354824525273 11.9173014785536 0.5965457823348133
ID_2749c3f78,0.14916059374809265 3.112395996911075 -3.0958495140075684 -29.369592242984048 13.72749826288718 87.36961505643154 0.6604285309954955 0.15710915625095367 3.110862126646349 -3.109445333480835 -11.126261936395968 12.47750222686506 71.52000990163013 0.5475135594097594 0.1593480408191681 3.1244200254873746 -3.1032795906066895 -10.785725419551513 17.197929322755108 98.91169030075615 0.6905557803481354 0.15585625171661377 2.9529150026723943 -3.1087894439697266 -12.514612505530952 4.914981199113793 25.650312754107063 0.6115972763438116 0.14599189162254333 -0.001271736411257627 -3.0946664810180664 0.07985319473196958 6.073619890795165 32.233136818109124 0.6938657691621395 0.1579681783914566 -0.02468637383924338 -3.0860371589660645 3.626523270012234 10.696223969424526 57.599333193408704 0.634987589004323 0.1683935523033142 0.020377273983300914 -3.0946059226989746 5.439542606490735 11.573275939582997 60.972032059389484 0.7063919182596717 0.15064874291419983 -3.123433465617319 -3.1067049503326416 -8.948999851936865 4.836903029001812 23.573878407503443 0.9626887975989467 0.1526545286178589 -0.00030339726060750206 -3.0958783626556396 0.4266941573624526 5.256075216562248 23.230416918960323 0.932848641383594 0.16058360040187836 -0.022421663383776665 -3.0936832427978516 5.785890901335994 5.138819027151245 23.40250909332014 0.8321499991450199 0.15125079452991486 3.1066591997534734 -3.121899127960205 -11.953791708933243 4.072268443095925 17.822464462658406 0.5740904938654514 0.15547041594982147 0.0057934072319249 -3.0795912742614746 5.983381211223447 3.5750458661399342 12.162153422866394 0.8959297858981936
ID_1a5257d65,0.14456619322299957 3.1206465770099285 -3.0981736183166504 -24.410236578373652 9.47643688297955 59.50363538898203 0.73833353309347 0.1436598002910614 3.113313363513083 -3.088305950164795 -29.35775941786756 14.957362259593712 93.64978791054672 0.5001615807871739 0.15572138130664825 3.1320762983003103 -3.109808921813965 -26.635854932608748 9.922540680234132 57.75658323880742 0.6351758723958437 0.15368647873401642 3.132738639713697 -3.1079461574554443 -25.080558961702174 12.270989493273651 71.54351296333449 0.8602287311415276 0.15660451352596283 -3.116200393782473 -3.0971717834472656 -12.477723606047908 8.364095002180223 48.17324612468542 0.5999308212896068 0.15386411547660828 -0.013987815792952092 -3.103018045425415 11.7588190199792 6.199401200677919 28.30122113231397 0.6271698659693534 0.15125694870948792 0.028934480350186923 -3.0806472301483154 13.559849011754448 6.28591764433106 26.731392741226657 0.7707483076327126 0.1642359346151352 0.025584972552609272 -3.0664432048797607 13.927567410440462 5.606316213559503 21.555369624496425 0.8073543903408127
ID_e88770830,0.15117166936397552 3.1387523964366824 -3.107170581817627 -22.704391466899907 10.008261371789297 57.6719934872811 0.91403778573043 0.15295186638832092 -3.1363724871271215 -3.1163597106933594 -20.0011990759179 12.956136178075688 73.01996349339254 0.9591747361561103 0.1620464026927948 3.124547987805372 -3.097316265106201 -20.884065715787937 14.693945216156283 86.45070154258968 0.8541574574732228 0.15390293300151825 3.1062650478528147 -3.099458694458008 -20.129514700064835 17.19455129706886 98.1835945553882 0.5967149056873948 0.15878914296627045 0.023655365005387594 -3.092444896697998 0.2153754644706281 15.72492785173784 83.52876625991395 0.7972113310796417 0.16379305720329285 0.04314719213366013 -3.0720009803771973 10.83716545357347 8.904456581108134 43.24933789812248 0.7496984510080805 0.1758022904396057 0.050097254219954826 -3.0617330074310303 12.534216795131464 8.49623414696749 38.121419837373935 0.8019824970063474 0.17539747059345245 0.020983099942444468 -3.063180685043335 13.881625754831365 8.390943902733985 36.065879464185 0.9097043380353707 0.14980380237102509 0.034548742864942084 -3.086108446121216 13.27149413529192 6.877285242111363 29.663068086046994 0.6995572481330804 0.15912072360515594 -0.0023365406006003236 -3.0822649002075195 12.011573549474223 5.423610161773936 21.71483337882548 0.663778658048087 0.1677519530057907 0.0486386634839266 -3.0761241912841797 12.468755428879916 4.822802389977416 17.283990979218373 0.5932185285039123
ID_5eb629235,0.15317131578922272 0.030708965196476257 -3.1009819507598877 -2.421042001855605 7.69558918067476 40.2854890668587 0.6826554585173539 0.15692782402038574 3.110910489106746 -3.102722644805908 0.8400814753706272 8.574325799704155 45.81147939892565 0.5124942892308609 0.15468020737171173 3.105359369004696 -3.117990493774414 1.709640218803726 6.759420538186237 35.857066615801024 0.7150583806942775 0.1530340313911438 3.0949732379051826 -3.106010913848877 5.935138571642366 3.6151170866489193 15.416583418869262 0.7110279623180799
ID_3dc4de7a4,0.13061054050922394 -0.15170652654905653 -3.103048324584961 -6.184027594904519 17.73092443507565 104.59961030781652 0.618630459692893 0.15539637207984924 3.116129955851191 -3.1154017448425293 -12.669495832360804 7.636695107797814 43.99416591158246 0.8655199281437345 0.14675042033195496 0.03812464712301927 -3.07974910736084 4.201095059401423 9.619525640664298 52.94553041795862 0.757087581094128 0.15184608101844788 -0.007926922689555494 -3.0791616439819336 4.331773181140183 8.384302315328432 45.91955865036349 0.6175635658604272 0.15495756268501282 0.0495179201290187 -3.076293706893921 4.7552007975857205 7.418301412955562 37.80143253534851 0.6619974293033767 0.15767131745815277 0.001888769902308195 -3.0952696800231934 4.176599974736753 4.538348746500807 20.743370056187878 0.9548491998355244 0.15185517072677612 0.030280533519819502 -3.086718797683716 4.575189384851377 3.1009607764430234 10.213793940906568 0.897329908276783
ID_298d74636,0.16126778721809387 3.1238070542769396 -3.0940470695495605 -9.750106851168754 14.331626738277183 83.79640589596957 0.6312514469363365 0.16319189965724945 0.007293348275995499 -3.083685874938965 -2.1995750418620417 20.810700911773793 116.82301639887535 0.6544283598770563 0.15829132497310638 3.124363379991467 -3.11299467086792 -10.904855677682583 8.33270164004888 44.720119574964656 0.9137724353584585 0.15981869399547577 3.1072977932556225 -3.107481002807617 -11.140864005052538 12.398429421052727 67.10079695892607 0.5160633055753068 0.15697677433490753 0.01241077171316097 -3.090686798095703 2.9234154371072645 12.313674012301474 63.978922470789115 0.6484923144001166 0.15714645385742188 3.137709181119228 -3.120461940765381 -10.992266014453659 6.454029313451109 31.806863865403002 0.9215379034811605 0.15884575247764587 3.1407032091015767 -3.1239287853240967 -10.284243426050715 7.565014642654901 37.94932846091481 0.9519067228245348 0.1539071649312973 0.006235637420312897 -3.095698595046997 -1.9320368126809992 6.558100364809285 31.952500447050955 0.8993855642528084 0.1628739833831787 0.019301649653183484 -3.1178836822509766 1.5998666094825666 7.121416149548324 31.981999534728953 0.504394552741247 0.16417022049427032 -0.01629854634605859 -3.0893750190734863 5.712193773005595 6.115081590860428 28.137999247096197 0.6197148949255655
ID_521f0b21f,0.16018277406692505 3.120995067055495 -3.1042065620422363 -16.043499236796176 5.399552960876081 29.184337670481774 0.7841260934426787 0.1619190126657486 3.1112459397945003 -3.104348659515381 -15.88548431814649 7.170810282062344 38.435478894989735 0.6662771859295284 0.16620120406150818 0.036005477890369175 -3.0908191204071045 -7.601422451959512 15.644142782514214 85.15437974800193 0.6865784822108811 0.15915457904338837 3.1385462115495186 -3.1034352779388428 -9.259640984520495 5.9213201919391505 29.198896791756095 0.9107621596033271 0.16166339814662933 3.1398388314902457 -3.104644775390625 -10.361202174689845 8.029761911970557 40.32409506457921 0.901772393027925 0.15861637890338898 -0.012448354384309945 -3.0950961112976074 -2.465127519318113 8.511696412187023 41.965004427623725 0.686863363809526 0.17171736061573029 0.05914636647992533 -3.0750186443328857 3.24209978884071 10.337231251106283 51.43710275829717 0.5261533121453011 0.17269942164421082 0.04381373582547884 -3.0703251361846924 6.09986151377788 12.571090862511143 62.80071787770252 0.5099180473134759 0.1617772877216339 -3.1327000726908922 -3.112204074859619 -10.733470382175534 5.0090639629527915 23.04987102725163 0.9781586777472888 0.16167668998241425 0.02726575583661377 -3.073533058166504 4.846897558914632 6.877468082109256 30.855129726911827 0.8872527987046075 0.16451434791088104 0.001439705350748312 -3.080543041229248 8.470625469713214 7.412905184342958 31.641827369860156 0.9044175026818974 0.16454559564590454 0.015423306022959049 -3.0973150730133057 9.113880068436373 7.180468777950414 29.526978829707474 0.8557251095623385
ID_f83fe5925,0.14843668043613434 3.093200763494009 -3.108994722366333 455.2111980544481 379.64100802615303 2106.274949212662 0.668522023506473 0.17181256413459778 3.1372054918411885 -3.105332612991333 4.059128358323519 7.077079126733042 36.0748232447912 0.8125854138776076 0.1604708731174469 3.117533248146719 -3.089608669281006 7.034335232137932 7.291033853618344 37.83004428374874 0.6044382061130443 0.15860702097415924 0.45931488537116055 -3.0940957069396973 -8.648217154591668 4.261771353018947 19.584360662042368 0.5267438278722419 0.1620437055826187 3.115210882898408 -3.1083407402038574 10.298880944694334 5.147181078821119 22.25446850961906 0.9020335771183852
ID_818a14ac7,0.14764709770679474 3.1386735281590097 -3.1039514541625977 -31.55831319502746 7.340768128589722 46.01594507697797 0.8387302097063487 0.13926516473293304 3.126933967251329 -3.097635269165039 -32.86793609707179 12.927816654411064 82.58525680823276 0.8617612875432384 0.14048483967781067 3.1205353615309046 -3.084324836730957 -32.14015651826249 13.95371093864165 86.84920966150645 0.7266585127076545 0.14060935378074646 3.1371882060570475 -3.0972914695739746 -32.4134715091256 15.834898609243941 101.16028200032406 0.8819324285341077 0.14916016161441803 0.006132775771268259 -3.0976290702819824 -1.0787471044479502 17.60909408332694 101.6013772379936 0.8492553779712941 0.15993255376815796 0.0022465595656928467 -3.0971438884735107 6.919185817259435 8.413244038838993 39.82591628553752 0.8812422051225162 0.16211865842342377 0.014668521058923653 -3.0788912773132324 8.76279742342465 7.163624105282393 35.46465183722353 0.9115655351054978 0.1675090491771698 -0.40390595560823844 -3.097914218902588 12.790401967601229 5.633615292106734 24.406987768456897 0.7132082971196779 0.1505613923072815 0.03778910732012895 -3.079422950744629 2.2125784627184513 5.02220565773813 20.193064212834607 0.5227277068009217 0.15454812347888947 -0.0001596652073843708 -3.0870940685272217 14.578376369315286 5.03694150306855 20.20831406118846 0.7300733701888645
ID_124673c47,0.14426405727863312 3.0984686384603344 -3.107724905014038 -48.70611223492753 11.417950716710333 72.95563158185402 0.7716909662401393 0.15725398063659668 3.112119067429222 -3.10483455657959 -35.337214054653394 10.631235275496948 66.449029698256 0.7912753780434875 0.14929410815238953 3.0686144589233484 -3.1050643920898438 -33.10675449657816 10.38750245687078 66.00808645716046 0.5000972340808851
ID_35e87c9c8,0.15944570302963257 0.011182235967159926 -3.088700532913208 3.0646999423785988 4.375101608428683 13.204861440309898 0.8695912977407516 0.16740524768829346 -0.012605086752328387 -3.070601224899292 -2.3811548938301734 3.9429643228384084 10.503381971043884 0.5605000142319803
ID_fe4a3f32a,0.14870499074459076 0.03705914877045389 -3.0756287574768066 3.026406429137497 6.585134089052897 32.60203264392588 0.7255307870270867 0.16887131333351135 0.05612650240137998 -3.0723671913146973 8.06152316091667 11.10961199767496 53.55662240621652 0.6511435656243316 0.16649265587329865 0.014707293524676722 -3.0735177993774414 7.601720858491713 9.144117980473126 45.21582756370367 0.6607017738415086 0.16257984936237335 0.006752150573807272 -3.0828857421875 6.6248909298561784 7.425975027469818 36.10541772166039 0.6710785201359164 0.156760111451149 0.01958403459238516 -3.085669755935669 5.907385434472361 4.99032827995704 21.212965250050793 0.7407842767658411 0.15435509383678436 -3.1368649249021114 -3.114779472351074 -5.828188439056034 3.673925618560779 14.750000834493962 0.9490647247925924
ID_b4803dad5,0.16128425300121307 0.0479846188228855 -3.0869250297546387 2.0788759364548457 11.74014641198282 63.49055217837148 0.8345690495270335 0.16330674290657043 0.0069648926461512274 -3.0867292881011963 2.4651784088403312 9.621836687683336 49.97548471329706 0.6661890328439235 0.1656496375799179 0.006604960921741419 -3.0905532836914062 -0.6797490102358557 6.25623662299915 28.567738785612967 0.8687601244599236 0.15488973259925842 0.0066640043727872475 -3.0887527465820312 7.879623901235199 4.040679304374368 15.500384777066175 0.7425711366089562 0.15269312262535095 0.005994243293593286 -3.083646297454834 2.6910734929127975 3.199874262779842 10.884732008010515 0.713949802489694
ID_8edf7f1e2,0.16621381044387817 0.021248045182456952 -3.064422607421875 13.894283011365362 6.534750505266269 28.20187556498584 0.8556906411883557 0.1349148154258728 0.011005170837502073 -3.0749144554138184 -2.4330238129709896 2.4796302215733372 7.288533172604529 0.5312326719117341
ID_32f8110e0,0.1479348987340927 3.1332570626036906 -3.112783908843994 -904520783.0387534 541548029.2069664 3485139264.2981954 0.9578122108366333 0.14689815044403076 -3.131863115684133 -3.1063849925994873 -5974000.6004235605 4439240.997441491 28132497.52623099 0.8775910657703325 0.14070643484592438 0.0020561686159764566 -3.087416887283325 -8.69288967433081 19.31808261477817 115.79959964761703 0.5033687951188767 0.16109499335289001 3.120543194424083 -3.0972514152526855 -19.267147625664002 5.3296498954519045 33.96644890310466 0.5540233325456398 0.15132573246955872 3.1253232057976055 -3.106632709503174 -18.484873500227078 6.298631707958364 39.1902029514668 0.7559537121853127 0.15196257829666138 3.1349150120112887 -3.113826036453247 -19.85069753777494 10.561440361497782 64.54873691441502 0.9632006140934853 0.1446167230606079 -0.003351370739682938 -3.083298444747925 -43.24558967117749 64.48210698910158 392.3823970432494 0.8838224615974549 0.14950250089168549 -0.00986384002476596 -3.081937074661255 -2.087399660086318 8.576157360521446 48.61655543683069 0.6063019975328304 0.1548852175474167 -0.00798637343085246 -3.0922083854675293 -0.7722536662537628 5.5419135862995175 26.33085085985269 0.776503241305053
ID_c441a81c5,0.15644104778766632 3.131617073127941 -3.113004207611084 -8.336295341303723 18.56945290679656 108.5498602282585 0.8979795893317684 0.15447783470153809 0.015267476594036542 -3.095977783203125 1.4483775503731338 19.019512678352108 107.59193311570183 0.8340729605585935 0.15807348489761353 -3.1377286943724845 -3.115030527114868 -9.211362255119587 7.17967138883023 38.082494137982984 0.8769177706781357 0.16066041588783264 0.011181377135751628 -3.0705437660217285 6.243468652444539 3.3163703072904642 9.037853777439686 0.7103581777381601
ID_6f1cbf7b8,0.14200688898563385 0.01791870768142929 -3.0947654247283936 -13.084492087346431 10.712404549141105 64.89762663842757 0.8860933526702395 0.14189688861370087 0.0034285652716354175 -3.087677001953125 -9.457206554091472 11.726809671914678 69.79862643842587 0.852478959571387 0.14597274363040924 0.03285903669447887 -3.092780113220215 -9.100173159330009 14.62569474804587 87.02422380449877 0.6215708962001824 0.14352712035179138 0.024299049035081764 -3.0937976837158203 -8.035273417883658 15.10969874151085 89.6172089263656 0.5865509107364355 0.1400572657585144 0.014595155210897597 -3.0987343788146973 -5.382094816789094 15.476021277856496 90.98588307944384 0.5538060347146782 0.14872269332408905 0.009446147629877751 -3.083857297897339 -3.281700949907769 19.585171233640796 114.7157533441478 0.6001909839860862 0.14781363308429718 0.06550790940806347 -3.0808372497558594 -17.16410268247062 6.453099330590834 36.39000654224134 0.6071174293002455 0.14318223297595978 -0.05133065387103053 -3.087218999862671 -8.599721210081915 5.115164494261351 29.571449480770784 0.6267032356513907 0.16303521394729614 -0.0032828038803954527 -3.1007370948791504 -4.541733978579094 15.291537208524476 86.70310905108882 0.5971726408967761
ID_5b0b480bb,0.16661283373832703 0.08452872078256146 -3.0815701484680176 -10.391638888530345 6.246996585314447 30.870242241314813 0.6331869314194579 0.1634616106748581 0.0685839720588911 -3.0918233394622803 -12.501118374252739 4.685295052100838 20.504929400722677 0.8517714079981635
ID_2710bd411,0.13631117343902588 0.008283955756510707 -3.086200714111328 -23.57156877582064 6.68250159665621 41.834667325055364 0.6853998855666149 0.13140109181404114 -0.02139773968071973 -3.0853848457336426 -16.021806705117154 6.636445492826861 40.06601109620641 0.6611378802104675 0.14498953521251678 0.015029728572511917 -3.0815162658691406 -25.105490879720044 11.795303803652775 74.28144168181369 0.6393515853405813 0.1428857147693634 -0.011676050085525953 -3.084620714187622 -29.198506076384714 16.998548914210357 106.89599037931683 0.6076631651660969 0.1603214144706726 0.001416423134362619 -3.0837180614471436 5.104151439630785 8.364203904292038 41.43094132779138 0.5085722127323175 0.16305451095104218 0.03701333963009267 -3.0727698802948 6.1653835854737356 7.410706895564107 35.43482690085813 0.6092961186045341 0.1543208509683609 0.012026889503356739 -3.0850653648376465 7.002192673437137 5.883167442756963 26.67569220069624 0.7440358656414564 0.1635430008172989 -0.011679736004347867 -3.084698438644409 9.60348657096678 5.87420565067731 27.003539758360496 0.7071323646063586
ID_e9e080023,0.13193351030349731 0.018864823674951313 -3.082932233810425 -22.51749710346709 11.186751816457019 69.91081382261132 0.9262346443403028 0.13585413992404938 -0.01224374971567571 -3.089749813079834 -21.381079632135275 12.595860660107991 76.81077910493622 0.9095391241434512 0.1428917795419693 0.016927686126820867 -3.0916404724121094 -17.5159422589263 11.60187572243144 71.29927895299221 0.8413824336709924 0.14206992089748383 0.03745992401674315 -3.098896026611328 -19.89005463027423 17.925745482301092 108.14964047287441 0.5029350741571622 0.13964904844760895 0.04494318445394209 -3.0925722122192383 -14.559401598204834 15.858681569562966 95.63934947481488 0.5002303289944817 0.13620702922344208 -0.0011830536830180736 -3.081064462661743 -5.1922006812932295 20.11339358660251 118.42653171385207 0.5322348484187575 0.15453852713108063 0.00470973987983151 -3.0908315181732178 -25.03419896708473 6.3610297459414396 36.5029752254693 0.8765998250271384 0.15009859204292297 0.026580746259927644 -3.096019744873047 4.973191358559712 7.744159620231253 40.86036295614334 0.614787506749402 0.18068939447402954 -4.4717220345331586e-05 -3.084624767303467 5.815093079018005 9.492140391477736 45.33033083317773 0.593920796051067 0.15996307134628296 -0.8888342817984722 -3.0889110565185547 9.278847340057037 5.4531461729037405 23.185977339776045 0.5204587895135031 0.15705744922161102 -0.015575406916227637 -3.093665838241577 4.591265100049936 3.8716700637435664 15.638701357000935 0.9187376295688753 0.14803127944469452 0.0037859708908860525 -3.0883803367614746 6.150717100907794 2.8893522840505583 9.100683000302599 0.5560786331533147
ID_04ea999fc,0.14596140384674072 3.0815848688036778 -3.118049383163452 54.53514652406047 53.88941729066702 293.11903370027466 0.5188027792776319 0.14260335266590118 3.0784517471273594 -3.112649440765381 10.074183077983763 6.6852480508545895 36.32029049308285 0.5738705794670539 0.15984879434108734 0.11058392813755005 -3.0914149284362793 -1.5750207285884694 6.745771129211187 35.33074866177605 0.5726261662453286 0.15517696738243103 3.112945042968108 -3.100414991378784 5.20922507367661 7.042331070137955 36.52251951430094 0.7808858073585985 0.14966103434562683 3.0971062441711394 -3.0865912437438965 11.915951360211984 4.361962157855139 18.899327257310663 0.7723086469650783 0.1573096215724945 0.009342400520480383 -3.098186731338501 -6.116540029525909 4.328254399137886 16.784495670141855 0.7901744948172695
ID_5510e0e03,0.14969272911548615 3.1373855267510007 -3.127119541168213 -12.71220700817237 6.5867326093719 38.080851688292974 0.9421856876552857 0.14919444918632507 3.1265000857323684 -3.116934299468994 -9.067853150941273 7.421828919393848 42.549521068037166 0.8686296051998025 0.15452350676059723 3.1322487612905094 -3.1153581142425537 -10.485791987581372 11.868185078744458 68.13102323418205 0.9094043898022265 0.1543310582637787 -3.130278678440156 -3.1265575885772705 -6.32199272511613 11.897025848576648 68.09072196009043 0.9287479523881779 0.15116363763809204 0.02220351139357646 -3.0869171619415283 1.2733619688543418 12.915838968831682 72.85183579655443 0.7814105216827334 0.1479201316833496 -3.133741372573237 -3.1192378997802734 -11.829202445900176 5.69423675458897 29.825891400542965 0.9551508010416843 0.15717080235481262 -0.002525192651996228 -3.090421199798584 2.789654293453916 9.070735931839707 47.87761875731196 0.6850790922959771 0.1514010727405548 -3.126558340818284 -3.1038079261779785 -14.814383730646698 4.521872483125703 22.107955853938066 0.5385467488479431 0.14619025588035583 -3.1400583911152244 -3.1225061416625977 -12.809963567114451 5.225554108645142 26.17231905463192 0.70104237186027 0.15072770416736603 0.011935070462889595 -3.089386463165283 -1.3331281952257823 6.1125356016172105 29.107831493309842 0.8541413133586208 0.15415655076503754 0.02741983717971994 -3.0867652893066406 2.90308933590323 4.8620909444319516 20.6857651472447 0.6515110457990408
ID_d4d060b51,0.14349722862243652 3.1222641065038013 -3.1029374599456787 -28.0976437260369 12.073403443065391 73.04120239795861 0.8100837885378748 0.143306702375412 -3.1392895617352057 -3.109661102294922 -26.726971720507517 12.474270011136158 78.79755928630553 0.749991227043968 0.14347980916500092 3.1188732898209053 -3.101545810699463 -27.03905020377596 13.778342514996707 85.84021340249078 0.7184218645455859 0.14830203354358673 3.131466727035092 -3.097726821899414 -24.86946273923072 14.521564389395845 90.28193862161726 0.8111035587320831 0.15532715618610382 3.131788948579627 -3.0935325622558594 -27.0065412993978 6.753099733755113 38.54374865205644 0.8834069603826672 0.14778760075569153 3.1295520547970526 -3.099079132080078 -13.573231861972666 11.05815332052709 62.443792923669974 0.648120819569265 0.1487039476633072 0.0029285685668287336 -3.0921225547790527 -4.384856704150269 12.353873252900241 69.79768286587074 0.9385867903805882 0.1443553864955902 -0.009078187562123304 -3.1003494262695312 0.1583119844389677 11.354146654320957 62.34601746438043 0.6736920961579185 0.16444392502307892 0.015848911319994486 -3.0804030895233154 11.618895841872055 14.503538608586556 76.67848975392137 0.6725393746851333 0.16068574786186218 0.044157202371488985 -3.082622528076172 12.086942492045564 11.985684931306922 62.90305863263243 0.6698106546671082 0.1540430337190628 0.010159723468997331 -3.0750153064727783 11.761672324268352 11.139835417299418 57.27742920754449 0.8761865095936605 0.1566610336303711 0.11696314827865884 -3.0961556434631348 26.267583040304807 12.95405122877998 65.93551766218914 0.5019365610257935 0.16689209640026093 -0.9479871226340307 -3.0867557525634766 25.777257653247084 12.20234223998155 62.040913105032644 0.5141102871724194 0.1550203412771225 0.008040422255418405 -3.0853211879730225 -0.44075329078761183 6.859408473376259 34.06349752277197 0.8727631424442357 0.15690909326076508 0.01872305782885662 -3.0902037620544434 12.541610807729707 11.120677105501894 53.10238014104099 0.9062200453487695 0.16677772998809814 0.008666956777713997 -3.074767827987671 12.107927951896167 7.9257582776111954 39.27956964002714 0.858712911509077 0.15047100186347961 -0.003160189373775676 -3.1008222103118896 2.7053936990218044 5.438450541815782 24.063738872904032 0.912824070442429 0.171852245926857 0.03346538976713153 -3.06607723236084 12.548825833237222 7.7036321163537345 34.802198102373325 0.9721231930099871 0.1668410450220108 0.006513277009373461 -3.0771687030792236 11.081476832600158 5.291237271813235 21.184501051935065 0.9536776595237094 0.1620781123638153 -0.00296761006142727 -3.0660221576690674 12.363820618168305 5.107670428253974 18.302743136914124 0.8817079140885318
ID_c8a27d85f,0.15256986021995544 -3.1300673825346244 -3.1108670234680176 -9.830388722581015 5.724749583446726 30.61207480292456 0.964179694184207 0.15330113470554352 3.116605433462225 -3.117065668106079 -5.626337464928491 6.466889224919862 34.04152835834413 0.7614760271805816 0.15714028477668762 0.012536508527642837 -3.093444585800171 4.256957106088511 5.034022780681889 21.395412597819544 0.942312650258436 0.15628506243228912 3.1333531457327966 -3.114981174468994 -6.7926493699252 3.38853507471551 12.363625145942507 0.9245748268414664
ID_7ce563e3a,0.1529860943555832 -3.1347686313854397 -3.088884115219116 -18.53964119315752 9.682550525221638 55.6312289062855 0.5437793458234268 0.1636696606874466 3.1182890358378224 -3.0999338626861572 -15.412921551217108 12.680392243897368 73.29139719841973 0.8523306392193012 0.1503906548023224 0.01292696561588007 -3.0980710983276367 3.480670846976074 14.704160231607089 83.04119021626268 0.6442795494394568 0.15757054090499878 3.129862647232616 -3.113736867904663 -14.054947247324124 6.671833445822507 35.155990719830754 0.8386817938546242 0.16039720177650452 3.140566813846849 -3.102550983428955 -11.64935082196164 7.605027277678455 40.13098478319037 0.820091268623603 0.15639856457710266 0.044933639407079645 -3.0901410579681396 6.362206031479805 8.695124994199416 44.42076395390527 0.843668561301001 0.14577114582061768 -3.127350553060496 -3.1137545108795166 -11.744327871495699 5.001792309233427 23.329700601890092 0.5339919860538125 0.15800520777702332 0.00864870184715151 -3.0770363807678223 4.3801519442819385 4.163399536581463 14.20203745367793 0.732498149785975
ID_b4bf2f347,0.14319109916687012 0.00048285553031748467 -3.084094524383545 -22.630712389925737 8.235710114258412 52.7952671051192 0.7869061478402994 0.13585299253463745 -0.003251019100189321 -3.0836949348449707 -18.99116144488886 8.924429651661004 54.876947619831824 0.8701792472519971 0.14252565801143646 0.006963265021660733 -3.101608991622925 -4.4604513914050905 17.32364876703857 101.6626166317667 0.7308694010219668 0.14448806643486023 0.012000131749556154 -3.0837626457214355 5.636307906901999 20.360204159346146 116.61067594028293 0.6492576627342393 0.14532306790351868 -0.003403312162067781 -3.07558536529541 -20.828768060974834 5.7575762603776255 33.34010808019232 0.8429985953805307 0.15014062821865082 0.007573230046824015 -3.091644287109375 -4.993242227954216 8.426473451626423 46.525329455118346 0.93458509415293 0.15040522813796997 0.029300334413035815 -3.0878701210021973 4.592963672062065 14.231261641572473 79.12351347535024 0.7067533059153484 0.1494489461183548 -0.03602582016285341 -3.0880472660064697 5.517567552156375 13.498256102860129 74.9457874480514 0.6233778200962279 0.13916663825511932 0.019243725813626905 -3.089306116104126 0.0929087278740701 7.101621162914885 36.1880303466131 0.5292375619891126 0.14821842312812805 -0.01504356321096321 -3.0916459560394287 0.6844220968341056 7.511587112659869 38.379290803651976 0.6052644376636523 0.13805906474590302 -0.005138667550237208 -3.078479528427124 -3.1727578686802134 2.8042130172572453 8.698187768484654 0.6358533119659253
ID_dc7d38630,0.1517273336648941 0.029792735922477345 -3.0822439193725586 -1.1566492646787934 7.490667019494993 41.19583214750623 0.6779296552685007 0.1518314629793167 0.03024571387110183 -3.0880041122436523 1.1637241684443533 11.750431413983467 64.42112336991326 0.6416874943728285 0.15740077197551727 0.017454914264045534 -3.0875282287597656 1.9866572120591612 10.830773879313071 59.405687377153015 0.8235736465618599 0.15442773699760437 0.01601900021678155 -3.080069065093994 3.7559335035346733 4.940384807493659 21.996092796361218 0.6807806002466352
ID_5428a3a8f,0.16676251590251923 0.018772329099618235 -3.0784225463867188 11.453595982229345 10.1127926687275 48.786395533239926 0.7733058639747286 0.16272850334644318 0.024495127184690713 -3.0773398876190186 11.853443994805385 8.050742829882978 36.01637451877042 0.8926851210502379 0.15499988198280334 -0.002916449660958585 -3.0944108963012695 -2.9925111103114026 4.5275370007286755 19.311740840640773 0.8476006112073037 0.16875174641609192 0.009496909925419865 -3.0777747631073 12.133549153823122 6.373950839053297 25.46185169077106 0.8954605559293636 0.1703118234872818 0.020669457964978245 -3.064068078994751 11.757903432567216 5.33007617834657 19.139268994355437 0.6107650829038217
ID_beb50a6f0,0.15337388217449188 0.01847152595304618 -3.0913772583007812 -0.4214558257887362 3.962504903334092 15.003037452733503 0.8258154145418675
ID_910d907cc,0.13971352577209473 0.00412560207713659 -3.0799241065979004 -31.657487756307976 9.899726979914707 65.19818902019239 0.8873993480234991 0.13857077062129974 0.0006010901300485192 -3.0790321826934814 -21.153889171770864 5.629929372274769 35.6302079103276 0.7108776115396023 0.14364783465862274 0.045652710096200706 -3.0789546966552734 -4.2181109870814435 12.205745407823635 71.24166974835286 0.5476532314960174 0.14662927389144897 0.006833127593168557 -3.095614433288574 -7.172305332168363 8.23293551805456 47.46298999520098 0.8698526157491614 0.14839889109134674 0.03605696746901705 -3.11061954498291 -3.5012660680880066 3.3881309225558276 15.49853008764435 0.8153825722906417
ID_7973af9f9,0.15889495611190796 3.09842810667733 -3.1030220985412598 -15.47817919424021 11.736531639735825 66.8974877441017 0.645475923003874 0.16787102818489075 3.126956550689701 -3.110133171081543 -3.9598378941899055 10.4350294216867 55.60591132365627 0.8983370457016194 0.16127875447273254 0.018685461838323453 -3.0931735038757324 5.615489919184197 9.26881478578552 48.54484642973279 0.7814111403937922 0.14888685941696167 3.132916263043962 -3.118569850921631 -8.2513418384757 5.794652877803656 28.334964657989254 0.7521652211833576 0.1459694802761078 -3.137489196345185 -3.1329426765441895 -10.992685020267539 5.154059136738214 23.9923913424621 0.6335593226995526 0.15714502334594727 -0.00046181252151908934 -3.094621181488037 4.127751208082388 5.330088979018201 24.17359054092146 0.8417952984102581 0.15080511569976807 3.1364448151310946 -3.111142158508301 -9.309636361805193 3.3441448710984214 14.239897307013413 0.8043610121547466 0.15691092610359192 3.134002752719571 -3.120626926422119 -4.140957509527167 4.7873962542498525 20.48275306340765 0.8898175536183652 0.14611440896987915 0.007549955050274211 -3.0931124687194824 0.9480466435911422 4.608072068363228 19.59266215566374 0.8844971607173703 0.1508975476026535 -0.02723562805709011 -3.0926156044006348 6.573173297920586 4.8601297898944775 19.42807137969062 0.6989440340174768 0.15932270884513855 0.020018732987143743 -3.0757813453674316 5.924806307082264 3.8299189313338227 12.42953985931959 0.8878654221434289
ID_f765cad92,0.1486751139163971 0.029695880906744757 -3.093228578567505 0.696441475456185 23.591204204476142 134.85624112850553 0.5494516672648431
ID_ea4983b8e,0.1630370020866394 0.05530893701718961 -3.073619842529297 5.2229178624260175 12.74678557168662 68.55203629311508 0.733712931699955 0.16226713359355927 0.02176154572264681 -3.0722854137420654 5.477286283165998 11.721642044653263 62.06364082421741 0.8222930444459058 0.16572019457817078 0.042635632546555204 -3.0707948207855225 5.578678662045468 10.179006320212045 50.05089237188479 0.5170322760261628 0.16638873517513275 0.02955342185369081 -3.0694897174835205 5.171807395861643 8.48775252851304 42.063859030900566 0.8870071019926078 0.16599537432193756 0.008578534166140479 -3.068850517272949 5.335754600648734 6.689902180723262 29.05446700799269 0.89575940373422 0.16999830305576324 0.02139603659516645 -3.0672287940979004 6.003280599602274 5.892477331069361 22.85036067893157 0.7465956010434404
ID_e3a9cccfb,0.1535690724849701 3.1268457369220486 -3.104459285736084 -10.953148730372874 9.641315234990913 54.17969237206476 0.8709032803294087 0.16154316067695618 3.1267978210374103 -3.100642681121826 -9.54170138539331 9.900962659756742 58.000470407571264 0.8725753103035517 0.1598416119813919 3.1160441521358604 -3.116990089416504 -10.826551259536043 15.1642978191719 87.0807822406823 0.773517199712912 0.15444394946098328 3.127890306904538 -3.124966621398926 -7.506623652702126 14.584790016380058 83.29754482148186 0.9274386769163343 0.15468238294124603 3.128228608785427 -3.118584394454956 -9.919545519418929 7.315211419472023 38.42547978388109 0.9719539838621081 0.16524571180343628 -3.1298939843965394 -3.112795114517212 -9.971809497705543 8.154357969796857 43.220257275533164 0.6937262454695374 0.15205079317092896 -3.1341196990678672 -3.104970932006836 -8.35525053705237 3.645512756507124 17.71415770057277 0.9133319895562101 0.15741227567195892 -3.1292532537502087 -3.1060428619384766 -10.145397133809425 5.466787831683409 26.641781785102065 0.8587358329542044 0.15375332534313202 -0.006806755293600895 -3.0981385707855225 0.059271046479529674 5.208455947673644 23.09802308194969 0.8765329251049301 0.15514563024044037 -3.1371967623352446 -3.1111855506896973 -10.849215358686003 3.9782702254690236 17.330741711038492 0.948549009587327
ID_fd8ff86ab,0.15894298255443573 -3.1268471741950536 -3.1104736328125 -17.533522456292197 4.470485663194307 25.57667791846137 0.5654620674276775 0.15343722701072693 3.0797625977463623 -3.1018075942993164 -11.280432972166182 4.892052557222658 25.711469450050352 0.7801022140677629 0.1489717811346054 3.141307167520626 -3.117743968963623 -11.128407800289377 3.952410325124937 19.22807395460424 0.6164495593344445 0.16330517828464508 3.0651073243941394 -3.086306095123291 17.610931727295696 6.265732645618827 25.469939940014083 0.5741214945486708
ID_822983735,0.1647762954235077 3.1043038090346387 -3.0913500785827637 -0.4317689633545979 6.912792722937035 33.925231406308136 0.8788030580926024 0.16600163280963898 3.103333957055685 -3.104489326477051 7.155608441353145 9.410750792157526 46.64629219000443 0.90651119202985 0.16405442357063293 3.0885978261486655 -3.0997700691223145 10.68843053216808 11.126773178453321 52.902615060851645 0.8651234498948459 0.16199225187301636 3.0743129695167375 -3.089714288711548 16.853749800211038 13.410982255397743 64.91169631008378 0.6625048037594186 0.16677463054656982 -0.03235743825844735 -3.0875120162963867 28.47018123474542 11.30087103601128 53.95227341880246 0.541601475931375 0.15411847829818726 3.1089184647259316 -3.100663423538208 -4.31713802221376 3.0434307966336562 12.93543279174177 0.6151058399582451 0.1569862812757492 3.121573091413767 -3.106839418411255 -4.860118252576061 3.5890549968760945 15.264722704922123 0.519065921080163
ID_70a367b7e,0.13384656608104706 0.01867592105948608 -3.0650291442871094 -44.28404142569015 18.62638062483421 121.373812825278 0.7620300533570871 0.1400473415851593 0.009174638308838821 -3.0883193016052246 -27.120013568041884 10.390515625512368 65.21256114477958 0.8401527869557806 0.14858469367027283 0.0032441769650777977 -3.092411518096924 -5.957805012393655 17.223990661433987 101.52514220953613 0.5491373218403408 0.14681072533130646 0.008662862526515944 -3.092007637023926 -5.573406048887515 10.268013924393312 59.67868294964955 0.9467293792271425 0.1604963093996048 0.025145901527214673 -3.0918540954589844 -2.06566521727185 8.934649080055836 47.862014282900226 0.6579596086945712 0.1500181406736374 -0.017069163800854603 -3.088873863220215 -15.29367534183115 4.803788792501916 23.56673164472412 0.7465650196717817 0.14990746974945068 0.005585672256585264 -3.0838911533355713 -3.8085784220632015 3.696787865999099 13.959793746497816 0.9634419558710992
ID_8ddd4a836,0.1515892595052719 0.020372780250665523 -3.0725903511047363 -28.161196777762857 6.368814408814677 40.17752408984862 0.5604395189588767 0.14604452252388 -0.0013910217461951056 -3.094562292098999 -33.89452464512992 11.493599261012225 72.02250553194358 0.9222734217162277 0.15063686668872833 0.019383580013305462 -3.0945234298706055 -4.131846986002122 15.881331264990452 92.79728354269567 0.6997200801208172 0.1519450545310974 0.02809990183252372 -3.091122627258301 -6.50105735280319 7.540008506375672 39.592817050619864 0.6956260272733554 0.15662388503551483 0.00033657753706358307 -3.098909854888916 -3.6040867902506872 7.622367050549119 38.98036192296045 0.7535434433514155 0.15868501365184784 0.04278008409445333 -3.0857396125793457 2.9081870428415537 16.11056082489891 86.91112409470574 0.5959349920977558 0.1587417870759964 0.0037554107526426486 -3.0903820991516113 3.6682891053393836 14.301039208753414 75.8466633822642 0.5259569435626968 0.15987655520439148 -0.0019404620444947766 -3.0970911979675293 4.310630727244164 13.377146422898537 71.44637615403416 0.5436109748707989 0.1394565850496292 -0.012351939317118065 -3.0877904891967773 -4.050627642026183 4.2052735622321595 20.435880124604473 0.721809003802818
ID_69183a385,0.16946297883987427 -3.1368238885908113 -3.105846881866455 -7.565813620887386 4.846840393969269 19.93067503856567 0.7276882305740495
ID_8d2791fc9,
ID_84f2f637e,0.16287432610988617 2.903554902668997 -3.1053738594055176 -14.181160546891965 5.882210116737338 31.07348680498339 0.6173151562846562 0.15894591808319092 3.1392663340741875 -3.099008083343506 -9.239468615918184 7.114287548133759 37.56961178102657 0.6693711273990519 0.1661422699689865 3.119750359547259 -3.101158618927002 -9.700839718411649 8.432203887184619 45.16934782311493 0.8501631343844869 0.1661333441734314 3.1278735303504868 -3.110322952270508 -9.688617995312073 11.19802268650584 59.46851868106988 0.9085144263086784 0.16269400715827942 3.1279385519096548 -3.1076831817626953 -5.982338210557817 8.299092877776538 42.69178222058313 0.5835982107624741 0.1674553006887436 3.1339205299182558 -3.1085329055786133 -5.572662349724619 8.716943028315244 44.945517286043334 0.5117869480664498 0.1623169481754303 3.1340069149138134 -3.1207375526428223 -3.2969242997372974 8.23625352542413 43.983536073882924 0.8526651720188035 0.16352960467338562 0.039474268234335655 -3.082317352294922 5.512543667379426 11.20246648791991 58.337852623569226 0.5118119440976887 0.15389128029346466 3.13914511158106 -3.107936143875122 -9.404707691569998 6.635953442516753 32.68108069900251 0.7756855912188176 0.17065133154392242 0.013293810025152678 -3.079904556274414 0.1005881502665313 7.9238155683245255 39.259410008173155 0.6076879926535065 0.17003211379051208 0.03895606897459362 -3.0722098350524902 5.212634457901589 9.740463149521528 46.38782758168026 0.7139180395876648 0.1747087687253952 0.041609352156829406 -3.0562829971313477 6.094968603215287 8.530323084923882 39.20634388927198 0.6849900891657639 0.16166777908802032 0.0048447570510101 -3.074049711227417 5.676708106832462 6.08390417107654 27.58636906262945 0.823922356446533 0.15378904342651367 -3.1377642864428092 -3.106764316558838 -8.63590883454178 3.323369233891119 14.17271643879084 0.8667776382979661 0.15164493024349213 -0.008155574697499092 -3.0777981281280518 5.418327735059727 5.147520339011953 22.270688042519517 0.6196242828727003 0.16042573750019073 0.0003064035371250386 -3.074460744857788 5.532786888710089 4.353565247483821 15.61590135100423 0.9451026774936764
ID_6188e27be,0.15817399322986603 3.1085849506900907 -3.0923542976379395 -7.618598783900359 10.844921423044877 62.076331384744115 0.6383165977604077 0.15960045158863068 -0.00279189853552447 -3.0886926651000977 6.068561774661694 10.352359645230388 53.606163570602284 0.8708665160807296 0.15765094757080078 3.1286606542803015 -3.103153705596924 -9.10017449042422 4.719424871787988 23.032274842299366 0.8356852690998815 0.15718716382980347 0.014060456957626411 -3.0935888290405273 0.38949502870711195 4.832311034273802 21.8864664435742 0.9060739549243597 0.1508685201406479 3.122024940821079 -3.117530584335327 -9.843079115612879 4.081778525815363 17.46943295005484 0.7282214268138207 0.17240814864635468 0.0037176294193659344 -3.0629360675811768 6.736162108161494 6.385366802414002 27.24258735295843 0.7772935720150304 0.16341683268547058 0.008677802571652259 -3.07080340385437 6.37831143090835 4.953068108051897 18.814587593111916 0.6243958674658772
ID_dc5878537,0.16149884462356567 3.117612566264855 -3.101029396057129 -13.782149627290785 12.941394615638815 74.55871660301449 0.8873834130885596 0.14548179507255554 -0.0001246082446921445 -3.0883708000183105 4.2085283214418086 15.853944892444401 88.03092251659939 0.6784937890632148 0.15479043126106262 0.004420324751712903 -3.0823171138763428 3.3725034445649955 8.88384983141649 43.51893376227034 0.9320047876220114 0.16076000034809113 -0.022004412455887717 -3.091170310974121 4.217933790379149 5.529531195730925 24.68794717900767 0.7661381612856927 0.16846510767936707 -0.004623346056861288 -3.100496292114258 -0.8654499858242543 4.691474093961076 20.016768574750195 0.9020637864388659 0.15835040807724 0.0015023804979909976 -3.0819833278656006 3.9723168697789277 4.562901369405504 18.335849046743746 0.9201821316842684 0.15497609972953796 0.003830662588681834 -3.083779811859131 4.112239314827325 3.6641258746785215 13.158090628563352 0.703765883423817 0.163284033536911 0.00755018334670241 -3.088745594024658 9.279732592202885 4.542712921054069 16.324725747144427 0.7339347858102314
ID_5d0c7468e,0.14822979271411896 -3.101987910830048 -3.1146645545959473 -9.855070083774919 3.2388997117326572 14.697724580790911 0.7389473256745192
ID_f4161f129,0.14152102172374725 0.013521493969739725 -3.0929107666015625 -1.2088866628998267 7.722152829461102 39.49568580029504 0.7882730054458359 0.15839745104312897 0.03918851581095925 -3.090507984161377 1.926189276970817 10.880768299138314 56.77487264512079 0.8481259397978366 0.15527530014514923 0.023149061782247363 -3.08207368850708 2.4413160216113328 4.674290554313221 19.87373381856657 0.5956971809509594
ID_bbf2e7374,0.1497424840927124 0.09701387781933915 -3.0909900665283203 -9.46153520307663 6.510649695246776 34.742538585570806 0.7024564094920205 0.16343621909618378 3.104700977730487 -3.101292133331299 -10.710852084750128 12.99901956689402 70.41264269812818 0.695152684880286 0.15797099471092224 0.022727726852531688 -3.074571132659912 9.742228851626086 6.618758482957298 30.020749568974743 0.6342152391526189 0.165280282497406 -0.027048011581562795 -3.0867819786071777 9.181832667419847 5.767630040681448 26.805174350773036 0.5238247261382988 0.1509721726179123 -0.014139825027106853 -3.0986690521240234 3.9321183601288197 4.946690322935787 21.13469243053175 0.7571118385143705
ID_efdc95f06,0.13723686337471008 -0.06637610248499147 -3.0799922943115234 -26.469010745509404 10.782852220942834 69.54294561555876 0.6670395631032593 0.12415139377117157 -0.01713095292637378 -3.0915584564208984 -8600610.718630988 5534158.096942754 35420468.03974442 0.9012247591272895 0.14628152549266815 -0.0013079719694158198 -3.0995078086853027 -3.2825395792588283 19.945434741511725 116.85225645512037 0.8412110595793588 0.13405483961105347 0.0010469891180664233 -3.10011887550354 0.1656196696745194 15.487421181796742 89.373380738952 0.5828725773986416 0.14171962440013885 0.02988195192264039 -3.072499990463257 4.168072909751286 22.291004474831787 128.50436200237502 0.5387104400751995 0.15097494423389435 -0.004539391458902831 -3.09440279006958 -0.2031770434254331 13.09402630827699 75.21195370737102 0.9060854238881064 0.15336593985557556 0.016994330585710055 -3.0887317657470703 -3.788351989738561 6.931167960592411 36.93561564798964 0.9150725735330734 0.15319526195526123 0.006357596666266099 -3.0793955326080322 -3.841848359113542 3.6823669396714247 13.304463716476203 0.7947306206021586
ID_cf4f677c7,0.16507947444915771 3.123744810199371 -3.1218326091766357 -8.205786238932596 16.38139199135305 94.53990378147486 0.9188291481390222 0.15962238609790802 0.00029995758891581526 -3.094773769378662 -1.5362512320102415 16.049626315781698 92.81115840788496 0.8149824954316913 0.15487810969352722 0.032255060032426064 -3.0921101570129395 1.404122406077047 16.424097120789867 92.53978253182358 0.8907340088373034 0.17781472206115723 3.1264959826551135 -3.11531925201416 -8.18105137360096 8.999176386225239 48.16673427865082 0.6811528504653669 0.16350401937961578 -3.116479315750886 -3.0981452465057373 -6.5546271265822105 10.340995336236983 55.83667118131219 0.8082364384638512 0.15234088897705078 3.1188585492435688 -3.1150736808776855 -6.120505286847481 6.507428204618467 31.58710439974729 0.7560672239073697 0.15888752043247223 3.1359690383575365 -3.110229730606079 -4.375928283735989 2.9750278568942856 10.660322755610705 0.8026807863051034
ID_27a33218b,0.15214595198631287 2.7751083075249428 -3.093134880065918 -32.18311349721506 7.283054292231703 45.78574643536273 0.5656635677230192 0.15255530178546906 3.1275262707725338 -3.101489782333374 -30.004403286179322 7.512282019514295 47.955198870506116 0.950273610082728 0.14444366097450256 3.1116997595806963 -3.0920498371124268 -27.5423432052344 7.653677463567027 48.476696014439824 0.7356390059745072
ID_81d82a824,0.15398457646369934 0.022708974783583243 -3.0956263542175293 -0.07610462546469628 16.4073393833399 93.16667961214833 0.6058107614828043 0.1617119312286377 0.028356337616911902 -3.0815701484680176 -2.350324402908528 10.18845853342647 53.70068560483709 0.5605340965524173
ID_9f8495aa0,0.14911632239818573 0.02397543895389944 -3.0847880840301514 -7.977662722429088 18.620309342115398 106.58004157737422 0.5229713379424583 0.1395551860332489 -0.010675495997993046 -3.0896284580230713 -3.0144972714746596 12.721167192291588 73.40554480022084 0.6095182735054969 0.1481195092201233 0.028898552650348165 -3.093132972717285 -1.4438393721364642 17.899604959465275 99.29560080058616 0.7421364988510347 0.14864113926887512 -0.03876828289314759 -3.088103771209717 0.40189522917879705 15.537314116972569 88.80828829019934 0.6956577842313946 0.1441373974084854 0.006999858799347319 -3.093888282775879 3.3558361253726665 13.067702803184364 71.5306461894323 0.8411494941730642 0.1512531340122223 0.0018771509376123575 -3.0922000408172607 -2.3845514273759183 10.182688515184763 54.37757284374987 0.8658820566356578 0.15179021656513214 0.01920315103047006 -3.0829405784606934 9.864012058045187 9.883573143558884 51.70054597396012 0.7037539865124015 0.16399697959423065 0.024605805653701913 -3.0731139183044434 9.793117652500005 8.407412102598036 41.58786956415877 0.8537395378879381 0.15845441818237305 0.01463269546967672 -3.0776357650756836 8.426415686029683 4.1778974085291125 16.075841872923377 0.7961887834831466
ID_a9a8c1292,0.1562276929616928 3.132626061232395 -3.1096811294555664 -9.337088328836803 7.638158369515571 44.123628084102464 0.6154187464033479 0.16122664511203766 3.13582691819401 -3.115078926086426 -9.273157427291729 8.095824180609485 46.75445352381815 0.5084297734848301 0.1646970510482788 3.130350916709088 -3.110813617706299 -9.6177456951018 9.034043396677678 52.465384313781605 0.5480622555687531 0.15907521545886993 3.120307996692136 -3.1172726154327393 -9.837675433411619 11.504048109090096 65.09385119319789 0.7145065295460957 0.15376704931259155 0.0033940801128360515 -3.0866751670837402 3.1304319389298616 13.241361946719271 73.7775340222392 0.719419593620854 0.1581777036190033 3.1314318176779032 -3.1117076873779297 -3.49151219172465 8.76763657892717 46.078837021597685 0.9600601253016982 0.1569320261478424 0.017719055437678308 -3.0854413509368896 4.390593402803799 8.875335504254357 47.18029509897841 0.6558769129920519 0.16269594430923462 0.024922243347180836 -3.076022148132324 3.827591458761354 7.24926129701478 34.607779012548136 0.9008423273389031 0.17053352296352386 -0.001158056858923057 -3.0705485343933105 4.223219656202237 6.618222121444665 29.478791048425883 0.642873931734465 0.17624102532863617 0.009941343155299088 -3.06414794921875 4.7602795157943465 5.040142507418956 19.19580695295911 0.5158502376625536 0.15155206620693207 0.020523452709936135 -3.077655553817749 4.180598880065643 3.3649887889949213 10.421451181198343 0.8922311984203345
ID_1411dc012,0.16015280783176422 0.024676716099576137 -3.0882859230041504 -12.32005245477951 6.443919737089552 32.15893100453006 0.5289766673436043 0.15707816183567047 0.029823486731933878 -3.0932083129882812 -9.858326654074027 6.227865768275081 30.762925815576136 0.6822798859305508 0.149664968252182 0.01405917795558152 -3.0928726196289062 -9.51287419461543 4.675689368538482 20.701460688215345 0.5893941543827445 0.16348068416118622 -0.014344734796666965 -3.083771228790283 -13.025505633550445 5.32753466931079 23.244741660297993 0.6619404900395554 0.15276476740837097 -0.025992476285628972 -3.0899572372436523 -7.9937738469010196 2.8864681032883848 10.898347180961936 0.5307332746435154
ID_b60f5638c,0.14208421111106873 -0.0019017902422064936 -3.0868890285491943 -4.540219859764607 17.62709052916423 103.4860882091106 0.7394261863110074 0.1391552984714508 0.008245215318383459 -3.094170570373535 -1.5543734375681053 19.976350058560275 116.51220726685408 0.7295788922415369 0.14043951034545898 0.017281274858915795 -3.088824510574341 1.598888702404933 16.26700651647265 93.56201720681572 0.7134332126971872 0.1437385380268097 -0.010536317291070376 -3.1008460521698 6.98466219739533 19.259823048621413 109.67741956137463 0.8044315711904144 0.15036393702030182 -0.0023475513402297686 -3.0961670875549316 356.6401920371304 570.504821332705 3272.495046801193 0.7726476401391936 0.1418009251356125 -0.002145590299103024 -3.0970513820648193 -1.537981034251689 9.715390553539464 54.335033997318455 0.7759125833368616 0.14144527912139893 0.017935648328084853 -3.0885143280029297 0.40971599520427693 5.749461215197473 27.311025406071767 0.8218130283584298 0.16032986342906952 -0.0020409944792372735 -3.0931549072265625 -0.5172172785521786 3.205469669047033 12.116583436765037 0.6021452921957025
ID_237729793,0.15821561217308044 3.1347527497595387 -3.095656394958496 -10.112998896983871 8.84374327535068 46.82164452708933 0.9456014167324502 0.16211111843585968 3.1216254683718305 -3.1200640201568604 -11.012562599784594 16.610653263409045 91.91853081868005 0.5181278164749863 0.15815390646457672 0.016853688306465633 -3.0926074981689453 -0.1250289380372725 10.920564763495207 58.09832524176253 0.5221993332169654 0.15874898433685303 0.027904291129121368 -3.087965488433838 9.623437239887297 13.287070393597848 70.5296507569322 0.7056507504450954 0.15976795554161072 3.141273492043405 -3.119386911392212 -3.851871829555299 6.518441028933927 29.90631060206727 0.933604657824275 0.1515306979417801 0.0041871168113261185 -3.1064136028289795 0.05059300181737318 4.52181870387222 19.303020834958325 0.7964015096449047 0.15464986860752106 0.030605541790968867 -3.0938031673431396 5.7997558825872835 3.7272985471902307 12.160553038149905 0.9207626112517806
ID_73b210da5,0.1608487218618393 0.10455807588575869 -3.080381393432617 -4.136158907279331 6.677469246882051 34.263586030828165 0.5705358111437536 0.15266269445419312 3.1279788405541904 -3.108924388885498 3.135684756697629 6.516370922329135 34.22995997492149 0.8069514191631059 0.172726571559906 0.13199994601715836 -3.0910134315490723 -6.493753415841037 5.601809309897546 24.26783181710999 0.6716286966349642 0.16574133932590485 0.08825485497256223 -3.0863757133483887 -7.223954041876795 5.263781623243425 21.64526086838106 0.7278728704423145 0.15249674022197723 -0.008673247834085593 -3.0771024227142334 -6.230518829138356 3.5313133140755224 11.695298952982188 0.6545444784888328
ID_c6628179f,0.15150348842144012 3.131524900969861 -3.109065532684326 -23.01940652173385 6.015182457614036 32.33452928665201 0.6630137687893636 0.15123794972896576 3.1365739000404633 -3.1038565635681152 -14.130255604624377 4.517099803599168 23.982032412677732 0.8138197888961087 0.15311816334724426 -3.12564626630519 -3.1071815490722656 -14.38710449193102 6.374246513257829 33.81560444835458 0.833591542819109 0.1653444916009903 0.008089893806842026 -3.086566209793091 -4.043597366603335 12.624259293106835 67.5629845353422 0.6824738739066732 0.161920428276062 0.012935809282440558 -3.0958757400512695 -1.6929584318898805 7.917222380630167 39.06479091378008 0.6937386950259634 0.16450177133083344 0.003428856076326226 -3.070194721221924 12.421109636582536 8.453164633322817 36.67175516329948 0.9033742562112911 0.17569158971309662 0.013276784543292598 -3.0505733489990234 12.505179324379704 7.593849093742714 31.226728126595116 0.796335640637533 0.15548397600650787 -0.0083549811768043 -3.0766241550445557 12.609783523764706 6.392393613147721 25.631347298657523 0.6022853233353175 0.16227386891841888 0.019928856250492705 -3.087634325027466 12.038105324861982 5.582446775874873 20.09007334713241 0.9453988512589664
ID_f188d7b12,0.15086038410663605 -0.014194989232615708 -3.0819530487060547 -25.413765657115345 6.918374868046924 42.78141558173871 0.9113255703991773 0.14560313522815704 -0.011053077000658345 -3.0831668376922607 -24.35009397673002 12.705628626669837 78.81558400038246 0.7289545541552231 0.15367567539215088 0.01602040867966805 -3.0892999172210693 -8.062258516600506 12.800370156783474 74.65978887804788 0.9453062046144141 0.1556861847639084 0.016405127654453545 -3.095442295074463 -4.630576691058152 5.228896451733541 27.720268138370503 0.7607964293771476 0.15997375547885895 0.007917583868180004 -3.117302894592285 -1.338986459337038 9.12384461722157 47.08320111968598 0.8095352050515852 0.14482612907886505 -0.007549963845547695 -3.094047784805298 -3.2758104668859387 3.5844504467167693 14.434869587456369 0.9099676144488056
ID_35ff1963d,0.15647123754024506 0.010581832067774946 -3.0872116088867188 -0.22109255375780468 4.771291909872969 17.50531512011979 0.6592089044903976
ID_9a18f5678,0.15730787813663483 -3.1328266678614667 -3.1273422241210938 -6.317637974284994 4.065369418269293 17.32759177687913 0.8721842226702309
ID_db699f0ba,0.13525652885437012 3.0973579307230534 -3.1152191162109375 -42.179546361622684 10.60237839965391 67.0146389257581 0.8190674914372068 0.13884659111499786 3.130119124756266 -3.1029460430145264 -34.44292282742229 11.551919821899638 72.49157976431796 0.7276464916186955 0.1475018858909607 3.133850475122286 -3.105445146560669 -36.95877220027751 13.308466082614277 82.75282019801713 0.6523055537638153 0.143104687333107 3.1277859897166835 -3.1057233810424805 -33.74021231740714 13.901972616878258 88.56719753972317 0.9015421097854394 0.1469086855649948 3.1209533499991995 -3.095989227294922 -21.426299938669928 17.788996732534294 107.7111315805628 0.6833733697180739 0.14352615177631378 0.06597603766708712 -3.0995125770568848 -6.773632495368417 7.1425559913518075 37.43437971105909 0.7963618357297138 0.13706369698047638 0.005804170578582692 -3.080026865005493 -3.171778658435091 5.875628916633024 30.0225206795959 0.5701953545633461 0.1510382890701294 -0.0013052387756324819 -3.07309889793396 -3.6656734546070098 7.59297590127568 40.3892786347677 0.5264670140670351 0.15674494206905365 0.018132162172006434 -3.09645938873291 -0.5369726387152127 8.952450752270307 47.87867080088271 0.9047353132555809 0.15995383262634277 0.010201897961756794 -3.0880839824676514 12.10032675762618 12.613693997738784 65.46964096163563 0.6334689942120475 0.15570013225078583 0.013475181646364683 -3.08675479888916 11.591026380276373 9.67871778870986 49.29241730662675 0.8339272239982843
ID_fcfc2f0e3,0.15286827087402344 0.03401942730023566 -3.0954079627990723 1.2378262832513214 12.990593984330662 68.58506213070916 0.561779345276485 0.153062105178833 0.01029121094305893 -3.0968070030212402 2.0565273469844136 12.316671013867623 65.72359214661614 0.6637175259008503
ID_66e5f439a,0.15903840959072113 3.107566066616824 -3.109229564666748 7.260223145825671 6.9506533444247145 33.85798666800411 0.8065005695233045 0.1517973244190216 3.137565462788155 -3.10292911529541 6.913977279921747 5.12515833350259 23.51149653943274 0.8241794645486423 0.15876871347427368 3.114489370642662 -3.0904860496520996 6.545686125661987 3.007255787456311 10.392021121201376 0.6137868949240144
ID_145aff094,0.15542501211166382 0.01910656165625945 -3.0861408710479736 -7.84281908327767 11.459677666461236 64.97610718944154 0.7428159263670225 0.15237702429294586 0.019991371463512802 -3.092616558074951 -13.21643346957463 9.433484359659039 50.55094792958806 0.6361857105966766 0.15159547328948975 0.026634650110008814 -3.097512722015381 -7.633677048932848 8.463715180924872 45.208862527589964 0.8829620154915552 0.15291772782802582 -0.0019467097451445552 -3.0912275314331055 -10.855966427388077 5.714974964958996 28.382625735299047 0.7097758379753699 0.1571471244096756 0.005941083315814414 -3.101266860961914 -6.601011486581892 6.924576778939707 34.004919077086576 0.7065690173369555 0.15840962529182434 0.025702248646237994 -3.0918140411376953 -3.069437395696321 8.301375980662165 40.258450168731635 0.6128059415367939 0.149040088057518 0.0016773292652011026 -3.0762038230895996 -4.336644331880211 3.2575783752073555 12.414319535309579 0.8470762323703613
ID_5f80c94a6,0.15361805260181427 3.12399649779758 -3.118699550628662 -2.3484123727253707 7.50566819663628 38.63728056786554 0.9184249209918465 0.16118308901786804 3.1331075358777145 -3.1154088973999023 -0.7315625994442327 10.511728376167897 56.13490055914534 0.9549291292138313 0.15587368607521057 -3.1338335655594713 -3.109927177429199 -5.966835309351192 3.5657347957876873 15.16118417279899 0.9420915635356846
ID_b0dd0220a,0.14599496126174927 -3.1414900046557457 -3.116830348968506 -9.05741170530595 16.846556961554175 98.29521436575116 0.8566602620515892 0.16834324598312378 3.1297716479655007 -3.112205982208252 -7.899510387722228 8.731634699240061 45.903520240691655 0.7486479374561943
ID_ed6b208cd,0.15471434593200684 0.08846985937242238 -3.085674524307251 -2.731897027107415 11.832067367611979 61.99474345090122 0.5086642966496109 0.15167629718780518 0.0027983373087578475 -3.094247817993164 -3.4258220645854878 3.4819932807789367 11.890233308106822 0.9118290661814185
ID_92244eb19,0.14324238896369934 3.093856129497966 -3.1078975200653076 18.590956551749553 14.86907987825619 80.12678181575181 0.7537441817455681 0.15151447057724 0.06283626718934149 -3.0927610397338867 -10.343045821312002 4.84331833001714 23.319198915921508 0.8669361590634006 0.15738444030284882 0.02964537305334535 -3.100343942642212 -6.343352564183161 5.3218053972309525 21.855079651166356 0.7797407220030987
ID_e825cd6ba,0.14549200236797333 0.03882975584281582 -3.0929970741271973 -32.38441875314914 8.436714857845054 52.581237102678756 0.8367041636418071 0.1545325517654419 0.06058574604242982 -3.098379135131836 -27.550741151916633 8.638179657499395 50.147134270127324 0.7876138206911801 0.17009329795837402 2.843437581593567 -3.101625919342041 -3.812261245434215 6.351601367962766 30.38039772738859 0.6542567340253461 0.15756939351558685 3.044100138335208 -3.114132881164551 17.777365534789183 11.038796603715188 54.78915236625231 0.6339041999721534
ID_984c81491,
ID_886b3e1ee,0.14854931831359863 0.006294771709860267 -3.092618942260742 2.9156497772277805 12.329524042447813 69.1770596753837 0.8192093801074041 0.15040859580039978 -3.1381627067852294 -3.115652322769165 -9.398306589834604 4.386889965758211 21.333608031305772 0.9331376505967451 0.16074173152446747 -0.0008468709619340795 -3.0780465602874756 -0.42353805158479074 6.682847499830269 33.104282242428994 0.8020477410655885 0.1605931520462036 -2.9414755698110926 -3.094693183898926 7.950700819504101 5.959503352073573 28.819322586077337 0.5466861946617695 0.14605912566184998 -3.1052260517077483 -3.1164000034332275 -11.099074886642262 3.73282643050667 16.965435459963874 0.654499256778205
ID_95e5e13ae,0.14952197670936584 0.0024780997995084574 -3.0897328853607178 -11.511695276540388 19.36819255353797 112.74872135038984 0.7311829906459291 0.15037520229816437 0.01549407500915979 -3.094813585281372 -10.782660533515157 14.579710263226598 79.80605369124194 0.7890401537350425 0.14216701686382294 -0.02436215606459888 -3.0988149642944336 -7.3980079271999 5.97607730617607 26.024823243275172 0.5754639358852865
ID_aa7aa518e,0.13746629655361176 3.1388576489059576 -3.0990171432495117 -8.356306039424041 18.93179950409284 112.37828592055023 0.5077077099856684 0.14184348285198212 3.1223049467129282 -3.1275129318237305 -4.029949177175327 15.682713400854212 91.80201109781645 0.6370147708674802 0.15231375396251678 3.1278844157024537 -3.114503860473633 -5.245650525617138 8.63596055212767 49.5815268251494 0.9015268497570937 0.1521719992160797 -3.1414213920455643 -3.103625535964966 -4.2458531819957335 16.15451520115208 94.24738612022391 0.7946748141772292 0.1515752524137497 0.012592432898292868 -3.094658374786377 5.976079260068502 13.553591810179249 75.28116037976741 0.8151772515173534 0.15416263043880463 -3.13401016495101 -3.1147983074188232 -5.666096196704609 6.5171911059344225 33.57638850324486 0.6901154543313329 0.146316796541214 -0.014397926257570273 -3.092703342437744 0.6903793330208148 7.3918677582921175 37.822976812105345 0.8729723926620583 0.15239141881465912 2.8890171762000554 -3.0925180912017822 11.33565827410452 7.336505142602644 35.31741652566898 0.7688528816408686 0.15390822291374207 -3.1197518994311473 -3.124464511871338 -5.28772696283594 4.526209837019903 20.555536381336825 0.9014714032807909
ID_5ef969c1f,0.1611856073141098 2.905244287537938 -3.097654104232788 7.063560410399688 3.731111945113703 15.889045649322831 0.5216203195812168
ID_db9cc3657,0.1394539773464203 0.0175931907287908 -3.0862765312194824 -28.392883783028065 12.821437526956673 80.0743223273957 0.7479623893490671 0.14523889124393463 -0.02749080845251278 -3.077418327331543 -24.78694227586429 17.440369577183766 106.431564953538 0.6031443559274501 0.15232478082180023 0.05026583963327948 -3.094008684158325 -19.676169490354063 5.362829467673699 30.747616291073378 0.899477800804287 0.1474754512310028 0.0004787564143790461 -3.0681354999542236 -21.289674466094514 7.5274676084922465 43.38385760787702 0.5879152779331328 0.14474551379680634 -0.010886222691160937 -3.0960288047790527 -16.434786047886462 10.38675021054009 59.99919963891862 0.7234289253059872 0.1533619910478592 0.015938510705583105 -3.0847904682159424 -0.7274351876839711 10.678280890023476 57.260786602116546 0.896926450598938 0.15545697510242462 0.03676446684639711 -3.0908384323120117 4.55322579576297 10.913188010488739 57.07678805232783 0.8311694797129101 0.15790291130542755 0.0009157193774704432 -3.0863895416259766 -1.4575689357027644 6.8469146236898 32.338848813753295 0.9680367037668217 0.16621723771095276 0.018809539317253595 -3.0781209468841553 4.944660171685448 9.230382944463443 45.792693003397154 0.8722251453573968 0.16693420708179474 0.036261391614941935 -3.0846705436706543 5.928562146585256 8.535522222554452 42.08099455556961 0.9013559061422125 0.1625133752822876 0.007788131165512915 -3.086538791656494 5.339022552989513 6.361943737785349 28.80598749147676 0.8815350987085128 0.15980085730552673 -0.0017253919479236733 -3.086073160171509 5.761239697539398 5.143893451004928 20.638966560399304 0.9463323725873598
ID_826d8a694,0.16101570427417755 3.073517764750831 -3.0945069789886475 9.120410941605186 7.107679545898406 34.12562742347441 0.7691580443327691 0.1629440188407898 3.1372161207987737 -3.097198009490967 9.22776520443741 6.0890366192675 26.04471743110443 0.5814753965805584 0.1565834879875183 -0.176043916286736 -3.0847935676574707 15.613030323725162 5.9205381630473015 23.648169636761825 0.6407236199757768
ID_b61a1ab3a,0.16177332401275635 -3.141183471470089 -3.107724666595459 -7.272078775970094 6.015332861296949 29.453091169563045 0.5457051537426493 0.15962082147598267 0.015813763740248375 -3.0876030921936035 -4.461488090612813 7.07328133202163 33.08299568809674 0.8958013848568319 0.1609756499528885 3.063186392774211 -3.097464084625244 -10.024549162360172 4.001626043490765 16.455379887239083 0.6338315882378964 0.1539689600467682 0.013477525977866778 -3.0886359214782715 -2.8209789354795647 3.1945453909863377 10.94340352272218 0.8916137458290095
ID_9f4b166b8,0.14637474715709686 0.0033603097868570614 -3.0990045070648193 4.6169315618726205 4.976470676551019 24.084611083197732 0.7284618114879993
ID_b11a8e209,0.1404045820236206 -3.1141070509034368 -3.0951032638549805 -26.723279652317448 9.157614618306338 57.94814660665105 0.7061035228628217 0.14409121870994568 -3.1344006632517454 -3.1125683784484863 -23.463020800947415 9.096957996115947 57.18021537290849 0.9455013403722786 0.13774274289608002 -0.025133751307817708 -3.096475124359131 -4.999072900660278 19.372807859555948 113.97660371606383 0.535724205053567 0.15027034282684326 -3.1358067698197947 -3.1048712730407715 -27.39304085366386 7.413249869757301 42.806640267398535 0.8918224806538622 0.1495436429977417 -3.129140870571479 -3.1051406860351562 -24.30642245061811 8.391004520077368 48.41515268316602 0.8476622359323549 0.1418374627828598 3.1356698062268196 -3.1045637130737305 -12.948714384330968 11.374213812897233 66.7624648290783 0.6655507783277527 0.16012778878211975 0.034700743989157186 -3.0847585201263428 9.872708842254086 9.437012705601974 49.65336929200189 0.6627455483701438 0.1666748821735382 0.010275445399381664 -3.0639193058013916 11.83461594139423 9.238488354769284 44.51070331178825 0.8287660360174405 0.16073398292064667 0.04692031972064747 -3.0909457206726074 11.776140844186413 7.77610255774586 37.5921484731619 0.7977850989956202 0.16507676243782043 0.01419068513272453 -3.0707132816314697 11.951111122518771 7.047823420542559 32.313248391079256 0.9483962518903944 0.16583488881587982 0.02360791124015933 -3.052536725997925 12.601243089679826 6.555565503645361 28.217531467651693 0.676309301443001 0.1589048057794571 0.015076329715739514 -3.087752103805542 10.730016530857666 4.5437509243745655 18.374872207664126 0.8948694065606613 0.1537349373102188 0.01294765455401824 -3.082660436630249 -5.312878498319504 3.665813878803983 13.433973095489204 0.89614859434123
ID_f72f7d1e9,0.13531383872032166 -0.029578329711106157 -3.0869081020355225 -22.675742916012563 10.683727110591636 67.04611133856723 0.8932838149420573 0.1357269436120987 -0.028965957750145477 -3.0904598236083984 -18.22499887640916 10.388280752646228 64.06196267338548 0.6607155381934702 0.14372341334819794 0.007735298806501982 -3.089303493499756 -19.057758014221292 13.388426601909948 82.00390338901258 0.7491540923639689 0.1486825793981552 0.03401886144231317 -3.095341920852661 -19.29017265976233 5.888782977113376 33.2776486873982 0.935182994308895 0.156222403049469 0.005228777796841858 -3.0989837646484375 0.16033550565224836 11.499334572740045 63.1553233706762 0.7619435682620006 0.1480165719985962 -0.012014233818356168 -3.0880837440490723 -5.416367575940358 5.706983441022837 29.8436298512104 0.7124601311241847 0.15523140132427216 0.011763378965509158 -3.096003770828247 -2.2251312191726833 9.071907031342093 48.15272997258203 0.8833423661039724 0.1508077085018158 0.005074158223955056 -3.089489698410034 0.33834911883911284 4.823608950247692 21.86051309110511 0.9516943447222687
ID_cf563dbb0,0.15140987932682037 3.123599525224646 -3.101980686187744 -17.134639982594386 9.200464035222156 53.16489290516933 0.6272746123319323 0.162302166223526 3.1155393729457157 -3.0996484756469727 -15.583889013613835 9.919425691294801 57.32616693697067 0.7731075576822767 0.1551024168729782 -0.003190579663741064 -3.0876877307891846 0.17516907728761458 17.588159288091315 101.24548402070076 0.6564923467211649 0.15713542699813843 0.014304447636788929 -3.087743043899536 5.274231617490003 16.013142466572 88.21169312304495 0.7653814799546379 0.15143096446990967 3.008988980758531 -3.09963321685791 -14.503423443693512 5.043339716255863 26.45885944369722 0.7384886694046635 0.15363091230392456 -0.0009372992879295661 -3.092806816101074 -1.1313714004217483 7.785773103024414 41.443422545153034 0.9499908582535181 0.159450963139534 0.08909281146953249 -3.069829225540161 20.330293404879214 6.98495993389631 31.492513418220376 0.621401615393761
ID_c0656f73a,0.1706429272890091 3.041721286280068 -3.09865140914917 -7.666517387834553 5.762529871961825 28.47589962231917 0.6182096338570968 0.16433186829090118 3.117689097733342 -3.100475788116455 15.638094615086137 6.048363725531362 24.256810545954558 0.8752482846616969
ID_e53e450e9,0.1554122418165207 3.1263654747881215 -3.0944907665252686 -11.69464281687661 10.259502760061222 58.13021984349415 0.738815095792505 0.15803705155849457 -3.141515176562994 -3.0879504680633545 -6.540222499035085 18.441724777257214 106.14334951283195 0.556164683092314 0.16112372279167175 3.139453947413325 -3.1177449226379395 -4.662064896799772 7.521158590273295 38.41441021391249 0.6581390177108394 0.1527736485004425 0.008337841572037123 -3.08695650100708 -0.5453250847024261 8.785828606082124 46.70909555166633 0.8996296589231877 0.14751693606376648 0.011588924779358438 -3.0876002311706543 3.8352879384998566 9.19678460531515 48.81103049157159 0.6879780751997472 0.16161701083183289 0.02378061504098742 -3.07624888420105 1.968295130582294 8.500121770632422 42.12510612260029 0.918538472559362 0.15471121668815613 0.0016176383687954844 -3.0818910598754883 14.256319518106753 8.626081795997477 41.3613392364652 0.9538919034481449 0.15900704264640808 0.02802426634810565 -3.0860142707824707 4.333449204954481 6.761388480684829 31.03677592906519 0.9161761056257667 0.15997061133384705 -3.1408358311345035 -3.1201581954956055 -3.687621567971298 4.0905464689257665 17.426799237763696 0.9069293140219754 0.16251139342784882 -3.132809338295678 -3.11422061920166 -5.323929480984669 3.1224593142673367 12.503848969974296 0.6323898945418522
ID_74c5f2bdc,0.17031653225421906 0.024519493324650303 -3.097571849822998 -5.9845988278086635 14.955043580524164 80.80971578728114 0.5094847765254594 0.16042643785476685 0.009282440726054752 -3.094918727874756 -2.7006304669395385 10.91927596160221 57.65521437862 0.8781656043967491 0.16113168001174927 0.017544998935231187 -3.0865068435668945 6.802255636236093 8.650451793720476 39.8514639590959 0.9494156273359339 0.1733664572238922 0.021613432782106416 -3.071305274963379 9.162780035665973 7.284368994680582 31.20125234130598 0.9527143171109692 0.14576810598373413 -0.007023522251567812 -3.087717056274414 0.049720024562711705 4.792725458390145 19.278098489013423 0.7155347690957615 0.16805407404899597 -0.002387651004379512 -3.0793933868408203 10.242245286977223 5.671950081378528 21.517550967948658 0.9713903176218031 0.15860435366630554 0.002557324344987116 -3.087256908416748 10.25760368479241 4.561592440166834 15.536609292059895 0.9422495797635791
ID_f6a5de7f1,0.15763980150222778 -0.017121257160270166 -3.0948679447174072 -6.631441513478147 4.322477873564285 15.047219107548463 0.7851421770190856 0.1495133489370346 0.0034649252872876973 -3.0981369018554688 -2.4675346001244574 3.6547630076625572 12.525043446696097 0.7987859485947842
ID_d5b13d65d,0.1361093372106552 3.0870043177351256 -3.097709894180298 5.382441761523082 -5.185098918291204 -39.34922793574159 0.50832194140669 0.1356346309185028 3.124365523546561 -3.1028451919555664 -21.810237340865417 10.972866508054492 68.43850249473172 0.5318180449368892 0.1488119661808014 0.030045901179004447 -3.077502727508545 -3.4712806480673937 3.2598812133422572 13.288610005337889 0.904482771882423
ID_019cd6743,0.1515507698059082 3.1104932848402362 -3.1073718070983887 0.000671671073413842 0.0002690152593395398 0.001702676022389825 0.7742984588373041 0.16356751322746277 0.12074374966831679 -3.09450101852417 -9.539374475166737 7.38301504244489 36.82857409889887 0.526345913833229 0.1624201536178589 -0.015793753357529316 -3.095940589904785 1.1370796998514634 4.828552858887944 22.824942757982463 0.6237016358639028 0.15232959389686584 -0.0029102756942299295 -3.0935909748077393 8.421966969588937 4.463073074405667 20.270058512715714 0.9117352330407736
ID_09b7b1a98,0.15291427075862885 3.1031832333734286 -3.1138908863067627 17.09438694174546 7.096041873344146 35.89447320527582 0.7579546204853246 0.16330404579639435 0.020687414192159435 -3.0789437294006348 -2.4890849603450693 6.779457679881391 32.374197435137404 0.5316875959644617 0.14859354496002197 0.003888675229317774 -3.087876796722412 -7.629290549224852 5.827314636629446 23.9623254814104 0.7932495460398672
ID_2c0dadb64,0.1462424397468567 3.1247605163081307 -3.101752281188965 10.161882700336504 6.6245308007626065 29.976320266759167 0.8124319125800232 0.14596152305603027 -0.0010988250114443827 -3.1032919883728027 -2.6153442860287046 3.6752762670402443 13.204558193712586 0.6377577854713371 0.1510193794965744 0.011499820998329056 -3.0999197959899902 0.02500933898624915 3.0221862914487523 9.845522898146799 0.7787390317897074 0.1483755260705948 -0.014055939924382104 -3.0894272327423096 -3.0925149994014705 2.755292341531967 7.825356721911624 0.6092668892711904
ID_d4cd0361c,0.17031130194664001 -0.0011616383286093236 -3.082183837890625 -4.333999828761176 4.876357291704426 22.48741482382669 0.5594538903986683 0.17288781702518463 0.0031534668133632276 -3.0914440155029297 -3.990144491160502 5.7415301878454645 26.233672561190318 0.7194553496800873 0.16283342242240906 0.019818395546314455 -3.0896363258361816 -7.057584142560073 4.682260846563843 20.343423276957193 0.8872550509577407
ID_2a810d9a7,0.1486775428056717 0.00702930064695337 -3.083601474761963 -3.0789369392899433 11.18596494199029 64.44976042624128 0.6572401690053491 0.1615184247493744 -0.038935483948945575 -3.0897350311279297 -3.765014070054486 9.420625233239111 50.256520613413024 0.644093051340124 0.15349748730659485 0.021701890603876936 -3.0976643562316895 -0.753430885025982 8.619844758213326 44.12198971150415 0.8780011128338971 0.16447600722312927 0.026133118911603522 -3.090603828430176 9.429264064660044 9.599558662501535 47.460386455507816 0.915231266258552 0.15361575782299042 0.008249220187311553 -3.0904173851013184 -3.5441972913239193 3.5253174406543617 12.712131443257146 0.7931057556768886
ID_0a3e142a7,0.1461666077375412 0.005518717562815742 -3.0912983417510986 -30.169372632642446 10.520467008301837 65.23967106272141 0.9038460789931747 0.15313206613063812 0.03218539794351638 -3.0877654552459717 -26.555625183617472 7.431523501898122 43.26447844508863 0.8958460187764148 0.14487314224243164 0.02728994048948284 -3.0873003005981445 -23.42660328812197 8.119178712728008 46.03476359960149 0.8404576379950291 0.14068059623241425 0.02339652342649263 -3.0932044982910156 -12.4033273176334 12.77357327405075 73.32853037720268 0.5660060221833584 0.15147697925567627 -0.006366151247192259 -3.099973201751709 -13.375216452973781 15.46955093261312 89.91290838452134 0.5010727962757483 0.1458192765712738 0.03537664740816899 -3.0945239067077637 -8.147515089806395 16.0620005023657 92.44973618410602 0.5634319978708274 0.15379339456558228 -0.00493077932399724 -3.0829105377197266 -7.48742403232201 17.99185122480726 104.28699821232631 0.6679233512384808 0.14954474568367004 0.004421433549196165 -3.091270923614502 -8.674224960124151 8.310292934389272 44.18449336706498 0.7543917958014458 0.15166325867176056 0.016007762709773714 -3.094358205795288 -2.198875203741696 9.495659035749169 50.97985592137501 0.9395421286320749 0.16361457109451294 0.016913334447001525 -3.092103958129883 7.64988215092357 13.72945107651728 71.37046466706292 0.8312179998567174 0.1634347289800644 0.026933860593562807 -3.0965919494628906 9.514606107471854 13.1777569651959 69.59256441316694 0.7826482990272325 0.16783307492733002 0.0003186994237549152 -3.0718157291412354 12.518614036873437 7.111835479767498 32.468482852017644 0.6844769544713023 0.14682649075984955 0.007047532682971753 -3.1031572818756104 -3.655710484353554 4.028563743826613 17.270936758191752 0.8233757674925131
ID_42df17b79,0.1608201563358307 3.1354685172750814 -3.1187515258789062 -9.169785713912837 5.965820770103973 31.22651710626196 0.8791516267207038 0.16878727078437805 3.126367303734369 -3.1231234073638916 -4.631889504022588 9.802717781822187 50.69729100106256 0.6453029286498465 0.15691006183624268 0.015491150661466536 -3.0877816677093506 4.389029958830732 8.730900517851227 46.99044049547629 0.8540982871100438 0.15810564160346985 3.1339859446125407 -3.1309256553649902 -3.8199589975147767 5.698870854749005 27.72304549333166 0.8407295736964124 0.15721508860588074 0.014972991886389082 -3.085822820663452 -0.1066368627906585 7.325128679159719 35.12555330027982 0.949911918099787 0.1664210557937622 0.03700735379636911 -3.0802178382873535 4.9013379090917795 8.091186344212472 38.374814494829344 0.9258311121782439 0.15460650622844696 -3.139709089329004 -3.111945629119873 -7.789519243778657 3.851806372436087 16.49716347459092 0.9355084987388265 0.15464842319488525 3.1254223185855805 -3.122545003890991 -3.7691451608937254 4.392070392504022 18.72262656690467 0.8790325317619897 0.14385545253753662 -0.020882176457831504 -3.0915372371673584 4.757579805339379 4.824357090593991 20.280293594409393 0.6130534451702063 0.15367144346237183 3.137365395864859 -3.1074447631835938 -3.309197674439556 3.0425559915027907 10.90645194057609 0.6997795599720817 0.14843909442424774 0.016000203531184812 -3.083442211151123 2.0879003010046437 2.573095909244005 8.41571397102281 0.8891954831576323
ID_e279a3c10,0.133252814412117 0.006623308004532752 -3.0915274620056152 -21.999773408326266 19.677201971331247 120.93014471494396 0.6290127682286694 0.12784944474697113 0.009040182189138487 -3.088508367538452 -16.166138314380717 22.120550629632753 133.75638576173876 0.5367434676310456 0.13613207638263702 0.030650904382114347 -3.091055154800415 -23.048103566261833 10.890633117492492 68.09886954466913 0.7026159743257201 0.1418326050043106 -0.03668815759840531 -3.0889782905578613 -22.422027255912855 11.250933859250049 70.1117892366189 0.6453700249504987 0.14098894596099854 -0.0022295714002275842 -3.086337089538574 -18.7802374895014 13.616167477770105 82.17297107913656 0.9032179099286055 0.13324010372161865 0.021968519928692126 -3.088172435760498 -15.541169477407593 15.0954897091966 91.79376166882018 0.507123639727948 0.13651221990585327 0.004842417170149442 -3.089754104614258 -12.313175768910037 13.893480599061299 83.3892067396137 0.8178125837469312 0.1468537300825119 -0.003567811512630849 -3.0909624099731445 -16.437188439107125 10.915291399281372 63.86307802449391 0.8617690892050891 0.15462923049926758 0.007406251344746862 -3.100348711013794 -1.463033895534147 19.126625359076147 110.9458985639457 0.8433007256140627 0.15509387850761414 0.05256351403526733 -3.08292293548584 6.683827701483677 9.18246038309794 48.51659248707788 0.5456518559616031 0.16120673716068268 0.030182319955634907 -3.0793306827545166 7.286500845649403 8.117897219750459 39.836413005293025 0.9592872925102295 0.15534329414367676 -0.0007039278782098551 -3.0916738510131836 2.396288666754438 5.591343253125713 24.738582661051005 0.8543353658015718 0.15577609837055206 0.03422248951409973 -3.097101926803589 -6.129809419782172 4.502963800375064 19.24387812617512 0.9081389088485033
ID_78690fd76,0.15809981524944305 3.0947124245978013 -3.0952601432800293 -20.539367362428187 14.424300070542381 84.0208293044378 0.5772710559805675 0.1620812565088272 3.134481918640854 -3.081712245941162 -9.507311060095299 8.886330217578584 47.6520777785589 0.7095707177803077 0.16902795433998108 0.01187822046331011 -3.098254680633545 0.18365292177611614 13.599207400682033 72.48110781552175 0.5487215234383036 0.17047663033008575 0.02627235696357442 -3.07541561126709 11.010818854207631 11.073288321532024 54.914599743834266 0.6593487767856255 0.15992112457752228 0.016416799480388815 -3.0844857692718506 12.064127006382682 9.512395487683731 46.31913602355695 0.6212115405599777 0.1608821004629135 0.05132348353882689 -3.0875043869018555 12.61356283575037 6.6354822731178595 28.27647626402119 0.7312918941672061 0.1682087481021881 0.04240621680368112 -3.0806970596313477 13.76059950524076 6.248405948314909 25.34143030647381 0.7962991102443817 0.15070509910583496 0.0020835958735822163 -3.082930326461792 -3.1106409590913806 2.6123628867545703 6.594941020043766 0.8804815826401517
ID_33a36e21d,0.1560772955417633 0.18570142664962686 -3.103687286376953 -15.449594590125317 9.814923256667615 55.848136169087624 0.7897004095873865 0.16066624224185944 0.07366955848288381 -3.087958335876465 0.8279662002723667 5.235222824234823 25.041417732146737 0.7040811947882044 0.15814350545406342 -3.1402356431717005 -3.118593215942383 -1.7939762192790316 4.03193429180508 17.155650258099804 0.876303312683686
ID_24bcc8de2,0.14040768146514893 3.0898434783797852 -3.1086740493774414 1.3393895646730174 0.36398695439267625 2.2615943634653424 0.6030194000672201 0.17027665674686432 3.075966917239202 -3.113314151763916 -9.389518661749278 5.783032533687151 23.780146244764907 0.6586620322875685
ID_3e9c0ac2f,0.14982624351978302 -0.006774633085881415 -3.0961763858795166 1.540375221715987 13.586412809587511 76.09397347617842 0.6797057179927682 0.16107423603534698 3.1236926666467966 -3.121476173400879 -3.6468152492712784 9.665594995068211 51.80681869331611 0.9623035404386087 0.14326244592666626 -0.02473785940916643 -3.0923047065734863 1.5915525456392483 8.916204484324712 46.04512066574846 0.519419223904729 0.17025607824325562 3.1356160806648714 3.116536855697632 -7.439012472202582 7.627722780194639 37.88733482364458 0.6441489152371681 0.15930989384651184 3.1154891263922444 -3.1277289390563965 -3.857300161803649 6.596258636166626 32.25541077289048 0.9099168370608907 0.15561722218990326 -0.013976202259832773 -3.075039863586426 1.4258446946955583 8.36366054034393 41.501996024828124 0.7809876072590181 0.15685352683067322 -3.1402942396651667 -3.1102523803710938 -6.101150543807648 4.0126878066524245 18.26646924021076 0.9762252452917914 0.15612885355949402 -0.008306429968092582 -3.097687244415283 1.9294331924841388 4.8212429006793025 20.465931296384106 0.8401243785700335 0.1554698497056961 0.013746973799235502 -3.0972414016723633 6.567652461645119 5.268097404124678 22.40591943267561 0.8806922276722565 0.15273573994636536 0.3870164764527906 -3.1000137329101562 8.743243983810718 4.70407079654641 17.12760566539639 0.5609389817782938
ID_f26b8472b,0.15198372304439545 -3.078390890213733 -3.0868048667907715 -5.602381415940483 21.67710604995816 127.82307549345076 0.5236561924395656 0.15138159692287445 -3.1399241922578365 -3.1182897090911865 -11.844102968147979 5.906515205898332 30.88587820533491 0.9636214123116702 0.1658664494752884 3.1367333377156874 -3.1210761070251465 -12.324259263962647 7.300740296757716 38.581027045119185 0.883320867781423 0.154052734375 -3.133999492203177 -3.1038994789123535 -10.111514534488581 4.543477526344728 22.16831147673762 0.8461318116135 0.16971485316753387 0.024399110436759176 -3.068686008453369 4.78015343952061 5.183667896203557 22.02144696828436 0.9552797795078443 0.15567463636398315 3.130412388455655 -3.1047306060791016 -10.405942481673627 3.8652553146780155 15.89356493533171 0.7878364168926633
