ImageId,PredictionString
ID_18fb86d04,0.15237827599048615 0.019143299548514823 -3.0923967361450195 -1.0304219981076068 6.966695794233159 35.710340841989684 0.7706201508442998 0.1537553071975708 -0.04985611256381206 -3.1058011054992676 -1.1076618341181759 4.426813337908199 18.940970301663647 0.6755507880653291
ID_ce06d4dc1,0.15472711622714996 -0.01056891002901285 -3.0786802768707275 -32.11163427049892 7.101141252935731 47.890877723729375 0.8325747151996673 0.1415196806192398 0.018279909019352752 -3.0897765159606934 -10.59227665986543 5.55022355070548 31.712624430691967 0.6338310853782185
ID_afe07078f,0.14005476236343384 3.0884234110593116 -3.094046115875244 -32.48630118027866 10.827748699272925 73.51844243713873 0.659023061267851 0.14355817437171936 3.1223740164254963 -3.099489212036133 -259.5185813254502 108.08191285652269 711.9855317738234 0.8180177686072206 0.13960644602775574 -3.131854676790118 -3.1083805561065674 16.93284096370227 -9.28977472094909 -62.63680534213805 0.5449009030064521 0.15155306458473206 3.1388580734854425 -3.103403091430664 -16.098879482630775 11.299406942779974 70.7401615982805 0.9230386225098202 0.14729610085487366 -0.01015728303215363 -3.0870347023010254 -13.183908092580374 17.992862407806516 109.11201848913254 0.8163326812819898 0.13844269514083862 0.008327835150155782 -3.0833888053894043 -5.6731859181384925 15.801576921825928 94.9351868783443 0.8052737769596989 0.14109304547309875 -3.1193682347232325 -3.1048076152801514 -12.72796748588417 3.904716747201454 23.886400461219328 0.6973622074785678 0.15494701266288757 0.0102763945179637 -3.081880569458008 6.966401949434084 11.211882676344365 64.02936498328063 0.8842665382317284 0.15678732097148895 -0.013605997441668839 -3.0890231132507324 6.909947866632588 8.608091504463387 49.51916640579017 0.6997366710055037 0.16513356566429138 0.026002753525151103 -3.0713765621185303 10.762825101388895 11.586184681512636 63.03096139472437 0.9500398015514323 0.1585524082183838 0.019222097886429295 -3.085501194000244 10.00234117967675 6.400406345174942 32.43136271707176 0.8257845836956379 0.16545933485031128 0.03425406903141162 -3.0984487533569336 12.466686543400623 6.559037373276001 32.367739081415166 0.6702664241774615 0.15307247638702393 0.023918433850076425 -3.0771865844726562 -7.423157228340925 4.149189486755544 15.220932983566705 0.806463158754918
ID_37caf75aa,0.1512974202632904 -0.005400161760309424 -3.0947163105010986 -25.93527056672473 6.380671094099801 40.515360923248195 0.9523573233072483 0.14645326137542725 -0.00047812506846025123 -3.079763889312744 -31.627359212400382 9.523936537726009 59.40507198801374 0.8874205994053057 0.14677473902702332 0.00971681612571262 -3.082643747329712 -31.824022109004805 10.530372155638197 65.4750540398631 0.8916066027170679 0.15305069088935852 0.026065594017352714 -3.07767915725708 -28.177661072215276 11.803806135094613 73.22364682386264 0.7580907249446888 0.15330132842063904 0.03772923341171385 -3.0776584148406982 -16.898940024959053 10.108984715268393 61.60396152736234 0.5224708626668592 0.15815618634223938 0.06493098435042671 -3.0770821571350098 -16.22321187960325 11.333282944695206 69.54983472826976 0.7254328770491204 0.15215057134628296 -0.023763193618812697 -3.083554983139038 -14.156717037315609 7.863158958941568 44.450835838181945 0.7114459825149464 0.16219523549079895 -0.02045251279057378 -3.08730411529541 -13.71537595986057 9.457969789620421 54.00456498976363 0.5557859715225388 0.157690167427063 0.029912858096067203 -3.0836706161499023 -10.3967277520958 11.033463471528915 62.25439221599183 0.8914380975690267 0.1596369594335556 0.045767842040077375 -3.0796022415161133 -11.098109739327896 14.229517649248288 83.44183523081789 0.8890658424679683 0.16154353320598602 0.018609140237546097 -3.0814075469970703 -5.742695715412191 12.262495081235334 68.98476989002977 0.9331304364832173 0.1475684940814972 0.00496154725990209 -3.080662250518799 -5.954786220468508 3.342367603921185 16.332386434117204 0.592096501064239 0.16629470884799957 -0.0033636012561886115 -3.074176788330078 5.40937705544738 3.0578397106926074 8.007754385503542 0.6906203219483368
ID_7655363ca,0.15503594279289246 -3.134290499148021 -3.10786771774292 -20.292639744211414 7.25078016121363 41.3273109447274 0.9685570722227934 0.15332582592964172 3.1259707652763047 -3.101797103881836 -21.599475588675677 8.777440339364718 50.75466777311601 0.9336020602084609 0.17006850242614746 2.976323722575001 -3.0940725803375244 6.954592286306364 4.337824099250489 17.359723150764513 0.9631857044574739
ID_ecb7edbb8,0.16099852323532104 -0.07545890738150406 -3.089818000793457 8.35045845607425 5.927677598500042 30.045448833691964 0.7701083737890928 0.15668722987174988 0.008804457250869542 -3.093214273452759 1.1209053316573223 4.792763912566587 23.62135942209056 0.8905305691403429 0.16279222071170807 -0.02072588739728236 -3.0928595066070557 8.302873072247529 5.059647732571185 24.259609948207306 0.9057887922443623
ID_e3b680bf6,0.1515425741672516 -0.003917908864532404 -3.0893990993499756 -3.1524637389687458 12.174461744793446 70.69226598163208 0.8282969696456545 0.15843692421913147 0.023064468974750976 -3.0866706371307373 -0.6815575063050948 8.62463787199634 46.04112218733443 0.9535293897871977 0.16572797298431396 0.060952321585395146 -3.0836281776428223 7.37925313875023 14.788899943707412 78.03226437817737 0.5926077471135779 0.1677696704864502 0.02357643487012334 -3.0880722999572754 9.850373192020932 10.244209612407838 50.09889331106211 0.8308687770917516 0.14796091616153717 -0.01264531982663284 -3.0604934692382812 -2.9422794555622227 2.8535489912934717 10.78450009229681 0.5045413550476492
ID_c51c8de2b,0.14784833788871765 3.10114619982569 -3.1127171516418457 16.214028094397857 9.36823464096604 50.18246532626009 0.5845298265943885 0.1483961045742035 3.105256919253012 -3.110050678253174 15.526774786226033 8.177376906232684 43.89083844482579 0.5584886586684567 0.16519300639629364 0.08769201904669412 -3.077153444290161 3.9768687775910516 7.494538469153743 35.49274812577264 0.5636105440476613 0.16527411341667175 0.09264041728437117 -3.0900778770446777 0.01658737492489883 4.894209101170333 20.831045024823638 0.628568942994585
ID_bbe2505b7,0.15950369834899902 3.0568110192213935 -3.0935754776000977 -5.158452845300115 4.632934614050224 22.73073941472746 0.7926660834233814 0.16832105815410614 3.0707530406100094 -3.1042447090148926 -1.917513329905068 6.61550804264419 31.332665980310978 0.7297904753586115 0.1641618013381958 3.020922204430513 -3.0988125801086426 0.10252931767017925 7.157744270191363 35.5364532315542 0.5425750337136334 0.1629796326160431 3.0845371868288356 -3.104428291320801 2.197899474367474 5.720512195955237 27.18415691966735 0.7495299470819102 0.15734414756298065 3.107964845228317 -3.116283416748047 2.838133097614107 6.169980291080964 29.388558556932658 0.6515774908565946 0.15352849662303925 3.084674816254176 -3.1027841567993164 7.521579428763454 7.67544447018534 36.7483415786056 0.5034383674631465 0.16804510354995728 3.0902632928845675 -3.116295337677002 9.122124935044942 8.544152330533667 41.526106337051544 0.7591766164304439 0.15570932626724243 3.046711765949868 -3.1030359268188477 14.768425184177024 9.170804172781015 44.79788388247562 0.5619806950041039 0.15887385606765747 3.062848785671429 -3.114132881164551 16.63183282021586 9.611686213760494 46.40337794055387 0.7034480523383435
ID_b2f337d86,0.1716737300157547 0.005084968916518355 -3.086575746536255 4.6284057867823005 8.737478172674182 40.49642353009627 0.7110098523837616 0.15996325016021729 0.03780660700877407 -3.096317768096924 7.109347601728656 8.086111801217138 35.387437342197295 0.6809195798548536 0.17940376698970795 0.033896385895519174 -3.074378490447998 10.730949006478017 8.807018204230255 38.540423239445815 0.8464750867670571 0.1620531976222992 0.023758407241221555 -3.0845401287078857 -3.00098860672228 4.144443485961584 16.575488448167604 0.9678237432613627 0.17543211579322815 -0.02113392918251936 -3.069129705429077 9.8940818791825 7.408328472190189 30.451815410127445 0.5621991438075635 0.16613681614398956 0.027721360713923556 -3.075230836868286 6.806213839293308 4.871792758372778 17.62977870132899 0.6412512942296497 0.16407279670238495 0.025975233754249698 -3.078212261199951 11.54214633668063 5.157340362596395 17.080339121385602 0.8898558173810452
ID_99bc4d11b,0.15642902255058289 0.008456489207513898 -3.090597629547119 20.045595378901787 17.94807691505437 97.94373828791733 0.6887799248177469 0.16396863758563995 0.0019121483507042443 -3.075355291366577 12.6563861747058 8.460209241624757 45.646713454714394 0.5860845129484513 0.1673623025417328 -0.03464730257564664 -3.083967924118042 11.738488206004307 6.845710790387529 34.65286747924973 0.6768411399218414 0.15913823246955872 -0.050825083661542515 -3.093557834625244 9.89139925283818 5.1355432407901205 24.716621637372995 0.7410143232289187 0.16518869996070862 0.07357377464736913 -3.076880693435669 2.1027832553900887 4.918553992710882 22.304694354569683 0.5190657123100556 0.15777307748794556 -0.022929751814655466 -3.068800926208496 11.259810091238705 5.086750473873697 20.35577595236969 0.9025226735931087
ID_9bd02b06b,0.16082823276519775 3.1314449656323666 -3.099696636199951 -12.63733423792844 7.896706884655367 45.69544445795962 0.9375874519252139 0.1630415916442871 0.04860882745067264 -3.0913758277893066 -10.578259020207035 11.050233462104151 62.540017673690656 0.7466894372042691 0.15640310943126678 -3.125414409732634 -3.102011203765869 -13.44626136078423 6.805230918071254 35.273299957463365 0.9780874015500736 0.15009018778800964 3.10700921595024 -3.1051177978515625 -14.82325456041701 4.733942940191451 23.171699047122825 0.6070388755687637 0.15712684392929077 -0.010844458833294142 -3.0863113403320312 -3.2804632154433553 2.049474458858926 6.338345259451506 0.800846374456017
ID_3eb110281,0.1577342450618744 3.1072751290125677 -3.103480339050293 -9.979554265719768 14.197641611117009 83.5998425426062 0.7388450943367352 0.1608719527721405 3.1305043263483134 -3.1036198139190674 0.1280872129929988 18.2219208371401 103.20402990220086 0.7237380032275098 0.1517259031534195 3.1286764030063976 -3.1145617961883545 -3.7938058426781667 7.957032053663235 41.02257202504175 0.8920627476472277 0.15986688435077667 -3.1317686235392532 -3.10768461227417 -1.7665222997317913 10.532084173461321 54.442125662546324 0.9021286435848175 0.15595310926437378 0.03075624199358857 -3.0903191566467285 1.5962831033005478 8.99728816176116 48.11038882466112 0.9017718659158233 0.16139619052410126 -0.0056979590033179 -3.076472043991089 4.367507457499683 11.088481321147624 58.81552110550897 0.6448837129386907 0.17146793007850647 -0.017950238652876448 -3.0892484188079834 4.429443402566914 9.590841264221384 47.70931015847223 0.8500552089233824 0.159733846783638 0.06349779749735567 -3.0799965858459473 7.089101285771545 9.322408940250126 46.205722356671366 0.5828627157627367 0.17473572492599487 0.018422340439605514 -3.081636905670166 4.033846936156518 4.252442709507636 14.519356191190374 0.9739391456128779
ID_223276b96,0.1560148000717163 0.7678904379610397 -3.0893936157226562 -17.839937456093597 5.4137736143711095 28.58573794368565 0.6256790331378874 0.15620015561580658 3.0668295877907616 -3.103036880493164 -15.46372304960528 7.58166756468188 40.30233502169685 0.6800856839367914 0.1626533418893814 2.7637336685241434 -3.10127592086792 4.9122172909434285 6.600325338880258 32.20418836103716 0.8522761810695525 0.16626980900764465 1.7249692689744942 -3.0864920616149902 12.40480250826031 7.234616529652305 32.21250310060094 0.5180717221647109
ID_1f8605bdc,0.15821406245231628 -0.06555156675495746 -3.090223789215088 -9.889621187986032 5.355051888770728 24.961270280556377 0.7903915032853095 0.161256343126297 0.01587262243148756 -3.0835649967193604 -5.020644554323613 5.928783312622472 26.781629313733568 0.8762743406913072
ID_089d5b041,0.16158854961395264 -0.017503370646917614 -3.0856571197509766 -9.10872597053763 4.709803505337816 21.56479091459877 0.6212955769820007 0.15548330545425415 0.011885372050708476 -3.082752227783203 -10.795123382071049 3.607326289529645 15.405079446062208 0.8951513760480941 0.15676239132881165 0.003793674221485792 -3.0881338119506836 -7.854024096502111 3.4847217771005035 13.936486195985472 0.9333694373956852
ID_b4fc9fa2c,0.16459622979164124 3.119183530672427 -3.1053366661071777 -9.259668872638954 11.66599839929319 66.66733947049305 0.9151281833535556 0.13913960754871368 -3.1188627834203575 -3.098503589630127 -17.593420506185833 5.192097265922097 27.327755093610058 0.6295397705888599 0.15940646827220917 0.014858162222823294 -3.078469753265381 2.088738562698139 8.027501441572971 42.58439154348465 0.9238245640808864 0.16110509634017944 0.0312585826801905 -3.0767629146575928 -0.21358850614381347 5.304028006789958 25.378791540582206 0.9219293861984642 0.1588907092809677 0.023172766838347108 -3.090402603149414 2.2029715289311884 4.696764464187107 22.760023022857418 0.7080196830060668 0.1534644365310669 3.138627523243254 -3.1078169345855713 -4.2042088159417546 3.25870969912836 13.856229186098368 0.7324275583485942 0.16442352533340454 -0.0013627995079225797 -3.0780234336853027 2.799846164883167 3.8368318239175943 13.751921057728566 0.7619542091262836 0.1641482412815094 0.035794934808786434 -3.0740084648132324 2.9094552155540567 2.396345852424754 6.522276252529561 0.6949098868556548
ID_0a2bb53de,0.14257389307022095 3.0844264794342 -3.1006407737731934 -26.34479993050258 7.800344397019643 46.71501815322614 0.5458358776553441 0.14890003204345703 3.0643331709846864 -3.0945820808410645 -27.94207670874487 7.2032391618173675 41.67245328428608 0.6167568287100816 0.150974839925766 3.1339850083972443 -3.1149182319641113 -18.7470141027564 6.469569544323261 37.325134873430855 0.7589794809234386 0.1506970226764679 0.04069888555075903 -3.08599591255188 -8.220434781420082 8.828085048091333 50.31622659083022 0.5970011336363623 0.15481087565422058 -0.0021820644499447707 -3.08658504486084 -9.498165536653833 16.00880324844099 91.67285571934909 0.5533798168153987 0.15567363798618317 0.01776462525779697 -3.092256784439087 -4.356203741464316 23.581832755780237 136.48340573402976 0.5265643706847433 0.16121657192707062 0.04690252159005694 -3.0831897258758545 -10.607450744444439 6.883553537163304 36.25244631883214 0.9168390749957686 0.15917575359344482 0.08499955382693783 -3.0739102363586426 -7.6160788308773375 6.871172582203375 36.007045163983356 0.5499737506222242 0.15957856178283691 0.025350295751624983 -3.0732994079589844 1.602223301222512 10.602348696851038 56.480943061013015 0.8085160700740728 0.1603620946407318 0.008391302189810159 -3.0881924629211426 -6.632426353024746 5.493281513977667 26.772950435844173 0.9681464298150321 0.1720990240573883 0.015212406219119201 -3.087979793548584 -4.493366803534991 7.615265767241763 37.323472331759945 0.7607151047069349 0.1746634542942047 0.018949922379845576 -3.075920343399048 2.7877822574079714 7.520168341263774 35.986717568265604 0.8792294785073426 0.1670343577861786 -0.08798189744699968 -3.0934786796569824 12.720302902812184 7.728648294189219 35.3207959186704 0.5843440511619248 0.1738792359828949 0.030894307251669074 -3.0698907375335693 3.582573916423533 6.059978551036663 25.325342705148906 0.9119210288839263 0.1797940731048584 -0.00509848775153795 -3.0570602416992188 3.9356940179246873 4.543944202564082 18.166801333462963 0.5051040989676976 0.15807542204856873 -0.0008165332902597991 -3.0814857482910156 4.15053880707297 3.5303314825348124 12.774298049689703 0.9718795061609964 0.16293233633041382 0.006901663923918688 -3.0799248218536377 4.44540371771681 2.91480287518445 8.265063166654718 0.9237625962344701
ID_58921d231,0.17778313159942627 0.024390997588764528 -3.08091139793396 3.3623612243159875 4.903206942208737 19.678783752665474 0.6342357861488952 0.17109650373458862 0.028615252249605042 -3.087735652923584 2.8825496607659264 3.6546794882367215 14.752096420601351 0.7883108959096485 0.16633294522762299 0.0022325653442373922 -3.0886664390563965 10.106549745538729 6.288602830801946 21.89191780422268 0.7635606618538888
ID_f89d8e6cd,0.16253487765789032 0.05500015202421694 -3.0962562561035156 -3.4359732954727646 5.91829255249784 28.118704214004037 0.837510408685915 0.17558515071868896 0.007208827892298989 -3.0729713439941406 3.502390360389404 6.567434974772074 32.493298870694375 0.700904559225819 0.15773972868919373 0.02723645655012409 -3.0806028842926025 3.264580269429952 4.496302885618593 19.106477499025946 0.9207837471823932 0.1801721751689911 0.01994947561822219 -3.092607259750366 -0.22656727359644935 4.544674605163592 18.279403448140393 0.7789151764540274
ID_9f9c04c6f,0.1565433144569397 0.05915014047537851 -3.0856659412384033 -5.769076857780953 13.335306404821791 76.38938155423328 0.5502279823910947 0.15460866689682007 0.029246619402835093 -3.098787307739258 1.6534457537207061 15.507566928899056 88.47975459337421 0.6113617292266135 0.16036951541900635 3.0927410433286315 -3.106499671936035 11.995115410571747 11.892208315430562 64.47239162564578 0.6704498487930669 0.15667086839675903 3.0960599360745835 -3.1116185188293457 14.047090843492843 12.890456282706019 69.77025620800094 0.7219891027826927 0.1559954583644867 0.07706350236386286 -3.0765187740325928 -6.395706404320484 9.048651330659322 46.34797881482141 0.5520159328100266 0.15682099759578705 0.044701670502797754 -3.08597731590271 -2.9936315266219395 9.92016419771408 52.95234964216345 0.6838157085571523 0.17058339715003967 0.03918910611194149 -3.07979679107666 1.9555888898794322 6.310901839511625 30.72913433539333 0.5561360705602519 0.15656855702400208 3.1206464203915405 -3.1129841804504395 9.146226251421915 5.264975946165083 23.790954053429974 0.7060198474154923 0.15340660512447357 0.03884396728364989 -3.091688632965088 2.5328254071319 3.814246220177645 16.292589902916816 0.566340670811204
ID_0591a0910,0.1573667824268341 0.07730019392371752 -3.0827810764312744 -17.58062541483056 9.14856344462743 52.71174024458541 0.6798932301345127 0.1522030532360077 0.03969817202593261 -3.093613624572754 -10.908659048298611 3.9356061308308417 17.905138433003067 0.8136518025165872 0.1652229279279709 0.05197888133600417 -3.090318202972412 2.424268543531478 6.664507183678128 29.859788410686477 0.5651593911206003 0.16494882106781006 0.04641820686610221 -3.0957260131835938 -2.9123737358221655 4.723606482623297 19.101090065241937 0.8339440120451838 0.1582842767238617 0.05609453450175898 -3.0846850872039795 4.176503039052694 4.730457775145088 18.005004955132723 0.8205883389060552 0.1594388633966446 -0.011785221043404326 -3.0944323539733887 -2.246882061816452 2.6458751443716926 8.235621452367088 0.822947414413277
ID_1a96a868e,0.15449029207229614 -3.132290752237706 -3.1093811988830566 -12.446922212061049 7.302053946446138 38.551987553802235 0.9642448515452499 0.15716403722763062 3.135372545784381 -3.10512638092041 -13.539209782967726 9.25172359541438 50.00140480744643 0.8592529013336263 0.15933454036712646 -0.008723067045439348 -3.0858871936798096 -6.493699550618037 9.038222836062157 48.13593040819777 0.6107539213595556 0.1553550362586975 0.06218443867163805 -3.1010866165161133 -1.5431300361951326 6.643218582564041 33.80149613259332 0.5955649318758386 0.1477338969707489 -3.1268422400705367 3.1125097274780273 -10.80838738534887 6.341372070337878 30.994777889821435 0.9463211331811361 0.1558765023946762 -3.1368527081781097 3.125208854675293 -9.325028836881895 4.806136176506736 21.95570656463429 0.8141907391836611 0.148446723818779 0.010958461580946119 -3.0645270347595215 0.029880495857919343 3.3362855079645852 11.99915392287665 0.7580743514649427
ID_f164fabf2,0.16193124651908875 0.02236497223224746 -3.0784380435943604 6.36156975396813 10.672227293279226 56.98412136577124 0.5437504778457348 0.17190702259540558 0.04538234990024653 -3.0862362384796143 1.8306034643704843 7.671566935748873 38.03029350966033 0.5834088274179493 0.16195794939994812 0.009574342389647134 -3.083845853805542 4.815870910650029 7.022154504070949 34.362899881931 0.6189154992935151
ID_2749c3f78,0.1570245921611786 2.445047482310701 -3.0843803882598877 -26.223883222954274 12.619198513367682 77.54194150807717 0.5062392421397087 0.149318665266037 1.693703573246385 -3.089421272277832 -24.244089370075542 11.87311142434763 74.78444007168441 0.5317997546278298 0.15848487615585327 3.098457167934849 -3.1109068393707275 -10.853779141692163 17.209237922406214 98.97388774757927 0.6157896233975756 0.15496665239334106 -3.1390798617096363 -3.1053571701049805 -10.511403997130415 4.133850539054496 21.594096720245744 0.7465678600955984 0.17275840044021606 0.006268512059001714 -3.0857577323913574 5.007712702844542 10.068609565525474 53.86756570072924 0.8044467490750864 0.15461206436157227 3.140904277196397 -3.104825973510742 -8.435280808180964 4.541616805737453 22.072859108483563 0.970589517122764 0.15983060002326965 0.0017365309423286802 -3.0904507637023926 0.4427917207961247 5.364585703739226 23.73400895823881 0.8354975984110761 0.15821167826652527 0.045018877421920386 -3.074369430541992 6.753241020076541 6.16665296260185 28.57655039852369 0.7158335635218268 0.15831740200519562 3.12996124744195 -3.1043620109558105 -9.50260072373939 3.3258159630766997 14.172056317350044 0.7038441828102756 0.18442989885807037 -0.004344260601919258 -3.0870118141174316 0.3852230297486443 5.081695100465093 21.646414697205792 0.7813025352188762
ID_1a5257d65,0.14703908562660217 3.133903197162307 -3.0907907485961914 -24.946656689564044 9.825520331159392 61.60791510961974 0.7798132799557543 0.15086272358894348 3.082275080118613 -3.0877914428710938 -24.604040761067168 12.051713312831627 75.82753136273931 0.6134291241078345 0.1526552140712738 3.13747523739618 -3.109736680984497 -26.087472164184206 9.743477988667747 56.93036563258307 0.874383173857223 0.14885149896144867 3.1318635886166586 -3.1050734519958496 -24.599403377761142 11.951513016665972 70.04164789050877 0.8936316693244258 0.15266086161136627 3.114715380605922 -3.11104679107666 -12.422810433087768 8.301439344647484 47.93528352111639 0.6843577202741679 0.16750368475914001 -0.03237006572378257 -3.082218647003174 14.09624899920909 9.254891621674036 45.726425900328536 0.58583219889531 0.16780897974967957 0.024806095686144943 -3.0698537826538086 15.221304332602301 8.730712533026153 42.36055150147985 0.734056425972662 0.16496223211288452 0.016721557931171915 -3.0780491828918457 12.306077599935874 6.523926735517345 29.60088253023017 0.5842219617897918 0.16607922315597534 0.026122283618057122 -3.0869932174682617 12.936895803183484 6.008464442729448 25.503325462364753 0.7659978056776202 0.1706981658935547 0.011273724353750406 -3.067009687423706 14.325256336729481 5.857920761579595 22.212259471446075 0.9189329658890307
ID_e88770830,0.15917298197746277 3.0991042470934955 -3.10628342628479 -21.59865288521883 9.408927708899045 53.98672367566216 0.9251218818050286 0.1560366153717041 -3.140077933070219 -3.1036217212677 -22.017535567265863 13.678455352800968 79.18721460316824 0.9572486664245523 0.1512793004512787 3.117310588472214 -3.0955309867858887 -20.833500950413853 15.147950096862841 86.67543577280047 0.9131539308588035 0.15807950496673584 3.132470736812773 -3.1008472442626953 -19.57786223817495 15.77413057746075 90.36477218506829 0.8091441614136213 0.16123908758163452 0.03716324542099613 -3.083387613296509 0.19756940476348522 14.751634488376329 79.64994450791342 0.7605265294412271 0.16409936547279358 0.027945878134599183 -3.081836700439453 4.905802614685569 14.273286750668435 76.45169408055101 0.6273003177029371 0.16507917642593384 0.03291181965307058 -3.0803961753845215 12.238646779462812 10.318666418306515 49.951820875507735 0.7508180374271058 0.17142948508262634 0.03145401459675376 -3.0611917972564697 11.839751084108457 8.07983708071772 36.590047026839954 0.9462959730917151 0.173696368932724 0.02528126637633661 -3.0693321228027344 13.623423010557193 8.22771376082686 35.36526560786939 0.9377121201748377 0.18625670671463013 0.029046284013771243 -3.060605525970459 13.449788906836073 7.38309845331142 30.03966863981218 0.7348528345508927 0.16761580109596252 0.012896110256289398 -3.079209804534912 11.942609115525684 5.370669090300439 21.569161117113964 0.860345619672467 0.16066420078277588 -0.0012236983483594902 -3.067624092102051 12.481736851605751 4.809124184722635 17.301985621475254 0.8728195464528643
ID_5eb629235,0.15285250544548035 3.1361014654498107 -3.1049065589904785 0.6872886372461987 8.980182068588144 45.93823860524194 0.5795520555887484 0.15483978390693665 3.1216415567153235 -3.1184091567993164 2.175412227030402 6.9481004365780885 36.416701511446085 0.7011796819074985 0.16209730505943298 3.1290023017724633 -3.1126914024353027 5.4744490857838946 3.3280330549109465 14.22300636770396 0.666705597395713
ID_3dc4de7a4,0.15704703330993652 3.1302546971094305 -3.1309614181518555 -12.773553065397582 7.905910520385121 44.83730159438822 0.9253092063502656 0.15657460689544678 0.006845699820854626 -3.0700838565826416 4.8341046049760275 9.33494517914594 51.1687961205457 0.843146047629776 0.1615753173828125 0.016097160380002758 -3.065293550491333 4.728022159185967 7.268417155517377 36.94644389574631 0.8724247920308711 0.16040882468223572 0.006086952964087845 -3.0863819122314453 4.2995477843862036 4.709188556777581 21.353998780286084 0.9702017584503373 0.15358953177928925 -0.01059234952661319 -3.079184055328369 4.848171825235398 3.311897607736915 10.851972489225137 0.9668455959192691
ID_298d74636,0.16410407423973083 0.007788409556110252 -3.0968055725097656 -2.2815945944226588 20.872050632214563 117.78717595940178 0.5955520991867412 0.15616635978221893 3.130495809318923 -3.107769012451172 -9.736446049879513 7.532249908971152 40.19832275546763 0.9320695750396348 0.1582748144865036 0.006892194871128971 -3.089686393737793 3.589903656063239 13.705189503965082 73.60799224110399 0.7310288696912828 0.1486208140850067 -3.133827895835255 -3.1042861938476562 -8.305154656290293 4.022239360353618 19.514325261140872 0.5355384238525366 0.15429304540157318 -3.1394056297543482 -3.11215877532959 -10.488824950410274 6.113486021678741 30.027779936826 0.9599168155276919 0.16034042835235596 3.1342360081276515 -3.1144051551818848 -9.605254620464022 7.06249432152964 35.06614334641901 0.9594524814822787 0.16305303573608398 0.001157891330038108 -3.0945944786071777 -1.8790557643702643 6.281865280055993 29.97748388883676 0.9732354382484949 0.16457441449165344 0.027719383735222133 -3.0818538665771484 11.699268871268377 7.814880926963836 35.47067190640601 0.8168865517577174 0.1577489674091339 -3.129319083018467 -3.1151273250579834 -8.185841682348528 3.722859955225797 14.972016017082684 0.8875666759216225 0.15509739518165588 0.015186441721005589 -3.0731537342071533 6.51097180207756 4.521460530659285 16.995613712097594 0.8024318964604992
ID_521f0b21f,0.15805763006210327 3.112869166257376 -3.0958895683288574 -16.22889333769193 5.540985703146053 29.515825129337966 0.547198393018025 0.1557079255580902 3.0607231802868813 -3.09456729888916 -19.741496155017007 9.161187638536058 48.7992740987791 0.6198202112282549 0.1573011726140976 2.985728813724235 -3.092242479324341 -12.962376331569688 12.143754217767372 66.02171861368556 0.7619377375404665 0.1586950421333313 0.5723984934685188 -3.0857696533203125 -10.724012817694087 13.144288757710756 71.27669506643875 0.6573062684552804 0.1713641881942749 0.08134976068200224 -3.0803422927856445 -10.115286870794938 15.4440125887468 84.72898317421671 0.6531711622006691 0.16756759583950043 0.043291115393679976 -3.0825679302215576 -6.935588511013983 14.372479825602195 77.6881456375518 0.8555539298070053 0.15261627733707428 3.1314295974125943 -3.1027708053588867 -10.008871960724445 6.467558976783994 31.82404166062019 0.935690966841819 0.1495802104473114 3.1368596912486697 -3.1109347343444824 -10.444843057685148 8.087010029040172 40.61457685275604 0.9343428816155487 0.16595467925071716 0.037289577693751436 -3.068166732788086 5.451799211627578 10.073009133367819 49.89010007108681 0.6516501252906208 0.16127784550189972 -3.1310730736991084 -3.0958824157714844 -11.041385530352418 5.0438461096022404 23.35746297917228 0.9727098240434385 0.16461080312728882 0.04427104568936098 -3.0755181312561035 6.244827702882513 8.710589259890313 40.32129943373944 0.9368894065283115 0.1699926257133484 -0.07979364588324504 -3.091914176940918 19.558359831914085 8.675754996114492 39.75540995601392 0.5234537782567644 0.16755661368370056 0.025721739131548786 -3.0806169509887695 7.848266509401068 6.985180940945377 29.91607035623871 0.8957254964777077 0.1686905473470688 0.02177903296752679 -3.092317819595337 19.70559112137461 7.78613640834851 33.69636119642513 0.780246298778398 0.17473924160003662 0.0381796789342157 -3.0857019424438477 8.104155252664391 6.49911681945391 26.356198451885472 0.6189663273666589 0.1709364950656891 0.0056764384466720065 -3.080777883529663 8.578333382006564 5.3346522904086715 19.22244727614753 0.8242248335740178
ID_f83fe5925,0.16263967752456665 3.101931313065262 -3.110370397567749 12.929491991018894 11.245851291483072 60.356723996149796 0.5621862204727444 0.15695081651210785 3.1355795091765883 -3.107614517211914 662.063116129037 509.8822850788054 2818.5765216461523 0.5533903123077408 0.1579103171825409 3.1124817744265236 -3.1208815574645996 3.782401348578739 6.651076169560098 35.13176749585168 0.9259903516132916 0.14999842643737793 3.141239213126529 -3.111668109893799 6.764365694735245 7.12164079129349 36.32800177169455 0.6636241163049085 0.15077316761016846 3.1280165277652454 -3.122709274291992 7.956242732401076 7.647471517810077 40.11946763029432 0.5414467521390857 0.1498166024684906 0.03951081970890045 -3.079312324523926 -8.144302833848405 4.033792276928528 18.472158415162074 0.6056825555958488 0.16375009715557098 3.0670592252753237 -3.10640811920166 10.61954045446467 5.411948537815224 23.017127811944164 0.8619709523587744 0.16630257666110992 3.0988699516125062 -3.103057384490967 10.862693392070565 4.311368155554786 16.45643911225748 0.8556127020565001
ID_818a14ac7,0.1531578153371811 3.1404119592766238 -3.100865125656128 -29.957883540519777 7.079083312746246 43.59017069495844 0.9533447302645945 0.14860418438911438 3.110857582111725 -3.0905067920684814 -31.986301767811735 12.678732693261232 80.02070917722787 0.8613602400934387 0.13820239901542664 3.1265608157648406 -3.096120834350586 -35.13631245230703 15.292301982407748 97.19848361264393 0.5083450444298514 0.15031760931015015 3.1166340149383505 -3.0920772552490234 -31.758471710919686 15.94555511590551 100.76708207963006 0.7598012396054011 0.14918988943099976 -0.003224756363925577 -3.088515520095825 -0.9537790890826121 18.989694403186345 107.12918165920004 0.9081016494313088 0.1629340946674347 0.024375930267118796 -3.0908915996551514 6.613449643809243 7.968902963030448 37.983244583306885 0.9300228035445874 0.16548112034797668 0.011217663314281765 -3.079145908355713 8.706066587849598 7.262657556184767 34.61329426205439 0.9316303362630233 0.16455188393592834 0.0033130915954392957 -3.089669942855835 12.720162530759376 5.652818456326074 24.32080805304554 0.9140749611499647 0.15591377019882202 -0.0063839495160337625 -3.0948896408081055 2.189589640210501 4.3768001197965996 17.535367608105908 0.6564467270426589 0.16333895921707153 -0.12409450573395639 -3.0773868560791016 14.36801662888273 4.819959029582303 19.497533112438457 0.5847800006629535
ID_124673c47,0.14653241634368896 3.1018189438338655 -3.109708786010742 -45.07754388996883 10.639882322852253 67.11270048734258 0.7731842311804452 0.15062062442302704 3.1198929074330697 -3.100572109222412 -33.618277144895785 10.180725093439676 63.141711010840886 0.6992952743261653 0.14998704195022583 3.1329421912280693 -3.1028497219085693 -34.1268533634927 10.70339780013748 67.9675414704356 0.7267050330681835 0.14874505996704102 0.04546133346066862 -3.08632493019104 -8.88655758985094 14.663311947590286 83.7684264872157 0.9006962670453548 0.1420409381389618 0.01604535537157112 -3.081357717514038 -6.502358008240059 3.515154725737515 17.11616516117146 0.7022976520738234
ID_35e87c9c8,0.15777373313903809 0.005141091333310263 -3.083218812942505 2.762426164089914 3.9438200911827965 11.903184798341202 0.9092181951419315 0.15975579619407654 0.006476131160561575 -3.093553066253662 -2.163706665191585 3.447884200262048 9.558145431782002 0.930435049109702
ID_fe4a3f32a,0.15527397394180298 3.097025828426875 -3.1015408039093018 -5.267659556378122 16.074058522002257 93.52002710119366 0.6258883362731589 0.16618746519088745 0.049598648728258775 -3.069766044616699 2.628286248502957 5.724875612101521 27.201082994837016 0.8698377782761654 0.17693600058555603 0.07626926317528901 -3.0698962211608887 7.144435851748363 9.617511926086383 47.02763153131412 0.6639589163642969 0.159248948097229 -0.00031887999127338753 -3.0790441036224365 5.747912097745835 6.370913116874752 30.27346997489378 0.560678449284368 0.1618989259004593 -3.111639165959629 -3.111048698425293 -4.722797325686069 2.741888582523642 11.897509757966931 0.621760753233609 0.17222632467746735 0.012178491282013818 -3.073955535888672 6.109202713573171 5.4686170746065725 21.98935449125991 0.7380016723042474
ID_b4803dad5,0.16572284698486328 0.04691670344911209 -3.080364227294922 1.6197886449449856 10.90961729026199 57.88514028428094 0.6697841683537143 0.16535070538520813 0.010660990202300578 -3.0787086486816406 -0.6504853792175137 4.968857885101917 21.941278567213267 0.9635018225905261 0.15943722426891327 0.008492794363784268 -3.0711331367492676 2.7046268198126477 3.2167874600177293 10.939551889922724 0.9715686631763438
ID_8edf7f1e2,0.142046719789505 3.1282571325820108 -3.113149642944336 -26.76526961767057 11.152596088937399 64.59624006864141 0.859524719739735 0.1633893847465515 0.021294048618415443 -3.0763444900512695 14.826314924862057 6.946429452566442 30.043680602755 0.9640661115325071 0.16744741797447205 -0.008602203474825355 -3.081125259399414 -2.542259289170809 2.681286414155907 7.611367851533327 0.6785978133956485
ID_32f8110e0,0.14752116799354553 3.1394307837459396 -3.1008920669555664 -20.564463206658836 12.689906677287492 79.6553679625445 0.9526090887173857 0.14339600503444672 3.1219080820698193 -3.10748028755188 -22.625002845379765 15.01792543992568 93.49145570657836 0.517435759929923 0.15219193696975708 -3.1293511543679045 -3.0980262756347656 10.197964901863575 -7.325212499269875 -48.95915741146871 0.767719742933198 0.14792856574058533 3.107319925256779 -3.096113681793213 -19.21622771899586 15.780231809508901 97.45791253326462 0.8745196331938556 0.1387142390012741 0.005977433432861306 -3.0897879600524902 -7.842872580605058 17.391110331039673 104.50891280183558 0.5821819567072071 0.14855603873729706 -3.1243168807579806 -3.1127357482910156 -19.4518712047376 5.57954436675517 34.37407612804151 0.9726181278417118 0.13992691040039062 -3.137159211561726 -3.0981247425079346 -17.279429109844152 5.810650065579933 36.23762428764081 0.8601080822088585 0.1542198657989502 3.131146491190676 -3.10575270652771 -17.461223725240806 9.2951122105406 56.7229583405528 0.9849130372082698 0.15431705117225647 0.021077302099320856 -3.0852789878845215 -60.248629798771894 92.36584302707718 556.6778997312192 0.8376416126328129 0.15045487880706787 -0.03719423489361836 -3.078005075454712 -6.023446558936042 11.476163897267101 67.46221906795405 0.52354278592637 0.138797789812088 -3.13854155061268 3.1327102184295654 -14.586441757070366 6.670100986985859 38.06027009603093 0.5299423021967732 0.15195304155349731 -0.007654430795631446 -3.0856173038482666 -2.072387106934611 8.727079612336599 47.80145612012074 0.8776375704812702 0.14560936391353607 -0.0004099442982871387 -3.0956902503967285 -0.8994737877793934 6.0637338065353825 30.811748173343393 0.5688030415060172 0.1706860363483429 -0.0031118414833601407 -3.0992774963378906 -0.7969918080024397 5.809870632582334 27.764023686579208 0.6736234446046406
ID_c441a81c5,0.15617115795612335 -3.131317184935187 -3.1088027954101562 -8.048444756380007 19.183740236676 111.68617685971026 0.9000203014274133 0.14977020025253296 0.018761548241803826 -3.0905680656433105 1.8368956217710701 17.791165039436738 101.64558261644602 0.8991251160878801 0.16117867827415466 -3.1395909539126 -3.112126111984253 -10.19510298339347 7.881993570555473 41.55317209399912 0.9653920268439055 0.15483668446540833 -3.110401836615009 -3.1176652908325195 -10.692661869816328 4.957963060957261 24.242050945784264 0.8929644322294056 0.15410777926445007 0.006449746278847063 -3.080925226211548 5.540432086746584 2.8156314816474026 8.020159602185686 0.7919027300892801
ID_6f1cbf7b8,0.15420877933502197 0.03583598385534405 -3.0866401195526123 -11.830967712005878 10.046601274379793 60.32096147540784 0.8794311002687021 0.1518372893333435 0.019113836945312268 -3.0902907848358154 -10.123079887094645 12.361879326281745 73.76861580622509 0.7121421841459589 0.1569332778453827 0.015715983409519695 -3.0802855491638184 -9.080216590935475 14.438621978509255 85.9541515725827 0.6675411527535678 0.14379394054412842 -0.016666925064137944 -3.0879018306732178 -5.343697840600893 15.368051340161301 90.33402700509902 0.6237532067461887 0.14872252941131592 0.0022280153309610865 -3.0845701694488525 -3.0697661450175016 18.34478605701153 107.296476423601 0.7513031428625038 0.1466817706823349 -0.029029354438882587 -3.0917253494262695 -9.202072109531994 5.708894482005198 32.09112729059496 0.676893352482077 0.16917964816093445 -0.025532817028304802 -3.0987446308135986 -4.856938516897297 14.714306592976815 85.97752571867326 0.6263255769189919
ID_5b0b480bb,0.16279113292694092 0.12016284800633031 -3.0888254642486572 -9.348941420207582 5.717464658857661 27.960503320078903 0.7530211853770707 0.16158220171928406 0.07561498487464148 -3.0771472454071045 -2.8006614792656666 4.998550916834416 22.711485470500698 0.603267281144931 0.1649516522884369 0.0028968011722861247 -3.080266237258911 -2.223862520413035 4.554356815867567 20.659227515426387 0.6118049373485094 0.16252776980400085 0.04449848482403672 -3.0912270545959473 -11.742447738796079 4.404732856624291 19.277465932985404 0.9148233887943893
ID_2710bd411,0.15773054957389832 0.030050678460002166 -3.0783920288085938 -25.164960357903578 12.008591741359002 73.89410645695482 0.5643091961537998 0.14705592393875122 0.027839284802238254 -3.087038040161133 -29.924714456838238 17.76853799821723 111.71374739462438 0.688287499201292 0.1414908766746521 0.017024528509006938 -3.0798416137695312 -1.4714928325191308 17.711725033920516 100.48320848367563 0.5096491097233947 0.16515010595321655 0.010681694322048112 -3.079162836074829 5.565197528480813 5.700689448457266 27.626220728126277 0.6125238168187083 0.16790780425071716 0.022276064982619363 -3.0827038288116455 6.669259749031884 5.616303761452621 25.396287441289196 0.9317367631230701 0.16863350570201874 -0.01345677323519373 -3.0787320137023926 9.12761739947309 5.703430828224376 25.75489476881293 0.7984754488618088
ID_e9e080023,0.1497647911310196 0.03893393208826473 -3.0842032432556152 -22.910790772820967 11.39794584005536 71.46000784958882 0.9413946386744945 0.14423787593841553 -0.0021656450335258317 -3.0810301303863525 -23.065747320669775 13.71308565141547 85.37488292570723 0.9394875039012105 0.14141221344470978 0.015100297973619344 -3.0797266960144043 -21.899098789582986 14.526918638920797 88.24074385588273 0.8843514168139885 0.14865951240062714 0.0031006384833278627 -3.084275245666504 -20.363242452279508 18.3417667828566 110.74201166156362 0.7229752740640861 0.14357106387615204 0.009268456446935318 -3.081864833831787 -14.509749414467178 15.436644675073222 93.26864039445117 0.8225038812214185 0.14050383865833282 0.030853348553726026 -3.082550525665283 -12.772444095598315 17.86072235790051 106.756845023959 0.6261332260892924 0.14075204730033875 0.019906046244624005 -3.082932233810425 -4.448950122031348 17.28004829841896 101.4005964778406 0.8137197978104274 0.1439155638217926 0.026251224094368017 -3.089988946914673 -1.7335041527752444 22.248515516913393 130.03968172482124 0.6435889837489832 0.1498059332370758 0.009234793399276334 -3.0852537155151367 -22.211372566543183 5.613880232009569 32.37329158024171 0.8126643906753956 0.1427263617515564 -0.0001902339073610513 -3.080627918243408 -10.345017308722188 4.9925305526853 26.160979270970593 0.6429064500195242 0.15323403477668762 0.024359263665436493 -3.082427501678467 4.642277506936952 7.208909633866872 38.0659713887248 0.5743205444448956 0.16535800695419312 -1.7282571609392618 -3.096993923187256 10.081462459388819 5.870946823186669 25.191551446936984 0.7532713756858382 0.16192680597305298 -0.0007809276601850312 -3.084336280822754 5.613773316164441 4.783292859809268 18.88053848857604 0.9368110985530791 0.15247966349124908 0.001787992512284197 -3.0888285636901855 -2.487966063920267 3.1025776639892984 11.738102138081661 0.9280971559225191
ID_04ea999fc,0.16429899632930756 3.0781863999519965 -3.122584819793701 4.325511429627536 5.955776589707112 30.82963659879278 0.6690879999712859 0.14497168362140656 -3.122057608542043 -3.1053242683410645 11.186220617842634 4.080218640555442 17.351014912152927 0.7905069521734138 0.1600608378648758 -0.0026753730530662124 -3.1004037857055664 -4.819655300266652 3.6569728850963186 13.601244030093161 0.7440956105976088
ID_5510e0e03,0.15732398629188538 3.1179767497320467 -3.1161346435546875 -12.635838701546644 6.571235507760563 37.67162513057551 0.8381171491300413 0.155949205160141 3.122015114448951 -3.1114001274108887 -8.947455184007062 7.391824670615377 42.28027425445292 0.9321266420276975 0.1574437916278839 3.129825597273275 -3.1129441261291504 -11.209781513306147 12.51586675647474 72.85469693268819 0.8874570612150764 0.15684106945991516 3.137437774316801 -3.1054584980010986 -6.307543165182983 12.306670099514607 72.3328377712077 0.936348436568833 0.1570538580417633 0.03159964460072642 -3.085299015045166 1.1759317968089462 13.555490970631883 77.31760206524335 0.7720058641688424 0.15352803468704224 -3.135231923866031 -3.109210252761841 -12.833594810437749 5.967473238742121 32.24317461628401 0.9720245642557904 0.16467146575450897 0.004280303505918426 -3.0752065181732178 2.8593119851378237 8.97665774801891 47.64126847622888 0.756353044844211 0.16085752844810486 -0.058271600532300495 -3.099355697631836 -0.866248218775216 6.042074997474895 28.766130821148693 0.8450646413617047
ID_d4d060b51,0.1554078608751297 3.1378857566935587 -3.093449831008911 -27.015000381610776 11.375517571309619 70.14086852909925 0.9514519317542784 0.15781304240226746 3.104878831500448 -3.0911130905151367 -28.4190831523463 13.151139229302585 82.20404293620017 0.5644009072685807 0.16047154366970062 3.109283871758731 -3.0990185737609863 -28.31074635570951 13.576848529201028 86.03919206587852 0.8160796012969598 0.15575504302978516 3.08116370805882 -3.104066848754883 -28.533284751073236 14.36559922113401 90.87642463707897 0.607386282529204 0.1533902883529663 3.1262038966728163 -3.0989832878112793 -24.291747038315755 14.087571549821439 88.0662195118813 0.9103919019954599 0.15232962369918823 -3.13687475983036 -3.103792905807495 -21.973704633102777 19.051338582185913 117.11939944929821 0.749509688841554 0.15409919619560242 -3.128988544016017 -3.1070494651794434 -27.00543116210583 6.694034135339697 38.518196344411464 0.9656088333480548 0.14826977252960205 3.130641040190006 -3.1036434173583984 -14.178627644018787 11.54150862997443 67.66306804739881 0.9545509186308838 0.15307092666625977 0.006485135327237922 -3.0951409339904785 -4.160575620816369 12.038934975898034 68.25754370938465 0.9637663840859673 0.15149074792861938 -0.020160164599415553 -3.097135066986084 0.19304676205279842 12.175306905666506 67.4000492784575 0.7149078743955805 0.16117924451828003 0.0025073171874870044 -3.087376594543457 10.358751503655684 20.74457407000788 117.19214440155217 0.5433139900239677 0.16315804421901703 -0.028623085194352693 -3.0959911346435547 10.592250750901293 15.890016799563053 85.70666757867485 0.5075408951324559 0.17523428797721863 0.04481389541894342 -3.0822112560272217 12.604958178163438 16.046542877257576 83.78476534000343 0.5387363707265144 0.16140417754650116 0.0189731575332581 -3.0604140758514404 11.197976486936996 11.413300782477624 60.74849278650375 0.7707124406784847 0.15963898599147797 0.004055117389117904 -3.0731706619262695 11.222834678801691 10.814015723829057 54.92622266648309 0.8622922554899431 0.16448445618152618 -1.77722001357204 -3.0893125534057617 25.05212699116246 11.862473901894251 60.264591934368575 0.5726589440908498 0.15886473655700684 -0.0014364992854010072 -3.091778039932251 -0.4172297948932144 6.492225797033574 32.22508166164221 0.9286087202248978 0.17125724256038666 0.03824793545798582 -3.082505226135254 11.718012238690479 10.581405460851283 50.05142986299876 0.9380602951221751 0.1642344444990158 0.00451312006529585 -3.081787109375 12.879221099562201 8.596137973788501 41.07306088841242 0.8542151137943642 0.16640841960906982 0.008651294088487107 -3.088606595993042 2.9525499140229874 5.924065395787461 26.293664863008708 0.9516711788676724 0.1638263314962387 0.019540896278207143 -3.0786895751953125 11.794462131282007 7.230597734467859 33.24131071569312 0.9809957704293119 0.17489022016525269 -0.024745946484619794 -3.0774734020233154 14.076733076030674 7.632880477855653 33.052406833050675 0.6199028179886483 0.1630057394504547 0.02490640626845636 -3.085315704345703 11.340938848517757 5.40447607639614 21.700267298517925 0.9650803888110243 0.1622379720211029 -0.011152854264307214 -3.0644688606262207 12.837188030630191 5.298045327990781 19.003491103679377 0.8692566289646937
ID_c8a27d85f,0.16128772497177124 3.126098653116473 -3.106870651245117 -9.94167445747108 5.923457903819618 31.193250417744885 0.9741882381211703 0.1540168970823288 3.1365001198135234 -3.1087207794189453 -6.070119859660592 6.807689249138152 35.62463186420176 0.854269733022887 0.16417980194091797 0.004313975314631349 -3.0837643146514893 4.027357896586019 4.6751893095124695 20.00214904550024 0.9577602525093233 0.15727342665195465 -3.1196590618721913 -3.099180221557617 -4.342157324463072 2.1654904703008166 7.918366089306282 0.527450991734685
ID_7ce563e3a,0.15330591797828674 0.011468207515614743 -3.0855088233947754 -4.3979526040545736 17.085637499442154 100.2323573041116 0.746179470864295 0.12830492854118347 -3.115087250749832 -3.112377643585205 -24.59310813950306 7.229600441381106 40.74509528169824 0.54025940167903 0.15554681420326233 3.1307578023836715 -3.1039187908172607 -15.119264480908281 12.101342529093987 70.57671183762218 0.9483340730704549 0.14892809092998505 -0.03187233745858181 -3.086707353591919 -1.9943371342873755 10.332652038223642 58.507937296610045 0.5046472094589829 0.1493634134531021 0.011877957751154708 -3.0947585105895996 3.576926798092957 13.376226457858996 73.56368214817796 0.54515241390524 0.15646183490753174 -3.1225459649457648 -3.1095166206359863 -15.666803717594627 7.5319365904389155 39.76860465329905 0.7922735879045554 0.16072368621826172 -3.123755454921441 -3.1093082427978516 -12.23596929813576 7.8682477533829625 42.0443871745888 0.9057041249097123 0.15509948134422302 0.02756664171493527 -3.0837323665618896 6.2951284617655086 8.447608147888724 45.58239626015148 0.8585900070688064 0.14534850418567657 3.1119532530150997 -3.0989534854888916 -16.86297740991334 4.6576609496138826 23.04629683498412 0.8519216318357141 0.16093268990516663 3.124039401152043 -3.1040830612182617 -13.266952611327316 5.483841500226957 25.64892522633902 0.9011217517534054 0.1681024432182312 0.016361484582326943 -3.058131217956543 3.9719819768096243 3.97450130608218 13.577927687328177 0.920654577965161
ID_b4bf2f347,0.14661389589309692 0.0163120062347567 -3.0757224559783936 -18.77362687779014 6.996358931094294 43.537779107001775 0.9156758638683633 0.13872724771499634 -0.03008885400953366 -3.072587490081787 -18.455953896027918 8.461190760153416 52.05628111476622 0.8241542414500134 0.14406540989875793 -0.0014888877610085226 -3.091017484664917 -3.875084752469093 15.27047238860098 89.31065173951583 0.6272339008361839 0.153935968875885 -0.0005717138584296719 -3.0830535888671875 5.389014577401098 19.802804880193374 113.3803654753044 0.5943602924114378 0.15499594807624817 0.006581765222477568 -3.091383457183838 -19.61208967469816 5.498829405774536 31.397971510916072 0.9189119337125611 0.15292051434516907 -0.004337883109805009 -3.0900092124938965 -4.6570212610939565 7.939898062519354 43.542286857347655 0.9515782028935833 0.150175079703331 0.00800451266393961 -3.080275058746338 4.692167801892122 14.373119416659353 80.503159865122 0.7328336570261209 0.1461525857448578 -0.08250113513905453 -3.1004889011383057 6.068224036359456 14.869508643431274 83.23346070974883 0.5347352563878638 0.1493922770023346 0.019048495933221075 -3.0829429626464844 0.09872128197559489 7.2635240853146055 37.30820427773492 0.5587320127041708 0.15007442235946655 0.012688621969468614 -3.075032949447632 -2.997954487735431 2.5506163540403204 7.891519367727167 0.8404575853664377
ID_dc7d38630,0.15464559197425842 0.015245201173122802 -3.089770793914795 -1.0663806444218167 6.703409974640087 36.74637048472806 0.5423243521413407 0.15780623257160187 0.0002560430285561577 -3.0737526416778564 1.7803685151925117 9.570849014152055 53.17189387998729 0.846394547285456 0.16078507900238037 0.04658886357016703 -3.0876808166503906 3.6710904796758053 6.336565629722358 32.87547521325887 0.6739857678229871 0.16221943497657776 -0.00887221639573589 -3.1032238006591797 -4.811814966754436 5.049761144874755 24.529039859807263 0.6322235328529295 0.15888424217700958 0.06776120291087369 -3.0747532844543457 3.529323511146573 4.545492277225769 20.66898345950819 0.6882547175064997 0.16411952674388885 0.0051636693284097725 -3.086838722229004 -0.24797193032125273 3.2349072397038077 12.999129489819266 0.8356567353908735 0.15571187436580658 0.017468806507940204 -3.0784969329833984 2.5546735882840386 3.081431827896014 11.034625768685597 0.9475046935261592 0.16204003989696503 -0.0157868928326862 -3.0987355709075928 -5.576382600255725 3.2838404179018106 11.361441016235808 0.5173800068214213
ID_5428a3a8f,0.15842700004577637 0.01487823578029593 -3.076599597930908 10.56107305691923 12.519708275830514 66.96467311105818 0.6510691491186444 0.1601061075925827 0.020888649810496367 -3.0727829933166504 11.48706395353333 10.437113158526223 49.288436583045 0.9087887918105951 0.17371904850006104 -0.0626757904069119 -3.0812134742736816 12.659622562793034 8.204230751664847 37.34304606918073 0.585104308662142 0.16800396144390106 0.002497505387143225 -3.094787120819092 -2.8077636102111057 4.238191622228459 18.05404111262869 0.9630499871693409 0.16560769081115723 0.02526211126550229 -3.077291965484619 11.964432846521705 6.218527546220642 24.936418235337506 0.9513432193166657 0.15206438302993774 -0.0415946405841809 -3.073098659515381 12.367674618840532 5.3934752495566745 19.608139996245256 0.5033362510479411
ID_beb50a6f0,0.1600843369960785 -0.012385348967861462 -3.0892655849456787 -0.11864322661126979 2.4543556728647498 9.272243827606154 0.5681604054967906
ID_910d907cc,0.13665518164634705 -0.015471479027162087 -3.0896027088165283 -24.034877775178447 6.0748236291783595 40.46020209792813 0.6765471714193894 0.14040765166282654 -0.011026624762045134 -3.087174892425537 -31.057139327586924 9.680854883024125 63.776731491124394 0.8950723625104698 0.1538252830505371 0.024371746104278485 -3.077216386795044 -102.54467948962917 274.97795607206297 1656.9650544535994 0.6354026000232086 0.1403302550315857 -0.01840997923482868 -3.0842747688293457 -138.31587185104678 525.5969033996627 3150.1224796048855 0.6592721622150945 0.1540500968694687 0.026612107415781804 -3.0720109939575195 -6.492084697151104 7.8155044470935255 44.30264455403372 0.9101047991007291 0.16306133568286896 0.011465824240504246 -3.09126615524292 -4.461557226464536 4.221379011904276 19.23213899139143 0.7225359293559571
ID_7973af9f9,0.16096651554107666 3.0875636557908464 -3.0943644046783447 -18.130336800505926 12.772501539076762 74.26443011494432 0.6941453152600527 0.16205143928527832 3.1275861999375842 -3.111401081085205 -4.347440836242816 10.217798501274839 53.9304852486012 0.9442696007809668 0.16132570803165436 0.027164445009154038 -3.0879929065704346 5.523076754738644 9.558052012343795 49.230766400079894 0.7625501736623506 0.16281335055828094 3.140539139931685 -3.1214747428894043 -8.34687358753216 5.623359859769374 27.531579136883984 0.5570131491525023 0.15013116598129272 -3.126268226658722 -3.122859001159668 -8.660674159690378 6.059453263903173 29.80848848823286 0.5975835453035122 0.16318947076797485 3.124413223623449 -3.1098835468292236 -8.384457915164562 4.045399010928914 18.37065517905817 0.7074229733422362 0.15731988847255707 3.1182856301515134 -3.1181235313415527 4.403796484921598 5.680414252182901 25.769989038673152 0.5369026794577382 0.1536443680524826 3.1337426471980816 -3.1004695892333984 -8.606066790209807 3.079562839903225 13.094913959543113 0.700273826205477 0.15889501571655273 -3.122510951035144 -3.118807315826416 -3.5798181923241352 4.27839603088278 18.607616052506394 0.8808122930454748 0.15262389183044434 0.03128403534088643 -3.082667112350464 0.9590712214353585 4.647990700766702 19.78697612401556 0.9169708405578518 0.16336460411548615 0.024158902178325288 -3.07392954826355 6.523783089667654 4.20493262321858 13.699824946416639 0.8814486064338772
ID_f765cad92,
ID_ea4983b8e,0.163759246468544 0.020698243900977825 -3.065729856491089 5.798816076692135 13.166109569224654 69.48267180511715 0.6712809619956117 0.1648823320865631 0.009311060294422756 -3.074509620666504 5.732357133892032 11.429936438834435 61.39484372377856 0.730763551619328 0.1704128533601761 0.04481723672322579 -3.0553596019744873 5.357891831089969 9.813716748980607 48.747311968530134 0.5314697675777078 0.1678231656551361 0.03844336271751002 -3.0632569789886475 5.166581837130902 8.477782920668481 42.01287359044129 0.7818647189194775 0.17625558376312256 0.02684091253757242 -3.0621063709259033 5.6837753548769525 7.972168048728942 35.927925850102525 0.5529106646021243 0.17531755566596985 0.010321228538931275 -3.067375659942627 5.22331972968799 6.54729453323666 27.41462721940588 0.9554787761520648 0.16649046540260315 0.026965611909983703 -3.05487060546875 5.558916822459422 5.483110294812314 20.982008653230924 0.5314601544328502 0.16679511964321136 0.01160417805701208 -3.0710933208465576 5.5961556477206305 3.9989863954128877 12.983090277921818 0.8531224262719271
ID_e3a9cccfb,0.15762588381767273 3.126532257602759 -3.1111059188842773 -10.978299303473785 9.663846390717204 54.30758605835931 0.8283598376555107 0.1585327386856079 3.1134918073498614 -3.1076793670654297 -9.898467361907404 10.582335693879132 60.76902459974898 0.8426607999438669 0.163572758436203 3.11118110877477 -3.1046533584594727 -11.785807384624125 16.42298709270956 94.24578506355827 0.6404836171233116 0.15922610461711884 3.1321261351208776 -3.107998847961426 -9.23681904793075 18.224320032513404 105.89933910137538 0.760212933005291 0.15911245346069336 3.132247288244115 -3.1108689308166504 -10.572173006805352 7.705127256166848 40.62654376033521 0.963904013212847 0.1569352149963379 3.1256292984368153 -3.1084957122802734 -10.367712643827772 8.446419715398058 45.30296359390081 0.8613359512091835 0.14713534712791443 -3.1389133919289725 -3.1084046363830566 -8.867823587561697 3.8497340366213626 18.800875544586702 0.9591621100484354 0.160201758146286 -3.1192590973188405 -3.118734836578369 -11.314015471855534 6.0649219748550625 29.81755435470537 0.7267009882672676 0.16019436717033386 0.01218186897669298 -3.076207399368286 0.060073814158954034 5.162313342518165 22.81169860591337 0.8685152658151432 0.1607343703508377 3.136752726994774 -3.102219581604004 -10.478399885267246 3.9222637182987845 16.77997857334786 0.9496993874954393
ID_fd8ff86ab,0.15450617671012878 -3.107437641688342 -3.1121654510498047 -16.452490442785837 4.110600054302564 23.830196261437862 0.8542954846657793 0.16829723119735718 3.1098485431405476 -3.1036953926086426 -10.750293453887712 4.658312384143181 24.38020557168032 0.7873122581607629 0.14686743915081024 -3.081788213114601 -3.116987705230713 -12.595524801323123 4.347277570831136 21.203248202835486 0.544854645323743
ID_822983735,0.16116243600845337 3.0900979379229923 -3.112276554107666 -0.5752547424219555 7.127291171200577 34.749971766230004 0.9237847093959636 0.1702454537153244 3.0788129285722743 -3.1060335636138916 7.015725868464393 9.189596992243183 45.5229194009115 0.9671281052610015 0.16831500828266144 3.072823117246896 -3.1037683486938477 11.19076597545232 11.383527113845451 54.268854846999716 0.9505032829053252 0.16820691525936127 3.0933437434665962 -3.1105458736419678 16.804679283594584 13.162471961445906 63.12535404209859 0.7220122972900831 0.15893352031707764 -0.03245886431739148 -3.087205171585083 49.66695775952045 14.901450384831442 68.84754896167493 0.6274997700718142 0.15828093886375427 3.060435593051656 -3.099637985229492 -5.901870076335616 4.147796062469724 17.677316069642142 0.7857103618628022 0.1647748351097107 2.942926225738198 -3.0876073837280273 -6.608998170839192 4.772582307720586 20.604901158407845 0.6135656795007043
ID_70a367b7e,0.14224544167518616 -0.02687489025245817 -3.0823874473571777 -54.7110105292552 22.946848032554733 149.82980196280437 0.8290016491865542 0.15778250992298126 -0.025387945993088405 -3.0954701900482178 -31.24345840585754 11.903200889793144 75.73793552151943 0.784241607064581 0.1433987319469452 -0.04105766131434359 -3.0841469764709473 -38.73454074719548 22.00568638082008 135.620397031461 0.5120979874994391 0.14772403240203857 -0.024536663006178964 -3.0863897800445557 -30.40647431331452 18.653942741365512 115.81233482957663 0.7552420605846057 0.15463295578956604 0.002057997417086272 -3.086799383163452 -6.103161406275464 17.502991993216586 103.22355271928171 0.575479983813912 0.159210205078125 -0.009019389597286168 -3.0771589279174805 -19.391798454476557 10.449826050403212 59.66410708508925 0.7386373182047519 0.1542469561100006 -0.00037554645237824764 -3.0850982666015625 -5.077271169185335 9.803414344823786 55.3975772934813 0.9449735049501482 0.1592572182416916 0.03382808223217636 -3.0846290588378906 -1.9220057181145052 8.261624306007247 44.188266107757435 0.7372880208872585 0.15522120893001556 -0.013456951335876445 -3.085364818572998 -15.870165137665744 4.932844677217331 24.69549214129048 0.8807138409534853 0.14768466353416443 -0.013420010759546632 -3.0676679611206055 -3.1004664684206578 2.998215665533636 11.364311724934332 0.9257758223419505
ID_8ddd4a836,0.1583465337753296 0.060045319447263094 -3.0809576511383057 -27.520458826841775 6.166771953191752 38.43215703967063 0.6151913905555532 0.1526683121919632 0.05288419845552187 -3.0811915397644043 -28.55818229899686 6.51328041129669 40.75548946859793 0.5023827464037066 0.1441115140914917 -0.016955158160442903 -3.091539144515991 -37.2412629775855 12.412866796216731 78.92379672261033 0.9505385493655896 0.14378118515014648 0.06366045220391371 -3.081855058670044 -20.93571711217797 11.228742020733373 65.20387266010106 0.6317828987379192 0.16185101866722107 0.030468308589741255 -3.0861666202545166 -3.7330816611587334 14.862117171323067 85.87654740544114 0.8220676432863291 0.16214342415332794 0.00692494190165598 -3.077702522277832 -3.7340306243843644 7.722032406949972 41.24407977781387 0.8230805555499001 0.16190731525421143 0.01634941373103045 -3.0886850357055664 2.914458603286573 16.454362915377573 87.10064302327365 0.8453596715469515 0.14881864190101624 -0.01649001406079851 -3.094301462173462 -3.874966855529758 4.0625130254799835 19.73543763164259 0.7770602106919042
ID_69183a385,0.1643018126487732 0.021659163763809972 -3.1035847663879395 1.203284228770709 6.014681600192343 24.73305416527133 0.614427623741922 0.15322203934192657 3.112616212526668 -3.1023716926574707 -8.894392078169048 4.073069726471207 15.794626696528596 0.7577769602545975 0.1552211046218872 3.133526181416335 -3.1049141883850098 -6.334965271859489 2.6934031650209604 9.036965299786885 0.6307508135140824
ID_8d2791fc9,0.1596137285232544 -0.04541221405882383 -3.105856418609619 -1.8518550262679394 2.045751992299999 6.105655804313954 0.6753897923536248 0.17092953622341156 3.1167149958412144 -3.0838937759399414 -0.2784530905651266 3.3261729980746733 9.951482787000357 0.7512691973743307
ID_84f2f637e,0.16492828726768494 1.128585329209536 -3.1023919582366943 -16.98084909765229 7.076454771402744 37.51038262474256 0.5176326833579178 0.15996208786964417 3.137531542823232 -3.11006498336792 -9.77988850161384 8.5493740214984 45.827302673757686 0.9056119635754031 0.15476538240909576 3.118199164220391 -3.1005067825317383 -9.71621155218995 10.820054142453532 57.40350156058713 0.9492185303465075 0.16387949883937836 3.133301312801291 -3.0999419689178467 -7.034099979240746 9.555926301044613 51.071143254022765 0.5381311894153136 0.1588224470615387 3.12542776137278 -3.114802837371826 -5.726603390716241 9.357921050364094 47.70774244313009 0.7004131014764949 0.15444178879261017 3.1130032677289434 -3.1021711826324463 -3.3688530194748116 8.624721318501118 44.478449220680034 0.942843156120087 0.16095587611198425 0.017194237855028008 -3.0941576957702637 -0.7907679003420455 11.395684624317788 60.829597815256285 0.6077138567769782 0.14922869205474854 -3.1190662766426875 -3.108595371246338 -9.015695701756158 5.231753124610084 25.764623479678036 0.8050531465832736 0.1635569930076599 -0.008175011846084258 -3.0933048725128174 0.1007802431279127 7.934452900591955 39.336237415056395 0.8462024524776965 0.17353597283363342 0.041742821026718425 -3.065207004547119 5.085052627849216 8.341526005647433 41.32819484112756 0.8015301063853052 0.18145261704921722 0.07235710242198087 -3.0641067028045654 5.6410727805190035 7.889807969360666 36.18809873398541 0.5297332104409365 0.1745818853378296 -0.005128266535170136 -3.066399574279785 5.621651093879219 6.650898572947006 30.237026467271345 0.5045463318657761 0.180229052901268 0.008476763480201516 -3.0681357383728027 5.332315866263727 5.823407999373032 26.48331224921919 0.6304141429790328 0.17064952850341797 0.01573889247681526 -3.0663886070251465 5.051885895252346 4.795236897347127 20.4185709357617 0.963016764291196 0.16582289338111877 -3.1287284906201154 3.1114063262939453 -9.104009301104279 3.713896711854967 14.946368587264407 0.7625505202532461 0.16279691457748413 -0.018677994713106116 -3.0781638622283936 5.957832989304244 4.673251488296827 16.835210528667908 0.9807261757982085
ID_6188e27be,0.1613052487373352 3.089241548159389 -3.1168808937072754 -7.514691418662418 9.729365467791736 54.84864126084344 0.7667329999243194 0.15969327092170715 3.1058589049008067 -3.1109416484832764 -7.976354584911244 4.1382622324979845 20.183514058614534 0.8397824612512232 0.14811646938323975 3.112578462644945 -3.1069443225860596 -9.129581417886026 3.5510403504655255 16.207130253337702 0.6887423884775214 0.1680448353290558 -0.02578907011055379 -3.0921194553375244 0.8537477655958055 5.674574896705317 25.14405384177886 0.6197399844315282 0.17737022042274475 0.0209576373265326 -3.066847085952759 6.063111910412563 5.744239667206341 24.890329907943176 0.8231558910698671 0.16972646117210388 0.025348700709098355 -3.067671775817871 5.616672326977185 4.385391452456885 16.56792312863532 0.8139216011766854
ID_dc5878537,0.15579287707805634 3.114929721297949 -3.101639986038208 -15.011976236525078 14.137817348748104 81.22279094790272 0.9044604029097648 0.15608534216880798 3.1310653972255156 -3.0943899154663086 -3.2408455492888426 19.798778715982873 114.5808152175558 0.749381467865608 0.1436193883419037 -0.03415738542724904 -3.085829734802246 4.578467570556751 15.89973173671793 87.95357877882601 0.6198546528457768 0.16061332821846008 -0.007007436900797344 -3.072427988052368 2.839804347519523 11.176130920684106 59.573847159128356 0.8458336517394477 0.16472241282463074 -0.03532244358764539 -3.089820623397827 3.0743337812659086 7.962664298240397 39.4751967036535 0.8386205666559243 0.17398038506507874 3.121779400391128e-05 -3.070620059967041 4.036816801404407 5.268235364443375 23.626468921867122 0.8369809199293158 0.16146069765090942 -0.0008903927021660077 -3.0722031593322754 4.412064553773507 4.987224496406462 20.01050561670042 0.943267617195773 0.1654496192932129 0.035316589727971984 -3.0641701221466064 4.918340384236043 4.394178472459916 15.880807529812696 0.7753194911063769 0.16368645429611206 -0.008646149995249545 -3.070101499557495 7.2879492531524495 3.4865289617824904 12.480807304416219 0.9507902497437518
ID_5d0c7468e,0.1545017510652542 0.37851346273418524 -3.1016252040863037 -8.26836494288971 9.204656947576224 54.67276164125616 0.5255967523382207 0.1569010466337204 -3.1367378468630935 -3.1132707595825195 -10.139012954004494 3.2633122056993056 15.00937342647521 0.6644549082434715 0.17563077807426453 0.008627827711363998 -3.0749740600585938 1.0685358102491276 2.5604364854402477 9.733346436126405 0.601310242342434
ID_f4161f129,0.1592634618282318 0.008513937075494311 -3.084853172302246 0.6310634181297232 23.08753457803467 133.694606721555 0.6626388548616832 0.1541234701871872 0.007742739293523693 -3.1007301807403564 -1.335541095967936 9.090367140024526 46.96055264206682 0.5353022451710788 0.16519290208816528 0.031742777742243856 -3.078253746032715 1.720962286970896 10.971716895404889 58.26562057374017 0.7638571855409892 0.16381318867206573 -0.016723239399600708 -3.093228578567505 2.5321141100306397 9.81362857869654 52.99900220955005 0.533712733082364 0.16448821127414703 0.008469037591186366 -3.0827691555023193 2.6158776364322494 4.934675311250307 20.949302613770733 0.9627286064115103
ID_bbf2e7374,0.15305063128471375 3.120118087027278 -3.0992355346679688 -12.30091838626604 19.890263676678906 115.05441394101307 0.6006693383105746 0.1546059548854828 -0.050264545253386486 -3.1006081104278564 -11.49643172423003 8.416009806895357 43.94424818195078 0.7293814629633474 0.16777369379997253 3.133856803416294 -3.111459493637085 -10.617483208546009 12.992383233981105 70.3739338793054 0.6135826438038606 0.17242607474327087 -0.021456456355109073 -3.092029571533203 10.432042604908332 6.700142122808917 30.767813324970284 0.68206934255269 0.1697286069393158 -0.03054985622599529 -3.086344003677368 9.3906209883325 5.8488936085334435 26.49631500247694 0.597742374963735 0.15733908116817474 -0.02170579516807168 -3.077697515487671 3.819288327229479 4.818327949885938 20.489016175305615 0.8690712820938914
ID_efdc95f06,0.13672670722007751 -0.07299841686209127 -3.092829465866089 -25.267665571648344 10.318274089052723 66.42432167494542 0.7111951687167684 0.13391727209091187 -0.03570997708920206 -3.079735040664673 -27.21981912573432 17.966326002361367 112.36606155962444 0.9412041708574932 0.13416621088981628 -0.03324518780225798 -3.0932817459106445 -15.939062759969026 6.35934437847776 38.7862175703404 0.5201911532923782 0.14445209503173828 -0.011545662783553092 -3.077101469039917 -19.658799810765036 14.884408062201853 91.7107948663257 0.6108177166386213 0.1534247249364853 0.0062710548952788735 -3.0864768028259277 -3.6168891839448722 21.575365750962572 126.61848964916342 0.7760806304874287 0.13286814093589783 -0.021133823870729568 -3.082197427749634 0.1665624218391982 15.56222577575527 89.81666291126822 0.5615144610117954 0.15891346335411072 -0.04425991762764247 -3.0956530570983887 -0.2523849042354996 13.048390980018006 73.04338823197381 0.7408628678146677 0.15355947613716125 0.0037695758333672652 -3.0809667110443115 -3.8968238979392362 6.878231465827533 35.72834267730437 0.9430003214630239
ID_cf4f677c7,0.15482397377490997 3.122180615876522 -3.1027047634124756 -10.276951677218829 23.334282383487828 138.75979675020616 0.54104146739057 0.15400615334510803 3.1303777886254682 -3.104233980178833 -7.585956901294108 14.5298212766825 84.92350192278296 0.9295694602825721 0.1542864739894867 0.01850184227735363 -3.0938832759857178 -1.04220924989158 17.037320116237225 96.63352329140251 0.8998344845045101 0.1608586460351944 0.020270707077491536 -3.085899829864502 1.9560668180253118 18.337011597283478 104.0111120403344 0.8511647697711889 0.17035433650016785 3.1259414715947984 3.131654739379883 -7.545064885764152 8.40054638384261 44.745311244707274 0.6906297035858933 0.15979468822479248 3.1412493959705494 -3.113574504852295 -5.668142118764313 8.837266161111494 45.74688683388727 0.7587499848778828 0.14051905274391174 3.1343077795076386 -3.1269168853759766 -6.1624792239035875 6.438595770627526 31.40716101157313 0.5393228028994536 0.16250404715538025 3.127372990311556 -3.1058473587036133 -4.228885852306181 2.8749118925090786 10.302108526262549 0.9135175850041243
ID_27a33218b,0.15629275143146515 3.0301314219454816 -3.103180408477783 -26.77131463293989 6.137227602270049 38.23997026708349 0.5919464424677946 0.16050995886325836 3.1298581210363676 -3.1087841987609863 -26.863578173578155 6.906036240040668 42.70478024598668 0.9820385514422032 0.1505531668663025 -3.1348445032082157 -3.1093945503234863 -26.555291210866244 7.549283723205358 47.13015854362226 0.9435895373679065
ID_81d82a824,0.16033458709716797 0.08792023787375529 -3.0850064754486084 -2.5702276477054116 9.866380706236699 51.85082275799065 0.6024941723794902 0.15553908050060272 0.06449918881950836 -3.093968391418457 -3.567674117451312 5.694724068362734 25.390034606355876 0.8077263516896216
ID_9f8495aa0,0.15166890621185303 0.0066380913447383295 -3.0785255432128906 -3.169233702356637 12.001874297886996 67.37662465306077 0.8449916687397286 0.14845716953277588 0.0321989320781596 -3.0779192447662354 -1.4240829337297094 15.856266874972652 89.86180519016935 0.8374897037315359 0.15666444599628448 -0.0411038889586639 -3.091683864593506 -0.20872090169515167 16.846188902890454 96.56981836187673 0.6420871801330826 0.1496899425983429 0.01369133381602685 -3.0863332748413086 3.7440769374548233 13.884097337740544 76.42469703676585 0.8685973609414341 0.15251803398132324 -0.05143578207310424 -3.0856313705444336 5.560334600570727 15.3776143668282 84.55087244037902 0.7178851308721077 0.16526640951633453 -0.0093514922478035 -3.115499973297119 -2.525834980734718 10.262006579558205 53.32450778218065 0.500746468853117 0.15958096086978912 0.023679065253813997 -3.076004981994629 9.779936945354503 10.112508740988815 51.76786790726678 0.8581451888594578 0.17221859097480774 0.04074794754282343 -3.0716967582702637 9.799132189733943 8.731904200133743 41.670350093009894 0.9084231124755482 0.16747847199440002 0.016528355095833773 -3.0738143920898438 9.874814557298736 7.68796919222638 37.02588050593778 0.5718635442144324 0.1753515899181366 0.03646232717481653 -3.0685696601867676 10.53213838448257 6.523623934930365 26.2814909220007 0.8950485764128782 0.16426080465316772 0.033064000693223176 -3.081509828567505 9.43687334302122 4.774058294585807 18.058964610121002 0.9555224363395449
ID_a9a8c1292,0.15632550418376923 3.096394480104281 -3.108179807662964 -9.586284052683592 9.053215130090651 52.36612469883715 0.7299112536448323 0.1604275405406952 3.1022752324600242 -3.1151843070983887 -10.28004808631957 12.113489056792961 70.16982760678455 0.7760093576911195 0.15855160355567932 -0.01162105620050793 -3.0810017585754395 3.798439494282857 14.953190895454334 82.01766820167991 0.7484298710455027 0.16390323638916016 3.1321126090479807 -3.1062850952148438 -3.2141141222437812 8.220141228373556 42.08963523743646 0.9747536616016135 0.16970756649971008 0.009798764833982631 -3.0636110305786133 3.9483058516077656 7.389593124428337 35.054919422121586 0.9142047190899407 0.1672178953886032 0.05713909396468912 -3.0644400119781494 4.689098878269582 5.756404864492493 24.558167005744686 0.5751442495794288 0.1661241054534912 -0.0068301286064996625 -3.0583534240722656 4.49787215319111 5.200435344220504 22.28738560987461 0.5312258090664073 0.1681428998708725 0.04902059754223738 -3.058915376663208 4.6571093889900474 4.693846005063237 18.82769999003852 0.7773221127710892 0.16082173585891724 0.009373809899888416 -3.0779569149017334 3.8825687484111286 3.137346854187043 9.701760113277535 0.9738182620192862
ID_1411dc012,0.14829090237617493 0.03920525981207298 -3.089324712753296 -2.2326655464718943 11.295027374152989 64.63284040918683 0.5067528011497646 0.16563814878463745 0.21732522773680887 -3.1018834114074707 -12.866825252322519 6.036741003269308 28.23215330800092 0.5100446989429773
ID_b60f5638c,0.1519564986228943 -0.019811115094301356 -3.0903196334838867 -5.1381291059632845 19.907330875598735 117.18826940728351 0.8108760975211312 0.1485896110534668 -0.00996180510288652 -3.0753633975982666 -1.482080632753247 19.05297117525331 111.01496776639257 0.834039177811115 0.14952212572097778 -0.014487731041932787 -3.086578369140625 1.8031916399333079 18.237205126086042 105.18280221301713 0.5606094481708586 0.1465742439031601 0.005313012002461776 -3.0807642936706543 4.821291759180893 17.72150495234956 101.21084464871231 0.6145396592387212 0.14513544738292694 -0.013306539960269122 -3.081221580505371 -3.589903313931176 -10.055704937700293 -60.972015055137994 0.8806012554796737 0.14624527096748352 -0.005280106224725606 -3.0840978622436523 10.09273214621411 16.414857620622083 92.70698512472073 0.8666490682228372 0.15461421012878418 0.015182026269135953 -3.078000068664551 -1.5831125899971685 8.527118712683697 47.646556640812975 0.848837688039672 0.1574757993221283 0.02012924235368607 -3.080535411834717 0.49428482616841946 5.7655180402101385 27.407033104064894 0.894661885039441 0.15476147830486298 -0.0049114495791106865 -3.0832929611206055 -0.5834554389354359 3.325171768696144 13.326913118392525 0.5478129005811895
ID_237729793,0.15745237469673157 3.1383435710410112 -3.1194210052490234 -9.941174961484123 8.863218607525207 45.94316755071887 0.9327845429855895 0.16820445656776428 3.131222890862618 -3.100954294204712 -11.490104265203493 11.719713422225384 63.32053340676414 0.5215423241363863 0.1602218747138977 3.119722977559101 -3.1199545860290527 -11.855066651226078 17.83199122160789 99.41582972507565 0.6186680315514053 0.1571369767189026 -0.023787992409124065 -3.081210136413574 1.0314215184227538 11.092393208715347 59.595594074832654 0.8058399275094429 0.15994486212730408 -0.031039435265251384 -3.0963940620422363 3.4822958105595694 13.460481385620945 70.99558721425265 0.6199635675859121 0.16468703746795654 0.011544358725588568 -3.0965118408203125 10.097303106548368 14.311961457608168 72.57748256566256 0.6189337653848824 0.16179543733596802 3.13378080044843 -3.1087822914123535 -4.407637332987808 6.988353353948622 32.685715035256074 0.9549843651037185 0.1588044911623001 0.010667042574895919 -3.087813138961792 0.057993240179197866 5.0362414213510895 20.855384427669478 0.9553762990525069 0.16672438383102417 -3.1410641948391294 -3.1132805347442627 -3.2430767081291356 2.8772945972328685 9.28439497951182 0.615492348652171 0.16109052300453186 0.02073783753442578 -3.0786540508270264 5.169440867232047 3.346440057696174 10.844872891936149 0.9470561829846256
ID_73b210da5,0.15151476860046387 3.123515929095609 -3.1119704246520996 3.4400351492153476 7.114328478000253 36.26707825988592 0.5192731359171655 0.16463494300842285 0.07452478966982354 -3.081108570098877 -5.952831727456006 4.971993437237709 21.58290512568487 0.6576515044608557 0.16441842913627625 0.09296956256454425 -3.090331792831421 -5.643871417867167 4.1999918635921825 16.90521687272304 0.7205038488934308 0.1580514907836914 -0.010496075477431161 -3.096099615097046 -6.226099309321363 3.5295803757760686 11.689454577229425 0.7792218842556662
ID_c6628179f,0.14907079935073853 -3.113835153808237 -3.10269832611084 -18.467774085705017 4.886923425782684 25.797572666995137 0.6834251473345357 0.15491509437561035 3.136741097409642 -3.112748861312866 -22.11736077840877 6.869960268774984 37.25119258563379 0.7811879402841495 0.15092693269252777 -3.0976055921120524 -3.110112428665161 -12.954225776080289 5.723459608326095 30.039322376286755 0.878917716638156 0.15188416838645935 0.004458895930858509 -3.080068588256836 -1.2195069985196025 9.975305316893763 52.3979247653696 0.6186668224284246 0.16080744564533234 0.01420640099682692 -3.0935425758361816 -1.9394899220164463 8.922140649586094 44.07700549883791 0.7974618632451556 0.1504770964384079 -0.05198298473897212 -3.0951004028320312 8.382104945420897 9.282446954049394 44.08211718438165 0.5720235434590119 0.1631878763437271 -0.03137553965734506 -3.08433198928833 10.555565771448522 7.726023346219053 35.3650672685386 0.7640782288168734 0.16739654541015625 -0.004430539273721956 -3.083205461502075 10.39152776752345 7.1602223396476266 30.648971940246334 0.9515344065746001 0.15596838295459747 0.020063779706041167 -3.0587780475616455 12.553411379500814 6.298210711882936 25.27694106105543 0.5448542383476187 0.1602552831172943 -0.016970350917528507 -3.086854934692383 11.284044311536375 5.204404761170249 18.827834840998964 0.9174013531810162
ID_f188d7b12,0.14906342327594757 -0.0034232214831576425 -3.0863218307495117 -28.113717604427496 7.376219547001524 47.21385293012693 0.8902822567550099 0.13890337944030762 -0.047591843103595356 -3.0854804515838623 -26.10917963049529 13.58899100131952 84.31825280881986 0.7153597817475085 0.14882156252861023 -0.026796207365950404 -3.088231325149536 -18.800730269840546 7.487528472089481 42.02419057008336 0.604271641619989 0.15542393922805786 0.015674669075110982 -3.082674980163574 -7.237762957793589 11.409901827586133 66.1715299975456 0.9558340335952152 0.16206730902194977 0.014680280013324677 -3.0622541904449463 -5.441829337876669 6.194861938364273 32.429519632800336 0.6701863413212256 0.16201870143413544 -0.010944603881083485 -3.091585159301758 -1.324002679977442 9.01663154367287 46.4735151374151 0.7673351678187332 0.15333497524261475 -0.01122209458454851 -3.0971322059631348 -3.285041926231556 3.6003390819803403 14.493651152114175 0.9783408278896379
ID_35ff1963d,0.1695999801158905 3.0509158215023686 -3.085995674133301 13.967542892024852 7.002098295500051 28.361334502057247 0.5490105633023904 0.17305409908294678 0.01869665012042152 -3.0817956924438477 -3.17491796035606 4.021121337891921 13.998558012254007 0.6891925568408629 0.17170074582099915 3.080338591901652 -3.1042680740356445 9.428561841601287 4.3769261424679975 14.974769949945156 0.9221380752213582
ID_9a18f5678,0.14869126677513123 -0.007216299111503546 -3.0937552452087402 -2.999617220635705 6.640022248060166 34.829675776103734 0.5669114116442923 0.14919480681419373 -3.137640313706698 -3.1059346199035645 -5.479762823687587 3.280869357678138 15.029524266743255 0.5825786333868089
ID_db699f0ba,0.1483270823955536 2.7871284331366435 -3.0992233753204346 -41.93324702367571 10.214617848432933 65.08711576465345 0.5914485960864917 0.1461649239063263 3.1075675350301446 -3.097972869873047 -31.15285183844678 13.259261846577889 82.92182117745452 0.8487988123546624 0.14415442943572998 3.0882606110590127 -3.0959599018096924 -20.38494866536599 16.47781384091381 100.91007947925306 0.8420824495615632 0.14850613474845886 3.088058347165903 -3.1022772789001465 -15.690212692243598 18.413909864690332 111.4536285400743 0.5786581202362076 0.15064884722232819 0.04161426536217493 -3.083408832550049 -3.8117771581207553 9.344956211450992 53.78982760552819 0.5317550708787389 0.16244003176689148 0.030561463109604472 -3.1022322177886963 -6.284554795941113 6.480748083627458 34.666624290080144 0.8840280588484691 0.16070199012756348 0.026736353480849274 -3.0825254917144775 -0.7395413238445723 8.380146324652317 43.50690245153788 0.93538804019173 0.1610899269580841 0.031265845539632825 -3.0803937911987305 13.532320285077212 13.977769965232126 74.5052527024933 0.7420719477193889 0.16007816791534424 -0.002480525783067619 -3.073760986328125 12.43571232116642 10.356967145860065 54.322012883794045 0.9235116371007093 0.16309338808059692 0.0008025620634495716 -3.097339630126953 -3.312458300426815 6.376019283254947 30.444503683212233 0.856456025286083
ID_fcfc2f0e3,0.15604150295257568 0.029017040750932283 -3.0886282920837402 2.2390595730389378 13.46349752287086 72.06016193268792 0.6753628901665438 0.1549304872751236 0.04131560638480676 -3.0876779556274414 5.293640702729404 13.088413306212797 69.80516822071824 0.6897770028627412 0.14969944953918457 -0.02011695795433401 -3.0747368335723877 -11.488006884683166 4.895475379657583 17.96063037026786 0.525981693928305
ID_66e5f439a,0.1674303412437439 3.1327312268802303 -3.0921130180358887 8.904266747387538 4.148622767168455 14.142066240349688 0.5768461469325844
ID_145aff094,0.15866154432296753 0.050178905009722545 -3.092660427093506 -7.143056169061653 8.102547356390506 41.72996908471161 0.8871050430389383 0.15370315313339233 0.00708561017106587 -3.0828144550323486 -11.506356092395716 6.110846258720659 30.18545039055415 0.5734267479062606 0.1658390462398529 0.04655277369387945 -3.0833334922790527 -2.5630499846382127 6.802853097081253 32.57927315922181 0.8529693610405248 0.15707652270793915 0.01820558028031448 -3.083559989929199 -4.28799936804959 3.243395708833537 12.275836616793327 0.864704136877238 0.16324232518672943 0.00369119180015866 -3.073319673538208 7.777242891563677 4.567115672705454 17.42421576936872 0.7065265268827313 0.16205506026744843 0.035130595851634396 -3.078979015350342 6.7927765414902925 3.262504002764128 9.409823832236585 0.6893645348434319
ID_5f80c94a6,0.1571556031703949 3.119926721304281 -3.1136739253997803 -2.3020843474616663 7.200368497333722 38.2583678805639 0.9106705355146182 0.1668882966041565 3.1322053985482863 -3.1082797050476074 -0.6296569071492284 9.356730431347886 50.35459122887876 0.9154713130652975 0.15511609613895416 -0.0033082471160922593 -3.0899953842163086 2.8049578594345443 7.884588317076726 41.4228865287996 0.8021224200573347 0.15995165705680847 -3.1356667345910045 -3.1150922775268555 -5.225680484720452 3.110621073718989 13.22315782311232 0.9777069766341141 0.1655808538198471 -1.6356841179889885 -3.0867714881896973 15.667906335244012 6.274705751364872 26.88630659306721 0.5548357294661502
ID_b0dd0220a,0.14895907044410706 3.125728849938878 -3.1151304244995117 -8.124490015356722 16.061809767500915 91.99398118875375 0.7421672930239982 0.15120400488376617 0.024075425288742174 -3.0958285331726074 -1.4449360028270823 19.515818465906513 111.78061027410688 0.6703623158380358 0.15818947553634644 0.01819758439425286 -3.089019775390625 2.415210327786502 20.7979721174819 119.95082964989277 0.5085970499022562 0.16938558220863342 3.1258778600773924 -3.1151087284088135 -7.0155477113037525 7.984695478623202 42.719296080385924 0.7703712166166248 0.13944211602210999 3.125113346687351 3.1449785232543945 -5.962357191217305 6.208085631648516 30.387927546381263 0.6331738839081177 0.1577642858028412 3.1316799284976278 -3.106718063354492 -4.4589498656608395 3.0293051833213287 10.862573981317066 0.9163961629511324
ID_ed6b208cd,0.154801607131958 0.046246439687639335 -3.0846266746520996 -2.1331727827918896 9.415085175898735 48.55572591660516 0.5289609234478829 0.17335346341133118 0.026176900346895814 -3.0562453269958496 -3.79619773782034 3.786646025737126 13.182280828020238 0.6336051666046301
ID_92244eb19,0.14476393163204193 3.1217207299870995 -3.116225242614746 236.9730690054741 186.13683103902002 1029.3981741357584 0.5688473795721829 0.16143184900283813 0.2568104330101685 -3.0851075649261475 -10.249909969360981 4.883138586553791 23.46062098228344 0.6192154736548006 0.17224031686782837 -0.010424335506783976 -3.084845781326294 -4.748129165475556 4.10300150220926 16.48811697963677 0.5320124382189999
ID_e825cd6ba,0.14380653202533722 3.004367667404961 -3.0926947593688965 -33.03928415730862 7.340770915144616 45.044675469434026 0.6120694514221685 0.14719277620315552 0.057162991319369534 -3.086397647857666 -27.43772934476229 7.239933393916615 45.02909481528974 0.7127950935075323 0.15295401215553284 0.09672445042533984 -3.086843490600586 -25.351493991470527 8.027066773733303 46.263512969052556 0.7116537582020253 0.154891699552536 3.094572952345355 -3.1108012199401855 7.33588358736557 8.273623128784383 43.61781786320703 0.8219321216363533 0.16641667485237122 2.754465110761014 -3.105160713195801 -3.00420782166002 5.782529748116556 27.51421599616453 0.9092399993355702 0.15514035522937775 3.0985913836190986 -3.1105868816375732 11.96766734869046 9.412945916464626 45.01157786286158 0.6614642035455712 0.15996035933494568 3.0764789901258935 -3.1130075454711914 18.44462291166115 11.125823132330483 53.92442844949882 0.7505250185280263
ID_984c81491,0.16843006014823914 -0.01987389112179699 -3.089235305786133 5.174862544915552 5.177322596564486 20.90514541217442 0.5397062957246174
ID_886b3e1ee,0.1553734391927719 -0.008319115120743875 -3.093566656112671 3.2436637429048414 12.891797785372356 70.79486280724578 0.8538284555166293 0.16541293263435364 -2.4243802975690905 -3.099893569946289 14.181071118432477 8.211864825138631 41.69065654281576 0.5237300474672436 0.15810179710388184 -3.1200323046799103 -3.1254682540893555 -10.029446917976431 4.397599066977968 21.886612013225935 0.8210218627472402 0.15664240717887878 0.0015662003787104573 -3.0954394340515137 -0.40061119455783323 6.23224845253453 30.926299432218684 0.9213489466113043 0.16081538796424866 -3.1286605866423294 -3.1023950576782227 -9.384446868499156 3.103880972535262 14.320638920362878 0.5362891283922679
ID_95e5e13ae,0.13895604014396667 -0.014631573715648404 -3.0869946479797363 -11.292727097527834 18.314364660954492 107.8956371250676 0.8495177560128261 0.17151321470737457 -0.0032310453280842526 -3.0710484981536865 -4.958922027949587 4.390273291515893 17.627118595450927 0.5569643869730904
ID_aa7aa518e,0.14698919653892517 -3.1340350671950232 -3.1041817665100098 -4.336022403718098 16.844928040703664 98.7862707450586 0.583415887513774 0.1599295735359192 3.1354585975988165 -3.1114859580993652 -5.161208098279018 8.636516162186561 48.09537242291467 0.890241216472933 0.156620591878891 -0.001961666745019624 -3.084557294845581 5.694969379401172 13.006682413866287 72.43241928256724 0.8146754682727274 0.15936803817749023 0.0793374214227067 -3.0768532752990723 -14.077671954337823 4.414941346526444 23.125970363644505 0.8767559569298724 0.15379425883293152 -3.1228395155374726 -3.11464786529541 -5.968117671442049 6.6708617450827274 34.92520297994947 0.6415332788283704 0.16211068630218506 -0.007909014495157499 -3.085160493850708 0.5490022711638257 7.169780839558561 38.09050034399642 0.7900395923548019 0.16355225443840027 2.9312607542310696 -3.110034465789795 10.797983501703541 6.686786098320693 33.124654959209415 0.8862156911455795 0.15738379955291748 3.1276702384542308 -3.1170759201049805 -5.667457602801786 5.127782828249164 23.396705091035138 0.6939124617351621
ID_5ef969c1f,0.15086597204208374 0.0001516986273058676 -3.09182071685791 4.546280426646146 7.6297104359047445 40.419795419092175 0.7401156929262159 0.15765821933746338 -2.740084373281604 -3.103853940963745 7.449234802390706 3.933793154291319 16.756652719552708 0.6794341844422388
ID_db9cc3657,0.15870848298072815 0.02294408486401557 -3.0824673175811768 -26.759583665733867 12.190635081161737 77.03026444645677 0.813304988328373 0.1567002832889557 0.06037140224696408 -3.0840563774108887 -18.924787494515137 5.224113832012927 29.585388779846642 0.679774375510156 0.15203461050987244 0.032139271850884 -3.07485032081604 -22.66676266938734 8.030882677796255 45.99214329835485 0.8201485470469967 0.14902780950069427 0.02767338873968903 -3.076547145843506 -16.37894845155272 10.477463180770767 60.42371413937833 0.9434462411882416 0.15542098879814148 0.034846123324129626 -3.084212303161621 -14.061411445955791 6.143665811444691 32.2203292962847 0.812258432691836 0.1554921418428421 0.011235381445436872 -3.0895328521728516 -0.8105789168281129 10.216984897885583 54.600285598953114 0.9229704257445414 0.1601307988166809 0.03715357205614963 -3.066725730895996 3.8453843594568395 9.323639422690329 49.53586370678698 0.6657336912225867 0.1623786985874176 0.003420136577130405 -3.0876967906951904 -1.4685960720922733 6.734349402661668 32.21264456049212 0.9721032604219525 0.177046000957489 0.021346674261917786 -3.0726327896118164 5.0406659378263425 9.382439078465994 45.03281126858921 0.9131650081791293 0.16579003632068634 0.008819350491257682 -3.0677061080932617 4.999859131348166 7.3381435822060235 35.05933417913522 0.9135676955252081 0.170082688331604 0.0015316353241751949 -3.0660858154296875 4.779385582735746 5.660586028283545 25.677102804201727 0.848685233303549 0.1597021520137787 -0.006537077053368175 -3.0892462730407715 -3.037828938836198 3.892674297125244 16.630885614499324 0.783912346486198 0.16624419391155243 -0.004060802847045868 -3.085768699645996 5.3757430667073764 4.829586904001438 19.3493530154541 0.9329521367155161 0.16375881433486938 -0.0014892513896882524 -3.084810972213745 6.218659769357935 3.9838296177937713 12.939971685442433 0.950658740206892
ID_826d8a694,0.16937756538391113 3.063052014980081 -3.1078968048095703 10.196378804848262 7.849638909136997 38.34478508749743 0.8142294136940612 0.1633238047361374 2.8416648576252697 -3.116020679473877 10.14714081573987 6.261832120313036 28.408376718687055 0.7975522018101973 0.1648959517478943 -0.1036668516317804 -3.0793275833129883 16.554156607523925 6.420998114162726 25.668317079583858 0.5398102435533774
ID_b61a1ab3a,0.15765485167503357 0.01560191419045314 -3.097930908203125 -2.097144801269947 13.659173310389884 73.68367324708001 0.5082134776891036 0.16919684410095215 0.02838986657770871 -3.0872273445129395 -3.7004360650021484 5.774650054906726 26.384329795872937 0.8683193366926858 0.1613779217004776 3.1365993551535185 -3.106525421142578 -6.558289105431597 2.690640271931902 10.76753214004276 0.9153760983070828 0.16308008134365082 3.138142013725872 -3.1100878715515137 -5.32490841767374 3.2150114946450574 12.976017594373268 0.8074523664524152 0.15898846089839935 0.006610357517189248 -3.0896174907684326 -2.6168447185058454 2.985640555394729 10.164313763418956 0.9031542026989036
ID_9f4b166b8,0.159538134932518 0.028167898684087568 -3.0720913410186768 3.9262678294606 4.697080941202389 23.014917924272225 0.7535535631930317
ID_b11a8e209,0.14476680755615234 3.1263302177956667 -3.0885419845581055 -24.570285861344452 8.77429790358679 53.65214347842908 0.7147188220229056 0.14574268460273743 3.14024475538795 -3.1032514572143555 -25.784730911237116 10.026137506691763 63.00955127592696 0.9307547776502786 0.13806548714637756 -0.040213705437570246 -3.0968077182769775 -4.70607397868691 18.26013240886123 107.29005536137926 0.5343197191470562 0.14295586943626404 3.129153902067778 -3.100863218307495 -27.952785921594707 7.4823547193675735 43.61455195550317 0.875790647386766 0.1456572562456131 -3.1365333922564465 -3.107407331466675 -23.55259389154058 8.108053400612922 46.91428686609601 0.869057911808722 0.160318523645401 0.037401195095626276 -3.0753753185272217 10.390521432110889 10.182720422755812 51.74003225181504 0.9222997922934989 0.16038554906845093 -9.50074678770737e-05 -3.07985258102417 10.8099423124375 9.00257312339465 47.160191788581365 0.6976155842080027 0.17121629416942596 0.019174569464339576 -3.0735397338867188 11.455577460599425 8.963988372657003 43.01952141018312 0.9534870901455927 0.159473717212677 0.017195420359665328 -3.081900119781494 11.125099963766004 7.457140322087247 36.568467970138514 0.8765390158613406 0.17325302958488464 -0.008293445111520381 -3.072678327560425 11.972541813921708 7.124288371389453 32.31133222583509 0.9512735437985959 0.16474372148513794 0.04514226736351785 -3.067138910293579 12.180598273399378 6.390716103465595 27.305877208750488 0.9215660480477187 0.15980449318885803 0.05448269396586239 -3.058675527572632 12.029565842259366 5.2953925381105575 21.162179112467946 0.560526399578179 0.15235190093517303 0.009604990942978228 -3.0648205280303955 -4.604197212457555 3.245403808076302 11.65156438948979 0.6048677000083751
ID_f72f7d1e9,0.14332076907157898 -0.019634413222469296 -3.086406707763672 -23.23933033728403 10.98925620320326 68.26718594069052 0.891963602191721 0.14001169800758362 -0.019956499733065788 -3.087193727493286 -20.603762458586676 11.575149150727233 70.1297583035505 0.547483972015076 0.14535586535930634 -0.016007056210265633 -3.0842506885528564 -21.808017612540194 15.51919616038598 96.14777298993657 0.6014271172349435 0.14881263673305511 0.022043271815194807 -3.0899317264556885 -17.520889573528848 5.3374248488054645 30.274111032515258 0.9541318072160186 0.16225793957710266 -0.009084770406220768 -3.088639497756958 0.5442397835504632 11.208485066917742 62.89135217670179 0.7908021145824375 0.1623377799987793 0.004701648985837376 -3.0832738876342773 -1.8837855186456138 7.978331523990592 42.44724224446313 0.9083357881215618 0.16333609819412231 0.013263456554350354 -3.072923183441162 0.38533679343949545 4.773225786175973 21.652807295357952 0.9540818717114269
ID_cf563dbb0,0.1565759927034378 3.1082617724900565 -3.1125965118408203 -16.662631432684716 8.628319203884068 49.26254413760874 0.8927410892544885 0.15960481762886047 2.9802055802168024 -3.0922577381134033 -14.811408928571467 9.350798064890613 53.90668247067505 0.7162689362469511 0.1556813269853592 0.06454931152697377 -3.084303617477417 -9.584868726487905 9.25400232003594 52.367911007615156 0.6241183887901344 0.154572993516922 2.9675254899056585 -3.087031841278076 -14.57337055810751 5.0554492282127335 26.60111188891309 0.7428823010537262 0.15151794254779816 0.07008894376370448 -3.0959253311157227 -8.13884593324189 6.468835736051082 33.923290624497476 0.6084845158697008 0.15989463031291962 0.0056616837291237065 -3.0887396335601807 -1.4576883642069138 8.251318603309644 42.79277060359777 0.9528320149025393 0.15162914991378784 -0.053949390096680684 -3.0916078090667725 -2.669952861364793 5.323955044185325 25.445002839240733 0.6373994770481395 0.15662744641304016 -0.8841452033943151 -3.0984485149383545 21.721808078491932 7.3757096797275965 33.70049297812862 0.6338404722237733
ID_c0656f73a,0.1662152111530304 0.4289638696697564 -3.094606876373291 -2.556174050821725 8.08035209778524 43.36078789471589 0.5155048128884807 0.1709948182106018 3.0870676658399288 -3.105714797973633 -7.8524933042122615 5.895880609224723 28.23065488566801 0.8225191640342892 0.17684796452522278 -2.6203110368026143 -3.0843558311462402 13.247818244142408 7.8974993960143935 35.84361374381757 0.5097207078199848 0.15505361557006836 3.0171951388795915 -3.099156379699707 -6.450806029477706 3.8103321736485225 16.329385340252372 0.6861493857258922 0.1522027850151062 3.111242958432057 -3.120763063430786 14.096777304811313 5.463029640727529 21.865783631837218 0.8819118216492057
ID_e53e450e9,0.15437665581703186 3.1206415732091775 -3.111508846282959 -10.07905415104301 8.78375730767081 50.75101763925644 0.6958499886687864 0.16580896079540253 -3.1279190324996398 -3.0901894569396973 -6.198034327031701 17.25055277351118 99.01949078776917 0.8493875787842148 0.14918619394302368 -0.012640522253591331 -3.0787856578826904 0.4195059002693563 16.198578476941357 91.27513776658074 0.6536487170190605 0.14444801211357117 3.128514211024589 -3.110257148742676 -4.575744859076539 7.064977785242205 36.975811983023696 0.8721191737041026 0.15917609632015228 0.006522482284205779 -3.0894317626953125 -0.5678446497566573 8.15409732442417 43.37185930128707 0.9607223506028462 0.1536884754896164 0.014818936370833863 -3.0873918533325195 3.435822251866318 8.346493005516113 44.14850483773248 0.8281708432206566 0.16740480065345764 0.019953504936236727 -3.0833113193511963 2.1072291750050116 8.755733800789367 42.446617464434155 0.960035235363038 0.16677413880825043 -0.0022564179810475845 -3.095057964324951 15.942347757319348 9.634702064402713 46.492245485681735 0.9803277011894955 0.170482337474823 0.04307982825929844 -3.0855352878570557 4.011850059049473 6.491742462161683 28.924749637791738 0.9623060311454307 0.14951571822166443 -3.1393771557738535 -3.1164169311523438 -4.174731481696796 4.537706916505887 19.45006104166142 0.9596291956331213 0.16366046667099 -3.1228308470100106 -3.1174328327178955 -5.073814003904807 2.9547509191527737 11.82615384463449 0.7770087295068149
ID_74c5f2bdc,0.16277657449245453 0.0386717782376965 -3.0869688987731934 -5.337100151364515 13.444347709606879 71.92212007678721 0.829410835077101 0.15451930463314056 0.012586354750903198 -3.07553768157959 -2.9682592301642323 12.81557254820661 67.44248281357781 0.88160298445331 0.17207854986190796 0.0253074048397143 -3.086040496826172 7.2277806264273625 9.115542216652376 42.268676474719776 0.9648732493848964 0.16071754693984985 0.03884644805148666 -3.073305130004883 8.544759952188846 6.763474643255466 29.114523530041467 0.6599745627670724 0.161187544465065 0.014329146092060005 -3.087006092071533 0.041808413263028144 4.062994295187143 16.282425667014827 0.8885632872138981 0.16581273078918457 0.007878217591065592 -3.0784964561462402 10.344600775202215 5.723725299160123 21.731864669334538 0.9902192001048269 0.15841928124427795 0.014689478671533114 -3.0786614418029785 11.284721509783992 4.97642215888451 17.089810081856843 0.9493768682221203
ID_f6a5de7f1,0.16733227670192719 0.03509814836887221 -3.0851058959960938 1.8747178757555467 6.406109361765527 27.575233578712385 0.6568273677339089 0.16080918908119202 3.119203054613205 -3.1037955284118652 8.361576464313998 4.415238091015636 16.948343563753145 0.5981618480977258 0.15160703659057617 0.0027675199846100514 -3.065748929977417 -7.730493090335229 5.039420735584597 17.542920321810765 0.5841341500405689 0.16027873754501343 -0.033751380323940185 -3.098710060119629 -2.1700640396497746 3.3439740335825654 10.92538950564846 0.6794825185760259
ID_d5b13d65d,0.15550640225410461 3.065891301334254 -3.1028690338134766 -24.03528289807441 11.545550915272825 72.99336837862782 0.7373130188786751 0.16033826768398285 -0.005221133403184316 -3.0919458866119385 -3.0333721902938695 2.943782488571713 11.778759956397014 0.8929198057821973
ID_019cd6743,0.15496471524238586 3.092689308832148 -3.1054015159606934 19.35005319038011 11.91845775153705 66.24311780515175 0.6509355958405064 0.15047241747379303 3.1037259544999243 -3.1068410873413086 0.4983296122720621 0.22741077136495289 1.4496841322718934 0.6798140258289536 0.16575473546981812 0.09280348368432274 -3.085461378097534 -11.174564613019506 4.999278194911496 24.442490195572333 0.5878641687894433 0.16298167407512665 0.07965270056933177 -3.0995709896087646 -7.581476642592242 5.990698900191109 29.2932748794911 0.8258004459496338 0.16594859957695007 0.08941616830969408 -3.087221622467041 1.0267349391968397 6.347438703829968 31.488493010697933 0.7866853311145563 0.15287238359451294 -0.004853313723353772 -3.097994327545166 7.949668990983823 4.240912363871204 19.133327901385012 0.9186925153780587
ID_09b7b1a98,0.14460444450378418 3.09155124910443 -3.1048707962036133 -12.26893217886295 -2.9952800564292428 -17.10565108023249 0.7225438954192654 0.15052610635757446 3.1154089558436504 -3.1154754161834717 19.087742067884452 7.942160483041208 40.08302066603883 0.6854781703324929 0.16037529706954956 3.1034039960851993 -3.1186022758483887 10.017459716380014 9.549769240564105 46.95866737693609 0.6887845340816685 0.1624937653541565 0.08684063710088366 -3.09566068649292 -7.499075105982749 5.464393982174699 22.470172250835233 0.7099220130432791
ID_2c0dadb64,0.16350848972797394 3.0926069159661544 -3.1110992431640625 8.870789422690235 5.771978394635149 26.14478304502081 0.9309957919068627 0.15900865197181702 0.0014004741000276642 -3.0762064456939697 -3.6105461225006747 3.0132788355131943 9.049563205272253 0.9038544056213558
ID_d4cd0361c,0.15812811255455017 0.008280274619947047 -3.0862884521484375 -5.2286329111860335 5.8310479781631015 26.67259620121015 0.6289089965741264 0.1566637009382248 0.026661327715813705 -3.084747314453125 -4.585049909405036 6.555852357189113 30.530092318974464 0.6148876166886055 0.16278761625289917 0.015693563246353678 -3.088395118713379 -9.3338164481691 6.111606055863765 26.74706038514847 0.9056935578847175 0.1651485413312912 0.053366956113220496 -3.0975170135498047 -5.020222449346826 4.309980847049306 18.407652872981224 0.6564569755060615 0.16149786114692688 0.04016351111655292 -3.091855525970459 -1.4115207369630047 5.6443462815934415 24.205294888342287 0.5989903944627823 0.1722058355808258 -0.004081446400547676 -3.107590675354004 0.2993960402904977 5.912350249842193 25.222705399862264 0.5349898363762767
