ImageId,PredictionString
ID_18fb86d04,0.14298388361930847 0.004473775682931037 -3.091574192047119 -1.1154127912099245 8.332502207213153 44.20740614769952 0.696321637103849
ID_ce06d4dc1,0.1402193009853363 0.009882804736306504 -3.0883710384368896 -31.016082959758364 6.907542124800637 46.270400165990836 0.6463494842215243 0.1511155664920807 0.026079674207179264 -3.091184139251709 -10.76312229892622 6.012059415077854 31.917925307975658 0.79408416099855
ID_afe07078f,0.15049900114536285 3.122571863742117 -3.098750591278076 -16.743625639193862 7.107219339943309 45.87855712745921 0.8601721565468047 0.13939708471298218 3.1392547627865155 -3.093458652496338 -13.597177001120903 9.491646062833853 59.75486435766562 0.9032300421846929 0.1341172456741333 -0.014305745688913272 -3.0920939445495605 -13.739144483964907 18.76365356545728 113.69972126845731 0.7987112241214254 0.13529200851917267 -0.004733587434869668 -3.095409870147705 -10.996061517145627 20.254021221824374 121.72426944939319 0.7763677208162645 0.1336338222026825 0.007823344084131942 -3.09523868560791 -6.507052671501726 18.189354605580064 108.82121286598685 0.7884747038793236 0.14781597256660461 -3.1333905156364197 -3.0993189811706543 -11.429493145759283 3.4072036102910985 20.851032435923134 0.7345347552573264 0.14911994338035583 3.1320346747251095 -3.1055984497070312 -13.170567825329726 7.153553076123233 43.40755045417524 0.7519167422816474 0.1505238264799118 0.01083989539129977 -3.0882718563079834 6.946709063062317 11.178687783565778 63.846716160326366 0.7514490525490242 0.15325337648391724 0.015678737756166978 -3.0779924392700195 7.079616466151871 8.830836088154138 50.74118124801588 0.6392782318943262 0.1522877961397171 0.021547877781637817 -3.07865571975708 52.459518429452515 55.17326187859107 304.23254510900176 0.8791946456441043 0.14646010100841522 0.045130013192734415 -3.084627151489258 11.438962536928011 7.271968394033872 37.08925545217815 0.6047189021442104 0.16329854726791382 0.026025877608156073 -3.0710272789001465 11.749442765151242 6.659546835886172 30.52625060084538 0.5615962799687945 0.14895422756671906 0.0036337866274522655 -3.0903244018554688 -6.102771705476668 3.463135444065873 12.532454778667121 0.6177116568534975
ID_37caf75aa,0.13499295711517334 0.0029111527053590613 -3.087326765060425 -26.707536134135744 6.872068896356414 41.65194097162787 0.92263579580348 0.13609367609024048 0.0030730166948151863 -3.086583137512207 -30.750747007803195 9.01019573215223 57.31101632121778 0.7853016012911227 0.13612474501132965 0.011354663504755873 -3.092288017272949 -34.719048921717196 11.331133188196418 71.22080336449639 0.8371405911919318 0.1421273648738861 0.03291530768415202 -3.096486806869507 -28.767770145875133 10.910634542667399 69.37766372684709 0.5590601805190979 0.1456719934940338 0.02501496444680009 -3.0932655334472656 -28.223466361207727 11.659131418301117 73.71347837183724 0.6574079799375007 0.15430569648742676 0.02215789344144429 -3.088388442993164 -14.55865838903729 7.625660918445099 43.30990933394468 0.7141829992366807 0.14878231287002563 -0.015424801197657555 -3.092576503753662 -15.36625334563504 10.3339031339056 58.230470726211415 0.566428530263326 0.1590120643377304 0.012944237220354012 -3.091932773590088 -11.052387744456778 11.395146832179192 65.42922813484432 0.8611553255748996 0.15594008564949036 0.031548132126653396 -3.0904808044433594 -11.764877010042609 15.016841888463265 88.22948891708614 0.8443670760215634 0.1517525315284729 0.010756007814662192 -3.097014904022217 -6.534134692783808 12.603069688049064 74.06321810816578 0.9047756636761826 0.1572975218296051 -0.016629870425128326 -3.092581272125244 -6.408026279568424 3.8836277433338218 17.59364359330221 0.6229947417648188 0.15569725632667542 0.02487929165278045 -3.064771890640259 7.870787069608138 4.3698404650918885 11.639582814314506 0.687615999380961
ID_7655363ca,0.15106205642223358 3.129769033579888 -3.1082215309143066 -23.9344102604755 8.52666033030533 49.41927556065097 0.938273669002331 0.15080653131008148 -3.1405462022644146 -3.108370780944824 -23.029300969419417 9.424481437682262 54.196415687731246 0.9564916699831236 0.15703925490379333 3.0353166345057674 -3.107724666595459 6.191198631867584 3.8705042566479064 15.470562875308802 0.6198944807378131
ID_ecb7edbb8,0.14726601541042328 2.648275481994563 -3.0964407920837402 1.2001721642963032 5.0794605907318005 24.041613628763407 0.8397639136038363 0.15069615840911865 -0.2983859217653382 -3.0950610637664795 8.886113018222579 5.369473961697471 26.21203958991743 0.7436622195555868
ID_e3b680bf6,0.15152817964553833 -0.004453943809990453 -3.087559223175049 -2.8739782132673506 11.198489367991604 62.63927545796558 0.8554404114035669 0.15856631100177765 -0.05707431892299551 -3.0880868434906006 -3.9190316601312007 9.769202913644333 52.05972801087396 0.6472528795669522 0.15469573438167572 0.02016495944058078 -3.0884618759155273 -0.5759090994296066 8.667584510762385 46.00964199419631 0.9348550140493562 0.1598876565694809 0.02323705249169205 -3.0906670093536377 10.534398963325334 10.671675561963616 52.93543349144952 0.700331806985579 0.15174135565757751 -0.029853657424427405 -3.0819125175476074 -2.3743578876475424 2.4069388842236483 9.193037966382155 0.7141837288803272
ID_c51c8de2b,0.15898454189300537 3.0861203865363946 -3.09195613861084 17.00377379505548 10.32790717486087 55.24902131302231 0.576684905720433 0.1551133394241333 3.1110836323550246 -3.0933914184570312 14.783570525880837 7.770740060132939 41.786791432986746 0.6289164228555114 0.1596943736076355 3.1413302267021526 -3.1076788902282715 18.906827470579874 9.34139432343045 47.286992343895086 0.5046874533733396 0.1565612256526947 3.1314443074886724 -3.1105756759643555 18.383226702511013 7.184934589603019 36.27143335404937 0.6114142207497255 0.16039082407951355 0.05740344625838639 -3.0742759704589844 0.05279500228688554 4.82426387760921 20.56525036212515 0.5683621009092118
ID_bbe2505b7,0.15307417511940002 3.0930416501453046 -3.1053428649902344 -4.384518246695739 3.8849064831632663 18.873134255444775 0.8836862256386324 0.1672801971435547 3.107442189434864 -3.1105377674102783 -1.9557652434476755 6.627317057094187 31.709136143616544 0.5368925423267452 0.16192299127578735 3.0879258411440933 -3.098345994949341 0.06808160815671534 7.759100465613986 36.97355996010797 0.5577688045656065 0.16050934791564941 3.0980223934954236 -3.103849411010742 9.189438102510843 8.722964402880606 41.80991916884824 0.8212869028527567 0.16059279441833496 3.1027491191822967 -3.0983288288116455 14.85284760482644 9.292624999306769 45.955410224523 0.7538539145001734
ID_b2f337d86,0.14980469644069672 3.1210017794454648 -3.112858295440674 -19.755734378540275 6.739306191572924 36.10128543899254 0.6005611847523212 0.15842385590076447 0.023098096878029755 -3.1031622886657715 -1.997047299194383 5.776294532055806 28.283881740832207 0.8075470526560637 0.16803589463233948 0.0012295763562512481 -3.0901174545288086 4.150797467731071 8.197779925463472 38.25757913338942 0.8693755785247669 0.15817369520664215 0.013201305885901413 -3.0850625038146973 -2.8348002881551033 3.82703385344612 15.432647689019515 0.8058962679502142 0.1616474837064743 -0.00013335846481255865 -3.101947784423828 7.379928922545339 5.094416991729282 18.420974714006036 0.7645586403162481 0.16451579332351685 0.09420379278414821 -3.0840790271759033 10.137400667841836 4.616659065702862 15.00387787822653 0.7286777158417174
ID_99bc4d11b,0.15945661067962646 0.014425141612929102 -3.0707812309265137 13.870146693760981 8.809445078415033 47.412094132449155 0.6776021448253048 0.15865984559059143 -0.005281871822070781 -3.07464599609375 13.731011414475988 8.282356452282176 44.60049138272426 0.5227976998069878 0.16268756985664368 -0.0029783772250289945 -3.079313278198242 12.6824983430564 7.367014442716905 37.38817803472385 0.7521221276035847 0.16603311896324158 0.012942669896001416 -3.0776026248931885 10.46050473937755 5.427685792903184 25.90669936995642 0.8189944715777991 0.1644243597984314 -0.02789259899828198 -3.081360101699829 2.6881569855669043 5.258076679057416 23.850065424378116 0.8086639829075593 0.15076550841331482 -0.009007626954049155 -3.0922536849975586 9.351438457696766 3.882500209159411 16.86313775037041 0.6552840280080028 0.16499707102775574 -0.001221792340609963 -3.0748300552368164 8.047675759273153 3.6016228084064466 14.548796415349852 0.6544648914357875
ID_9bd02b06b,0.1583840698003769 3.0973932718983552 -3.1108479499816895 -13.450379017337513 8.585337967817622 49.304219705235695 0.8292436672995848 0.16478878259658813 3.117875246407097 -3.09297513961792 -12.515859115393866 11.756093800097036 67.56407577583553 0.6810037273889946 0.16454064846038818 3.1344547833666656 -3.1115918159484863 -13.703415679799086 6.7536480826422105 35.96335463273329 0.8687661526602152 0.1622987985610962 0.037514770071932255 -3.0863959789276123 -5.088720303586558 6.34984252983877 33.84535159101819 0.7834388291090778 0.14959974586963654 -3.1082257029804077 -3.11714768409729 -12.511779930219564 3.9302090495259865 19.095514714755375 0.5229116638188498 0.15241937339305878 -0.005287142747950794 -3.0982015132904053 -3.978874504708377 2.4840331842699843 7.68778026107468 0.9083077942729365
ID_3eb110281,0.15744218230247498 3.128578138456145 -3.1165478229522705 -4.040750905497941 8.686713874374071 44.55150674222009 0.7514210338971531 0.15307840704917908 3.1273586557626034 -3.1134371757507324 -0.8645887466132639 12.428527089996225 66.59886847374932 0.8737811581625614 0.14352282881736755 0.020482876443136205 -3.102595806121826 1.7861657045583303 10.141275843593819 53.005004032859446 0.7143834640730783 0.1468861997127533 0.01650042004837438 -3.0839285850524902 4.688550933008643 11.418568853356662 61.128542091953015 0.6713246911879155 0.14652220904827118 -0.0055859483697867345 -3.094738483428955 4.489109829637654 8.923614152522633 47.242390829506846 0.526670856456179 0.1583050787448883 -0.08029446811025848 -3.0973377227783203 7.834493512134431 9.385587182771973 46.505602140153364 0.5024838893195919 0.16354763507843018 0.01164580320956015 -3.0925817489624023 4.099416678184864 4.316638675610057 14.755366742644366 0.9625681241654437
ID_223276b96,0.153671994805336 3.1168054934450575 -3.1011886596679688 -13.772747674314145 6.734056329226823 36.05868763785498 0.8526900361057004 0.16023461520671844 0.28222304289079747 -3.106452226638794 -1.408752002518816 7.037244224485379 32.46929347518659 0.8646623794440079 0.1664448082447052 1.1749354398771201 -3.095892906188965 15.300108501851678 8.750435194780843 39.16099636783048 0.6401334995209458
ID_1f8605bdc,0.15346771478652954 -0.056290864760831595 -3.090780735015869 -9.791076856331687 5.394670048769784 25.047031622138963 0.5017692544331851 0.16281011700630188 -0.005044284754993475 -3.08866810798645 -4.871931499850798 5.885151329903217 26.919206635743283 0.5647371007099735
ID_089d5b041,0.1506252884864807 0.02815152115198851 -3.0880494117736816 -8.582998282608681 2.8696735440190024 12.168841834869973 0.6024692698663453
ID_b4fc9fa2c,0.15849748253822327 3.1220602419266843 -3.1102609634399414 -9.060689749850573 11.394014954602412 66.92605325321101 0.8139491832164888 0.15215325355529785 3.130292501638587 -3.103695869445801 -15.953813523732448 4.7612766416888075 24.94342020518438 0.6329323631236781 0.15647795796394348 0.015181021896501352 -3.086595058441162 1.9638990679579336 8.56589714763736 44.850432221259936 0.888174431570322 0.15547028183937073 0.01099870192448506 -3.0936288833618164 -0.5071520840290654 5.976996627574413 29.42551917891638 0.9263414786322215 0.15452143549919128 0.010066976651158917 -3.077277898788452 2.3920618814302674 5.220758668991981 24.698805501360148 0.6813686947910426 0.16784453392028809 -3.1392193709801357 -3.1177496910095215 -4.483016995545266 3.688000041365897 14.777232706583629 0.5969990092726698 0.16220423579216003 -0.0029992232685952173 -3.0868160724639893 2.6552122053437874 3.4901680124639634 12.447829966328493 0.7366556968862197
ID_0a2bb53de,0.1472756266593933 -3.130180953937111 -3.1044623851776123 -26.812572956386646 6.83800056579573 39.91159302236351 0.6984086690478251 0.15189319849014282 -3.132048936175311 -3.0933942794799805 -29.311816290039246 8.237073293974456 48.03924531678312 0.5019927151702418 0.15879389643669128 3.1327019887210086 -3.096461296081543 -18.606660987572326 6.507874786451039 36.86981036778997 0.812823650484904 0.1591588705778122 0.06391140121953416 -3.0855844020843506 -11.33463173736103 7.346112258619962 38.73248531934331 0.6762608316175943 0.1529504656791687 0.04127298506880643 -3.085836410522461 -9.068474861646258 8.081693963441758 42.21181831992838 0.6914349856611616 0.1604311764240265 0.006324013038140873 -3.086155414581299 -8.654779423178327 8.616055278229023 45.242237008625125 0.5053096283511647 0.1554591953754425 0.017089956796619496 -3.082949161529541 1.5125201796323582 8.392045435615632 44.00539408567141 0.8941592994874119 0.15303421020507812 0.013254239463955571 -3.0859546661376953 -7.255881727286587 6.002777210434224 29.346732641425838 0.9320286368875444 0.1664637327194214 -0.0029935890817060465 -3.084709882736206 -4.5174933900922625 7.398797907020647 35.7172009252493 0.6971566952630065 0.1627146303653717 0.025320849675856006 -3.086287498474121 2.840054424743083 7.367666242527968 36.401337010037636 0.9016961499381486 0.17733356356620789 0.03305445517866761 -3.0706512928009033 3.5889874228073544 6.000954527141277 25.05931939518733 0.8674507851331594 0.15053823590278625 0.023410152329575912 -3.08280086517334 5.090406709454438 4.592818436891459 16.504940390622888 0.7371196404860243 0.14643773436546326 0.03846927323668644 -3.0820295810699463 4.572946979736542 2.926387123435789 8.751064538993177 0.5291571720075202
ID_58921d231,0.17765840888023376 0.01461161590179372 -3.092217206954956 5.245314988343061 6.322475901329495 25.997093098152273 0.7940822065895858 0.17113423347473145 0.022849589574919935 -3.089057445526123 11.031827016294267 6.643284552498064 23.126383620262647 0.6774685373581212 0.16400229930877686 0.01081306082816456 -3.0789737701416016 10.275524198065284 5.539789636058782 16.719995615571175 0.8039423768530446
ID_f89d8e6cd,0.16487792134284973 -0.013052456522002006 -3.0879595279693604 -0.6865163779365779 9.758579731007456 51.93429203241737 0.6086765973119748 0.15761780738830566 0.00386302479317374 -3.093733310699463 2.893743392389997 8.701959312147277 46.474944660385 0.5866311226234525 0.15266534686088562 3.1142110636653175 -3.0941758155822754 17.551729666048256 10.570761344021859 54.242794061866505 0.5756423294133866 0.15737198293209076 0.018714281449795547 -3.0926074981689453 -3.7879018443360897 6.278300640176068 30.5899532935623 0.6592676804124258 0.16137337684631348 0.02254718280326051 -3.080631732940674 3.5489920394216408 6.6399328530499115 31.66595666636869 0.9091488044047169 0.15836337208747864 0.01709108204474122 -3.0792274475097656 3.292371742959257 4.432867724115142 18.84515717141642 0.7057877637656921
ID_9f9c04c6f,0.1525515466928482 3.111452018717457 -3.110917806625366 12.566869502873383 14.465061731754286 81.32863843770146 0.5391615289726096 0.15848049521446228 0.039643193224764235 -3.0889484882354736 -5.871403800241796 13.30963969234205 76.30464444993035 0.5140535945371364 0.15708690881729126 0.017854202590849418 -3.094177007675171 1.6810102081737508 14.153876867832402 78.96336824632756 0.5712213489468563 0.15543232858181 3.1024805268918465 -3.0938072204589844 3.9813900149962476 7.750427565770951 42.38518178627956 0.6681649506255478 0.14830033481121063 3.1264354895472968 -3.1049821376800537 56.67773481083816 55.04829895872485 301.5578212268181 0.6708682329507464 0.1462845355272293 0.02056963692412033 -3.0872812271118164 -5.4564906458605975 7.602804997187549 40.748524752623126 0.6462715787194064 0.1572946012020111 0.01830533260224523 -3.0873241424560547 -2.8953088983660984 9.216456115275662 48.97856722710626 0.690690477183908 0.17109978199005127 0.038873556210997404 -3.0842254161834717 2.0639173247443563 6.667033563988752 31.453972125882178 0.623734585520376 0.14676760137081146 3.112971696549698 -3.1239871978759766 9.079434430193864 4.900935151014352 23.589296638987594 0.6130735847654217 0.1706017255783081 3.1228316142326404 -3.121398448944092 10.35813500952336 5.877930754520214 26.911491155646566 0.6047436204100164
ID_0591a0910,0.14541980624198914 0.02893059783436467 -3.0964152812957764 -20.520010623616326 10.573975545345188 60.59944774144566 0.5771245060002357 0.1512993723154068 0.02090971379465359 -3.085845947265625 -21.418988398182073 14.067140024227458 82.06999323598171 0.6321776266261634 0.16124963760375977 0.014468327375534495 -3.0876870155334473 2.609337677704848 7.1970013560808725 32.29100432214753 0.5519397684442295 0.15284483134746552 0.003785033252247319 -3.092397689819336 -2.6034718239934174 4.313679973798997 17.32116490605967 0.8160805837705274 0.16235122084617615 0.016561489662879354 -3.0789363384246826 3.6631936664037164 4.396677224349121 15.793852508101518 0.8410479768029753 0.15578706562519073 -0.03169856849411144 -3.0860612392425537 -1.5858262776349379 1.8423530650278852 5.790397255097906 0.7215755183765418
ID_1a96a868e,0.1553724706172943 3.1274368558769057 -3.1105542182922363 -13.52618367323079 9.479950108749406 54.97389684958899 0.7827104989788668 0.14629480242729187 3.140893935556286 -3.114293098449707 -12.928453365310432 7.591577433617838 40.16986920949529 0.9525024809430014 0.14956316351890564 3.1316071689296803 -3.1217925548553467 -12.161955812584385 8.22124406699426 44.00614798072553 0.8950043143579093 0.15579372644424438 0.056224217890552486 -3.0959630012512207 -1.6422362873751586 6.930253774013791 36.87995086548822 0.5076311006929618 0.14616388082504272 -3.120774166508109 -3.1132712364196777 -8.831623972541127 4.233874214096772 20.75204104187778 0.6341637456463464 0.15375593304634094 3.1350855023835393 -3.10383939743042 -11.64605243417926 6.657293907098989 33.35097304441434 0.9578476902261283 0.1648717224597931 0.030962454038635203 -3.082764148712158 -2.837644067171683 5.811407888561315 25.921380212206095 0.5797215547906354 0.14497783780097961 3.1206789559290793 -3.096501350402832 -9.267886635408269 3.3904686570516387 14.801412959760798 0.8349340737411676 0.14915716648101807 0.03193621823956269 -3.0856523513793945 0.030195660747095492 3.2991751725142886 11.829014478448173 0.550473635172217
ID_f164fabf2,0.17157942056655884 0.01805038233203472 -3.0856289863586426 6.297532902300757 10.845194757020241 58.09116091967089 0.6182752696908759 0.1674545407295227 -0.008256158020281472 -3.087615966796875 1.785589620760294 7.559101077054082 37.468254864664615 0.5457065204893295 0.16989260911941528 0.057130509527578234 -3.065542221069336 5.365768633380674 7.942521098016468 38.626202565761055 0.6223496276392532 0.15114814043045044 0.07937722969211579 -3.073242664337158 -13.72054722256098 4.900998593236361 21.449252263322574 0.6691952323933709 0.17159399390220642 -0.020992698711265308 -3.093430757522583 -4.24816657025326 3.846371822748708 12.738019517052116 0.5733699357616583 0.1618567705154419 0.02906746637679347 -3.082845687866211 4.346883198085066 3.322075706661918 8.812065150192756 0.6240985153067146
ID_2749c3f78,0.1600027084350586 3.0610150179459437 -3.099353790283203 -13.228186238158385 13.449725617146505 78.80486977269366 0.5044380020543474 0.15365132689476013 3.0975490188078805 -3.1039438247680664 -10.266536157424026 17.47304499152876 101.53607041569505 0.5957922276198859 0.15664619207382202 0.005244239769753808 -3.0912396907806396 0.09039767573655227 6.647220310277032 35.38092106625611 0.7390492109164317 0.15639033913612366 0.023952934216304754 -3.0977654457092285 3.0286611844616202 11.76512241365302 63.266757239061725 0.5195181737671009 0.15630249679088593 -0.03905916482423571 -3.087252140045166 3.4252354097351136 10.799440741574532 57.60028686762316 0.6141708929648668 0.15997105836868286 3.127001822695646 -3.1064329147338867 -9.397738307990748 5.061275383260528 24.648796021973858 0.9305083595618375 0.15587079524993896 -0.004197971145604058 -3.0834498405456543 0.4370004387322652 5.323869421454286 23.559979786771983 0.950356483002211 0.15300416946411133 3.120916851700757 -3.1050028800964355 -10.176269963519045 3.637976606371065 15.531052649057372 0.5457598822108088 0.15212881565093994 0.01175827257074944 -3.0902812480926514 5.668666389416335 3.3520664230840422 11.519449151645617 0.9109352556568955
ID_1a5257d65,0.14211885631084442 -3.1337895661382484 -3.101341724395752 -24.94398435888782 9.54223855849813 60.73255683412885 0.8456727255167648 0.1441262662410736 3.127519253908404 -3.1042919158935547 -27.033459684008427 13.313373923337227 84.05559581841511 0.7383760684381346 0.14160877466201782 3.139158263184916 -3.1033613681793213 -25.485185781710854 9.628590858148455 55.863936200013235 0.7494803916707207 0.1536654233932495 -3.1272021973629034 -3.1095170974731445 -23.780582530754913 11.74320781538365 68.08369420207713 0.8580787499983538 0.1537589728832245 -3.1250271253017017 -3.109286069869995 -12.997103933275538 8.801137816307842 49.62078068584265 0.8050763061744424 0.1482437252998352 3.127662812807413 -3.1111323833465576 -11.384836211343465 11.902500689047459 68.19110810282115 0.6018613876218685 0.15915438532829285 0.02689878438907983 -3.1019372940063477 12.466564777686107 5.779630432220151 24.576131999527256 0.6680037718613933 0.1578250527381897 0.01858689565829661 -3.0664987564086914 13.268360249373359 5.449890985207638 20.606371979188566 0.7017930986479081
ID_e88770830,0.14471617341041565 3.1405105144713237 -3.104722023010254 -24.088544322486424 10.408343374757752 60.31804084781385 0.9324340992851267 0.15262487530708313 -3.1382514657267513 -3.1023924350738525 -22.473941725367805 13.98041844371527 81.67365700932298 0.9182982975369963 0.15205946564674377 3.120892360816759 -3.1015944480895996 -22.05422542956365 15.728231920130554 90.11334179882772 0.8087953201353685 0.16447097063064575 0.01916962396023647 -3.0953052043914795 0.1910794693552669 14.118103687793198 75.45135031582771 0.7425582530821668 0.15953944623470306 -0.07914436291553804 -3.0997705459594727 1.5105369961959074 15.853583931856974 83.90919576523797 0.5174531233971481 0.1593707650899887 0.037391188412682734 -3.085615634918213 4.932140405127629 15.164154768007878 79.78425919535044 0.5230277972118553 0.16071268916130066 0.030732759223527452 -3.0813076496124268 10.592991406574383 8.783142406367126 42.13631536400599 0.8247524404224564 0.16484332084655762 0.02978699487924768 -3.0778632164001465 11.6770218906058 7.992594110067563 36.08433141824315 0.9416188467101001 0.16605976223945618 0.022897432933338856 -3.0821540355682373 12.965664735000873 7.844339017841564 33.68611931804395 0.9270052763047052 0.1755795180797577 0.026312110864503618 -3.0757412910461426 12.877472149041525 7.143397625663943 28.85865883196073 0.7873082679513841 0.16472357511520386 0.0010368216207469977 -3.0978918075561523 11.868861813081864 5.329594016106414 21.45321851562803 0.8568291608349439 0.157705157995224 -0.010235756561276768 -3.076357841491699 12.972311223393264 5.008387346676723 17.982012033499316 0.6420304693627364
ID_5eb629235,0.15671168267726898 3.118118975243271 -3.107663869857788 0.8484505109396192 8.907184377787535 46.039438512431836 0.6382809239169576 0.15795078873634338 3.1225903080892627 -3.104978561401367 1.585822459210254 6.282482185335099 33.33493500992829 0.6374851892138605 0.1475450098514557 3.0887689287617874 -3.1172494888305664 5.8971387776388715 3.609522060500702 15.321367979090368 0.873329692901448
ID_3dc4de7a4,0.16170769929885864 3.1083939728812355 -3.110947608947754 -12.840608249743278 7.694710254432585 44.63397226966593 0.7647691432728931 0.15309062600135803 0.015313307600146913 -3.083091974258423 4.278567872077068 10.408884138546213 57.785467716488995 0.6190585744670795 0.1531708836555481 0.008313496418527954 -3.082157611846924 4.660554637266773 8.98230539581368 49.314139887193065 0.6952870344935136 0.15814299881458282 0.024831951286062144 -3.073899984359741 4.8266269343146515 7.429300744508355 37.79129280539842 0.8731729723786031 0.1637129783630371 0.02306864153802807 -3.073331594467163 4.792492036218545 5.734501721190233 26.034624829177254 0.7772741618969842 0.1587027758359909 0.016705615195998547 -3.0918869972229004 5.341182927935913 3.6738665016069154 11.973606050053494 0.9323419943063379
ID_298d74636,0.15488965809345245 3.1294792571651717 -3.115816593170166 -10.66688543378649 8.220944952742736 44.03941295779917 0.8939126091658137 0.15154919028282166 0.011847220422900404 -3.097835063934326 3.0254033845587833 12.168395519292122 65.197747060878 0.6498962763092363 0.16072946786880493 3.1363033938230966 -3.1048951148986816 -10.966014309855325 6.3660504628025665 31.393894553218544 0.9104723526679591 0.1597079038619995 3.1288421569950278 -3.12129282951355 -9.823006247573193 7.340667742402172 36.590213103220485 0.948415723397666 0.1553499400615692 0.009633767832298837 -3.093456268310547 -1.8327811694905816 6.712598460707312 32.731121403309274 0.8082263832367518 0.1627415418624878 0.027262894645441564 -3.1008687019348145 1.0707217055114073 7.067853441880095 31.748516703811394 0.5605406138637546 0.16623681783676147 0.052708303675487664 -3.0935797691345215 5.749665285552944 6.6953986883467485 30.453508608742613 0.5488031570773352 0.16580983996391296 -0.0007092977116348465 -3.0724377632141113 6.410493567898962 4.63176936426006 16.637855768234143 0.7598163285311661
ID_521f0b21f,0.14978234469890594 -3.1389186874554396 -3.1055827140808105 -17.531729795244978 6.048798728106386 32.125336339261 0.7961188129749419 0.15635579824447632 3.1230266382840433 -3.102351188659668 -17.322361641793663 7.856266127312742 42.47081281559552 0.7285585160074648 0.15552009642124176 3.1230883031254866 -3.103325366973877 -13.43843817342162 12.555479593600895 68.60730017423221 0.7911395585081243 0.15751095116138458 3.1221991440653882 -3.107438564300537 -11.742281684466214 14.233462865282492 78.04353258997169 0.7699324969674288 0.16253656148910522 0.028267539307764867 -3.088054656982422 -7.727937606938456 15.877557900812478 86.57677242462269 0.8012382857212514 0.1546226143836975 -3.1356636287532167 -3.1114351749420166 -8.666650933440811 5.749266516310714 27.190547178826435 0.9337707988843567 0.1619178205728531 -3.134568032417349 -3.116091728210449 -8.88896196251801 7.083291341010133 34.96125721735451 0.8548533755789975 0.16381511092185974 -0.0018907117737002328 -3.096311092376709 -2.213069689680877 7.890513793260825 38.23442717606601 0.7978184651343981 0.1675432026386261 -3.10901875465517 -3.115530014038086 -6.503025739412569 3.05876071983262 13.865086551236661 0.9788490866711023 0.1727708876132965 0.020446103226691135 -3.0842318534851074 4.90746495182643 8.224539145157342 37.83571828183242 0.7380926298944036 0.16769269108772278 0.02723282677460725 -3.086301326751709 5.434288952863131 7.704052476366561 34.49144059425488 0.9035967712140622 0.16700005531311035 0.030000797808397664 -3.080519914627075 17.373039847112086 10.211356092669863 46.424743225473605 0.5572902774311206 0.16774559020996094 0.022411407021550363 -3.0787787437438965 8.210273328224867 7.2821708170055865 31.260889768635998 0.9263943359421279 0.16639620065689087 0.02371227366916078 -3.090330123901367 8.629042134870815 6.811544539883657 27.9052765615983 0.8158397302341548 0.1598944067955017 -0.006722807064110144 -3.081536293029785 8.08687383214484 5.037116033557772 18.111769855050753 0.7029011444924224
ID_f83fe5925,0.15402907133102417 3.1106961819608046 -3.099881410598755 15.480030388508016 13.247658802913461 71.45439540395324 0.5465908184610765 0.1573665738105774 3.008504280530013 -3.1104836463928223 3.8531207019930376 6.770868394008043 35.776342887605146 0.8853250956644853 0.15253952145576477 3.139534657255905 -3.1012461185455322 6.545329371864498 6.7087868267017035 34.68120694164014 0.7326562184111033 0.14973148703575134 3.1213580164681343 -3.1045236587524414 8.421593496831477 4.2885876393924915 18.253228068383613 0.5837864373371594 0.16445225477218628 0.011485179327320422 -3.103928565979004 -5.689112953647794 2.1502501314000284 7.9413741827339415 0.6050941876468963 0.15340936183929443 3.1053366733133583 -3.1111245155334473 10.992306606596197 4.405765645617316 16.649422049553976 0.9031586452603633
ID_818a14ac7,0.14832821488380432 3.134432894256669 -3.0980873107910156 -29.51630721044509 6.967373844925012 42.956472390289534 0.9373533693179201 0.14547541737556458 3.1297156138770776 -3.098033905029297 -34.224128115915406 14.125869726554994 86.50291612021718 0.8113981080671204 0.1457611471414566 3.118306796334537 -3.088988780975342 -32.107651025290316 16.54056023476125 102.44133113362503 0.7800957575324164 0.14740276336669922 0.00418166157135058 -3.088801860809326 -1.7800440687445562 18.39994005904609 106.93714876058759 0.875761297854539 0.15885621309280396 0.02686855630497558 -3.0862841606140137 6.610032985387225 7.885269026098612 38.71452174815699 0.952818811173785 0.16361230611801147 0.02040152939080311 -3.083007335662842 9.752361596275115 8.117110299936488 39.46719612110114 0.8606569369276938 0.16242250800132751 -0.014847338696267797 -3.0861966609954834 13.78106473813202 6.152940416100001 26.40266276626255 0.6951900158126033
ID_124673c47,0.15048706531524658 3.118386194945659 -3.0962796211242676 -49.51428243102079 11.680546260283247 74.38032410425144 0.6910117811111106 0.15232940018177032 3.13116807730432 -3.1104769706726074 -35.76554712348817 10.684044319135682 67.23626996507977 0.5606819531879874 0.15038855373859406 3.1339492371082294 -3.1013107299804688 -36.87240980554591 11.67553230523681 73.3142257773687 0.7735454994808247 0.14558792114257812 0.013301469753161078 -3.095899820327759 -14.45825771417324 11.297725638754228 68.33614851463136 0.517713475679614 0.15559785068035126 0.05271427277162489 -3.0983047485351562 -11.611204266441657 10.140293836629159 57.57341395257013 0.6254107641808304 0.15234847366809845 -0.010220927485569738 -3.086740016937256 -8.761129400381117 16.217362989163416 94.53722208737209 0.6010193733379889 0.1607765555381775 0.029488810707672498 -3.0875017642974854 -6.057448201500826 3.390230927501416 15.3419628739713 0.6481856483028665
ID_35e87c9c8,0.1576218456029892 0.003923847479175167 -3.085893154144287 3.152908627143143 4.5002255226832055 13.582466860110495 0.8812556289169987 0.15332135558128357 0.019592899660671303 -3.1023590564727783 -2.25858433137606 3.36597807973348 9.331595899829342 0.5178805551983432
ID_fe4a3f32a,0.14987802505493164 0.007920470883643083 -3.096886157989502 2.413707520977703 13.235544897069902 73.02400977345262 0.558694911882389 0.15219341218471527 0.03274563476501908 -3.085536003112793 2.9025196927876795 6.306943252205795 30.04552989234373 0.8149236404473206 0.16631942987442017 0.05473457097761917 -3.07145619392395 8.000381194132757 10.505208488529028 52.15531001923578 0.6393973453670757 0.14877906441688538 0.019563155153211404 -3.085263967514038 7.035739084737943 7.613931200285046 36.949196566305716 0.6494956379208122 0.1549612581729889 -3.116870770676487 -3.116828441619873 -4.489702121958861 2.6732106814758154 11.363480985198803 0.6892208693983938 0.15930785238742828 -3.1382417526196864 -3.1189212799072266 -5.222030000630342 3.2268265456594576 13.149397024909499 0.8699517444078695 0.1642947494983673 0.022145505350547403 -3.0796313285827637 5.306799098286367 4.788889665662419 19.18481737377313 0.8963604638051371
ID_b4803dad5,0.16335898637771606 0.026639672755464028 -3.0782735347747803 1.9910766037377103 10.573269273007753 55.555635681197714 0.8333592952763039 0.15368667244911194 0.0024277996926376885 -3.089747667312622 -0.7038471122172936 5.379576426652658 23.840856244463176 0.8943686618577666 0.16281619668006897 0.024788666388894657 -3.078615665435791 8.085306686204575 4.227758431009798 15.967093408134394 0.8387330295071175 0.15947383642196655 0.0060656286049237 -3.0831985473632812 3.063562696529645 3.635994606923504 12.43156650134359 0.6498841925694755
ID_8edf7f1e2,0.1480202078819275 3.1407749540059275 -3.09818172454834 -29.93000924660912 12.377479104664387 72.7475630625636 0.5370511893432387 0.1573106199502945 0.036912206681908685 -3.0818276405334473 16.58334661936721 7.8653922486944285 33.70823264125033 0.7189025156186385 0.15455682575702667 0.006215248409555968 -3.0894880294799805 -2.2967569849019953 2.424105219241785 6.876714527645016 0.7949059960071851
ID_32f8110e0,0.15033607184886932 3.134381624515379 -3.0947508811950684 -24.69154422653431 15.273364295113355 95.63197021468466 0.945209865107283 0.15589535236358643 3.1315276275696964 -3.1038379669189453 -10278879.335675992 7638671.72520577 48407827.063775964 0.79920672001439 0.14714080095291138 3.1241583861590865 -3.1047534942626953 -269649458.45599645 215724162.625438 1360838453.9029388 0.6886059066209957 0.13587918877601624 0.0046852026077372514 -3.0941414833068848 -7.988337450335957 17.7205073803677 106.40406744348292 0.7103745249772906 0.1418408900499344 3.1377586758723113 -3.1006431579589844 -18.43440573905152 5.158078901485167 32.70076664140846 0.9245227055240774 0.13966797292232513 -3.1383056461262653 -3.1154870986938477 -21.855930061638205 7.361133396657256 45.84282781119072 0.5959368337111838 0.15103670954704285 3.1131378877351548 -3.096024990081787 -18.31326547416428 9.906162880512596 60.89916846982267 0.9698275942580336 0.13789579272270203 0.0028227893449388965 -3.0984034538269043 -11.370650421418771 18.550989351069525 110.43652483697777 0.7990745200625515 0.14328104257583618 -0.053961731849570184 -3.0880961418151855 -6.833299458021184 12.960844911713295 76.51117015017965 0.5219897606447811 0.15804028511047363 3.1276368885367147 -3.108203887939453 -13.296143348712725 6.169881074731734 34.97542142871595 0.8801342674044776 0.14562354981899261 -0.016986842346316266 -3.091270685195923 -2.2023016374100437 9.05893614179452 49.788487061243224 0.7645718281990894
ID_c441a81c5,0.15214930474758148 3.117794196963644 -3.1016204357147217 -7.433542500775922 17.62946844102729 103.50762950989176 0.8123409153909192 0.1489754021167755 0.019356474821609463 -3.086580514907837 1.2099111445468667 18.323776125937187 105.19297838982529 0.751196001290588 0.15801817178726196 -3.1415111757381537 -3.1226806640625 -10.751791931411342 8.224240168262094 44.05026469558538 0.9026298864832578
ID_6f1cbf7b8,0.1557495892047882 0.04145808397298371 -3.0919010639190674 -12.843510072608234 11.10199053441832 66.71724751111577 0.8167025471389011 0.15778163075447083 0.030307821967053464 -3.086240768432617 -10.22096217485218 12.68102599912631 75.60866269805183 0.7806601283519573 0.14980635046958923 0.04559818957231099 -3.0769906044006348 -8.765788264042893 14.086809831568052 83.76432039052112 0.6164792780454408 0.1349160522222519 0.0019183873861952359 -3.0905439853668213 -3.3268847551707696 20.20858539017856 118.42608665579264 0.6224787283239053 0.15801456570625305 -0.02619776886948196 -3.0886659622192383 -5.14942756851345 15.38395855289526 89.91197815033527 0.583925801969667
ID_5b0b480bb,0.1486060917377472 0.017967386599385356 -3.071150779724121 -11.208977753249231 4.117363173102812 17.91489341872511 0.7458898782486161
ID_2710bd411,0.1471787840127945 0.026556647523561138 -3.0852341651916504 -22.4812562398434 6.289636343739904 39.68319296840406 0.8285539513377126 0.1364147663116455 -0.0051972793124885975 -3.0989339351654053 -16.83524677013827 6.879087267045651 42.6215037249284 0.6844148123701785 0.14273545145988464 0.002387473737962241 -3.0859172344207764 -24.491902546173264 11.608812212975769 73.00644936978162 0.8448916152272014 0.14343151450157166 -0.014122774394360028 -3.079176664352417 -20.847484456265608 16.0007685423268 98.35079040776417 0.8484750618325131 0.14536823332309723 -0.02714133725893848 -3.104349136352539 -12.242146972205921 11.53283000850013 66.0390024099236 0.5319466857852594 0.14548835158348083 0.014270218019854682 -3.097771644592285 -0.8222760906320007 20.55283333708202 114.6273161464176 0.7854114314771172 0.14888831973075867 0.0296278465806528 -3.087615489959717 5.598640415577653 12.79891831684665 70.90852405059054 0.5918944212525781 0.15007147192955017 0.04443300566822866 -3.083017349243164 5.544536346949114 9.606412539745381 51.32458420008094 0.5505851873652352 0.15777328610420227 0.019415581822758148 -3.085308074951172 6.423415358951138 5.347322227986872 24.467392265832196 0.7885704119753806 0.15825048089027405 -0.052561814982053916 -3.096371650695801 9.718172996724924 6.00885457912477 27.210186268015843 0.5697494866479567
ID_e9e080023,0.1343061625957489 0.01304301036861483 -3.078681468963623 -24.045618778277827 11.741100251710183 74.25056690913539 0.9447184309570283 0.13204292953014374 -0.012476990660415906 -3.088156223297119 -22.90197704352015 13.260788516978641 82.08198095793296 0.9142742983628076 0.1327248215675354 -0.0068185464809592 -3.0966005325317383 -19.879858895775023 13.648654166041517 82.8939261747648 0.8632057152568899 0.13600444793701172 -0.016633544603990528 -3.0866916179656982 -18.644058699664942 16.91132104958641 101.63137698792599 0.7174108238226417 0.13962522149085999 0.0004238013865582068 -3.1024394035339355 -14.193034394869974 15.357590648483823 92.5887974963621 0.5686127883867155 0.14043590426445007 0.0006608291945206513 -3.08957576751709 -4.699514085364603 18.43300740639055 108.31316301460022 0.5610594881940585 0.14036118984222412 0.01131103703002427 -3.0903711318969727 -24.49851622854877 6.219663879959034 35.72188317779137 0.9007802303593498 0.15249943733215332 0.024016153786323633 -3.086383104324341 -11.640801606733524 5.4199811866914205 28.358486294781933 0.5812943165378962 0.14418570697307587 0.0021340879123379064 -3.085907459259033 4.8911196749650205 7.545528560908202 39.832291110735106 0.5616260399379699 0.15564817190170288 0.016673439533551205 -3.0777699947357178 5.7781061903895745 4.87185111129816 19.682228119696607 0.8777646457464513 0.15598630905151367 -0.0034164062107865014 -3.080512523651123 -2.049775847361866 2.56311636580101 9.685133397608936 0.8514937637081429 0.15323993563652039 0.033423584719257736 -3.0771713256835938 6.875046029867477 3.2767441775387773 10.17745286229627 0.5410338776947022
ID_04ea999fc,0.1566973626613617 0.017136446015444264 -3.087625503540039 -1.5241652305741513 6.686475568107054 34.01437710164087 0.5419941179034115 0.15099698305130005 3.126423568480493 -3.1105473041534424 4.845786948180001 6.717802736524738 35.44131253093542 0.5204570619455674 0.1523384302854538 3.0967040910794608 -3.1090540885925293 11.037474832037226 4.099224625159926 17.530101537735305 0.7430522881382112 0.14316442608833313 0.028456072238680817 -3.0916552543640137 -6.283615231897086 3.505436501855078 10.580067129293527 0.8081640619844269
ID_5510e0e03,0.15909963846206665 -3.138941604178519 -3.110578775405884 -12.78088986875337 6.831109036562537 37.870852495381456 0.9357930777694164 0.14948144555091858 3.132812436588791 -3.110849380493164 -9.65860858557832 7.936870679382726 45.70457549303443 0.8872552855680996 0.1532837450504303 3.126537741540827 -3.113591194152832 -11.142566833191601 12.532174587285287 71.59457813144415 0.9157467106792911 0.14811210334300995 -3.1347768914632876 -3.115054130554199 -6.8032607767628415 12.95534372333265 74.4698953705687 0.9124567127239402 0.14970934391021729 0.01840423669219069 -3.0863802433013916 1.4205729190860268 14.144402742421388 79.22613144692367 0.7184940589246192 0.149602472782135 -3.1299749432513955 -3.1166787147521973 -12.1318808528433 5.86156997213878 30.69407939914442 0.9686704257686399 0.15816572308540344 -0.02006499937649364 -3.077119827270508 3.389509875772864 10.016637718020379 52.54202495457859 0.7170277013720003 0.16231828927993774 -0.03712423112954519 -3.092430591583252 -0.8618853447658247 6.103941854223741 29.063038602761136 0.5358849351642515 0.15673647820949554 -0.12638416880527362 -3.0983874797821045 3.679323072311064 6.847379984931545 33.583086353881036 0.5241161390422822 0.16061750054359436 -3.1210589626726573 -3.1223371028900146 -14.346488270272737 4.580529437703356 21.420508379974322 0.8083180770901579
ID_d4d060b51,0.14610148966312408 -3.1415759627260376 -3.100700855255127 -26.03523936935584 10.891130412784324 68.45509074367259 0.845889763282484 0.15028998255729675 3.128136908542232 -3.1009531021118164 -26.799543355753794 12.185259696227957 77.33015445002358 0.8780830004898428 0.14488081634044647 3.115468722228284 -3.097536325454712 -27.768880020403845 13.655818845000969 86.49366162456248 0.6992861512781096 0.1468111276626587 3.1230702800065613 -3.091825008392334 -28.750327577623626 15.231770530824463 93.2910826031487 0.5025221332135866 0.15024498105049133 3.112649877589847 -3.1035494804382324 -25.49995909586196 14.758668839954487 91.5235772275405 0.8150101791163047 0.14266467094421387 -3.139611387387312 -3.104605197906494 -21.92132741855392 20.321357727279253 121.89124080710324 0.6005125391037728 0.1537548005580902 3.128972394193658 -3.09188175201416 -28.285358553335332 6.925146840300042 40.30974920167648 0.9116543670827512 0.15548449754714966 3.127471801040741 -3.1177144050598145 -13.00197886689377 10.691352188615221 61.672026135838294 0.8113198676134716 0.15046551823616028 0.01476232989376985 -3.0915181636810303 -4.205161685543235 12.246872484719521 70.93264189007 0.951013049753853 0.15104331076145172 -0.02463519324403295 -3.0973057746887207 -0.8449542182922218 12.469002604520089 69.78671561120049 0.6605500917265759 0.146275132894516 -0.02918669610622121 -3.100126028060913 -0.23272342025015674 11.872138197444679 67.13895942201947 0.7301669121705424 0.15879790484905243 0.03474159283650847 -3.0807271003723145 11.798655941394323 15.08819758895851 77.43045090679891 0.6146021765069887 0.15674251317977905 0.028371020330075162 -3.080747365951538 12.457430405581949 12.823200225865518 68.22288360844776 0.6618643425560906 0.16156065464019775 -0.0032349560698619766 -3.0823206901550293 12.62331413208986 11.859010983391473 61.8397168798077 0.8067880891873827 0.15701225399971008 -0.04476706178665004 -3.0794718265533447 14.101675466053921 12.730516493358213 64.80979322438009 0.5353396692372872 0.15661472082138062 -0.15815315689825266 -3.093895435333252 27.6546854979724 13.163837331595504 66.97743042755062 0.6337977308013836 0.1518632173538208 0.00309926718842681 -3.089512825012207 -0.45714579679311024 7.02699009770573 34.864171285356 0.9513072727973968 0.1606910079717636 0.01806490357006409 -3.078551769256592 12.461629572757415 11.257710002741282 53.47558580375246 0.8756985366870201 0.16768309473991394 0.014845508645118143 -3.0805232524871826 13.037821207987664 8.712681382929464 41.68055738842768 0.9047898567066209 0.15559755265712738 0.01169659998095779 -3.104722499847412 3.0602143187926543 6.136309983778441 27.254515578645915 0.8902141437683302 0.17129197716712952 0.03355759628108107 -3.0992558002471924 12.902637901663669 8.029896784905949 36.41578986760686 0.9839663390868486 0.15994475781917572 -0.021684472764950388 -3.0835371017456055 12.691109639511728 6.791491037236594 29.334820463679733 0.7530179407569629 0.1604480892419815 -0.005999107991241268 -3.085033416748047 12.039946854678277 5.673332236068533 23.011376521388243 0.8819339352620096 0.16229397058486938 0.003055985278293079 -3.0727994441986084 14.617983314506594 6.0034510792454245 21.622928977047685 0.7936373216379021
ID_c8a27d85f,0.15127915143966675 -3.1362156031517734 -3.1107053756713867 -10.131818583108595 6.0993703868810725 31.95513333307543 0.9651247712917763 0.15803277492523193 3.1108136300461875 -3.1134917736053467 -5.7556609989827585 6.423982232838503 33.76020933618879 0.6792565368338583 0.15272337198257446 0.020936551307056784 -3.0887625217437744 3.776653375364122 4.473066134123225 19.00494409312789 0.9161582512081828
ID_7ce563e3a,0.1537092924118042 0.021689534648519096 -3.08424711227417 -4.184890095149983 16.273196313716358 95.35031194285808 0.5930456789523846 0.1472504734992981 3.126318386724775 -3.1010379791259766 -31.196088082771272 8.74756369126202 51.40536876750201 0.5263174967147539 0.1445799171924591 -3.1316623543391877 -3.1075000762939453 -17.1680037233276 8.75774845484472 50.94695687297559 0.7130253242705158 0.1551184356212616 3.132964494315417 -3.100637435913086 -15.401372505341335 12.457661330735451 71.05771909592644 0.7237262800385191 0.14870361983776093 -0.0018525540903355827 -3.091435432434082 -1.7520124109899269 10.602714247752067 58.41732035515802 0.6783701155792017 0.15650567412376404 0.011121812579197136 -3.0921919345855713 3.662842140058818 13.148155808436288 73.90980151423257 0.6548588027920662 0.15390600264072418 -3.120831735178663 -3.108893871307373 -16.57436409812872 7.859730089405534 41.9400751591084 0.7523308132272107 0.15985508263111115 0.0275729463342273 -3.0886876583099365 6.090187747999966 8.68513810488655 44.17702027038381 0.885420995057998 0.1605866551399231 3.11625586826729 -3.1084914207458496 -11.14279567922604 4.747080057893221 21.998439729252084 0.6973569609477648 0.16092140972614288 0.009635404908278397 -3.087886333465576 3.9020976398741074 3.9060923575326685 13.30757439139165 0.9443466623990462
ID_b4bf2f347,0.13258227705955505 0.018260746775112534 -3.093456268310547 -22.383816296690366 8.290042728221184 52.03418280115461 0.6104369438071229 0.13355746865272522 0.005252703515917612 -3.09112811088562 -20.58707698863692 9.328965411678896 58.49313757649686 0.8586975836127582 0.14337779581546783 -0.0005158453731525373 -3.09387469291687 -4.1841692101730255 16.456639274226806 96.43785260502301 0.8072466304821753 0.1463768184185028 0.013700289464797292 -3.090486764907837 -5.020283678988129 8.295287936955706 47.95806114102874 0.9467922928420148 0.15369713306427002 0.03217899360408433 -3.0893476009368896 4.814742610058322 13.75637692217038 75.64054456006214 0.7493802293912817 0.15014183521270752 0.0032767622159986316 -3.087130069732666 -0.05565248427743092 7.826861160202613 41.60470675345076 0.8438227732446492 0.14700421690940857 -0.042776129160668884 -3.074186325073242 -2.735919036586125 2.3859185328725165 7.484260892548649 0.6187563102963383
ID_dc7d38630,0.15684275329113007 0.006472224280806638 -3.091235637664795 -4.8265279939677965 8.06507837799803 44.53815549656922 0.6957392089343426 0.16407924890518188 0.015378292783748141 -3.0888547897338867 1.988145665007539 10.40400033173188 58.02310651876832 0.8834890337420587 0.15990307927131653 0.03203691242482432 -3.0763306617736816 3.3628052228876455 5.91069639373368 31.234112006795147 0.6220428964928311 0.160662442445755 -0.04888449429731805 -3.0792438983917236 3.8308707642918955 4.5351066461517044 20.54526358846403 0.6008909274338545 0.15231037139892578 -0.008440643802750095 -3.1001603603363037 -4.224030542543732 2.4719348432393478 8.410768210917063 0.8615597327252937
ID_5428a3a8f,0.1579359769821167 0.02180622869296655 -3.087773323059082 9.592941580735658 11.25023945682171 60.227607795814485 0.6411679723428072 0.16538932919502258 0.03830948597779191 -3.085540771484375 14.091816117367213 12.283371820050712 61.19185210038236 0.6617124916158 0.16517087817192078 0.03248565223639199 -3.0790939331054688 12.998378833292326 8.644192973702669 39.39208090308881 0.7087209424511176 0.1583825796842575 0.0031997370448711483 -3.0874581336975098 -2.625430686870146 4.080110289044069 17.46689081196076 0.9075327173550773 0.16704940795898438 0.023958749500864105 -3.0845894813537598 12.566428552109338 6.553756620401711 26.308864355122154 0.7697750305575234 0.1580662727355957 0.020181139754286325 -3.0696141719818115 11.522835002720775 5.2222846023795375 18.756629526636196 0.7224093049874256
ID_beb50a6f0,0.16148319840431213 0.05021591337403309 -3.0998969078063965 -3.11627257882518 9.97705470440389 51.98881636498468 0.51138806038709 0.17091161012649536 -0.0026632026198686026 -3.095118522644043 -0.47211720900746035 4.424648151112997 16.80648773911424 0.609086242989354
ID_910d907cc,0.13548031449317932 -0.004377353647948449 -3.0719728469848633 -31.919280030658875 9.92087866061584 65.54716229442334 0.8860824017768425 0.1314569115638733 0.002601988439458414 -3.085922956466675 -40.78435016083031 158.2459374048478 947.0593951122239 0.7218039574800689 0.1435169279575348 0.02949575727663708 -3.0901272296905518 -7.6533989662778446 8.935163543103164 49.7676065655581 0.8754836261374027 0.1527765691280365 0.6702543596715448 -3.0963845252990723 -4.359701477488648 4.271715943926616 19.358728829141683 0.8137179527504024
ID_7973af9f9,0.1652023196220398 3.11948209580193 -3.1156349182128906 -4.754813015443202 11.411901983770097 61.13141487951888 0.7367737270846427 0.1574939638376236 0.03582448194210004 -3.098968744277954 6.4614497125326436 11.27507239581931 60.070672739702594 0.7993325275791661 0.1658414900302887 3.14098830001659 -3.111325740814209 -8.67207348345016 6.117425102687025 29.85609173776496 0.7023046195451743 0.15921877324581146 -3.108198669892708 -3.1092116832733154 -8.391184491366566 4.051560031800175 18.3866024017704 0.8748777223289522 0.15327534079551697 2.7127580359146504 -3.0934841632843018 4.322775559583018 6.129304287550093 27.173813869852275 0.838204873253996 0.16061067581176758 -3.141223738962555 -3.123964786529541 -3.630733748297863 4.334873447928851 18.491543829465982 0.7323296162820309 0.16007015109062195 0.023227906037256323 -3.0914602279663086 0.7852793570958103 3.8531864672498086 16.15539028756215 0.8968315245131785 0.15696533024311066 -0.0026415060691231187 -3.090353488922119 6.286379694296233 4.6145416796487195 18.520552557480045 0.8420812344208883 0.1667594611644745 -0.00014193854544764209 -3.084548234939575 6.9805963080395514 4.4908974802547466 14.644461870222127 0.8490772047176495
ID_f765cad92,0.1520138680934906 0.004966909304567403 -3.0991320610046387 -0.11617318749787682 22.679636099255347 130.71686544186002 0.5520121186437332
ID_ea4983b8e,0.16845303773880005 0.03233252599628543 -3.0739850997924805 5.448563238936567 13.364043105941676 71.90433264550155 0.5768497764920703 0.1613786518573761 0.020103702455224838 -3.075660228729248 5.669953674095754 12.164781987687261 62.150666112922465 0.7595427907348924 0.16801071166992188 0.017656389744494853 -3.0775041580200195 5.792144893875257 9.487674938070127 47.03784595368402 0.8189396127918166 0.16663628816604614 0.010778551859244895 -3.0696566104888916 5.933498195584734 8.320871040248571 38.16767334941602 0.8573725668687184 0.16480812430381775 0.010931510505182929 -3.076864004135132 5.375671903653317 6.733980847187796 28.88572216037489 0.9008424543106344 0.16505324840545654 0.011200907528553199 -3.094882011413574 5.202481117369696 4.933404064344267 18.725717067752626 0.5246363421362928 0.15327104926109314 0.007754307933968605 -3.0863237380981445 5.8400210730416156 3.8352042436874436 13.100412354777227 0.6701353322817093
ID_e3a9cccfb,0.15868481993675232 3.1373127912118335 -3.1156766414642334 -11.731710092815275 10.277929925296903 58.147513970117735 0.7078260283311557 0.16222023963928223 3.1373855050237625 -3.119109630584717 -9.674284879948619 10.161907865876808 57.513323691076835 0.8782673840338939 0.16641750931739807 3.1271615523843996 -3.112636089324951 -12.243305302877493 17.100286951876566 99.92142411164488 0.6739810160507615 0.15828651189804077 3.130316465616523 -3.127161741256714 -9.492193384670346 17.589844150369085 102.52508761380751 0.7485609060589128 0.1527620255947113 3.1198264187017344 -3.110774517059326 -10.512237149408666 8.097400602120189 41.77360005348047 0.9456587602704035 0.15851488709449768 3.1305996118384667 -3.112708806991577 -11.403786413326209 9.25341452039276 49.23974894499815 0.7640499041989756 0.1514742076396942 3.1264415200845486 -3.100890636444092 -9.180922417523002 4.003239836742937 19.464683532753476 0.9257951008731605 0.15684017539024353 -3.1318105015111883 -3.1106529235839844 -10.855194702896785 5.8396059708534365 28.617247939137442 0.8728922274492585 0.15808779001235962 0.014508853765147017 -3.0999531745910645 0.055545138695499 4.905905593495403 22.215239703690777 0.9438073689601894 0.14820131659507751 -3.1302850700983695 -3.1172618865966797 -11.32252443991701 4.143001257578236 18.085143658210455 0.9464847364147532
ID_fd8ff86ab,0.14437159895896912 -3.114679092743042 -3.0930802822113037 -17.22505383857709 4.4323459267979155 25.13623270762273 0.8708531470052376 0.15278074145317078 3.090687000117042 -3.0988011360168457 -10.23182335976328 4.441722460096941 23.197253048450484 0.6749033421686726 0.15365064144134521 -3.133530440924552 -3.098501682281494 -9.516989635374506 3.3661262028234704 16.444279253523135 0.6226921354628385 0.14965063333511353 3.140152105106233 -3.085400104522705 18.580065062527087 6.712060207710886 26.905873417891733 0.733707701516051
ID_822983735,0.16377156972885132 3.0989152505660114 -3.1082396507263184 -0.4555834868169487 7.302086829744432 36.22114802828168 0.9003806832645954 0.16138720512390137 3.104068755620026 -3.10666561126709 7.55900477216389 10.154448558034057 49.73109276028429 0.9369317734935309 0.16209954023361206 3.0951675878431546 -3.111114978790283 12.069050917660345 11.897819701872514 58.98685362421897 0.9201736907632188 0.16433116793632507 3.0962710974244954 -3.1041507720947266 17.21745219492755 14.22150005807641 69.48661528564027 0.6946808060015475 0.15247055888175964 -0.014540577649996276 -3.081713914871216 28.017225743940244 11.151291540342932 53.58643483443209 0.7775229837182008 0.1586238443851471 3.1135250270217725 -3.1017026901245117 -4.9177326341403464 3.3767308106132066 14.620278021185285 0.676668980212638
ID_70a367b7e,0.14243276417255402 0.008534177553761704 -3.06032133102417 -45.56742419597879 19.189348074613005 125.07988214495037 0.7210032323322961 0.12813928723335266 -0.03419473755786748 -3.086735725402832 -32.79525708156138 20.20399145102478 127.32320900782341 0.5190555470149152 0.14034783840179443 0.04060681462455024 -3.08436918258667 -25.849974097016986 9.939567853187045 62.66426465741422 0.5594878456106881 0.1462244838476181 -0.0017024660109467 -3.0887339115142822 -27.6363479242917 17.1449885856867 105.20558963654534 0.5634222911396579 0.14565730094909668 -0.0011851095521716488 -3.0829365253448486 -6.555552738556981 18.775592681289524 110.9066786864601 0.6976781883206175 0.1514342576265335 0.009221395622213966 -3.09063720703125 -5.50058669721488 10.665744171021407 62.37453788517788 0.94980304309535 0.1545926034450531 0.048240126949261705 -3.0853686332702637 -18.182818243827644 5.890578465410722 27.92498392868654 0.527905970575214 0.15614977478981018 -0.015606250555178156 -3.0985827445983887 -3.4791206975102305 3.3703516143888765 12.752214074165309 0.9479288708380238
ID_8ddd4a836,0.14571261405944824 0.02197340476679501 -3.0865328311920166 -27.482506170451337 6.346120777485893 39.27150368693657 0.6581248183531024 0.13680493831634521 -0.007551707402056946 -3.0765089988708496 -35.24937250687654 11.902297548959785 74.72782228774179 0.8651616380964899 0.14217352867126465 0.031175247192919055 -3.090876579284668 -22.245763925044336 11.87124164077549 69.16234783857878 0.5832022329993106 0.149505153298378 0.0042740835023032464 -3.090394973754883 -4.471997204333943 16.023488342797528 91.40357334023064 0.7091606530001807 0.1561545431613922 0.012243325681206651 -3.0935521125793457 -4.096411851607696 8.838101424006187 46.96336398957269 0.6617235054478584 0.15527144074440002 0.01568588264886815 -3.095566511154175 2.9971400762069504 16.970220226686386 89.97053783273982 0.705082470934897 0.15655314922332764 -0.003614901461334788 -3.097677230834961 4.9020545989120485 14.400066543816001 76.00429664494723 0.5232647068097672 0.15043193101882935 -0.0032646640967649724 -3.089202880859375 -4.304547841657597 4.445019464157287 21.333044241477417 0.7988093004830789
ID_69183a385,0.1719672977924347 0.0044602666082499305 -3.0863962173461914 1.271139853216593 6.353823302179928 26.127642203455324 0.6428603587871006 0.16070514917373657 3.12968580457326 -3.11800479888916 -9.43819871651896 4.3212554287669 16.75729383230335 0.8219670146928938
ID_8d2791fc9,
ID_84f2f637e,0.1440303921699524 2.8067224851206043 -3.091909408569336 -15.668958302189207 6.416459762306737 34.23447510689262 0.5787745206706812 0.15486574172973633 3.1235154185666585 -3.114161491394043 -8.878948888260647 6.883771890976416 36.75951506128644 0.699179840142133 0.158513605594635 3.1314633798851914 -3.1174769401550293 -10.092194725759136 8.741641444069936 46.91177040383393 0.6327884842050077 0.16697844862937927 3.1212933848100417 -3.105319023132324 -8.627611237757534 9.46334075697759 50.74842582581537 0.7573467546493312 0.16214123368263245 3.1232529815977177 -3.1111903190612793 -6.037517829262531 8.193179965047483 43.71859393752787 0.6324906692145417 0.1538718044757843 3.137646136264079 -3.1213998794555664 -3.5432362723419955 8.53545358193416 45.37062059281366 0.9157810072223675 0.14347773790359497 -0.009861478149528815 -3.0967533588409424 0.1087878912830944 9.366554021853092 48.23672472956065 0.5551085825987595 0.15925908088684082 -3.1365139022791593 -3.113719940185547 -10.242497341122773 5.943102761888735 29.08685042777275 0.8696067127673579 0.16365760564804077 3.139324921502938 -3.1064038276672363 -11.305684660827781 7.822715783752635 39.28731658331723 0.7919197751273224 0.17404884099960327 0.05314101953151306 -3.0731096267700195 5.421960377077231 10.04914997964135 48.16315178700539 0.6083425802487338 0.183998703956604 0.05610228153729444 -3.059985399246216 6.235256205559642 8.72703972089538 40.429144318911575 0.60126541858422 0.16918635368347168 0.01894337154325379 -3.069941997528076 5.640733028652585 6.212133494209465 28.373254736012864 0.7805948216945152 0.15912166237831116 0.021627979356049064 -3.078667640686035 5.338033579622637 5.0767093897189906 21.583002651897182 0.8944258188839558 0.16040581464767456 0.011636042127439274 -3.092054843902588 5.944058640464305 4.66974484794041 16.776686906852362 0.9562380187250703
ID_6188e27be,0.1487954556941986 -3.1395042743518524 -3.1099295616149902 -8.366302581981854 10.57939827445404 60.36610127266831 0.7691625755717029 0.15453511476516724 -0.017164289522852753 -3.094590902328491 6.043212860840444 10.920554399509252 57.58492659445418 0.8405469582118469 0.15868575870990753 3.1014568550291486 -3.0982131958007812 -10.494946274885118 5.418550704393206 26.542609930073787 0.7341087005966345 0.14779043197631836 -3.1368812469498777 -3.100574493408203 -8.104973378079098 3.146874344746161 14.384654164335593 0.6789520315861399 0.15437863767147064 0.012276786335655264 -3.082026481628418 0.3313784223770509 4.042592019544843 18.324208105769863 0.8885229581682109 0.1606089174747467 0.017571552639433337 -3.076889753341675 5.984313529598715 5.557087616312898 23.630896056857814 0.9031965030051207 0.15589508414268494 0.003923658335703845 -3.0815412998199463 5.238980993981093 4.086401308519354 15.453818440473537 0.8041530709652953
ID_dc5878537,0.15726934373378754 3.1084556995871053 -3.1072540283203125 -14.280095834775667 14.043058301134003 80.70694119652474 0.7830763039152961 0.14283570647239685 3.10898539449467 -3.105708599090576 -3.7883206045293374 20.434287298893945 119.17198584687216 0.6127650945562492 0.14944005012512207 -0.00016897436724280253 -3.099600315093994 5.070105028209254 17.68515259032854 100.17626901376862 0.5118952245705812 0.16070587933063507 0.011186264585881192 -3.0744409561157227 3.4072532252974326 13.384975492989785 71.90164239140306 0.6118923170918869 0.16161173582077026 -0.024047115460100625 -3.0806984901428223 3.1787084522359748 8.078791297689833 38.36774836419122 0.812220544836501 0.1571657955646515 0.000713545491846396 -3.08843731880188 -0.9774438616328274 4.991021401384209 21.294284873410618 0.8587428986320087 0.15282636880874634 -0.010996526279775619 -3.0801541805267334 4.234221621490317 4.883811506978731 19.54477727416089 0.8086282516720248 0.15461859107017517 0.028226915896854384 -3.075471878051758 3.500961456663512 3.2136016390271522 11.459535945398057 0.6191091975814128 0.16281896829605103 0.021224267295708657 -3.0789413452148438 7.499927671117051 3.4997977316643922 12.796650826958668 0.8087054865528596
ID_5d0c7468e,0.15654918551445007 3.131878004130928 -3.1000494956970215 -9.1161473504862 2.9979020497605373 13.595704734352172 0.8773165336465737 0.16181358695030212 -0.012354768126045648 -3.086489677429199 1.2367671137087983 2.966290204942619 11.262839642735425 0.5223047436004561
ID_f4161f129,0.14795584976673126 0.0012646160197697278 -3.1015501022338867 0.20766071371859068 24.290910418120816 136.55336834308252 0.7200350841451041 0.14667439460754395 0.0130613077229161 -3.1034913063049316 -1.1404885230766306 7.694639119633266 39.628502830248046 0.7020273797614184 0.16371849179267883 0.02200147912056388 -3.0845205783843994 2.0997220202309155 11.074964270299072 57.64831812122591 0.7213218856290234 0.16316553950309753 -0.005072526592014629 -3.0860252380371094 2.3499258091439983 10.260008023153171 52.78830538628595 0.6513037767562664
ID_bbf2e7374,0.14489439129829407 0.011135097159371868 -3.0941288471221924 -10.387368268366673 7.099866288401129 37.975127949622625 0.8069235234333128 0.15943436324596405 0.03946601674928851 -3.089212656021118 -10.302263620867759 12.643064097315811 68.37823236697275 0.6388480245163388 0.14964589476585388 0.008558775028760993 -3.08139967918396 9.893002485278213 6.735306937424645 30.561029911076794 0.6018990447087882 0.15735822916030884 -0.0016853441237072533 -3.0725507736206055 4.437578855599959 5.608543368572475 23.85148555043913 0.7402654058004874
ID_efdc95f06,0.13447198271751404 -0.033172616996556124 -3.071415424346924 -29.13497816048608 11.851854732112294 76.6891699611703 0.6926641445186714 0.1320471614599228 -0.007948348616635223 -3.0776784420013428 -27.744144189009756 18.301359532967666 114.51149434293444 0.895809282913087 0.13032186031341553 -0.02847294253559172 -3.104775905609131 -19.765449281034332 7.883198110772704 47.62155845281194 0.6515615488797689 0.1484152376651764 -0.014662042019615101 -3.083399534225464 -3.5912339070466 21.407625099675677 125.61607142842425 0.7929618300398924 0.13415572047233582 -0.014578594934193828 -3.0943443775177 0.16916002950951378 15.770453842533314 91.05060309046719 0.5775134635804431 0.1392330527305603 0.01590399742841848 -3.090176582336426 4.0368236444619106 21.607713290814175 124.49240873427617 0.5694558692996639 0.14832685887813568 -0.028708732145674522 -3.0860445499420166 -0.16431536853161577 13.539040088684366 75.7616135146421 0.7641227208011594 0.1595258116722107 0.008374279755357608 -3.086228847503662 -3.8007479727663296 6.8283137819103095 34.888263482774214 0.9139691200002865 0.1594056338071823 -0.003487578424280669 -3.0911662578582764 -3.6889996000090997 3.55764331370736 12.783165276071674 0.6815369144048063
ID_cf4f677c7,0.1414635181427002 3.1315766500143787 -3.106916666030884 -9.903783890891457 21.949647314077744 130.72006462820988 0.6378362706740482 0.1539246141910553 -3.135568695164469 -3.112239360809326 -8.486414592267602 15.778201818501717 90.3403223598215 0.8631730175290242 0.1572616994380951 -0.0047609103542243306 -3.091026544570923 -1.559168141614578 19.65103309273671 112.87274319726606 0.5451192907880412 0.14504288136959076 0.009215234494252416 -3.0972797870635986 1.7233001465426783 18.974283947710035 109.57436618227476 0.8916746031500855 0.16660094261169434 3.137640984604622 -3.1278815269470215 -6.82333177420669 7.745177617019902 39.94210355013428 0.7705465153771929 0.15835803747177124 -3.1223812716192594 -3.107083320617676 -5.647064482099022 8.65720425832171 46.14056359169977 0.8995552307039657 0.16126486659049988 3.1169683226054414 -3.125291347503662 -6.077371032989364 6.165995974060864 30.12248277667738 0.8225580490549027 0.16669315099716187 -3.1302847936566858 -3.121063470840454 -3.936617049266116 2.768468147284525 9.560350220930975 0.5453897072500691
ID_27a33218b,0.14489877223968506 3.117933572700108 -3.103793144226074 -37.23623876529119 8.625552058244164 54.04739215489934 0.5613798020576947 0.15167534351348877 3.108894071308976 -3.0985007286071777 -30.5453817213076 7.778767109737049 48.90162348750806 0.9516853663858174 0.14493581652641296 3.0877335764454448 -3.1022725105285645 -28.615764615801133 8.017047867383699 50.78707337383008 0.7953297390283525
ID_81d82a824,0.1591329276561737 0.01566333332011522 -3.084735155105591 -3.0727626755649817 9.518788754957798 49.39902722360972 0.580316988669212
ID_9f8495aa0,0.14606469869613647 0.016167349097948137 -3.0972700119018555 -7.30582418892788 17.6682002576737 102.28245177036646 0.6453565698199348 0.139839306473732 -0.00949585645278099 -3.094660758972168 -3.1167184138146418 12.308837473427227 69.03235922694799 0.7393775831553295 0.15696191787719727 0.016694106975565608 -3.08552622795105 -1.6745143313934954 16.316412021284645 92.76072393298654 0.7885546968351266 0.1512898951768875 -0.07542353946160264 -3.097954750061035 0.18189918765915644 17.90094237448789 103.15990418212662 0.6390470509236277 0.14923590421676636 0.011525791585967345 -3.0930209159851074 4.075723035981513 13.847978654160315 76.8432104033621 0.7918000828932324 0.15280479192733765 0.0066207699242352815 -3.0953903198242188 -2.2643638677514533 9.035123884713418 47.994499513763856 0.6653256952795994 0.15014146268367767 0.03430862568775708 -3.0812337398529053 10.81626415254462 12.139531970041874 63.254848117851054 0.6382715022196169 0.14999763667583466 0.017275029271977056 -3.0817055702209473 9.797157100691527 10.543636884787192 54.39349103815524 0.6973729036892077 0.15117397904396057 0.024190858428616468 -3.0747976303100586 9.470553307309888 8.460918196323181 41.13075281608061 0.8822176279346985 0.1533038467168808 -0.028527054936530974 -3.0911455154418945 -1.7138359703319834 5.101885685621114 23.1878399394656 0.5544863122435261 0.15980294346809387 0.007709478339218158 -3.083066940307617 10.022574526666286 6.276837304195591 25.257664918943814 0.9144813800549338 0.154962420463562 0.022736223085722426 -3.0760254859924316 11.102821719690276 5.620016724629544 21.285304737219132 0.6899777042232347
ID_a9a8c1292,0.15253126621246338 3.1343159097291227 -3.1178812980651855 -8.343994517819606 6.8698233059066105 39.29362057084372 0.7430762962599122 0.15768805146217346 3.1290748747716775 -3.1200320720672607 -9.18549617747961 8.55786596230195 49.18958761872711 0.5970294103569764 0.16304880380630493 3.1146227975463856 -3.1158151626586914 -10.414337366801616 10.855164646633293 62.97978372782142 0.7077315096872061 0.16208167374134064 3.127429937963466 -3.110507011413574 -11.543959170815334 13.089999556577915 75.04314143066948 0.5035601275677236 0.15972286462783813 3.1132523666212943 -3.106388807296753 -3.3522411096169225 8.221108098104592 43.02447448612796 0.9580019694903898 0.165828675031662 0.020736301045173884 -3.0683071613311768 4.000578044216357 7.463510775637079 35.3489926108065 0.8850704849041822 0.17729103565216064 0.013361425659143037 -3.0732336044311523 4.656072918639203 7.40474809944103 33.15542302764628 0.6790456150314649 0.17538520693778992 0.06956472565041392 -3.0665955543518066 4.664757891288953 5.862183486075608 25.028172135388623 0.6507788221446744 0.15867772698402405 0.0354353849304307 -3.0723979473114014 5.62566809725301 5.599190997726846 22.522444497178057 0.5937015226229145 0.1586850881576538 0.01165724241629759 -3.0908944606781006 4.278372155862746 3.4475357304139793 10.690793395081467 0.9376939864566108
ID_1411dc012,0.14839860796928406 0.04039856747037657 -3.0876450538635254 -1.5879362817007874 12.068726122396004 69.1998961282615 0.5121686805542157 0.15915945172309875 0.03070684995767832 -3.098428249359131 -8.770103479151803 5.5020811571014585 27.19331299659048 0.7387343525963127 0.1637948751449585 0.0679353971716801 -3.096167802810669 -13.113032092751078 6.147945594806292 28.754787055184114 0.6142321883470777
ID_b60f5638c,0.15056049823760986 -0.0037595945796609354 -3.087400436401367 -4.802365464623522 18.62290623043913 109.47035130792945 0.7596765079437744 0.14306142926216125 0.010384803847362638 -3.0976498126983643 -1.6107535927364494 20.696665894606745 120.80052777967501 0.5711115436574892 0.15023130178451538 0.008111253193151528 -3.0936203002929688 1.6426397017727692 16.669118785436147 95.93316652121466 0.7610606691182663 0.14063692092895508 -0.013966690164491216 -3.104067802429199 7.656729729602603 21.316521860362755 121.66946314942504 0.6035402031850554 0.14109358191490173 0.008415370643959547 -3.092705488204956 300.1624060474125 480.19078829622424 2754.065315920302 0.6165610872532772 0.14486518502235413 -0.0019994470291410287 -3.09346342086792 -1.3563800831099078 9.265868831773318 50.76266537545221 0.8053432881577023 0.15040573477745056 0.008083849381550977 -3.0864555835723877 0.5078355568697527 5.791549142592923 27.546356281925505 0.8092747568314902
ID_237729793,0.16161885857582092 3.124808724365923 -3.110713481903076 -10.72715932294558 9.491763640371536 50.04489086307261 0.9353509100605502 0.16597679257392883 3.1000611513764613 -3.120077610015869 -10.83749738665838 10.525090187062421 56.37525941340726 0.5231362990895451 0.15750032663345337 3.1319332080658278 -3.10982084274292 -11.23144147261757 15.123438256656216 83.1661007135503 0.772678456282285 0.15669776499271393 0.020663557890729163 -3.089822769165039 0.002786997262672802 11.193756759202248 60.52812134158394 0.673166921700705 0.15750640630722046 -0.03130141381933201 -3.09197735786438 0.9871404487609998 10.389350354689244 54.19811903955821 0.686308772383392 0.15110525488853455 0.02570674241757351 -3.0967936515808105 12.151240348777957 16.356347609779856 86.11149699429008 0.7066082690129224 0.1620090901851654 -3.1231424876849267 -3.1184535026550293 -4.239562196187598 6.715000315366915 31.285703001631745 0.8973030805908266 0.15212717652320862 0.00692073920889472 -3.0874273777008057 0.04847972567810942 4.5450144394233485 19.389432668721447 0.8112382491613165 0.15159521996974945 -3.139556492790041 -3.1079459190368652 -3.001934503009562 2.6532718603045407 8.598950505286396 0.8135004719012956 0.155181884765625 0.03414992984580485 -3.090014934539795 4.933737137038755 3.1504454392186 10.335997140458387 0.8083666825869377
ID_73b210da5,0.16900944709777832 0.03763972020780695 -3.0858230590820312 -6.51953228558628 5.464819077250996 23.91687716787331 0.7479256442110422 0.15996971726417542 0.006628831257700051 -3.0944101810455322 -6.949224820104964 5.05101693323915 20.76865551067132 0.6709602047975977 0.15713101625442505 0.006122983323176514 -3.102633476257324 -5.718752934655388 3.230642909301195 10.685746734345681 0.9150920826824986
ID_c6628179f,0.1575419008731842 -3.1316949732418773 -3.096010208129883 -17.792216376106484 5.672848367731719 29.981572730292896 0.8187186230322635 0.15704624354839325 3.138160509956596 -3.103025197982788 -13.066784888249536 5.774100124859867 30.648541450541202 0.8372356941213719 0.1474904716014862 0.01701916085395951 -3.0883803367614746 -1.720799676889304 11.279444404228158 60.28649221299188 0.5464578104466262 0.15682271122932434 0.008423192015084497 -3.0906243324279785 -2.1614517484554847 9.893667603874949 49.595408726180466 0.7011207842087751 0.1647050678730011 0.013345698755888782 -3.077915668487549 12.925167761110677 9.618771780238443 43.487553144660694 0.5492604526008934 0.16019456088542938 0.022003083468270297 -3.08724045753479 11.786829278179345 8.062100571836279 34.71000920323658 0.8592203263602196 0.15757453441619873 0.013306318755032309 -3.0844383239746094 11.227537417514158 5.6873387789808545 22.79468625786834 0.7849029416171333 0.15864765644073486 0.013037604199190998 -3.0962204933166504 11.428431819229912 5.307164280328946 19.099677205776 0.9569935593321648
ID_f188d7b12,0.1352318972349167 0.0035342363107913953 -3.093794584274292 -28.59598450992052 7.7224856108824556 47.79361918088506 0.8878512676437958 0.13761787116527557 -0.030742300794160606 -3.0762884616851807 -23.9077540121752 12.503153085746405 77.41856437567237 0.6499443891542774 0.13509202003479004 -0.0063321587552359095 -3.0923712253570557 -20.52294158756648 7.894293218886622 46.31702296693454 0.8176081791539354 0.1379014551639557 0.037067337898705185 -3.091829299926758 -5.9783328067217685 6.302506286086685 35.47331951297495 0.5083118691459637 0.15469636023044586 0.024196949791417944 -3.088841676712036 -7.370839200132929 12.31628954414106 70.06158144214234 0.9464088470036615 0.15731015801429749 -0.004145909053278715 -3.088362216949463 -1.389441261087025 9.361752629561918 48.659572270023084 0.8672960103604792 0.15221664309501648 0.004911698118428838 -3.100778102874756 -3.329293497510922 3.601825237304889 14.540474203416332 0.9540611868874901
ID_35ff1963d,0.17680388689041138 0.005800859061134923 -3.079922676086426 -2.858412393518559 3.629314609068965 12.480289684785083 0.5263296821805862 0.1548900604248047 3.1369419008350476 -3.1138625144958496 7.214295288396611 3.4295328809300947 11.743278801476805 0.8644189230237311
ID_9a18f5678,0.15497291088104248 3.129341260452972 -3.1123194694519043 -6.205030787295266 3.99660926823907 17.02495068314386 0.9006188098100159
ID_db699f0ba,0.14512383937835693 3.0864212558454964 -3.097968101501465 -42.071527505570835 10.59358950549362 67.01904966947149 0.5441344363516692 0.14733988046646118 3.130916351528688 -3.1042075157165527 -29.88065758371188 12.355094994273887 77.39262014672332 0.8776017503998478 0.15238724648952484 3.1096206508478375 -3.100008964538574 -20.21516427879609 16.507877409475327 101.01492713804853 0.8490007663655196 0.15006467700004578 0.02538406110903412 -3.092080593109131 -3.9047506227308553 9.05066636727824 50.85887224413023 0.6841503286097651 0.15251827239990234 0.08536709013323669 -3.0926942825317383 -6.170977138712336 6.438522077308057 34.08822081719637 0.8767096830402429 0.16562387347221375 -0.009012971789820192 -3.0947656631469727 -3.430385179826526 8.678700261710508 46.81239248082104 0.5315580193637088 0.15421387553215027 0.030327028744380452 -3.085921049118042 -0.6778774026140869 8.78584235910154 46.892409631865384 0.9610014437497528 0.15654566884040833 0.01924348587616251 -3.085151433944702 11.840452953177804 11.880342662369973 64.19559763992419 0.7774908071248884 0.157255619764328 0.014058148555275407 -3.089411973953247 11.831613688967547 9.895018868535113 51.75119374126257 0.8964317837827108 0.15808534622192383 -0.01041242176343293 -3.0883359909057617 -3.4795034599289236 6.850153325584037 33.36492921339711 0.8280939636888162
ID_fcfc2f0e3,0.16656726598739624 0.018832696547288967 -3.0891008377075195 2.360463080655825 13.058014214074738 69.99757797451768 0.7986135709959966 0.165749192237854 0.048454825279541106 -3.0855040550231934 5.224133230759483 15.285126160489211 82.02877055047051 0.5287745362708282 0.16440793871879578 0.03906267652585009 -3.0910484790802 5.599353462475423 14.101698994654301 73.65889250757579 0.6859628807559633
ID_66e5f439a,0.15376964211463928 3.138279777395147 -3.109318494796753 8.103395643127158 6.073120582909696 27.645194530522595 0.7841354205047908 0.15548104047775269 3.131809787837815 -3.1135029792785645 7.926795841314347 3.575804084568473 12.954492867032654 0.7853294649205025
ID_145aff094,0.15113306045532227 0.01868592604249233 -3.101144313812256 -7.4106860245332875 10.658544148175368 62.45248437699265 0.5259765490902513 0.1597743034362793 0.02529750797943638 -3.10349440574646 -10.474256596084949 7.582584768562354 40.60709024896955 0.7814796778073948 0.15466049313545227 0.0288761692321434 -3.089505672454834 -7.774265656620147 8.62219759535039 46.03961302729936 0.9021256300098495 0.15772005915641785 0.006586086143775422 -3.0907154083251953 -9.692320175320715 5.218874777401332 25.513106584585756 0.8034996155504748 0.15712599456310272 0.012096218535084226 -3.0975708961486816 -7.176397580652892 7.284849959623743 35.92494379801699 0.6927406937367873 0.1595563441514969 0.03767256701263594 -3.0911731719970703 -2.631774733162239 7.003870893467229 33.61238624489588 0.7250468906165655 0.1603541523218155 0.029990594906735595 -3.0904664993286133 8.047750631145398 6.7568736710959145 30.647928858962764 0.5117868075584969 0.14890626072883606 0.015721833906747272 -3.092160224914551 -4.715954385021574 3.5861133371358997 13.59735049892684 0.8550130873619537 0.1562500298023224 -0.014928441203091506 -3.074181079864502 7.364965466130722 3.596300508238209 10.209198296098437 0.5283826351835254
ID_5f80c94a6,0.1514798253774643 -3.14019694837712 -3.1135241985321045 -2.368758105202798 7.243246130048078 37.298026606736755 0.8624308075831608 0.16213756799697876 3.118745314756094 -3.1149091720581055 -0.6872910594071279 10.228747237896933 53.13118607731615 0.942553135181813 0.1576748490333557 -3.1184694737841077 -3.119480848312378 -5.5521545257251645 3.246103489239713 14.011498689864126 0.9370059739644901
ID_b0dd0220a,0.15200059115886688 3.1354063066477713 -3.1188864707946777 -9.401954229556972 17.348623384213465 99.49972588425224 0.8079138906922759 0.1489541232585907 0.028046917818075133 -3.0936193466186523 2.494661115711226 23.786841387835935 132.78476930972678 0.5788247603947508 0.1605169177055359 3.1265740814988745 -3.1225175857543945 -7.216461627348646 8.156547433246223 42.0793105551848 0.7340294484343076 0.15367528796195984 -3.1404825630737965 -3.1163578033447266 -6.440634677684682 9.862331004032404 52.761018379907775 0.7378944448483452 0.15837135910987854 3.1279879990642327 -3.115330934524536 -6.006423806239263 6.265544885034479 30.652968540060904 0.8885122059427949 0.15302929282188416 3.1299203163747773 -3.0998778343200684 -4.5858508609346655 3.1032725664433465 11.174412071739411 0.6208873634450267
ID_ed6b208cd,0.16505086421966553 3.1216406501812917 -3.0957233905792236 0.7063344252460796 10.53967300881049 55.96109043000238 0.5203513953453822 0.16050449013710022 0.012036419234956006 -3.0915579795837402 -3.302121596348681 3.360198428817102 11.465941369554091 0.5047806264939834
ID_92244eb19,0.1443360447883606 0.00435057552220214 -3.083407402038574 3.600772689463536 10.228234082303693 56.56281258100516 0.6200707101394318 0.14683085680007935 -3.139853260985983 -3.1014370918273926 376.9827572771766 289.8930237244587 1601.6974045377492 0.5635648604349273 0.15533354878425598 2.9711923786959322 -3.093381881713867 -13.346536760654978 6.132258146349489 30.52430971676923 0.8523464443183861 0.15657100081443787 0.017125033540346474 -3.086127758026123 -4.732877790512757 4.087952713361237 16.436004638704194 0.8171199648726223
ID_e825cd6ba,0.14078819751739502 0.022261074153431024 -3.0881755352020264 -31.16927226865789 8.180156548391393 51.232255949882024 0.8674366349496511 0.14927572011947632 -0.014862114779154044 -3.0917699337005615 -26.363039426332822 8.542725181572363 49.475151300465825 0.5228283286599226 0.15510304272174835 3.070017788104572 -3.103752613067627 -3.2289038899801876 6.279448329784451 30.881547552716473 0.8107191179767896 0.16341227293014526 2.9562382594911094 -3.0885024070739746 13.49418312761541 10.650954768532548 50.86586112205107 0.5544870636003049 0.16517996788024902 2.895159361683953 -3.08389949798584 20.309765672217384 12.435586750542885 62.07472209629455 0.6207187762071052 0.1651913821697235 3.1022802212297305 -3.0897624492645264 21.853983736657614 13.559065495548916 64.46814797557566 0.6096374308275548
ID_984c81491,0.17127132415771484 0.010277030242154265 -3.080678939819336 14.478936965760525 8.476203156350527 36.6566866597682 0.6344675534929207 0.1588350236415863 0.007380797626238743 -3.07932186126709 9.588278669976695 4.317957801611636 15.634559795449682 0.9205658460544913
ID_886b3e1ee,0.1534183919429779 -0.013772198689062687 -3.100405693054199 3.2131441030408814 12.091628347103846 67.66130945912624 0.8395835029845753 0.15198621153831482 -3.124454275675225 -3.096315860748291 13.70944624969975 7.990738376442438 40.51703512671655 0.5438375140621371 0.15728053450584412 3.1261591336174286 -3.107231855392456 -10.359828506621199 4.710944759910254 23.395376376060188 0.7758430097234393 0.16105203330516815 0.008568744665468078 -3.095345973968506 -0.4285233380567337 6.857006260842309 33.49389396346781 0.7770306095265125 0.151881143450737 3.0862801253667733 -3.098158836364746 9.564297230035399 7.533703166447999 35.84066300620481 0.7115779671288888 0.14929193258285522 -3.106001172372796 -3.1086723804473877 -10.347590032892723 3.4691830419091896 15.792521834412668 0.6677498772587089
ID_95e5e13ae,0.1368010938167572 -0.022016205474745587 -3.1000280380249023 -13.369226741312652 22.025640417353667 127.26663262584292 0.6333941386898224 0.14941973984241486 0.007355990908842732 -3.0876853466033936 -10.885152385210766 14.698208161480053 80.53974809862999 0.8485592702888854 0.15556302666664124 -0.006286023597993623 -3.090196132659912 -5.010891567424125 4.417666158840733 17.800395929128157 0.8872060435737783
ID_aa7aa518e,0.1553524136543274 -3.132102123388453 -3.1178250312805176 -5.03380694724846 8.519373414719903 47.95373092532731 0.8610874585704513 0.15578751266002655 3.129023757778382 -3.1087067127227783 -4.07188001468376 15.783660222309509 90.08553583048281 0.6501100565542356 0.14900517463684082 0.0019032214159523909 -3.090228796005249 5.521165539949307 12.612526052694216 70.24672175875043 0.7207549094110339 0.15313032269477844 0.058959485872562896 -3.097043037414551 -15.057766407133037 4.698616091480913 24.711869657066345 0.7844818333212423 0.1531495451927185 -3.1310201387726613 -3.1214330196380615 -5.650813775243009 6.402809275749478 34.11286617746686 0.6702529418220187 0.1459902822971344 -0.0018235551227298028 -3.0949654579162598 0.6298469939844884 6.656323740508879 35.36249707577722 0.6879640542691963 0.15277892351150513 2.4747254456823145 -3.0913267135620117 12.035732251994377 7.514649768527632 37.20154310691524 0.7726709299419579 0.15445297956466675 -3.1245020619335415 -3.1274681091308594 -4.836145566723488 4.137897107618355 18.7790334224947 0.9522942253843296 0.14855122566223145 0.026327780116381216 -3.094222068786621 -12.308956494012698 4.091840099155242 16.826307764876358 0.5959793633301607
ID_5ef969c1f,0.14250695705413818 0.02333497688488626 -3.096478223800659 -1.3555026025609003 16.563445329701672 94.18154965283826 0.5367209221179886 0.15929418802261353 0.14240714549686545 -3.097019672393799 7.9570718015342035 4.203152624588384 17.82806358590885 0.7810576339509748
ID_db9cc3657,0.1421942114830017 -0.01294445383217493 -3.0692973136901855 -28.922009814558468 13.047556425300346 82.75545150967393 0.8789374931403471 0.14082500338554382 -0.019537419224251985 -3.0814218521118164 -25.803712019749213 19.06586070537716 116.46559149942487 0.629027390027729 0.14365991950035095 0.0371709169980283 -3.083326816558838 -18.474805716188364 4.897175253513702 28.19750010969325 0.8747532260606941 0.14447344839572906 0.012113740892774264 -3.076115608215332 -22.011515380880013 8.241860568486139 45.62966525557979 0.8313660660904223 0.1372894048690796 -0.006862128197619552 -3.091813325881958 -17.469731644165314 10.975043475664135 62.524201411954664 0.8458316155304422 0.15946033596992493 0.030326662310450447 -3.086756467819214 -0.791020675798285 11.469394675242679 61.21107648726119 0.792901006754388 0.15866157412528992 0.03224933625853742 -3.0733730792999268 4.194464469764374 10.194373130813238 54.376795007881235 0.7453771120014322 0.14850164949893951 0.012045584726710247 -3.0844480991363525 -1.4973826241749653 6.818446286777388 32.62984388009075 0.955528130109823 0.15673139691352844 0.017189749407442164 -3.072932243347168 4.653723001247623 8.830935093660683 43.6137956184636 0.900327974600796 0.16249245405197144 0.0239476068825237 -3.0809247493743896 5.525839723359818 8.066647342801948 39.92986712783636 0.8889025937533264 0.15973275899887085 0.034736533315159884 -3.0702595710754395 5.090097517373091 6.553912420186654 29.189371755022258 0.6441556917738764 0.1576465666294098 -0.02491859618867376 -3.0876455307006836 -2.490979095282094 3.239527454447259 13.768175244360856 0.5960702221866937 0.1561150848865509 0.005407823073938092 -3.087754249572754 5.706025913428072 5.115802829342171 20.255858670283722 0.9149731565496011 0.16110998392105103 0.016522790908933577 -3.0897459983825684 5.716260632621158 3.696837359159118 11.992035806209987 0.5183784372177392
ID_826d8a694,0.15752868354320526 3.0927909277958463 -3.0988664627075195 10.038482129397126 7.629446362522424 38.00551838732575 0.8690151701720042 0.15013885498046875 -0.12491260691975466 -3.082267999649048 17.74704423633831 6.456054316197463 27.548895585703292 0.6210151455119287
ID_b61a1ab3a,0.14913204312324524 0.021931193770492522 -3.0971672534942627 -4.110841882372171 6.547853905538139 30.286131618049154 0.9236113611845844 0.15519362688064575 -3.139721564819224 -3.1038827896118164 -8.356415645967955 4.6616409892041455 20.313211618213053 0.6269794330821586 0.1475004255771637 3.141432066580229 -3.1098318099975586 -7.197656439152033 2.9216901833937525 11.699596047425189 0.5794281580154877 0.15722119808197021 0.002620258128289653 -3.089449644088745 -2.7282246592834825 3.1094996154183976 10.59678494933651 0.816253952956996
ID_9f4b166b8,0.14472952485084534 3.0887462074710914 -3.092231273651123 0.0007079100964952667 0.00020393920460811017 0.0013118823135314763 0.527209183710505 0.1366041600704193 3.122875062149822 -3.1068530082702637 -32.30943813445657 -9.871180785803958 -58.452589232805416 0.5348085362593256
ID_b11a8e209,0.13904717564582825 -3.1103322289366475 -3.097020149230957 -29.044140217365236 8.667732135723806 53.32935826033546 0.6457884316250037 0.14608338475227356 -3.1102136297401426 -3.108778476715088 -29.19825602653025 10.013176346984611 63.5804891586659 0.7716370708772663 0.14696305990219116 3.1341561203560326 -3.1112828254699707 -24.88336920754408 9.683103158968148 60.64036633005475 0.9142058586275565 0.1413535624742508 3.112214262608281 -3.1146295070648193 -20.366304955451966 9.365534421517944 57.707847781331154 0.5487644911521901 0.14450955390930176 -0.04740737543850874 -3.079525947570801 -4.367138286012386 17.15641268783956 100.64269990355945 0.7906025023187159 0.14814525842666626 -3.109671648646032 -3.0991454124450684 -28.54450203668919 7.584304277627384 44.49761606987794 0.910837353698939 0.1490316092967987 -3.1227892253599236 -3.104940891265869 -26.975643097672226 9.424444976133783 54.323504623964396 0.88831913368688 0.16412314772605896 0.038131983179429445 -3.0760059356689453 11.750638485607206 11.297170811263488 59.8840640086083 0.8693186052473716 0.16339561343193054 0.02894186535422912 -3.074554681777954 12.752492927351991 9.806377395287209 48.579242450328316 0.9417843600994437 0.15803372859954834 0.026954881204969975 -3.0848639011383057 11.57102314358852 7.6145264538382555 37.79744326560375 0.8404594484225877 0.16548696160316467 0.017228199453836072 -3.083779811859131 12.346168320757682 7.285046280577085 33.05282428376852 0.9512804849333228 0.1563994288444519 0.0057108731041744425 -3.0983712673187256 -3.72640907381063 2.6365291327646148 9.451304376155058 0.9269408004782438
ID_f72f7d1e9,0.1291305124759674 -0.021640609393142534 -3.0949535369873047 -24.7922891858955 11.686670988565044 73.45302134797149 0.8456592662562505 0.1432514786720276 -0.01832498633442431 -3.08127498626709 -24.42243500625498 13.3729702336344 83.38663191187818 0.5244727127335158 0.14560842514038086 0.005090046731550878 -3.0714268684387207 -22.961627220100763 15.85860699419175 98.31932187083189 0.6234935838999284 0.14766308665275574 0.011676574459133345 -3.0811564922332764 -17.984468721414267 5.349213728498351 31.045928861254353 0.9142489327417321 0.15023711323738098 -0.014551775014404002 -3.088979721069336 0.17293309844751653 12.310479746187713 68.1937218749334 0.685791109867108 0.15011125802993774 0.013804500360824345 -3.087775468826294 -6.378077691648859 6.7292767966161025 35.26527132025098 0.6799999991893768 0.15580911934375763 0.009852680213521228 -3.0911378860473633 -2.289135452370725 8.924319103040634 47.34630279272613 0.9293380123683952 0.16200387477874756 -0.009840868770202568 -3.089755058288574 0.36362901058028346 4.511405981096851 20.43300569061018 0.896261462017236
ID_cf563dbb0,0.15833380818367004 3.1412452179855115 -3.1205005645751953 -18.57342412535905 9.634730244694618 55.67306540645335 0.8674099840747242 0.15013359487056732 3.110247036145304 -3.110574722290039 -14.018463127617085 8.77804329967286 51.11232731670202 0.7345170359832536 0.14947807788848877 3.1039884664764976 -3.1014232635498047 -10.66404989185123 10.105998303051338 57.403800156223035 0.6641185300736883 0.15522059798240662 0.01730520186218797 -3.097512722015381 5.62498803851606 16.215969361602188 89.46951539250169 0.5952112523953423 0.14703534543514252 3.1314486647059514 -3.1118171215057373 -8.388583727817121 6.573519000560522 34.390047192609075 0.6568607729143656 0.16189031302928925 0.000981159066423953 -3.092426061630249 -3.7699212425671393 9.270770694929773 48.6838927957998 0.6021034554522571 0.15143074095249176 0.011275350023463814 -3.0890984535217285 -1.2544036904918217 7.688343853749732 40.27198563458652 0.9474748620982303 0.15837588906288147 0.037307170187765436 -3.0884828567504883 6.461982637410343 13.282292897875479 70.67439467640672 0.6797035287814702 0.15527033805847168 0.02389559316197724 -3.0922775268554688 -3.4091565044577017 5.845323148886246 27.84286408652708 0.7870536432521809 0.16839581727981567 -1.560033850744663 -3.0794296264648438 19.93036575752859 6.698339555248158 30.187392234824117 0.5514321076405807
ID_c0656f73a,0.17280319333076477 -1.513235072276146 -3.089646339416504 11.547479045562762 6.556531347841479 29.717534254625967 0.5243168046544557 0.1493213176727295 3.108966753089821 -3.1179823875427246 13.290445198057194 5.151975816338872 20.61057686808846 0.9272220668881357
ID_e53e450e9,0.15158939361572266 -3.1373876747169165 -3.1161160469055176 -7.00150067184757 21.060994484341407 122.58339442974452 0.5757873963728161 0.15485382080078125 3.1319418110041854 -3.10955810546875 -5.214562106888414 9.16226941343269 48.89568696854608 0.6334303206357554 0.1585162729024887 0.010322329969017949 -3.0981192588806152 -0.5715702118946967 8.244665209977589 43.19796812941544 0.9472082519029438 0.15502040088176727 0.01946209987538039 -3.088726043701172 1.7649795718114525 7.474781664633443 37.05026699992509 0.9574226948871986 0.15808013081550598 0.020351103590089552 -3.0956387519836426 17.96089338617685 10.602228343522317 52.34804105086262 0.8539836984210438 0.15849976241588593 0.029902990196821872 -3.087658166885376 4.482653413422396 7.006310072103491 31.32649447357936 0.9576306614869068 0.15414518117904663 -3.132990459441915 -3.1195449829101562 -4.08514620733157 4.525704461857621 19.302201271092663 0.8917329448885427 0.15345831215381622 -3.1294591481203087 -3.117513656616211 -4.661366913855228 2.9108968891035647 10.999086632808185 0.8575292109217668
ID_74c5f2bdc,0.1488903909921646 0.002085741423596321 -3.102450370788574 -5.260826275751213 13.108996999363718 69.88026286995692 0.824309207732704 0.15266144275665283 0.010403449170357097 -3.096912384033203 -2.877066579905889 12.178004345575149 65.34065018532769 0.8501911055709452 0.15794214606285095 0.026446176732673545 -3.0888521671295166 7.541509358935068 9.472328650392896 44.05694202419735 0.9466396931148394 0.16386336088180542 0.028651901093768254 -3.092819929122925 9.312606378211576 7.404697385280368 31.770485639607678 0.9728780289047303 0.1552078127861023 0.0017278033739022325 -3.0937323570251465 0.03524352231216241 3.6432374797366616 14.653331041372006 0.9526953449358359 0.17084503173828125 0.029253419383608453 -3.1038661003112793 9.963539659962622 5.469669417944642 20.88425380028395 0.9622822078213302 0.16600525379180908 -0.002187047766546497 -3.089517116546631 8.549963141581037 3.783648805738102 12.950143218076033 0.916259120608734
ID_f6a5de7f1,0.15895792841911316 0.03211385589675489 -3.082975149154663 8.360634659770763 4.637370258606929 17.556851344998034 0.8031772607393056
ID_d5b13d65d,0.15680113434791565 0.0739024250896016 -3.087162971496582 -22.36801193410596 11.173585265642927 69.94230938974692 0.771745863131803 0.1479547619819641 3.1159365878151584 -3.097348213195801 -27.189286078125033 -7.180330854292969 -44.21724396842194 0.6127827084493601 0.14944249391555786 0.029463970955664526 -3.0796070098876953 -3.164538296575564 2.8900710336986646 11.599157750642707 0.6335533414684307
ID_019cd6743,0.1545281857252121 3.104311687668896 -3.0950193405151367 1.169821582603779 0.6100592901268331 3.6312872514678767 0.5659975440806619 0.15429255366325378 3.1102987836224596 -3.098249912261963 31.782290243577496 14.73349996015733 79.63156217745626 0.6529789479759918 0.15560099482536316 0.03402851043846963 -3.0857200622558594 -5.112244198358197 8.983049521075536 47.91722904084222 0.529465761502367 0.16269269585609436 0.008447684063316386 -3.1037416458129883 -9.557642611583912 7.867894819845782 39.51418898585161 0.7843272150255842 0.15167558193206787 0.04318872933663402 -3.0775415897369385 0.8841645021639777 5.435110040579015 25.800224831003398 0.7234783088669692
ID_09b7b1a98,0.15053226053714752 3.096415307320745 -3.0979011058807373 -27.99339372906034 -6.947044830085742 -38.879112819979426 0.6869249950985009 0.14939118921756744 3.1207824000787534 -3.1037137508392334 19.659304785792216 8.18490739598716 41.28404845404132 0.8046694495998971 0.15871602296829224 -0.013545687211257018 -3.0763001441955566 -2.500666381603902 7.173247205583377 34.55704894705792 0.5682284296972262 0.16422417759895325 -0.024084786649590226 -3.0925211906433105 -6.234012682728457 4.759199786492524 19.570592986880715 0.5567136287296504
ID_2c0dadb64,0.15958958864212036 -3.12341264458179 -3.099061965942383 9.993868038866118 5.392883275199235 25.9705871343968 0.5255847489719009 0.15473394095897675 3.1275876029003973 -3.108346700668335 10.20073151635659 6.649154303262808 30.0903141498921 0.9182153146827844 0.15410557389259338 -0.021375681618390784 -3.0833640098571777 -2.36385878525586 3.3579361810931467 12.039273977311987 0.7567463995356649 0.1464368999004364 -0.019660372487655137 -3.0832741260528564 -2.4822996797639862 2.0824529479009004 6.270149060954684 0.6517201936341932
ID_d4cd0361c,0.16043877601623535 -0.004931236850035807 -3.084193229675293 -5.016966201710741 5.552760206950795 25.435016275439033 0.6215902405549566 0.15083138644695282 0.007191582806219255 -3.0987424850463867 -6.982108775144025 4.667147232537516 19.99690204035775 0.8250125010995129 0.17553043365478516 0.021604156330953556 -3.0840401649475098 -1.4614447146598106 5.608189914465562 24.072088983169444 0.6362740164085815 0.1646323800086975 -0.041534095031125505 -3.094388723373413 0.33637622649177085 4.355170104387098 18.61254677115629 0.5475149352299509
ID_2a810d9a7,0.14914138615131378 -0.007818429047897374 -3.0866641998291016 -3.046031187790065 11.07312294075299 62.15276446597859 0.8200278056572807 0.15738636255264282 -0.06051853045956623 -3.0887765884399414 -3.9391416213161206 9.791108449819085 52.276080950479674 0.5231734770022736 0.15339761972427368 0.014195218572172912 -3.0857200622558594 -0.7728740572751723 8.781928396480694 46.63366686220778 0.9070784942125865 0.16216301918029785 0.023043975386591933 -3.083080291748047 10.476699729283563 10.660332573866416 52.68769274590509 0.7876752037737688 0.16421747207641602 -0.14529642763613865 -3.0896315574645996 10.857118712794641 10.5539507625306 49.94846265650081 0.512525898996031 0.1486227810382843 -0.01692891429055265 -3.0780081748962402 -2.331973534075549 2.388351971093667 9.062219610340263 0.6650932763768903
ID_0a3e142a7,0.14375536143779755 0.027929840464257588 -3.076103687286377 -34.981097195437314 13.613356649911172 85.57389290066514 0.7904754796975227 0.1422487199306488 0.002328582408252093 -3.094728469848633 -25.227904294172344 7.164017152742799 41.11523165818761 0.8978677901348964 0.1312285214662552 0.005357694131185833 -3.0843276977539062 -23.34614174656693 7.915985584288777 46.289643336279305 0.9161977820115875 0.1466340571641922 0.008002623493285392 -3.0936172008514404 -14.042745074385472 15.895293280957167 93.44563490843406 0.744640390302472 0.15448203682899475 0.03607396755962537 -3.087218761444092 -9.482068628421695 17.67607827681787 103.32177313168576 0.7413597919853485 0.15520724654197693 0.013238560216479503 -3.092024803161621 -1.9243784605043708 9.493278865184605 50.11491414461329 0.8915387962377834 0.1599237322807312 0.010884224598960402 -3.091216564178467 9.644827675964015 16.46999429581167 87.03823099968926 0.7223512344062438 0.15991266071796417 0.03235226230751246 -3.0847420692443848 11.159659756939377 15.547224615671846 79.65573992988688 0.7206780962212503 0.14880448579788208 0.021634170502339536 -3.0840792655944824 15.558687332750676 8.100743603690724 39.81566562764287 0.7664215652180746 0.152593731880188 -0.007635631164651421 -3.0970590114593506 -3.214683954543053 3.5529929477469406 15.189291536848799 0.9311060527697714 0.15476708114147186 0.01914689551660305 -3.087233304977417 2.449096643220492 3.157555733260351 11.304804682768115 0.9047021622478073
ID_42df17b79,0.1553311049938202 3.0335984842435804 -3.098762035369873 -9.478815330217797 6.207019950700668 32.53514468673444 0.565883763500532 0.16185730695724487 -3.13533681079427 -3.109926462173462 -4.00833157442791 8.178459812468523 42.8758741462331 0.701846589530493 0.17200782895088196 0.013357481517980163 -3.083740711212158 4.762241989389627 9.793284840682443 52.03372548933638 0.7375388228281087 0.1602080762386322 -3.134307242311431 -3.1174139976501465 -4.130756649283902 6.148984089432356 29.95407416936468 0.8822103446441775 0.15783774852752686 0.023696795349691227 -3.0920886993408203 0.02458227981741814 7.423594323564739 36.24624544809705 0.9499751444796901 0.16301709413528442 0.02980454625818465 -3.0708088874816895 5.506501158233838 8.55517238381049 42.11779236797071 0.9097539139076392 0.15784525871276855 -3.118675372544504 -3.116558074951172 -7.346885157697865 3.618801302625129 15.635564911358701 0.6893432063825365 0.15937381982803345 -3.126598995726771 -3.119966983795166 -4.047300817700092 4.485367404525307 19.123382866418133 0.7422187098863591 0.15930023789405823 -0.0007099735440180242 -3.0906717777252197 5.873924559481624 5.952687595711213 25.325414538419018 0.749350105600861 0.16295108199119568 -3.1395910262998226 -3.114863872528076 -2.7671073769644434 2.681068398219213 9.119831025623366 0.6021433471769129 0.15797409415245056 0.03362148545382865 -3.085150957107544 3.255981837487905 4.021777401315091 13.176581707017634 0.7609822391154849
ID_e279a3c10,0.14508560299873352 0.029093553155790514 -3.0868377685546875 -22.50104100824525 10.51538608893504 66.17691825745106 0.6539567263730527 0.1395168900489807 -0.03191348970229131 -3.0826244354248047 -23.091041814541246 11.463141287490572 72.05206416281885 0.5578763026228993 0.13791656494140625 0.0008391020355654034 -3.0884008407592773 -20.323120057565088 14.788508066915183 90.86983826884072 0.9114269566290256 0.13249823451042175 0.009764430495441017 -3.1026973724365234 -17.23165273173873 17.1157438868046 102.57390012306814 0.7307936001825981 0.1384648084640503 -0.01788701381956446 -3.09749698638916 -14.812622933310994 16.848872148069958 100.710615809413 0.7553301934956629 0.15369832515716553 0.04126006310601395 -3.0966334342956543 -20.150247362601757 6.05177708227314 34.81654082779718 0.9247546790385164 0.14040711522102356 0.002174646338214594 -3.084282159805298 -15.722532395061018 10.598282516038186 61.88262747848621 0.8814358713879891 0.14906784892082214 0.00040149886038727366 -3.0991463661193848 -3.8231284207613014 26.56758248906581 150.1025393007254 0.6208828139022373 0.14793772995471954 0.0369221908158037 -3.0893146991729736 6.317635250651566 8.667622131958366 45.73164890645044 0.5991786675855121 0.14939865469932556 0.03176573715296206 -3.0768485069274902 7.970108435956477 8.844443483199438 41.97559847331569 0.9662348789951563 0.15722158551216125 0.025374803185531494 -3.089195728302002 2.473086618514831 5.7796777486824915 26.25387157434285 0.9337045666028926 0.15630179643630981 -0.001329502659631547 -3.085545063018799 -5.511186590033816 4.0265482361667475 17.281685504946275 0.7732244267102301
