ImageId,PredictionString
ID_18fb86d04,0.158905029296875 0.051062562646929946 -3.102077007293701 -24.010111566623404 13.731876015698678 86.06140538146556 0.8114292475706012
ID_ce06d4dc1,0.1607586294412613 0.12973982764588823 -3.1007657051086426 -23.82187966930821 20.291805267370954 124.1461864206389 0.9987341271771415 0.14823949337005615 0.06544509744174781 -3.094362735748291 -10.048702812032124 5.776522053222163 30.177901531425228 0.9992737980047536
ID_afe07078f,0.13603447377681732 -3.085290594907141 -3.098721981048584 -16.24720132015097 6.597644285342338 42.73050945530345 0.9900899471315974 0.13636696338653564 0.03864759137840069 -3.105375289916992 -13.860475171500427 16.716836332029548 101.85999250993746 0.932106186178605 0.12617851793766022 0.051525273148037454 -3.0973987579345703 -12.489419753519897 19.602440441843214 118.28580232297091 0.9451851900677622 0.1288888156414032 0.07772023021409498 -3.0971736907958984 -7.735216629675585 17.146527041796503 103.0790296582048 0.9309010589535984 0.11858455091714859 -3.0262854827784245 -3.0922467708587646 -15.41156921480462 4.438615606351075 28.103998897044065 0.8843580479110894 0.13337931036949158 -0.03686870311882907 -3.1038875579833984 5.343285923521354 9.934057520252109 57.09897634160054 0.9996688423073876 0.15342286229133606 -0.028865284167852567 -3.080308437347412 11.041439887842081 12.958079999139475 70.97753469818537 0.685710497507276 0.1532251238822937 -0.024671273107215744 -3.076282262802124 10.244556082708355 8.032188718616563 41.42827227231572 0.9989178059562848 0.14979243278503418 -0.0038041717316557215 -3.0843136310577393 8.646932300045927 5.862977530675248 29.73756405850329 0.8883600674979754 0.14148598909378052 0.04497135677112042 -3.0808517932891846 7.782103925100441 3.61797427903798 15.341356396703752 0.9995503929916241
ID_37caf75aa,0.15548579394817352 -0.077988976621658 -3.0861477851867676 -28.41783130798857 7.115386712021537 44.016815568176014 0.9999991482331304 0.1562381386756897 0.14030593624597365 -3.0995168685913086 -30.938743305010668 9.20533910397268 58.06062962042131 0.9692863893436142 0.14118829369544983 -0.007288535106941769 -3.095223903656006 -27.20440773853119 11.05581419950224 68.07939145896925 0.9999999987060677 0.16456222534179688 0.07227137044501619 -3.0710878372192383 -14.666487993811334 10.66560946020156 64.24553130003817 0.7895015388070162 0.13414114713668823 -0.019932204018206504 -3.077432870864868 -15.180544656841812 7.802703231603217 44.77089191904401 0.9930397354264525 0.16274718940258026 -0.03449970991022769 -3.10770320892334 -14.868317206828289 9.936966419885131 57.96824441609584 0.9999999999631699 0.15230123698711395 0.07547805469761035 -3.093994140625 -9.418951817186938 9.826104342955235 57.176998366075885 0.9999979734386812 0.14613018929958344 0.05499703076270414 -3.0878396034240723 -5.91981983281907 11.376720513072716 65.9047952386931 0.9995612849641992 0.15795713663101196 0.04597415179055915 -3.0960378646850586 -7.2663416674229175 4.340188950325524 19.87041521955114 0.9999990450897963 0.14315976202487946 -0.002656722988795783 -3.1025588512420654 7.007590934065013 3.891866287754723 10.367006044591676 0.582776364767942
ID_7655363ca,0.13707873225212097 -3.055772988625345 -3.1125335693359375 -20.712663135846892 7.360512763290716 42.46278218972487 0.9999996881122803 0.14990131556987762 -3.131670222246629 -3.1047308444976807 -25.17706382661287 10.097993826364277 58.9501703486933 0.9999999975693794 0.12845565378665924 1.7228894072701852 -3.089794397354126 20.847783201337407 6.565564888104975 29.5722014350687 0.9991187461882802 0.1546696126461029 1.9709642703897254 -3.093859910964966 8.176007726075156 5.056680913387677 20.244002342259655 0.9940506455991734
ID_ecb7edbb8,0.11824319511651993 -0.7227280100502153 -3.1118855476379395 9.381201729100123 6.60804973610019 33.76652896406661 0.9999951169858984 0.13851778209209442 -0.9967248772833538 -3.11549973487854 10.023742067734968 6.0677744849596715 29.56779003146864 0.9932426521463928
ID_e3b680bf6,0.12918871641159058 -0.019562046820219673 -3.071676254272461 -4.88604668855819 13.803970813786751 78.7475169742319 0.6182317083596439 0.12954407930374146 0.029144714297927483 -3.080562114715576 -2.8662126511157715 11.195533680011312 64.24951580294412 0.9999999943795324 0.14546579122543335 0.031038546169587688 -3.0936925411224365 -4.576281539798163 9.640241193827269 49.830960342670295 0.9999999451952094 0.1513197124004364 -0.0014471136615549253 -3.090946674346924 -0.6931465896979269 8.410547979514678 44.0626056039545 0.9999999996617228 0.15765777230262756 -0.00043883357944024727 -3.0942330360412598 7.468993177885961 14.801275730168587 78.06490074036614 0.9997940010471345 0.1645272672176361 -0.4906506835953544 -3.1085410118103027 10.331153898747498 9.782186328293397 48.30147653863007 0.999999747060663 0.14785319566726685 -0.016527959826104967 -3.0922117233276367 -3.3054947789987428 3.125793114333013 11.86037808659787 0.9997726327757117
ID_c51c8de2b,0.15855680406093597 -0.06113107785055358 -3.0797455310821533 3.580663459579665 14.148452060956584 78.3368052089426 0.7000788053171505 0.15314751863479614 3.1173723204016253 -3.104743719100952 17.73787996712389 10.279171928962153 54.90619342615139 0.9999898301482236 0.1502281278371811 3.108823541211193 -3.1103029251098633 16.884158593782026 8.921490160295313 47.73406084828081 0.9997838149046238 0.14563360810279846 -2.9097697816879915 -3.107128620147705 -37.44447963356078 -10.81630030784906 -59.36789622490337 0.9662924010489339 0.15054845809936523 0.06348342684892502 -3.103020191192627 -3.386252019150915 10.965132713328924 58.71467899199141 0.9452593921389048 0.15612035989761353 3.1389225791170814 -3.1142306327819824 14.232071896942072 11.18822243241381 56.94282680797604 0.690043400773236 0.1472145915031433 3.098425226411283 -3.1100611686706543 17.974743721773695 8.88072339083093 44.954947259895306 0.9996124908087768 0.1478271782398224 3.074899024164725 -3.114255905151367 93.60593534072072 40.57747040676292 209.6510061736796 0.9880409638507542 0.15032002329826355 3.1366407067119044 -3.1038084030151367 19.243282412101003 7.529335615380459 37.96955871835992 0.999998393137811 0.13881933689117432 0.03262508364056356 -3.102822780609131 3.7164427651886234 6.937219202554299 33.830055931449266 0.9863187930032872 0.14230012893676758 0.0007370510372727328 -3.092501163482666 0.05565330727853189 4.417424557008917 18.77643764022566 0.8428160302780913
ID_bbe2505b7,0.1617300808429718 2.310895536627324 -3.0943002700805664 -4.908321832314853 4.392995438361436 21.530129359606235 0.9995591023808841 0.1614711582660675 2.3359422732776554 -3.0977494716644287 0.061723951726289444 7.225203374566868 35.826712950449156 0.9999999959107537 0.1687575876712799 2.2750296192576918 -3.0863633155822754 2.526791524822223 6.562404533653996 31.302382126740323 0.9999973160171709 0.16091138124465942 2.121726842214265 -3.109795570373535 10.154084922686405 9.619594332317238 45.88589976666467 0.9999999937454191 0.16237275302410126 2.333895246887211 -3.0971803665161133 15.463430527687212 9.413814059916605 45.05316473572622 0.9998759393026788 0.13718253374099731 2.195571471862477 -3.0986645221710205 54.94924481847329 18.74587570572542 89.41386841379327 0.9775863165898631
ID_b2f337d86,0.13546931743621826 -3.1239837642871238 -3.0945229530334473 -19.428119753111737 6.367070083423024 34.4809346219845 0.6800183967798907 0.1516314446926117 0.09772044387197582 -3.1000986099243164 -4.224660460572682 9.847829574424185 49.2355242243421 0.9397196995951904 0.16762599349021912 -0.05404581130253801 -3.0863795280456543 3.9916383053119864 9.020286097706919 42.18919074578255 0.9993341463246094 0.17011281847953796 -0.04078636581509489 -3.0826001167297363 6.623656304461361 8.120856420721204 35.54055617871169 0.9998494958975425 0.16092929244041443 0.02613023334935565 -3.0746536254882812 -3.142664461935368 4.262368055187308 17.319773459655973 0.9999630534120517 0.1421639770269394 -0.011785448041401355 -3.0993666648864746 10.334517768226682 6.653082464024573 26.850131154094846 0.9809317779980867 0.14632941782474518 -0.06420931088498412 -3.0879716873168945 9.251125223504381 4.826347584471739 18.23733150961894 0.8765998479280557 0.16678929328918457 0.15340839794296804 -3.0806636810302734 7.281487860556988 5.367470940911334 19.69264172814828 0.9995260885504355 0.16698555648326874 -0.011481393507721925 -3.0706398487091064 11.360810290824974 5.086007229614927 16.815175702826465 0.9677990178959466
ID_99bc4d11b,0.15073667466640472 0.02749005685865017 -3.0876920223236084 -5.840583852998347 13.447943329846627 77.20934707527702 0.9112508648610966 0.15048804879188538 -0.11808211042120201 -3.0996882915496826 17.10638086130166 16.655414243191426 91.1692467637338 0.6483257416784616 0.1353752464056015 -0.03671212430641855 -3.0645604133605957 11.371293644392875 7.174949855227108 38.85798982793461 0.9988131649983504 0.15615279972553253 -0.0769738265824168 -3.0708510875701904 10.125072608931337 6.482141082384569 32.9323168553919 0.5454545158985249 0.14771811664104462 -0.07537255607819456 -3.0751442909240723 9.143022596434482 5.58371887945193 28.264531035148963 0.9997417011768266 0.15670311450958252 -0.05550580805518449 -3.080781936645508 7.986153791435856 4.1953947344323055 19.946905466394334 0.99984017130532 0.163889542222023 -0.11671326635398242 -3.08085298538208 2.467803332484733 4.932858234048957 22.348505258595715 0.9900300271224837 0.15284846723079681 -0.06952810893245205 -3.08842134475708 8.262405073623768 3.6444447934985784 14.895746348293752 0.9820454727676347
ID_9bd02b06b,0.13676093518733978 -3.0309694896262385 -3.095487117767334 -12.904880875206986 8.208525180849241 46.531495789032135 0.9999092976417272 0.14059367775917053 3.1202954854512726 -3.1066293716430664 -12.425640950353738 11.850580573118632 69.53394372055294 0.9984137901503397 0.1441870927810669 -3.1084222827332715 -3.1140928268432617 -13.82841361235088 6.96186066309335 36.1739036344473 0.9999999991289472 0.1403062641620636 0.1388009493384379 -3.089874744415283 -4.94768095568673 6.265699863448417 32.26215078944884 0.9999999891503216 0.13234859704971313 -3.0487857836048895 -3.10638165473938 -15.877194678869955 4.936634749204265 24.68532919887386 0.9999979651109269
ID_3eb110281,0.13184186816215515 3.1063382817952583 -3.1138224601745605 -11.516611774019212 16.360381245648632 95.61552912912013 0.9997694387692238 0.15468011796474457 3.030868378314258 -3.0838890075683594 0.11937766355353256 20.01699826947477 114.62207406758144 0.9972979706603923 0.08766927570104599 0.011928834539626232 -3.0873708724975586 6.103351798040152 13.835208846650247 76.53211474195952 0.9898710707151236 0.15916317701339722 3.1154439222840935 -3.1195006370544434 -5.048658426395149 10.092581227133557 53.26208482625023 0.9999958049028012 0.17699143290519714 3.023403029691223 -3.1073496341705322 -2.0952290877921302 12.927007891392098 68.9032734477567 0.9874954714998181 0.15816105902194977 -0.04225261775030933 -3.0970702171325684 1.6181982752521864 9.954735220468288 52.850681647043395 0.9999999999340534 0.15192189812660217 -0.3740276218998584 -3.093492031097412 8.389044246395807 15.307876576161398 79.47459815983541 0.7768165046170606 0.16312053799629211 0.057544663185512955 -3.0894083976745605 1.881821597605032 11.338768706590379 56.812679616446474 0.6323961398738066 0.15966740250587463 -0.1128736247671973 -3.0914344787597656 4.258795480394772 9.235718654808014 45.82862268326776 0.9999994211239536 0.16030828654766083 0.02301829865384361 -3.082747459411621 3.7977074361155174 4.008016567576787 13.66939991716039 0.9999999992322701
ID_223276b96,0.17609834671020508 -1.7917591429550377 -3.0970139503479004 -18.927357982453554 13.56645422554662 77.14051614640252 0.9453618942969818 0.1586962640285492 -3.114587908583767 -3.1048123836517334 -15.987112699434766 7.669579298618905 40.45851702959696 0.9971116881095117 0.15110433101654053 -1.7338558369095602 -3.0850465297698975 -1.6357155007701696 6.777180031646736 33.40710811364455 0.9971486957869493 0.16947701573371887 1.33118907375714 -3.096442699432373 4.882457182145654 6.384381651909441 31.011944525630668 0.9507285344572606 0.16512531042099 -1.3079574446017654 -3.0787830352783203 -1.2702350618381395 6.416544318180723 28.675775076100454 0.8954416299208259 0.14751647412776947 1.5082943152990247 -3.1006433963775635 14.74865013945445 8.45702280944128 38.325480962959034 0.997098436082886
ID_1f8605bdc,0.16472721099853516 -0.05746659616301411 -3.09013032913208 -5.177695871994502 2.789292636008485 13.002569687132345 0.9999999999944302 0.15808573365211487 -0.005617585698990429 -3.090360164642334 -4.9800307044795336 5.931838205368762 26.930310219859997 0.9999999091016474 0.15737906098365784 0.07479022676610152 -3.0957512855529785 -4.110763099526177 3.9687198208236816 15.07563498434376 0.9999658958539637
ID_089d5b041,0.1613660454750061 0.04598151889582341 -3.089179515838623 -9.88659171684954 5.067684185754168 23.232773711834753 0.9999999723215777 0.16493867337703705 0.022000506706960275 -3.0829243659973145 -10.558072769351533 3.6185681956629594 15.109144393938973 0.9999999664992043 0.15944929420948029 0.02700895559463375 -3.0989370346069336 -6.296120625497014 3.932158541765113 16.672301183359878 0.9999851249215592
ID_b4fc9fa2c,0.14473065733909607 -0.49960550204875814 -3.095046043395996 -2.653457487987678 15.893952236238217 92.63872906389896 0.9999999917515084 0.16700159013271332 3.128335270754954 -3.11222243309021 -10.800758158018963 13.935680687445286 81.19215030553998 0.995757645533294 0.1475675404071808 -0.05291293357870195 -3.08493709564209 2.1219000905509446 13.57713483230095 75.25277744174797 0.9999851299427301 0.14066168665885925 0.01736753976159782 -3.0962960720062256 2.3931134492301926 9.291531890648487 48.6910253715742 0.9999999999985474 0.13804537057876587 0.06667746549685574 -3.09121036529541 -0.4822994582184937 5.8564022183526365 28.107584859082326 0.9996923707268696 0.13567791879177094 -0.052426499714795266 -3.0839338302612305 2.374250078972986 5.176901278631847 25.14323736655832 0.9639132131915085
ID_0a2bb53de,0.17001567780971527 -3.115673912239726 -3.1191701889038086 -22.37145695792409 9.586343169311167 59.89631437284159 0.9999999688682638 0.15856832265853882 -3.117976962513831 -3.1292219161987305 -22.191073241489956 5.858019266205083 33.05909987227972 0.9962697756480852 0.13513782620429993 -3.1042330388189723 -3.099790573120117 -17.42543122368401 6.11623936858315 34.5357954502461 0.9999173606388247 0.1690063774585724 0.08996474493983712 -3.0794804096221924 -3.0090457369816015 22.516698630814716 127.3450343764626 0.9999784678964526 0.16385120153427124 0.008382862747302358 -3.08817195892334 -12.42535745090276 7.952202111514456 42.308536171948674 0.9999977353862858 0.1605023890733719 0.07668552105405006 -3.080484628677368 -8.041022609475526 7.083953234328914 37.07465673918123 0.999999907695036 0.1748017966747284 0.08248040868988651 -3.092759609222412 -8.595255092153998 8.755246982605676 46.84586219519195 0.9259535294124749 0.1503596007823944 0.07274925047903395 -3.0798747539520264 1.3278758174259913 8.883953619653546 47.15708504555719 0.9999998985351969 0.13934028148651123 -0.007613323876283716 -3.094747543334961 -6.837869242494704 5.803161683624677 28.228461742436657 0.9999999999246276 0.1672854870557785 0.02728199413706085 -3.098982810974121 -4.150668666468471 6.950354158315006 33.39518393910212 0.9999983450640105 0.16884931921958923 0.11295853793879651 -3.0825397968292236 3.281771336547368 8.597395569116062 40.87784598706262 0.9999999283475824 0.12286855280399323 0.005201534068596835 -3.0954079627990723 3.6014741228222173 5.662741075651583 25.716204895845383 0.9997503141530589 0.16338248550891876 0.04309323146605284 -3.0714993476867676 4.213438318410553 4.688703268797141 19.0821856260525 0.9999972335189478 0.14791405200958252 -0.011202219706777919 -3.100431203842163 5.122541317602692 4.384348230238303 15.80711828269707 0.9999525313593187 0.1551048457622528 0.03638272544596498 -3.074965000152588 4.72152333325467 3.167518908445409 9.049326991120651 0.6616427893478657
ID_58921d231,0.17685237526893616 0.007255290052233375 -3.0744547843933105 2.5571262079427024 3.049039140361523 12.327929609174992 0.9344948410096029 0.1595810353755951 0.03805517169670854 -3.07852840423584 -4.052543696538818 4.871990690967148 17.874675582527242 0.8403294648138918 0.17124727368354797 -0.086416173484693 -3.0858726501464844 9.222843356157801 5.739422071333117 19.9802512134197 0.7946937856001843
ID_f89d8e6cd,0.17129212617874146 0.09595031519749343 -3.0815932750701904 -5.024048739432618 10.426892713187163 54.68570549080135 0.999999740131738 0.1623767912387848 0.03524339769656302 -3.095212936401367 -0.6226093475248788 7.449590633891075 38.04173777938349 0.8216397344208758 0.1637059450149536 0.03549944677354781 -3.087655782699585 3.8991644978382567 7.221387791975959 35.64271639700545 0.9999999992479733 0.15743805468082428 0.03636373880838086 -3.078807830810547 3.494299780859999 4.8202308773463125 20.790554583114663 0.9999943836275477 0.1478072851896286 0.0016855611032561039 -3.086918354034424 -0.22563563602708941 4.3977295372438885 17.633949220216046 0.9995791103668955
ID_9f9c04c6f,0.1618461310863495 3.136507911848308 -3.100996255874634 13.067779887592364 16.717655294281403 93.88313490724097 0.7694113643168187 0.1456865817308426 -0.13175079668647707 -3.0908889770507812 -5.316916627809876 12.713353335892922 72.59051528237889 0.8960095430703897 0.14858540892601013 -0.03688698603396263 -3.0725297927856445 -4.461254538419228 19.636061896061914 113.65860571953388 0.7576212786375475 0.16332513093948364 0.015499464848565687 -3.0829219818115234 -3.018944635278378 17.28430390359748 100.58011125441206 0.9893517702178718 0.15356548130512238 3.123424727536251 -3.102576971054077 5.110091888597268 8.555616527971814 46.78872594310879 0.9535332240021944 0.14423778653144836 3.0365595156409526 -3.1008682250976562 13.1039479973204 12.987817255922105 70.63491346839166 0.9999983084096777 0.1473180055618286 0.057664475149804474 -3.0892999172210693 -7.292221648582294 9.208614479894061 49.64977261446469 0.9999334569992512 0.16093280911445618 0.004264722290331048 -3.0887482166290283 -4.0935626879897855 10.171408664603842 54.36344753144281 0.9982721038065561 0.1474810093641281 -0.011737630066450264 -3.0968451499938965 2.0785657061205924 6.676818785008945 32.938805439389014 0.9997868463818786 0.15314960479736328 -0.6571176572593707 -3.113816022872925 2.9522059070222095 4.296558542273757 20.983253419434796 0.9820418315598719 0.15646450221538544 3.122027877401651 -3.113945484161377 8.575199958567678 4.824690893316128 22.214479224356136 0.9993943908338746 0.15271420776844025 0.02658690189441736 -3.0937395095825195 2.7110130479791317 4.037801334376502 17.387691140216866 0.9999999630889085
ID_0591a0910,0.14248652756214142 -0.12845966584915486 -3.0708041191101074 -24.169912780635812 13.320250542015 76.46397640733666 0.8274358451103145 0.13704463839530945 0.05294439117296252 -3.080033779144287 -20.302984789388812 12.65873484011424 73.89421374531541 0.9987700489210899 0.1558540165424347 0.07429992995001251 -3.0998964309692383 -11.159965680418063 6.980111226099843 34.96378795179928 0.520076324410612 0.1690843254327774 -0.10084833736854353 -3.1066293716430664 -3.636343538466626 8.2648127505703 40.75365843088237 0.9978710534282678 0.15325456857681274 -0.019037301911693255 -3.0848498344421387 -12.56980120264683 4.4037563387742376 20.13601126869706 0.9986682906899226 0.1651320457458496 -0.12528916581665592 -3.087368965148926 -5.076461081633813 6.304252463324114 29.00965105910758 0.9953009586030879 0.1649332344532013 0.02444425076205642 -3.091134548187256 0.3937552907373878 7.124122816233637 32.50542691783587 0.9961859155763146 0.16947712004184723 -0.017265026984308793 -3.0963048934936523 1.7383500462766053 6.119403124803434 27.926130419221863 0.9999410415641565 0.15760238468647003 -0.01954283767053585 -3.096102714538574 -6.75879175196975 4.606896324015543 18.79047002353599 0.9986955132872019 0.1532789021730423 0.02899920242213666 -3.0888030529022217 -3.147496380727022 4.710425939570521 18.98896843198542 0.977352800517981 0.16563396155834198 0.05664972309170459 -3.087616443634033 4.5932024382783325 5.772601395637141 21.17885194591876 0.892141900795066 0.1709812581539154 -0.022132755396216217 -3.0820653438568115 -3.2530720750377347 3.5766707992781948 11.295915097236522 0.9915261384015513
ID_1a96a868e,0.1644694209098816 -3.1139697625812803 -3.1014459133148193 -6.632036532327762 8.544165626996852 49.25233148411512 0.976152475706805 0.14748945832252502 -3.1250094174980125 -3.11273455619812 -12.369464194187445 8.43108221892373 44.71275210384107 0.9999999999988081 0.1533876657485962 -1.9711812280701246 -3.1295971870422363 -0.4215395364977595 6.4517706810096564 33.73148348418852 0.999999958254433 0.1355477124452591 -3.013749528536514 -3.123993396759033 -9.750671527526928 4.721314616435286 22.94627819109805 0.9673936825571685 0.1413094699382782 -3.1082597168193886 -3.1096763610839844 -10.665815024941892 6.195411389620295 30.43516576293684 0.9999999993639579 0.15375296771526337 -1.0635111766169643 -3.109978437423706 3.789153133398936 7.104111164526599 35.08731983340952 0.9998395022480031 0.15851590037345886 -1.5358451701603832 -3.0910158157348633 11.32224966931925 7.897073030486576 38.040147567937 0.9999970874706169 0.11799931526184082 -1.6974655297793613 -3.099151611328125 16.54998793261062 7.459751466462062 35.84429457303594 0.8819146727131126 0.1599346399307251 0.09270345318264536 -3.0897083282470703 -2.614062284117593 5.357707567927503 24.39067646380972 0.9999997101184009 0.15203925967216492 3.1052136799204546 -3.107696056365967 -9.542980372320384 3.5833953769372675 15.277832746532672 0.9999611064443392 0.15423043072223663 0.1554985696491038 -3.0799620151519775 0.026971927215935283 3.0120857417455755 10.787403583553967 0.9999999850316554
ID_f164fabf2,0.14725768566131592 -3.137115224674762 -3.102780342102051 16.70967903094139 14.296198228338488 77.30110720108055 0.7868398473699488 0.14141613245010376 -1.8014451408905006 -3.0858569145202637 -12.836853144963618 9.023866204005556 47.91163757453339 0.779515776720879 0.14830400049686432 -0.012810811238111931 -3.0936999320983887 5.292225464773679 10.625705976484687 55.5030227744791 0.6333484448621161 0.15801244974136353 -1.2275093927071066 -3.0939717292785645 -12.954324932512565 6.794488217984589 34.123948991869376 0.880842074601827 0.158402219414711 -1.5590466620598002 -3.089211940765381 -11.371297368621033 6.366432857309713 31.6010090923137 0.9833962452534525 0.15831011533737183 -0.0539936325106888 -3.0932095050811768 1.8254733573051163 7.693061255982298 38.08720122216241 0.9999919063020819 0.15648558735847473 -0.005202145412150859 -3.09114670753479 4.184094881088817 6.06937631968145 30.032181364627323 0.999999998843244 0.1634618639945984 0.028777777919616374 -3.081214666366577 -5.388674962798612 6.760436577775632 29.57554845258709 0.8805886835654727 0.1483829915523529 0.013943912070978568 -3.084350109100342 -4.846418919068034 4.170696600598103 14.519169702362595 0.999964955730646 0.1593075394630432 3.121456491532799 -3.095735549926758 4.335322314331133 3.1252854698670203 8.286387547887525 0.9266337239188441
ID_2749c3f78,0.16102923452854156 3.0174796226476497 -3.097137451171875 -7.6349247116377565 17.777019739186535 102.41149575448499 0.9999999995931637 0.16840961575508118 -0.16167165021519003 -3.105811595916748 0.11086197948613966 14.294522628663008 79.55847707037469 0.9999998380036152 0.14392250776290894 -0.021193268316196733 -3.078587293624878 2.6274050274698775 10.346758337918663 56.77322603791128 0.9999996726868906 0.15678109228610992 0.00039827964450499633 -3.0952723026275635 0.08781148241636963 6.52942314766468 34.53793437214647 0.93091789781059 0.1368398368358612 0.09381250017872222 -3.107905387878418 5.367735280060013 10.752248723839571 56.323617800487355 0.8216179156139675 0.15413382649421692 -3.110457458991289 -3.1233773231506348 -9.311257976730214 4.984378130778982 24.30667728189207 0.999996522073661 0.14664241671562195 -0.013505988734977594 -3.0933499336242676 0.402706865849898 5.0095222890192534 22.93047915812148 0.999999974048422 0.15290866792201996 3.095204239701718 -3.1073014736175537 -9.499095435651194 3.3449459821375744 14.487201796447755 0.999709945072753 0.16744442284107208 -0.004577813858171203 -3.0845742225646973 6.36750029624511 3.6899696342786013 12.54722476009535 0.7728459063360318
ID_1a5257d65,0.14553876221179962 -3.0966241531610494 -3.1082921028137207 -27.853364549476396 13.8413263808967 87.56566968203049 0.9321728134024022 0.1457887887954712 -3.0277219759243272 -3.1094017028808594 -27.923230785878 10.429016783100003 60.57745649930547 0.9999995365549682 0.15485183894634247 -2.9288592523232637 -3.11037015914917 -27.743752133686346 11.516396293331564 66.97994902249883 0.9998975324139084 0.1494884043931961 3.1391354008720636 -3.105834484100342 -13.391103287867248 9.040458500421769 51.2477364364979 0.9999926798608768 0.17554748058319092 0.15412097866735275 -3.08524751663208 10.516880701182416 10.702306363548857 56.02953345514569 0.9999217710440318 0.1650952696800232 -0.009020580067442137 -3.088690996170044 13.054123619709408 7.636839233791774 36.845593000617725 0.999999957839778 0.17448759078979492 0.019265970992177913 -3.088320255279541 13.322213717048815 6.537206833974919 26.224455269728196 0.9999999961756814 0.1320454180240631 -0.052285779792939996 -3.094028949737549 13.788553005177763 5.3420843485083065 21.380065381549308 0.9858512453241052
ID_e88770830,0.14429041743278503 -3.139864870843334 -3.107654571533203 -23.356140221850623 10.14939592549538 59.1576542679188 0.9999630819062348 0.15563473105430603 3.034156512479136 -3.1201751232147217 -21.91408772408453 13.618224786090822 79.3521703326513 1.0 0.15656796097755432 3.0285307493499083 -3.1078357696533203 -23.74797423913234 16.637135674050057 96.01055056304456 0.9999999998420093 0.17159995436668396 3.0261979692626166 -3.102433681488037 -24.51169972993926 19.586839024649517 113.70070412057677 0.9999195192451925 0.16359475255012512 0.029309966363016905 -3.089134693145752 0.033363058034793606 13.836309668377426 74.31942830918328 0.9960388682010105 0.1683361530303955 0.014171014581875545 -3.0822529792785645 11.458655465415996 8.95161460189373 42.98085130780111 0.9994864325589053 0.1718791425228119 0.06290920353273083 -3.0698037147521973 12.262237333275552 8.343558617161063 37.29203610648557 0.9999999349770092 0.17415502667427063 0.07379288933628336 -3.0802061557769775 12.771104962853645 7.73377306433884 33.18063318732953 0.999999911484111 0.16115142405033112 0.047825957454760475 -3.088703155517578 13.763385866638487 7.539041823565649 30.737307857256166 0.8929809781785539 0.17385123670101166 -0.011561243880084273 -3.0848870277404785 13.853672764463639 6.275902650482435 25.103856408573886 0.9999999979033669 0.15480734407901764 -0.011299430167455118 -3.077211618423462 13.015114659151045 5.016063390506047 18.041345477129674 0.9999927178922067
ID_5eb629235,0.148418590426445 0.014071566330353832 -3.1012766361236572 -3.2381059308779676 7.947247357079814 42.2470153415014 0.9992365378047685 0.16311681270599365 -2.9887207136591525 -3.0987625122070312 0.12451141929607094 11.43594171521665 61.19866282673632 0.9701181248675411 0.14887261390686035 -3.0671400204263177 -3.1056604385375977 1.3521333733395209 5.757139902228239 30.543738940656795 0.999982289526888 0.1582617163658142 1.8340711619448067 -3.0925493240356445 -11.465855230859518 5.703473598060276 27.948174019215884 0.8367123319097388 0.1720627248287201 1.5360445301636447 -3.0802130699157715 -10.227456694324975 5.319235051153157 24.7490289022817 0.991902053667663 0.16773474216461182 -0.17902693752129456 -3.061709403991699 23.036666771539792 7.737859446972504 35.69052950249465 0.5350226953596969 0.15609821677207947 3.104851314433169 -3.106438159942627 5.229488577119821 3.203555416347037 13.586744666136628 0.9999835143906467
ID_3dc4de7a4,0.1518038809299469 -3.078111196353616 -3.116851806640625 -12.589802573862883 7.731966662113571 43.787585153449925 0.9968300893677188 0.13174429535865784 0.006371996538935833 -3.0654728412628174 4.00846535051686 8.546057716480282 43.41750469456837 0.9997861758686283 0.15180997550487518 0.0578250223023485 -3.071721076965332 4.493518061767866 6.93443569946192 36.595008114278926 0.9705904699223822 0.15287093818187714 0.0020291282992472765 -3.0902559757232666 4.520880905724492 6.2213713369367944 32.578002880622314 0.999177216661323 0.16179727017879486 -0.027713408785302002 -3.078587055206299 4.539688626801257 4.958094006010261 22.482568025624524 0.9999999992080599 0.16996891796588898 -0.012061696255640087 -3.0664947032928467 5.2990368198240745 3.6428644329925297 11.817063391232704 0.9773371061548367
ID_298d74636,0.16111700236797333 3.101793992806618 -3.1133532524108887 -10.737410464385977 8.215837365416915 43.56521915720017 0.9999999999936506 0.16948801279067993 -3.117704163333788 -3.1125831604003906 -9.907473024762519 5.7963271338050655 28.40206325057722 0.9571992301469003 0.1505311131477356 -3.1018855617219665 -3.122910976409912 -9.693881302668471 7.088842268499289 35.28343890249786 0.9999999451986555 0.1592419296503067 -0.013533048549573542 -3.1023082733154297 -1.9157074852998415 6.469104323699228 30.688566109786798 0.9999999957867933 0.10644298046827316 0.004981609789276328 -3.1100916862487793 1.507673735559864 6.4742788813460415 32.081940395009255 0.9971094406013628 0.17861619591712952 -0.039910659284166525 -3.0878117084503174 4.922692033105216 10.467228921146813 51.02715279495997 0.9999913840616703 0.14994995296001434 -3.1051218335831408 -3.115534782409668 -9.534096968976225 4.820697009579334 22.29274151682226 0.9984412176336288 0.14902547001838684 -0.4240655735800457 -3.0982871055603027 11.272985768035529 7.325910612596131 33.020775984336304 0.7922117666179944 0.14225339889526367 -3.0798428097087136 -3.112614393234253 -9.884295463630338 4.267250113911969 17.547634615460318 0.9910031594953377 0.13313888013362885 -0.021748469120591998 -3.1014657020568848 6.275840536433192 4.295661825165416 16.30527377131034 0.9999991774938566 0.15162451565265656 3.031121439859903 -3.096601963043213 -9.834980855396992 3.1962712691167297 11.726802706078033 0.9999066470617315
ID_521f0b21f,0.15525931119918823 -2.640092505440569 -3.072233200073242 -15.528553852393344 6.0379326467045775 30.933105008005953 0.760272203581209 0.13147535920143127 -2.9110827968811868 -3.074018955230713 -14.51055744225268 7.1720292292821535 38.18067740568008 0.954929550448668 0.15566149353981018 2.961179308222233 -3.0854663848876953 -15.553982240690269 7.948165206477018 42.32478827897508 0.9906648719179263 0.1671242117881775 -2.8681243383503863 -3.099107265472412 -11.901644697967113 10.447099460077592 55.957707793867215 0.9999938171900171 0.1706974357366562 -3.0573518517128644 -3.0981225967407227 -13.301913092889636 14.52808878559571 80.26406555287787 0.9730974651456762 0.1578429937362671 -3.013592086779403 -3.1121482849121094 -9.508119468208113 5.905121042895658 28.69868497146259 0.9999851276308633 0.1429951936006546 -2.934702238926183 -3.094271659851074 -8.577514572009576 7.000667267315471 34.20190012373749 0.5845378914135809 0.14843019843101501 0.018896532812847592 -3.0891170501708984 -2.828691341775194 7.829074176943786 39.094409225603634 0.5205036618607023 0.16796880960464478 -0.07320102050901114 -3.0860958099365234 2.9308532361618207 9.824492376934849 48.04912167138121 0.6025620535389443 0.15726172924041748 -0.03208154131746351 -3.072503089904785 5.414385424913828 11.416701235233965 56.216820766824924 0.8093204420028091 0.1581844985485077 -3.0769352316797285 -3.1099929809570312 -12.392362010469952 5.620424226031414 26.28793601176561 0.9999998335629094 0.1726263165473938 -0.006749868029238608 -3.0707223415374756 4.051314094776853 7.25577115215727 32.67410959391004 0.8370171337476366 0.16584141552448273 0.03323492275847241 -3.074151039123535 4.254617690189285 6.604563554066384 30.328019759348372 0.9997128829796328 0.18048745393753052 0.016483776939410506 -3.0690808296203613 7.062848660358885 6.640297769434847 27.967186118327422 0.9668584042297392 0.17335525155067444 0.013832803039750149 -3.0724573135375977 8.823460522868233 7.312324425819212 30.068815057095197 0.7413637886741381 0.16624897718429565 -0.032269447288465855 -3.077376365661621 9.809349934857119 7.13337035924424 27.661954146530995 0.9999471723500718 0.15817207098007202 -0.05446301599662833 -3.075754404067993 9.747804977469308 6.164390092169249 22.616297261516134 0.8494703770766759
ID_f83fe5925,0.1606179177761078 3.133174308264532 -3.089385747909546 20.71914487206112 18.886204448580525 103.30358433278866 0.777754459815293 0.15260560810565948 3.1169663160826255 -3.1014113426208496 20.157034916644857 16.821552723927457 91.23171079402553 0.990656294868826 0.16553716361522675 -3.107465243315617 -3.118873119354248 4.151004316428966 8.336442708986882 42.54775344850901 0.7443994336389893 0.15070822834968567 3.0440703708398993 -3.115222930908203 8.056016783480668 8.007764071243843 42.392417220205196 0.9999838934320374 0.13590046763420105 0.9462474776185166 -3.0984137058258057 -8.95076365385639 4.182354721425361 20.29287666085893 0.9968184011239087 0.1465570032596588 3.1010308307069328 -3.1011147499084473 9.675892317376684 5.100674803564196 21.690948307547053 0.9999919393862362 0.15124177932739258 0.040337958714321935 -3.08585786819458 -7.436379026420735 2.6748433859290555 10.16428694132404 0.9995189414844112 0.1564982831478119 -3.1414644349967578 -3.1023354530334473 8.267281958517115 3.2963935792588983 12.522605061558462 0.9999726235292427
ID_818a14ac7,0.15704233944416046 3.138496824408281 -3.095607042312622 -35.638425113084296 8.335070060820122 51.51420071240972 0.999999999988153 0.17846904695034027 0.7895424375317563 -3.083763599395752 -33.51527446657313 13.647716753884875 83.91503702044906 0.9999999978686023 0.14168857038021088 2.9323236697288197 -3.0838770866394043 -40.52515714958884 19.99575745387027 128.26303886507802 0.9973181828586135 0.17095932364463806 0.026265493685648563 -3.0986075401306152 -1.537060425779001 17.159745097178106 99.27910823705854 0.8427480914496742 0.14579471945762634 0.08665386354928545 -3.09879207611084 0.7749733799453645 26.375144828534143 152.77339091393088 0.9999969455730097 0.1607065200805664 -0.22572116617654045 -3.086623191833496 6.573051170490634 7.920266070215449 39.11013934940161 0.9999970777911485 0.14717860519886017 -0.0635030982140822 -3.087153911590576 8.788472340715348 7.341665443865581 34.95082046425623 0.9999967842680871 0.15666694939136505 0.08387047485111848 -3.0784354209899902 13.0167246354406 5.834055829002685 24.63950825846729 0.9999557876229557 0.1557733416557312 0.05964512073690332 -3.0806121826171875 2.183232768325001 4.962695827755587 19.925241172349224 0.9797402463316859
ID_124673c47,0.16793057322502136 2.764988665203534 -3.097067356109619 -45.23549194863281 10.777927890685138 67.99813775794581 0.999558024686817 0.16009685397148132 2.6635491487753464 3.0635247230529785 -42.45915265924938 12.41796154336487 79.26058008786748 0.9991414713249784 0.14152154326438904 2.9654707784583967 -3.1084189414978027 -39.415981527636205 12.41719881906229 77.80459667673443 0.9999997778580716 0.15928959846496582 -0.7776290408248472 -3.115685224533081 -12.862543617519062 11.095106601750619 64.67016846857162 0.9999994160154415 0.1715707778930664 -0.12705468308690143 -3.102297782897949 -9.368516192471205 18.448108543115985 107.55664367559613 0.9999985410732646
ID_35e87c9c8,0.17603106796741486 -0.10090754949657806 -3.0957565307617188 0.3994372883620474 4.731197976293901 18.030220361221353 0.9783514750797007 0.16148291528224945 0.03461771362753429 -3.100292682647705 -0.5215322815844528 3.894677047234245 13.466145844323236 0.8506166840861615 0.1404026448726654 -0.04793491233685788 -3.0964813232421875 3.187650767470334 4.348475760611286 13.733410810112527 0.9328396163772185 0.17656973004341125 -0.06218626832074371 -3.0706582069396973 -2.771876036620528 4.730323623570331 13.113919235554045 0.656064449202331
ID_fe4a3f32a,0.17011544108390808 -0.006952294375127728 -3.0644004344940186 2.907060355372957 7.579524588921694 37.39466976042403 0.9999923739409902 0.15824007987976074 0.05188343588606915 -3.092751979827881 3.4001491964057973 6.498501667808387 30.97346856708251 0.67070484927115 0.16730764508247375 -0.0002999721796946107 -3.0712454319000244 8.473389237659802 11.132423482695081 53.824344501262225 0.999999999997889 0.16834205389022827 -0.0002100010024564969 -3.090517520904541 7.377099935387572 8.241495264114178 39.8292209926562 0.999999907546497 0.14831304550170898 -3.1205294028863424 -3.12282657623291 -6.065796841033178 3.819512802875919 15.349003672626136 0.9999734867114304
ID_b4803dad5,0.15391266345977783 0.06041847706923963 -3.0751097202301025 1.7022188240648395 11.113175749776744 58.76096398564135 0.9999565822406852 0.1606048345565796 0.0020966411727217182 -3.0971155166625977 -0.7404968457974894 5.43170821628984 24.08973543872282 0.9994529992806686 0.1545664221048355 -0.029047630216501617 -3.0905888080596924 7.054494048135411 3.723109981740399 14.30162243332491 0.9837597802362774 0.14849020540714264 -0.015191334974261679 -3.091580629348755 3.2430666328770483 3.60581538633913 12.345418550565615 0.8934603519691602
ID_8edf7f1e2,0.16485708951950073 -0.002427711836905532 -3.077660083770752 15.098154376585525 7.207804173266387 30.690689231119386 0.9999999789591851
ID_32f8110e0,0.1425633281469345 -3.078181631500831 -3.0946831703186035 -24.854782788071144 15.363862767412861 96.21868531662078 0.9995175900704616 0.13289374113082886 3.1368816189128657 -3.078258991241455 -25.343865652766947 16.753224606158906 104.6050761766577 0.5613643618356114 0.16733188927173615 -3.1332563829554867 -3.100039482116699 -25.105938933510036 17.778939746170707 110.61504989289722 0.8851294482513979 0.13842840492725372 -2.930951847346314 -3.0905957221984863 -20.564780746698993 6.780526378952262 43.41394884345 0.8571574580966994 0.13974866271018982 -3.045993925738725 -3.1064281463623047 -14.131624355575605 5.972660703815435 36.591301704612476 0.9999863540876903 0.146646648645401 3.1296809048584655 -3.099855422973633 -18.266162637760477 9.788105317143572 60.20540855563853 0.9999998786845344 0.14840607345104218 0.026416466157989 -3.0772640705108643 -6.533985207809986 10.6102619087915 62.483974871632874 0.6272529895546168 0.16753965616226196 -1.794457181591521 -3.082676649093628 -26.704161495348966 6.373854886363853 37.340559490885994 0.845458259550807 0.15359745919704437 0.0478808677409741 -3.077451229095459 -2.576774917522688 7.749675959368554 43.951264132219684 0.9740597923647403 0.16125300526618958 0.007308381553833617 -3.0865516662597656 -2.5018215526245986 9.155006950510574 51.252813591865056 0.9897784444531633 0.1899835765361786 -1.6617095819909766 -3.090620279312134 -19.512107745171384 5.153266372350415 26.581200828062293 0.9610786007830667 0.1524348109960556 0.03965993684979828 -3.0903592109680176 -1.255400755919443 5.460681477870537 26.540064811742077 0.9997673302570041
ID_c441a81c5,0.1403602510690689 -3.0975584518209907 -3.106764793395996 -9.455512464737318 22.842956407065298 131.18619139747892 0.9999999999905931 0.15912586450576782 0.017578722461173393 -3.0914642810821533 2.2095443033929736 19.54249590638853 110.45480878086839 0.9999999837672873 0.15923017263412476 3.1236962636899013 -3.121248245239258 -10.053231859861004 7.773348222864919 40.410765245343065 0.9999999975764113 0.14802107214927673 3.1387499455326586 -3.099299430847168 -11.862240057824797 5.595754777559198 27.472361922299633 0.99792791550944
ID_6f1cbf7b8,0.1643889844417572 0.0528276223490744 -3.0657243728637695 -15.809512246426516 12.398960424364157 74.51955966684848 0.9971263736683516 0.1668631136417389 -0.0015003205072773725 -3.0898079872131348 -12.77985604323811 10.843365701513491 65.08857011798597 0.99999999999645 0.1508616805076599 0.05666931752669588 -3.092174530029297 -15.614029104190946 14.313566502298702 85.75540445483897 0.9999988588551166 0.17039719223976135 -0.08725831495991232 -3.084373950958252 -16.957019581081422 16.99311191220168 101.72015340068421 0.9281197402329908 0.16325631737709045 0.05645884788560443 -3.0692977905273438 -12.681617048638106 14.036040637691771 83.67931082360758 0.9918837829812702 0.16158494353294373 0.03232890813483987 -3.0857110023498535 -8.757462835182658 10.875601686297868 64.70123633754935 0.9999999999999973 0.17551429569721222 0.010690573846124237 -3.0765955448150635 -7.748406963746471 12.504690771036762 74.0848351349089 0.9999999994789521 0.16535459458827972 0.042334601111724546 -3.0999324321746826 -3.0600236771964178 18.287356267008743 106.9536451675592 0.9999997916655595 0.13507992029190063 0.07041190888743376 -3.0727949142456055 -14.452193688448595 5.333889911674393 30.640426278150677 0.9999679989396196 0.15294639766216278 0.01163841144100729 -3.0906410217285156 -8.248176708528076 4.834798171842382 27.247986197507153 0.9999999596457821 0.16048261523246765 -0.016287922468826002 -3.0816447734832764 -7.13301119841295 2.775832361025729 9.956684708618635 0.7565301744084654
ID_5b0b480bb,0.13878001272678375 -0.02466489456434386 -3.0887668132781982 -12.235064864617701 12.630734056000888 73.52626235218797 0.9385159093621064 0.13658903539180756 0.008327112389162878 -3.0724499225616455 -14.507655778456432 9.854442339510594 53.232777118685995 0.9688051969403644 0.15529406070709229 -0.016809488297507544 -3.0857691764831543 -9.912241369280213 6.046842394567899 29.635288140492225 0.9976754521548068 0.15079665184020996 -0.010925971406219573 -3.078883171081543 -13.446618694860476 5.0858769931423655 22.184534802562766 0.9999991480406021
ID_2710bd411,0.12912778556346893 -0.05634748910676627 -3.090362310409546 -24.811173290354738 11.923856288226732 73.20402274968356 0.9999063053157264 0.1552187204360962 0.1220785107518891 -3.098026990890503 -25.57210079934127 14.980356503741298 93.9745371254741 0.9945694238801338 0.16713130474090576 0.0017068706751856755 -3.10683536529541 -20.37550796157097 15.859904885320704 95.25279910298143 0.9999999998904716 0.12383927404880524 -0.06274473980594934 -3.088881015777588 -12.570258449099821 5.551918478932424 31.808012723958264 0.9910015012557245 0.14955948293209076 -0.0627715251721946 -3.077965497970581 -12.88164464143367 12.063713371789223 70.37453562947069 0.9958905583709508 0.14274480938911438 0.06609033097188806 -3.104400157928467 -1.512634426762953 20.564151627994796 115.14463677890342 0.9995365047900174 0.1412278115749359 0.04123533603872403 -3.0794479846954346 6.053630853840931 13.955500721950028 76.52244865419749 0.9999973860133313 0.14425185322761536 -0.026323818375817393 -3.0819549560546875 5.16079857042948 12.48022626755239 65.38002219449207 0.8877730912519057 0.12491083890199661 -0.015728315670472854 -3.065062999725342 6.079779809775265 8.882932151663875 42.40577827336521 0.9999077606804432 0.14516139030456543 0.03933133550188865 -3.088709592819214 6.481264269355351 6.605851943859137 31.50024547692846 0.9747192387794641 0.1540682166814804 -0.03352355356796695 -3.0862388610839844 9.611772892924119 6.264096435683232 28.417730331456433 0.9364440593824984 0.16364872455596924 -0.0490798932960815 -3.093498468399048 8.948272839484504 5.594000024982751 25.369006395365254 0.7913071568440962 0.17711682617664337 0.016501045163250423 -3.073556900024414 7.038451950032562 6.282935291561875 26.468314076593856 0.9972762416085067 0.15490880608558655 -0.005059051957062811 -3.0946044921875 -3.162596374732025 3.68826551815482 14.78445231916426 0.9999145965887145
ID_e9e080023,0.10703013092279434 -0.03068645079789641 -3.089555025100708 -22.67381680454221 11.364065219137368 70.93909615699368 0.9295925154830819 0.1313510537147522 0.003953576050983216 -3.103776454925537 -27.556846313946206 15.846677734615385 99.4486632132099 0.9999999934620494 0.13224291801452637 -0.06961139610372945 -3.075052261352539 -16.960110758948876 18.29469479060418 110.9465709282987 0.6674520674575815 0.13481172919273376 0.02397013822583501 -3.0941929817199707 -22.876770466765826 5.777275412114655 33.357176184689465 0.9999994014666699 0.14012159407138824 0.21202064984234664 -3.070059299468994 6.407092717836562 12.110413674321913 63.40439226714607 0.9999751041682402 0.15197086334228516 0.017412728831154717 -3.090712547302246 6.018205869702737 8.976901720597168 48.23343184233172 0.9776238475293103 0.14150868356227875 2.943585390071929 -3.102324962615967 10.395871669702322 6.03091567757783 26.233810617118017 0.999819777068215 0.1752549409866333 -0.07494870294540742 -3.076507568359375 5.721736163917235 4.931842724449405 19.751395285152036 0.9994468990820956 0.15763434767723083 0.07329406634375159 -3.092750310897827 4.686149551945569 2.2439128042931293 6.937126815353822 0.8651776772542304
ID_04ea999fc,0.1516842395067215 -3.1291923137052198 -3.109955072402954 97.81302526052795 92.82922759137257 516.2262915275256 0.7111724680395632 0.1376717984676361 -3.136617455382053 -3.1021218299865723 179.21947528956613 139.27327543902067 768.7413320207781 0.9347743439727642 0.15535326302051544 -0.006780405268099529 -3.096235752105713 -6.155700265306415 8.693946833004725 46.20773504612939 0.9999683298582047 0.14676418900489807 -0.8877063527435525 -3.104417085647583 -1.090947171871735 7.22648594812514 37.8649235808947 0.9528828208793593 0.15426991879940033 -3.1266069042163864 -3.1204044818878174 4.639761187046252 7.147035205507135 37.71463642952936 0.9999400021499202 0.14674720168113708 3.1270951849354236 -3.117215871810913 10.02583823515823 7.0685755095989755 36.19672425837451 0.9980501970768411 0.14641088247299194 3.0921778546005703 -3.1080968379974365 9.811738071878873 5.474568845493328 27.712075367260365 0.7296991244419138 0.14980711042881012 -3.1306485648351288 -3.1103038787841797 9.288103480993076 4.400573698085366 20.821622014072226 0.9978172981156459 0.1417963206768036 -3.132224012721514 -3.0887670516967773 11.106557961746075 4.137723775758558 17.639821767832665 0.9776791104650702 0.15023855865001678 3.068562923277475 -3.098522901535034 9.485617950233003 3.737652962694767 15.057203173675177 0.5357228707453416 0.15835878252983093 -0.059382060276047616 -3.0941169261932373 -5.9301330377217525 4.195817001929657 16.270981053502634 0.9717628639675812 0.15874487161636353 -0.015118147599312999 -3.0838675498962402 -5.202471105665249 2.978989020180746 8.991152508838196 0.9992588671460687
ID_5510e0e03,0.16928738355636597 3.111246178646463 -3.121951103210449 -13.007392743127657 6.775513478081397 38.38160480490064 0.9999999976419276 0.16197845339775085 -3.1319068626925497 -3.1199049949645996 -9.679281571503854 7.9959759414086475 45.73813341296885 0.9999998414877036 0.14926394820213318 3.116743762309803 -3.1090502738952637 -9.999112784844753 11.071945726889256 63.878731275746446 0.9999999999963414 0.15926380455493927 3.075454676580193 -3.115993022918701 -7.879856414186314 14.844323694741494 87.38475238225901 0.9999999999994198 0.16467905044555664 -0.08019802042480706 -3.0840036869049072 0.8655878703191053 12.961772084263469 73.52251918049608 0.9656599723672822 0.14427335560321808 -0.06635020712331634 -3.0867745876312256 1.9987093505908844 12.719912322008764 70.5210063251859 0.9999057714771877 0.15310317277908325 -3.129323275348141 -3.117548942565918 -13.791472876994357 6.544797867398845 34.50403645150674 0.9999999999999896 0.1398477405309677 -0.028116437828844088 -3.0788230895996094 -1.0068482176343923 6.491743298734593 32.94276502215293 0.9999083812418965 0.15937325358390808 -0.07079440746962738 -3.0823750495910645 3.391182749182109 10.284391239921602 54.948835680206166 0.829592396715698 0.16075509786605835 2.7748174540588275 -3.1004672050476074 -13.887710367744054 5.70176493914104 28.419815104815328 0.9999999529142749 0.14746206998825073 -0.0016744444109631283 -3.086082935333252 3.1894737429343847 4.827127944795761 20.500685274636517 0.9985564715881484
ID_d4d060b51,0.1529097855091095 -3.128898697229573 -3.108724594116211 -26.29684208270152 10.812749176984012 69.22500990070078 0.9999999999778204 0.15803341567516327 3.0626718673026385 -3.093482255935669 -27.05536619037789 13.370104578610901 84.24119374982143 0.9756665217438365 0.14786669611930847 3.063495299708559 -3.1010377407073975 -29.50040945974727 17.324046790635357 107.0046723926279 0.998678814716327 0.14306418597698212 -3.060948316123331 -3.099349021911621 -25.432777127204325 22.11364994190306 135.79181864374317 0.7826735831099937 0.14812599122524261 -3.1310999446058543 -3.1009116172790527 -10.818246057750184 20.377754832410105 121.34617397134573 0.999954641293017 0.14162789285182953 -3.0465527834636523 -3.1034140586853027 -25.46774602581852 6.312681327221937 36.22435927394605 0.9999944008477273 0.16607794165611267 -3.0661223300815643 -3.1010313034057617 -13.128536956099955 10.102449203696953 58.59567813604888 0.721047977760875 0.13791564106941223 0.013525760945179759 -3.097726821899414 -3.829695136573157 11.14356517794995 62.699136402713506 0.9999999943283151 0.15196308493614197 -0.03749846077678408 -3.088700532913208 -1.2556656015426082 13.122007250822705 75.15958459111009 0.9996559934966208 0.15257836878299713 -0.03351861216636524 -3.1011250019073486 0.18631520589052092 12.209194360083254 67.95138445149585 0.9938158517463028 0.1726294457912445 -0.06802349479825472 -3.0584590435028076 13.277766457453753 14.834529269909872 77.8016778493993 0.992875816039404 0.17877793312072754 0.06129500434415915 -3.0718390941619873 12.724803596501529 13.210466504132516 69.891875097473 0.9999999955699952 0.16404114663600922 -0.008648221870183112 -3.0835750102996826 11.666466807565087 10.781697029990614 57.10141570290178 0.9999947423633727 0.17927247285842896 0.01395642334265941 -3.088266372680664 11.047694569155052 9.780930099533927 50.024390324335265 0.9999990418642796 0.1919584423303604 -2.1985057412853233 -3.103023052215576 35.01248144508566 16.107674598904612 81.84313359753297 0.8099620721085075 0.16738972067832947 0.029062148558077004 -3.09257435798645 -0.5705188350417355 7.46246590954428 35.63572199475971 0.9984261349598544 0.15890449285507202 0.05431199249191764 -3.093888759613037 11.394245768308126 10.006986142742496 47.902213598126444 0.9999999102269338 0.16116797924041748 -0.09377811942767063 -3.081151008605957 9.527487229542043 6.403875721144154 30.887539530959835 0.9999999998746985 0.1651601791381836 -1.4242262462288209 -3.0941460132598877 29.26682596986231 10.207246599830624 48.798813840222266 0.9770619202308144 0.1524938941001892 -0.039006827289786876 -3.092703342437744 2.7569623802141368 5.539330487284406 24.50089721908018 0.9999327025761531 0.16271981596946716 0.049126224048667476 -3.086144208908081 11.826805770413326 7.271444052468648 33.12194779033385 0.999999999999938 0.1866021752357483 0.04938785657104927 -3.0822839736938477 12.65963487140446 6.850575068692032 29.38743829729289 0.9990517595498902 0.1546030342578888 0.006875861291748747 -3.0883045196533203 12.36730747704886 5.849427147979295 23.659246340955104 0.9999999997830797 0.1623321771621704 0.01223832756861724 -3.0727481842041016 12.163236793459724 4.917380617372312 17.60712862017808 0.9999993520753142
ID_c8a27d85f,0.15348383784294128 3.128609864882164 -3.122164726257324 -9.317920397257542 5.572711447914415 29.23614382747389 0.9999999964297908 0.1394023299217224 3.132188703086405 -3.1091222763061523 -5.530138582623483 6.325365683729007 33.13706661687869 0.9996604218462454 0.1518304944038391 -0.011005006562008502 -3.081134080886841 4.6511407283592 5.400357492787601 23.475597426770157 0.9999992376808235 0.1520039290189743 3.112836482126382 -3.1102802753448486 -5.337524211406485 2.7260450967137704 9.737342596092123 0.9999780451071231
ID_7ce563e3a,0.13850495219230652 -2.8918451180868083 -3.102351188659668 -33.7230637052915 10.112697631178742 63.59117462753235 0.7852725267094885 0.12228145450353622 0.0360865322794225 -3.072399616241455 -2.0520751713989083 10.950104105910444 62.624347296698666 0.9999996501896449 0.16236482560634613 -0.05918656334404962 -3.1056203842163086 3.723612908596332 13.898675666501997 76.5473356935576 0.9999932013445884 0.15727892518043518 3.1103581870933494 -3.1203277111053467 -13.599621232563292 9.119514350750466 48.28607113468794 0.9800137177591902 0.15338531136512756 0.03697119153664401 -3.0992298126220703 6.633341443183442 8.891692757624272 47.64382552023543 0.9999999999573939 0.14776861667633057 3.1106623780217886 -3.0985026359558105 -14.688288905318792 4.110483657483205 20.074193179644944 0.999240882670118 0.17051520943641663 0.032556966583288945 -3.089114189147949 4.384899914098553 4.168270634927355 14.947266876735203 0.9996165859639936
ID_b4bf2f347,0.14589433372020721 -0.04841772478284214 -3.095177173614502 -20.737594908411214 8.261794488738534 50.85274205066337 0.9999996736823603 0.15068680047988892 -0.12620125115890912 -3.0855531692504883 -22.6999962899634 10.631535947352585 66.73517536041737 0.9999999410110688 0.13896751403808594 0.027673915782686947 -3.0982418060302734 -3.623202104804764 14.131499126542748 82.48184804637904 0.9986375831317914 0.17208260297775269 -0.06584562303360561 -3.092352867126465 -18.644730324384817 5.250687852370636 30.094800517437882 0.9998942977309605 0.14784321188926697 0.0032874358623690733 -3.0875051021575928 -4.690143093455493 7.838927209396134 44.77566193457259 0.9999999999915548 0.1502862423658371 0.04283780141261653 -3.1024694442749023 5.684688700472673 16.411265730893383 91.14196906922356 0.9999999991555955 0.15679526329040527 -0.06024408191058682 -3.102933406829834 0.5623308958729076 6.792865705041727 34.428805216571995 0.9999999968381883 0.14662203192710876 0.029663525825142822 -3.0838708877563477 -2.9015296869112723 2.5852997234706767 7.655301690123611 0.9875630499197042
ID_dc7d38630,0.151077538728714 -0.039402410453282244 -3.077561855316162 -5.552547186889012 6.412048468882818 36.521879175604 0.9756920479417623 0.1572483479976654 0.03080831182491338 -3.097480297088623 -4.3690011216842075 7.359855132713485 41.78655380425286 0.9999999266341231 0.1548008918762207 -0.003696668119286191 -3.0951929092407227 -1.2472062124907082 7.8697604290684025 44.015807250376284 0.9994644571521895 0.1509343385696411 0.04519777013592634 -3.0879971981048584 1.9555224923941894 10.6685312645855 58.71111486285986 0.9999983341428345 0.15575724840164185 -0.013547167355872225 -3.0794453620910645 -3.9931421483417333 5.167120506701825 26.643510008978982 0.9917881550749913 0.1536041498184204 -0.003726327020739539 -3.085407257080078 3.350633869244595 5.96154141353361 31.15406776891985 0.9999994237073134 0.1538650244474411 -0.008471277647591868 -3.091721296310425 -4.818654606964568 5.001142492032269 24.302092194592724 0.9162901213965011 0.15738922357559204 0.006081699820130963 -3.091097593307495 -4.084221382717872 2.4658126935080573 8.387066423922208 0.999973925143036
ID_5428a3a8f,0.16274824738502502 -0.08599890298606105 -3.0995521545410156 5.358201637881879 15.998782419984371 89.96591181963355 0.9998900677902918 0.1579023003578186 -0.028778524575414344 -3.099374294281006 8.85000783098098 15.879638121006911 82.70927579136644 0.9527481077803788 0.17883509397506714 0.053593012363203615 -3.0808968544006348 8.830091967752907 10.492415572333467 56.070189783192596 0.9999979196445643 0.17432990670204163 -0.013088658257291655 -3.077558994293213 10.934238109034476 9.958394645478702 47.12184755725757 0.999999999930862 0.16799882054328918 0.011864077132939736 -3.091538429260254 10.831715472268739 7.4294232588221965 33.74819005953111 0.9999999999725602 0.16206201910972595 0.00036940073752514776 -3.098886013031006 -3.2517601794876616 5.052511344329913 21.612396836316357 0.9999672477347273 0.1667153537273407 0.03688195684168551 -3.084007740020752 11.38897729281359 6.952701072051287 29.589724540745983 0.9999999951916241 0.16720417141914368 0.004377379928312006 -3.0914783477783203 12.382679633158089 6.443896856642198 25.977391004595816 0.9999999864108047 0.1646999716758728 -0.016036311212267465 -3.076266050338745 12.629004592157301 5.710144375726765 20.557229220899927 0.9903699456387032
ID_beb50a6f0,0.15970878303050995 -0.09765007516126609 -3.0757455825805664 -3.2281283569799135 4.565032708959635 19.475424289738903 0.7886968415676667 0.15197338163852692 0.04582275288880729 -3.0811116695404053 -0.4734884810318696 4.3892491422553475 16.6695400872864 0.9596066984441135
ID_910d907cc,0.13891254365444183 0.09471268896929705 -3.08683443069458 -10.746031999571803 11.850024152818689 70.76205015184009 0.9999998461521594 0.13118533790111542 0.07333157129990626 -3.0826714038848877 -6.221817810034087 13.70817476436592 80.75865638087961 0.9953963705249761 0.13797032833099365 0.02303392599403526 -3.0912222862243652 -8.139551855100402 8.575281436103149 49.75375852814939 0.9999995117264685 0.15446698665618896 0.07231724724844439 -3.0703258514404297 -3.649658920052144 10.621283117084559 59.495273497211194 0.5288812510274782 0.1516895294189453 -0.02014785252218217 -3.076402425765991 -4.584508374050657 4.1787246552145385 18.9260154962895 0.9948281858950594
ID_7973af9f9,0.18683284521102905 1.8377842533801687 -3.105226516723633 -21.72515638533977 15.19434204433357 88.71621499894158 0.9999484663132048 0.15859653055667877 3.104040233886973 -3.1228725910186768 -4.015942662936564 9.561899304407719 50.0739099881475 0.9994224944974865 0.16397276520729065 0.027807606850766532 -3.099708318710327 3.321382486394431 10.218507796530995 54.924805172051855 0.9999604253189993 0.15559017658233643 0.07506686350389051 -3.091141939163208 7.3928416860088415 13.110090299018768 67.65813739039979 0.9995725303670013 0.12008757889270782 -3.094707237936437 -3.1143529415130615 -8.660415297329246 6.136140383964506 30.079577817787627 0.9962160076254326 0.16100755333900452 -3.1377890611978243 -3.1109495162963867 -9.670523123494222 4.65123636973081 21.22296095580795 0.9999999999781846 0.14125220477581024 -3.059178891091858 -3.126573085784912 -4.5124591244851535 5.0039044508533825 22.728408719239642 0.9977773630286025 0.14532282948493958 -3.0898188824495083 -3.0821900367736816 3.6580688330627136 4.777599231392507 21.641241608952303 0.9836093713858951 0.14934182167053223 2.4875357453260825 -3.1019492149353027 5.610040394543622 6.059410636221764 27.88393641936657 0.6116966844585212 0.1529914140701294 0.05709829826849604 -3.088536262512207 0.7992227729895576 3.8486613952337785 16.365322470700512 0.9999996231459817 0.15501146018505096 2.976791909172242 -3.083402633666992 6.1998617567061585 4.554278891351382 18.288201093708203 0.95923939361708
ID_f765cad92,0.15414245426654816 -3.112850599539062 -3.1055498123168945 791.378633711411 539.101484458197 2954.5675743062666 0.9772585333868306
ID_ea4983b8e,0.18386486172676086 -0.003015856965392755 -3.063599109649658 4.617485984926403 11.832467340438491 62.70249496338861 0.9999828464056302 0.17193001508712769 0.05788386801637116 -3.0625216960906982 4.978203786646684 10.416215121723969 55.210038945375054 0.9999673987155322 0.1653026044368744 -0.0046415572597096975 -3.065178632736206 5.850940249108232 10.718371840951859 52.255056161048834 0.9999998683405695 0.1667623072862625 0.023429823713199696 -3.051806926727295 5.237929765779615 8.588277006853636 42.56370077965753 0.9953477481342257 0.15634016692638397 0.002459662640550094 -3.0568528175354004 5.503289774071784 7.868194580095891 37.68224417688731 0.9999992281680352 0.16214197874069214 0.05774055002155103 -3.059164047241211 4.704523164840693 6.633250419197315 30.28348530756243 0.9999961703030077 0.16638118028640747 0.013358597673157453 -3.066990375518799 4.858750510733624 6.110588194939985 25.49521296252653 0.9575004463613485 0.1611872911453247 -0.014649193865505396 -3.0732674598693848 5.070865332557096 5.085790114122065 19.316668419786176 0.9999185944024387 0.14387808740139008 0.037537229612718714 -3.0857458114624023 5.421648585001475 3.6677582287904085 12.484922260084584 0.9999994655240144
ID_e3a9cccfb,0.1199389398097992 3.085209267686893 -3.1099507808685303 -4.488971635599289 13.077552141354749 76.4945996597669 0.9991712360512008 0.1546957790851593 3.102479100874136 -3.1080684661865234 -11.605013906939178 10.389011134510708 59.96430825110091 0.9999999998893856 0.14312103390693665 3.0791807760470338 -3.0999763011932373 -10.645319893499074 11.686254292745993 64.67991172792796 0.9999978882798615 0.1843535602092743 3.093469649803965 -3.121309757232666 -9.25637124566797 13.125186074111912 75.2135570705468 0.9993203478657594 0.1737535297870636 3.020385415455474 -3.1107447147369385 -8.119229362293227 16.071203459477438 93.07661936890585 0.9999997549250882 0.1500871777534485 3.114323132681907 -3.117900848388672 -9.862622517927967 7.183339198956328 38.31842090120649 0.999999900444169 0.15560787916183472 3.0911676239437855 -3.114285707473755 -11.49872227792999 9.393336965887375 49.43688895142359 0.9999999677049561 0.12115561217069626 -1.8839431307080223 3.090827465057373 13.286632768600711 7.107874325478654 35.98040795192092 0.6539316446962313 0.15680688619613647 -3.103146329284318 -3.1171560287475586 -9.408210995588215 4.100955306138637 19.946563243905544 0.9999420767791749 0.14690442383289337 -3.0931269065494225 -3.1200990676879883 -9.888132537183218 5.282138992311429 25.79654104573871 0.9999994889604178 0.1640653759241104 0.07983170854278947 -3.089998722076416 -0.3291732594954051 5.824959278122617 25.94439222926818 0.9992181602175592 0.15510784089565277 -3.1257457733189744 -3.1120240688323975 -10.146704518902473 3.7780888378861808 16.248245028546513 0.9999999997889215
ID_fd8ff86ab,0.15888507664203644 -2.9811763408701446 -3.132768154144287 -36.538519003235756 10.068281782218229 63.27285502284826 0.9904332523514503 0.13581427931785583 -2.4993501955177813 -3.07377028465271 -19.398126330989502 4.979046313236159 28.23745310309382 0.9999122834675233 0.15198704600334167 -2.7523919793609903 -3.0889172554016113 -10.597058280313368 4.600006316849521 24.02530163530055 0.8177839320516432 0.1464555859565735 -2.4475965628255905 -3.078801393508911 -12.872395651965748 4.449738669788268 21.68739126144186 0.9662392195183251
ID_822983735,0.17377454042434692 2.287670095032532 -3.091967821121216 -9.403510067592666 3.0165935381879327 15.03558909045247 0.9704158756289855 0.17822840809822083 2.4899851176687444 -3.103604555130005 -0.4693653137516235 7.391591498352668 36.72944317696588 0.999999999999968 0.1728406846523285 2.478172471284854 -3.1016294956207275 2.484287829763491 7.9964029539065375 39.59383263083787 0.9992576895494941 0.15756133198738098 2.663487910891711 -3.117658853530884 7.788605634155374 10.300603213820747 49.130040510914036 0.999999718539095 0.15814277529716492 2.413929149798337 -3.095933437347412 11.515209731646065 11.665332317390183 57.61778266153427 0.9999999924873847 0.1527663767337799 2.252955564101363 -3.084808826446533 20.96367591476045 16.074670428106927 79.6608676775567 0.9762432117144418 0.17910587787628174 -0.12759800620484282 -3.1200110912323 55.422110773838575 16.66985883828869 76.66770007050319 0.999999998769534
ID_70a367b7e,0.11263985931873322 3.0087813332851137 -3.090135097503662 -70.9522892087568 18.420529365575085 128.1394514800336 0.999705818000702 0.10057030618190765 0.009368802846118546 -3.0999886989593506 -43.9726518134157 18.44054965848009 120.22504390105992 0.7615012751929731 0.17703408002853394 -0.6775399702685091 -3.101395606994629 -24.999698687896352 9.911526739655773 63.175223263268634 0.758438194377969 0.13928407430648804 -0.04481960442946751 -3.0758838653564453 -5.835328415432629 16.7471597824356 98.66141594393716 0.9994538003311857 0.1279328316450119 0.012787883756404939 -3.0949270725250244 -4.664249810690946 9.24103243921717 51.899491855884406 0.9999996812162685 0.15419448912143707 0.03928884412520993 -3.099520683288574 -1.959059465231031 7.958046978250541 41.655829652569004 0.999962212108657 0.1519344300031662 -0.0031763643211373408 -3.096067190170288 -3.3791455648172906 3.244303936694245 12.265564501308523 0.995889498906678
ID_8ddd4a836,0.1468895673751831 -0.019248746902858712 -3.0879201889038086 -30.66205911572213 6.958183947469244 43.733692169212844 0.9999999999027118 0.14477768540382385 0.06663040462150442 -3.084395170211792 -40.73917990117242 13.68248581089359 86.49376244755048 0.999999999225113 0.1355973184108734 -0.03971198246879576 -3.0897116661071777 -28.939831086648084 15.467801742972151 90.87892328470424 0.9996868430642978 0.14778393507003784 0.08957071322245277 -3.0866732597351074 -26.187558834201326 16.320296852979 95.36183428091952 0.9999999725019596 0.09372512996196747 0.012981187446172089 -3.0735161304473877 -10.07839487667666 16.06279611591078 93.70156438084398 0.9801681235506695 0.15700088441371918 0.09848806837244167 -3.0872037410736084 -4.552322831387742 19.687455847133233 111.87606250178767 0.9999982196095382 0.15062549710273743 0.5240474392021269 -3.0796287059783936 -2.333847956269083 24.611410607075708 142.8855828261984 0.973054090597937 0.1603686511516571 0.006748881165699201 -3.0895891189575195 -7.4464526034943574 8.29561580114643 44.29606191843566 0.6023495891190002 0.15580955147743225 0.10102588645825986 -3.0869967937469482 2.9521495060677347 16.588163174958183 89.64538098153061 0.9999998316992701 0.1455584615468979 0.1256058129052567 -3.089691400527954 3.956319817292652 15.333608964033427 80.79193244812981 0.9999982335943338 0.15042364597320557 0.003417495988885611 -3.079439163208008 -4.668676939563259 4.758914541669815 23.12613114234518 0.9999999936764823
ID_69183a385,0.1565209925174713 3.140162169722142 -3.105207920074463 -5.344319329024345 6.15107762730492 25.29354297550941 0.936618951280531 0.17412802577018738 -3.1021431538467423 -3.1082844734191895 -2.2201250054852704 3.245426250645152 13.03644663583458 0.999321214970329 0.16928362846374512 -0.009991349291070513 -3.097748041152954 0.973180324241825 4.916439870881529 19.252094223948298 0.8923356240525713 0.16068843007087708 -3.040239013498222 -3.0958340167999268 -8.122478365727757 5.518402861208592 21.39932678641063 0.907016055543949 0.15357893705368042 -3.0839533371507004 -3.099942684173584 -9.464688758423463 4.580419607062906 16.804904442517326 0.999608958899943 0.15667197108268738 -3.0850343915524867 -3.103931427001953 -10.396829517954913 4.479274050725266 14.834647578710891 0.9826891042967942
ID_8d2791fc9,0.15832290053367615 -2.4470437863954144 -3.089308977127075 -2.7369720493585334 2.9330244051066363 8.699532028996082 0.5676766050581206 0.16204559803009033 -2.9566532026310974 -3.11238431930542 -0.26686887685840166 3.170789318924697 9.402282852808037 0.9499366758322032
ID_84f2f637e,0.1798682063817978 3.133651921691073 -3.117889165878296 -10.081241481591986 7.744727283746231 41.36687848895849 0.9999999414480171 0.16383403539657593 3.1228986996050665 -3.10604190826416 -10.732819842633708 9.379626810566194 49.139453923380515 0.9999999304794733 0.1515730321407318 3.1414353133159403 -3.116220474243164 -10.26686010552599 11.611093264247925 62.79966035167089 0.9999999999906641 0.15615306794643402 -3.0441171203314066 -3.1178202629089355 -6.64060491935167 8.940373247554385 47.12191368570661 0.9999999999991687 0.14909681677818298 3.112579998548014 -3.0959410667419434 -3.872382752097623 9.732022632670933 51.851910456400084 0.9999863315946818 0.14407306909561157 -0.00716761288964872 -3.089934825897217 0.2688607710106635 9.227485954797036 49.32551112414159 0.9999253819645437 0.17389675974845886 0.004206494012927442 -3.0765085220336914 5.042190096166606 12.807212770050162 67.51221608446494 0.985634458622458 0.16123947501182556 -0.0016535743990208289 -3.080549716949463 5.641692514494042 11.556959152239445 61.462274302202594 0.5441799893416438 0.12099168449640274 1.5401599108714081 -3.1146092414855957 -12.600798241436834 3.822770382104104 18.477495517555987 0.8348012138720162 0.1535230278968811 3.0802332604930496 -3.1099023818969727 -10.06212735117063 5.8641418218505255 28.749826550519238 0.9999997148291544 0.15691399574279785 3.1005512731549043 -3.112452507019043 -9.987330514079925 6.950429506993947 34.40169396748465 0.9999964425398183 0.1646910011768341 -0.04941835570513596 -3.0925986766815186 0.4641173628618119 7.356912319564284 35.263088037866794 0.518689877407493 0.17577707767486572 -0.03575173299541729 -3.0562829971313477 5.5855443231493735 7.83598523335109 35.25644328034205 0.9999999942338982 0.14516796171665192 -3.125624559339004 -3.108220100402832 -8.912375569327857 3.3665243536423426 14.494997262965104 0.9997223319618433 0.16946196556091309 0.022516416466415154 -3.0846147537231445 5.564717778554528 5.226077103182514 22.20189705007873 0.9999999999861235 0.15782511234283447 -0.004869872063359442 -3.0859580039978027 5.394654855780706 4.270544960396885 15.291294221090249 0.9999999999953777
ID_6188e27be,0.1697588562965393 3.0873573190171113 -3.1284031867980957 -9.091669321042415 11.347794378945453 65.0951534462202 0.9380247094651307 0.16327780485153198 3.0941035705676425 -3.110405445098877 -3.056983467880959 12.83071906336519 74.06332364174457 0.9999999864283409 0.16679924726486206 0.059777637207278474 -3.0930142402648926 6.55624048366059 11.42450748356384 60.84190319891585 0.9999999315024344 0.1459621638059616 -3.078739041408388 -3.1079630851745605 -8.472981174279262 4.406922650909257 21.440187096617528 0.9999748280249143 0.15717676281929016 0.019759324784566074 -3.0865914821624756 0.4641019240293461 5.672157341687533 25.187113573450297 0.9999812308081765 0.12656420469284058 -3.0708037850045944 -3.1118366718292236 -8.29267751434264 3.4408793559344457 14.662322402028234 0.9975997777948614 0.1719971001148224 0.04377781469710581 -3.0691030025482178 6.545513078220613 6.215336189694133 26.474994421040783 0.9556382400180679
ID_dc5878537,0.1493309736251831 3.09570764679489 -3.114327907562256 -11.893077086241211 11.359532177483803 64.13006792901055 0.9937221983940195 0.16370172798633575 -0.12127744386589782 -3.102264881134033 3.8453325100633537 14.990828252818508 79.18922880743153 0.9999999329385477 0.16504670679569244 -0.05401957481472704 -3.0805611610412598 2.9403883580663153 7.962850481310282 39.32675075789743 0.9917221295627797 0.16362640261650085 0.04009099217582506 -3.0719666481018066 4.036681108242433 5.207620770779812 23.622932876315822 0.999948916263179 0.17573294043540955 0.019689897016212078 -3.1026651859283447 -1.0151633232792383 5.5148129872831415 23.62822129842352 0.615182367487695 0.17103849351406097 -0.03476116177302591 -3.067251205444336 3.9166992222479435 4.510054990293556 18.062070012104506 0.9999999300043405
ID_5d0c7468e,0.1496465802192688 3.139831195464379 -3.104991912841797 -10.54644624777656 3.543009886474009 16.096016764666466 0.9894911926863169
ID_f4161f129,0.1565951406955719 0.04335515904713297 -3.087768077850342 -3.093276846335673 19.229948737538123 111.36984147793177 0.9999999999953688 0.14196991920471191 0.02517762727543108 -3.0988659858703613 -0.02853707060922167 20.439812499775044 116.37935668105104 0.9912201111212224 0.14645804464817047 0.007957373013062543 -3.0871024131774902 -1.3071950303862694 7.554386264746959 38.916814253030395 0.9998688144230065 0.1711684763431549 -0.02106305843742016 -3.083521842956543 1.7326968011905548 11.072481423645442 57.2072626197149 0.9984270241293576 0.1403428614139557 0.07557471525905692 -3.0763797760009766 2.3794294321173752 4.576921774897374 19.62137073282627 0.9998030744528457
ID_bbf2e7374,0.1564512550830841 -3.0549241192284318 -3.111928939819336 -9.574166233204002 6.828917051580695 35.4538707258411 0.9999034518206311 0.14042265713214874 3.1197346207290018 -3.101574420928955 -11.46383209387155 13.93611749071997 76.19732575056538 0.9999999995789608 0.16362488269805908 -0.7905376882282321 -3.105727195739746 9.980170701803628 6.745876397814881 30.60483336452223 0.9573809129980597 0.1487925946712494 -0.0057681490622968085 -3.0854291915893555 2.7938756057573744 4.290040845921883 16.355379093552248 0.5314933220943019
ID_efdc95f06,0.14052601158618927 0.018321252000615306 -3.1038758754730225 -25.918480003141337 17.067613695775346 106.64326881458487 0.9999999976156098 0.1364489197731018 0.0022464738391505183 -3.0742321014404297 -15.565867412011539 6.181653868310819 37.707984447514775 0.9999827937968073 0.14851859211921692 -0.08846129457375213 -3.1047275066375732 3.159871831175018 17.038640212566865 97.66577891973978 0.9999998553923954 0.1580224335193634 -0.026496509142755257 -3.087368965148926 5.456392636417778 19.990234928483716 114.47194597714245 0.9999994643059181 0.14260441064834595 0.020304705335081205 -3.0930733680725098 0.21552597793228967 10.918091219464431 61.096819355222486 0.9895535043175555 0.1625310182571411 -0.01679436428349279 -3.091414451599121 -4.2663897510348265 7.732217990441669 39.443385704736876 0.9999539133636483 0.16116800904273987 0.015338252335184242 -3.087460994720459 -3.1687330093004737 3.0264723011494135 10.953479884670681 0.9999999961580981
ID_cf4f677c7,0.1705356389284134 -2.9985977065990617 -3.098597526550293 -8.560488324046611 19.385621242324223 115.13154235208253 0.8444121873780223 0.13152575492858887 3.042342773431935 -3.1124939918518066 -7.5074943599725295 7.756603552851948 44.710799166877614 0.9974886057884328 0.13243097066879272 -3.1284531063398697 -3.11173939704895 -8.004327603854577 14.651796330189718 83.82447320824211 0.9999999999995817 0.149771049618721 0.12356220578658864 -3.101849317550659 -1.1969131835679419 15.29538929465986 86.4274920070383 0.99999564942692 0.1543591022491455 0.05945633189877883 -3.1010026931762695 1.9574136626304495 17.522616684454565 98.84058534624461 0.9999999077622604 0.16449904441833496 3.116067980734044 -3.1072895526885986 -5.308976512736894 8.275857567804936 42.74355470659617 0.9950062925047742 0.1516096591949463 3.1042672525323454 -3.11594557762146 -5.945999990559078 5.78230785159793 28.1757249973897 0.9999779041471109
ID_27a33218b,0.04957457259297371 3.1405683848282284 -3.0839643478393555 -30.703912400521308 8.144544204612313 54.22971248630262 0.7549959957871613 0.13595396280288696 -3.038325233856725 -3.0901107788085938 -29.529634474519725 7.598889313271688 47.20016717914319 0.9999999999847735 0.16121959686279297 3.1019765918249407 -3.0912742614746094 -29.793580030253306 8.356042206304393 52.36587524415839 0.9999868275961319 0.15501311421394348 3.0753554508349796 -3.1205148696899414 -16.655647277508024 19.494767633294146 118.23011669571129 0.9996076963176584
ID_81d82a824,0.1543182134628296 0.05251720363269233 -3.100646495819092 -2.3410252771112323 22.518208731389063 130.04712432621793 0.9931671393435197 0.1644921898841858 -0.038755021091289595 -3.085602045059204 0.8760842777045498 13.001448977606463 73.47471378482554 0.9999639329528976 0.14739245176315308 -0.021619078223256837 -3.095064163208008 -3.286823926512654 10.586348549022812 55.494858034348894 0.794720117478935 0.1466294825077057 -0.021645196618123395 -3.0821046829223633 0.7244289382670157 7.7796046535266505 39.73628888962762 0.9753079485971311 0.1267174482345581 -0.03185636892621761 -3.0857694149017334 -2.995238458762781 4.729214294244775 21.545247695115588 0.9741509934777303
ID_9f8495aa0,0.1478118598461151 -0.05299430663908928 -3.08622407913208 -7.004700492621987 19.598773121869336 113.20402036549777 0.9975696583948291 0.1540241241455078 -0.01957765656720613 -3.1075010299682617 -2.843832100998147 11.379208245306422 64.96319682331834 0.9999999830729983 0.15327088534832 0.04514025669372922 -3.0902955532073975 -0.05543157456528764 16.360650956648474 93.77451251860273 0.9980888756596217 0.14713791012763977 -0.1184395944805655 -3.0896756649017334 3.2553735904604886 12.225171781851623 68.12059790811628 0.9999999999961708 0.1597268283367157 -0.0066164907746735025 -3.084465980529785 7.870213546719849 23.48021268848158 132.16969695340322 0.9984696767650635 0.14820744097232819 0.24392355278917066 -3.0874006748199463 8.731531715675917 13.918310403861481 72.04111217503316 0.9999701946988233 0.17724713683128357 0.001585049285364099 -3.074775218963623 11.08639389278281 12.650910019892338 65.53924381258372 0.999958623272031 0.15277042984962463 0.017179862017836226 -3.090235710144043 10.075435713142824 9.510728721046965 49.37512288930149 0.9999996300432149 0.16625547409057617 -0.01640767103406063 -3.0656919479370117 10.247329301540269 9.102022107148498 43.611655491950934 0.9999999999880851 0.17406439781188965 -0.019900373499321066 -3.095978260040283 -1.7697915575879934 5.2591400786678335 23.93496628032961 0.9999886129595047 0.14363770186901093 0.06785850833168922 -3.0904996395111084 11.620033107543545 6.937767565279306 29.981102244303347 0.7126795192149233 0.16690436005592346 0.003842225025321836 -3.08992600440979 10.450888275801516 6.480388070248048 26.114672422445267 0.9995461911411959 0.1561431884765625 0.006663171577210428 -3.087705612182617 10.864262062313223 5.480476228655834 20.790500938926527 0.9989752959043238
ID_a9a8c1292,0.14712174236774445 3.110642885926812 -3.1116724014282227 -9.107087461919777 7.313591649840712 42.64833662837805 0.9999995371234303 0.1658627986907959 3.110521004680959 -3.1171207427978516 -10.398874566791475 11.601731181177236 66.16999028155146 0.9999999972147251 0.1932131052017212 -0.02469250326459505 -3.0746214389801025 3.370079770702008 13.414452970044481 75.42207549925459 0.5524164045902686 0.16113123297691345 2.811572209580317 -3.1166903972625732 -3.1558833760872114 7.855036424897384 41.688490017633605 0.9999999977396008 0.1663840115070343 -0.02924946004469856 -3.0551652908325195 4.06662950097135 7.629551039018164 37.59900044317855 0.9999999999313942 0.1740388572216034 0.021170315791249825 -3.06990385055542 3.6789948848646827 5.744606794086185 26.067963242566357 0.999998853223652 0.15622937679290771 0.042881056186228374 -3.0660347938537598 4.345639971369026 5.523546179526228 23.914512619815525 0.9999947594034866 0.17772860825061798 0.004538780855565479 -3.0421018600463867 4.176781755048079 4.515243100268501 17.10352008455594 0.9998982951277633
ID_1411dc012,0.15750664472579956 3.1000693862515196 -3.1039721965789795 15.562751574759824 34.74045721331142 198.87358285500784 0.9247667022569843 0.16390690207481384 -3.1244385239804804 -3.0966029167175293 13.730593108424948 17.586204719367814 98.65515776191862 0.9273477291293447 0.14468678832054138 0.03820968739973058 -3.1053848266601562 -2.828459039179914 13.137583860651533 73.96576316096863 0.5574604320995387 0.14139047265052795 0.03102359317898143 -3.0895371437072754 -1.195454025531451 12.164940333252908 67.57920891972337 0.6752352053774062 0.1562424600124359 -0.021761635944910596 -3.090073585510254 3.4807976180085203 17.2689317940506 96.70828312642627 0.999538359140983 0.15304523706436157 -0.0266001328871963 -3.1020431518554688 -2.46099264056996 12.033635494053668 62.190644890963014 0.6514363682181423 0.14453059434890747 -0.04154051850021345 -3.0696611404418945 -10.155048130279884 5.651207503561958 26.74653621963945 0.9973843624664863 0.1515931487083435 0.031092032199717474 -3.0875086784362793 -9.829320194700976 5.963630127851114 29.201225724554007 0.9999999374214678 0.1411570906639099 0.017261279289262486 -3.0841517448425293 -9.018834333050027 4.398848473104357 19.801509445324655 0.9999999701178917 0.16123872995376587 -0.008817295767789774 -3.0796327590942383 -9.08748286625441 3.2043761743647208 12.263055746053025 0.9378355502889357
ID_b60f5638c,0.13680638372898102 0.02545479019186295 -3.076538562774658 2.148761811718516 22.296713303603795 130.45473182738348 0.9999897058046526 0.11957239359617233 -0.040286095418625226 -3.0962023735046387 -1.2919151207601405 16.605299660661647 96.44438483712608 0.9999971784225213 0.1105913370847702 -0.011612263816781045 -3.084291458129883 -7.417300418011597 -72.12782565486843 -430.67097149036374 0.9807237428976838 0.14366155862808228 0.05820916641387636 -3.1057515144348145 -5.207410525418703 -13.906865728436298 -83.30285401997266 0.9999712748369999 0.15254420042037964 -0.08542583924968135 -3.09773850440979 14.20297271195252 23.16698542142534 130.6599366487085 0.9999994752935688 0.09103590250015259 0.1345444349085683 -3.0712831020355225 16.20511900202669 17.108177414900247 95.47788765232181 0.9723447173086813 0.13378658890724182 0.04151092580599339 -3.0965628623962402 -1.5953882073678638 8.152359653000065 46.00000679496503 0.9999999886111636 0.11530917882919312 0.019510862673983505 -3.096024513244629 0.34409469548218735 5.493187986841318 27.066017315266556 0.999606566958305 0.1462080180644989 -0.10754262812983656 -3.090822219848633 -0.6669344887912088 3.800998975188478 15.222621450864205 0.9998496465081982
ID_237729793,0.16024354100227356 2.9919912843106653 -3.106431722640991 -9.156654928973095 16.96403026582768 98.74407310369672 0.9999267204918262 0.1631506383419037 3.113492237629566 3.1232380867004395 -10.557618306866791 9.274529897174782 48.66966872443601 1.0 0.15396752953529358 -3.1312084111947915 -3.0892128944396973 -10.296468851881965 13.995232359144696 76.19434171302015 0.7651632415787006 0.1670403778553009 3.0967575764616435 -3.1131114959716797 -11.60389280507495 17.505635072685518 97.40535517187197 0.9997413776222375 0.15562692284584045 -0.037356903529099095 -3.087073564529419 -0.13862770532645396 12.065131962317112 62.6666694832075 0.9999975756877231 0.16673946380615234 0.6431845455420236 -3.085097312927246 17.467780095927008 12.734522182110855 65.56566367981927 0.9999999996899516 0.15986859798431396 3.105215995649864 -3.118467330932617 -4.021997426091599 6.453124810938875 29.75680828098036 0.9999999991474373 0.13550126552581787 0.030561538675148558 -3.0965332984924316 0.025143019841353607 4.939786008415368 21.06812878963064 0.9999041337303937 0.15120771527290344 3.0924677727016228 -3.1043872833251953 -3.3397836988873832 3.1013192263918974 10.07173106100353 0.9575812882252639 0.16080181300640106 0.026363340813494313 -3.0788066387176514 6.416614929887425 4.277684533857246 13.907574117220603 0.9994530026530205
ID_73b210da5,0.16543559730052948 -0.8476087075305101 -3.0937418937683105 22.37564036440476 8.333229701319397 44.15903977885394 0.989267227071739 0.15407699346542358 -0.8514785726513735 -3.086458206176758 -37.30447807845696 -10.293104491772212 -56.420106703303496 0.6009154844044614 0.15661367774009705 0.43296225172335007 -3.087742328643799 -7.650550121205534 9.865073900439729 52.28690456667681 0.8291883285127528 0.1425691545009613 -0.09348034237659486 -3.096008062362671 -4.711208243943654 7.3192964080515 38.33307038190391 0.6140227193166894 0.1642715483903885 -3.101887194422415 -3.1108906269073486 3.316934690560705 6.558580492336582 34.039655664896664 0.9992958407077374 0.16864903271198273 -0.016435271070889566 -3.088559865951538 -6.492169394678999 5.441278052025419 23.81394149795687 0.9999777326131063 0.16829103231430054 -0.005357921576144165 -3.0820183753967285 -6.442004135247734 4.8105148410134175 19.593709628933038 0.9999997601902357 0.1660929024219513 -0.0001082418298276254 -3.080974817276001 -5.763389905911456 3.2663861617542094 10.817905080243388 0.9527530753089236
ID_c6628179f,0.17343710362911224 -3.1001730656864357 -3.1013147830963135 -24.3594251553065 6.2734391122471385 34.01666102899856 0.9999999990152113 0.14066225290298462 -2.349554877553359 -3.071565628051758 -21.38634039455714 5.921629854765363 31.898822962808744 0.8481519119248778 0.15287062525749207 -3.05145961319351 -3.106096029281616 -19.22911834761195 6.077383632485213 32.35670706357167 0.9999713379923255 0.15224263072013855 -3.115944772259496 -3.1051831245422363 -13.617143645347333 5.035328244953856 25.707093065066 0.9963631459126123 0.1536085605621338 -3.073887611835908 -3.1010451316833496 -15.203271524621496 6.053042062399508 31.609126052273393 0.5364796852624817 0.1603282392024994 -3.0834975782919334 -3.110002279281616 -14.731123486220042 6.584610171193577 34.67454910281873 0.9999697342384034 0.16750282049179077 -0.08499328114951851 -3.0904483795166016 -1.1465052231082136 8.254547373786284 39.94295137574677 0.9701205720473283 0.1383087933063507 0.054966823349675877 -3.10723876953125 8.785931901282115 13.950843055336666 70.15248095239535 0.6527534483882232 0.16435256600379944 -0.033932142671004736 -3.093069553375244 12.768988569555303 9.856400695333663 45.3530771982343 0.9630885611984346 0.16510933637619019 -0.003009952368907003 -3.0884459018707275 12.260155836068039 8.670270317764803 37.839951841972315 0.9999997552425017 0.18801632523536682 -0.056128730759826766 -3.062906265258789 12.098410440336922 7.385087151411097 30.23149967195848 0.9999987655563023 0.16082331538200378 -0.024298222609730243 -3.0832037925720215 11.72576101615111 6.102935841671068 24.567727744604916 0.8865987569756925 0.15815329551696777 0.10454388119261657 -3.082042932510376 11.433921449941035 5.393446052456532 19.56053276439011 0.9691456269859536
ID_f188d7b12,0.14611388742923737 -0.043739548965285785 -3.0958409309387207 -28.371893398606083 7.716080762669811 47.806301713025334 0.999999564336681 0.14971965551376343 0.004714506318577941 -3.0959503650665283 -21.51453796351662 11.232227087056405 70.19431139456071 0.5946006827772303 0.1463191956281662 0.015593958324435147 -3.0878987312316895 -6.519197394816048 25.16831929387596 148.8021546645457 0.9979462808536539 0.1702115535736084 -0.033962875416057116 -3.0994794368743896 -19.848682272438964 7.787165677169761 45.02156521306778 0.9833538605760049 0.16924411058425903 0.07057199899754112 -3.0905842781066895 -8.227512240392086 13.590201735514286 79.38087295408857 0.9999999999992875 0.15478816628456116 -0.016145525076640823 -3.0778491497039795 -6.317074596866723 18.540793765741718 108.05535573843183 0.9999886785671436 0.15826137363910675 -0.013576160358929841 -3.0806944370269775 -6.162179633957263 6.8579675477635975 36.526092995363605 0.9999807429955965 0.1516329050064087 0.006784904452837053 -3.0855612754821777 -1.3053322566016312 8.86843880365948 45.49663077233331 0.9999999998599483 0.15264350175857544 -0.03104417941871065 -3.106658458709717 -3.2933964280856833 3.568156052110469 14.186332100134674 0.9999999999994724
ID_35ff1963d,0.1782798171043396 -0.10912943394231064 -3.090378522872925 -1.3607134191970798 5.321343295771264 22.777231424940034 0.5473724405684248 0.17284706234931946 -1.1171023649058434 -3.0940892696380615 3.9910615511220935 5.207757009709641 19.821880757845484 0.780740160250474 0.15887156128883362 0.01393932872119624 -3.0813302993774414 -0.245734691082072 5.3510817630051735 19.63224249115396 0.9872228585517704 0.16217336058616638 0.021148332040509605 -3.081995964050293 -2.610275111420542 3.344625829982583 11.427595838676389 0.9999898092848399 0.1658797711133957 0.0022997472539793653 -3.073622226715088 -0.17203006889953862 3.976576499825478 13.81925106486804 0.6604412440227136
ID_9a18f5678,0.15950420498847961 0.11115177891165935 -3.0872068405151367 -3.8345905547002914 7.513140088907176 36.22018955386851 0.9996920080254936 0.15221254527568817 -3.1386188564007362 -3.09924578666687 -6.509035067905138 3.903112560533772 17.861148867460134 0.9993199717740797
ID_db699f0ba,0.14523634314537048 -3.014311430708224 -3.0940608978271484 -38.021005703511356 9.688480044506107 60.77570270819613 0.9999976473653402 0.14259035885334015 2.8643205050113294 -3.0897436141967773 -31.40024630813341 11.35064877605021 70.64894698299143 0.8258257495892244 0.1565285325050354 -3.126592035060121 -3.0938668251037598 -37.07637106214726 15.463826060330636 96.59446206351551 0.9048025923875745 0.13213424384593964 3.088251832773394 -3.094590902328491 -24.522483798867988 19.80756785943733 121.27456213469077 0.9999998654568326 0.16271141171455383 3.074895734915406 -3.0930092334747314 -22.38927356265227 22.28387939164361 136.29327592329346 0.9645709264612281 0.1579430103302002 -2.986269031827508 -3.104012966156006 -17.79451816081981 21.84052595227972 130.7945368854628 0.9999995464466803 0.1259029507637024 0.006881420269918171 -3.0974206924438477 -6.5010257003313106 6.5997086465679535 35.085772984456504 0.936002653712167 0.162345290184021 0.0029761620709190086 -3.079824447631836 -3.5593935743299356 7.428239610332195 40.04266824138832 0.9999763627768805 0.16349993646144867 0.024408227521752365 -3.1060357093811035 -0.7063514552832805 9.749948233381224 52.429741890514315 0.9999914853003388 0.14349974691867828 0.028639946107793954 -3.0799503326416016 11.920637115984933 9.786087294102103 50.66222741102272 0.9999999999916589 0.15345057845115662 -0.03872454903208599 -3.0903069972991943 -3.1070667452152367 5.979540066062899 28.497847607034892 0.9720769659347797
ID_fcfc2f0e3,0.1679583489894867 -0.02045117910180434 -3.097356081008911 1.2661072472087331 13.103573667536251 70.17422328827874 0.8749648463134934 0.13182204961776733 3.072302991041868 -3.0810599327087402 19.270077016067678 5.4108677964524485 27.3033346003376 0.9809990722651967 0.14930985867977142 0.6504642552466431 -3.090320587158203 -5.183463488863841 4.103291708830659 19.081101580096888 0.8373165057690412 0.15887849032878876 -0.011744083550988315 -3.072600841522217 -5.821071536539243 2.6561019908749555 9.065682845819678 0.9774529566948603
ID_66e5f439a,0.1427106410264969 0.10132364833180785 -3.0917539596557617 -11.654001248249674 6.536000507867664 32.43176234522503 0.9964279095910767 0.14992697536945343 3.1294094527448117 -3.117710590362549 7.378155079898774 7.612249156790997 36.25923726890579 0.9408495497921544 0.15668223798274994 3.1281994216589917 -3.1163127422332764 7.304205450176492 5.544740084430431 25.147916222760493 0.9999997593331511 0.16189835965633392 1.4986785159891112 -3.09330153465271 -10.477541992144552 4.140226812833474 18.104902089324227 0.9611808008826914 0.15921050310134888 -0.029318991699032147 -3.0771584510803223 -6.815108078939623 4.077793938588627 16.667735195095634 0.9991111590543376 0.13784942030906677 -3.1379102581505673 -3.1057491302490234 6.597664162663399 2.8876114636907744 10.482345298965875 0.994363730285326
ID_145aff094,0.1423523873090744 -0.014871923118080766 -3.0831127166748047 -12.982883381000988 10.508009347722771 60.89780838223253 0.8136182332907859 0.1612699031829834 -0.008767396760502725 -3.0949583053588867 -7.406829284394423 13.827032283866385 79.55113012199944 0.999907971717081 0.15640485286712646 0.00198147127027459 -3.0932772159576416 -11.302539786771788 8.347943839579246 44.22231864252782 0.900386711301523 0.17059940099716187 0.07088298553296347 -3.0901618003845215 -9.862542180512111 5.1117267945993365 24.95427429679529 0.9996927687679368 0.15635541081428528 0.024808406426190737 -3.0987343788146973 -6.7391861278024745 6.845944660703217 33.60250725862096 0.999993518068274 0.1438530534505844 0.03366411507977623 -3.0982556343078613 -2.6351071005091624 6.997393488086132 33.57979174583083 0.9999964708130799 0.15580163896083832 -0.04409779145440067 -3.087353467941284 7.9978021656781495 7.139197451464766 31.74561529387876 0.9014324307365025 0.15492668747901917 -0.025851805214823557 -3.090235948562622 9.80374275282878 5.483200429015617 21.977557241941817 0.9990384294130635 0.16874927282333374 0.027439465044748545 -3.088131904602051 -4.522973025744879 3.5041982384442583 12.94992864135025 0.9999916682430255
ID_5f80c94a6,0.15960809588432312 2.670294170453299 -3.111959934234619 -7.890228818683935 15.826907708552831 91.40761464833095 0.972043578439124 0.15958040952682495 3.0926287738713745 -3.130977153778076 -2.3763343180950467 7.719368476038857 41.041490060460305 0.9999999999999984 0.16003108024597168 2.9619897611311585 -3.107992172241211 -0.9025958213225301 10.991458594834572 58.906331923012566 0.9999991862626785 0.15618760883808136 -0.05075082287244087 -3.1046910285949707 2.56429071024114 7.629478829298246 39.295303925256896 0.9668395505703319 0.15954236686229706 3.136444020786214 -3.1057817935943604 -5.636432865707489 3.352086215700774 14.262533187892448 0.9999986324652866
ID_b0dd0220a,0.13741162419319153 -3.1252980594710102 -3.111280679702759 -7.947268886941951 15.72925459263326 90.00886041527336 0.9999999998670326 0.14946307241916656 3.137454648039752 -3.0979301929473877 -5.598783143614849 8.528452368453047 45.44661353467004 0.9771838773026513 0.15227937698364258 3.140405621312696 -3.1307125091552734 -6.1737679157275185 5.9375459877428485 28.888958692586193 0.9996889962762869 0.15856584906578064 3.1139532547270528 -3.1052985191345215 -4.195456038250433 2.851828448198017 10.220669209991488 0.952051965978384
ID_ed6b208cd,0.1619184911251068 -2.6359556950521363 -3.107726573944092 10.783577476076877 15.739083127904891 86.22426135428452 0.647829613390443 0.15574073791503906 -2.482078441676769 -3.104017734527588 19.544277741630047 14.766361575147346 79.23057087325157 0.5050980922970356 0.14811351895332336 -0.005591218077365467 -3.089066505432129 -5.426076599276701 9.914297148819415 52.42062817456871 0.7332765321226231 0.16467082500457764 -3.0964052572737186 -3.114122152328491 3.8639472418797953 9.503937993158756 49.198156859981275 0.9999864562111641 0.16847923398017883 0.02810429933298041 -3.100713014602661 -4.639086979435866 8.852686468527079 44.19432552322247 0.9964879710058298 0.15854716300964355 -0.025361895052670922 -3.083803176879883 -4.0036978506006795 3.9935101129532637 13.90243511972604 0.9999996419002602
ID_92244eb19,0.1578446924686432 -2.880306418745001 -3.092439889907837 -6.073849026830309 17.244378717904247 97.00790700925798 0.9351226727604459 0.14505428075790405 -0.04879049403134698 -3.094053030014038 -0.21540480892276187 10.095039010077084 56.72827198621343 0.9990468315849241 0.1407860368490219 -0.0967922892671469 -3.0955159664154053 2.3930475230809702 10.176779928800753 57.05916320522398 0.9945301752989926 0.140679731965065 -0.053747273307991776 -3.10589599609375 12.936551177793406 11.250876760976448 60.386335725214295 0.9999301051755581 0.1650276631116867 -3.022385645848806 -3.1045937538146973 -6.9861846081798555 9.632686911163603 51.61243091462152 0.9936363628085548 0.1582731157541275 -2.2383201633397913 -3.095499277114868 -10.707486297450457 4.947969172203412 24.17083106187275 0.618980006247644
ID_e825cd6ba,0.13381989300251007 -2.854130543823688 -3.087535858154297 -35.28072900569772 7.581955194508799 48.14144667103894 0.7623189811074825 0.11225905269384384 0.19548121622817502 -3.0949196815490723 -28.425946580146487 7.543980215415265 46.650895476376775 0.9975971378808907 0.15142570436000824 0.42655823551644373 -3.0914828777313232 -26.42218980015517 8.24873372914948 48.01638411666348 0.999993809744076 0.16103675961494446 2.0900342282932383 -3.0967864990234375 7.622065273299104 8.576517969523627 45.233202084283995 0.9997503477221107 0.14727510511875153 1.9099084889551985 -3.078885078430176 -3.557457926845251 5.989233586666655 29.682319981229046 0.9784635966423966 0.15530061721801758 1.7663055055317425 -3.0799970626831055 -2.939526296550791 5.659403766391876 27.503062630859127 0.8746886027840176 0.14409048855304718 1.7446348986754907 -3.087780475616455 16.919719475640164 13.082334549803814 64.98351837625836 0.9903458397107441 0.15483927726745605 2.021384468703342 -3.1237258911132812 19.662363899202134 12.034560848443387 57.60348938547294 0.9999723856294255 0.17544463276863098 2.0740408496091267 -3.1233692169189453 31.101318032049246 13.568207621609933 66.67190338604769 0.9999981669945502
ID_984c81491,0.18149717152118683 -0.02974949762514748 -3.084728717803955 20.51688718806137 10.22308115245369 44.58310161695966 0.9999970929482442 0.17731761932373047 -0.06998712081583582 -3.0872838497161865 5.680855543889135 3.389932703579422 13.806056078194885 0.9952898484311024 0.17107975482940674 0.0031376423976263116 -3.0685367584228516 19.663553702659588 8.456680321068134 32.79085442782747 0.9998316545948901
ID_886b3e1ee,0.15547731518745422 -0.14684822493742253 -3.097259044647217 3.2538873296960893 12.813374450156102 71.09662324239022 0.9999999999985618 0.14825278520584106 -3.1262545452161743 -3.1144301891326904 -8.989436008366066 4.159126301234649 20.220854878461132 0.9999994616222295 0.16125160455703735 0.02427751177170025 -3.0958211421966553 -0.4119567538802676 6.328091032405392 30.177189251156705 0.9999677211614143 0.13419553637504578 -2.9172728059013 -3.0735809803009033 14.29961307954535 7.182801514892155 35.217462326216825 0.9999897129494959 0.16716575622558594 -3.1103214515065387 -3.111521005630493 -11.320731300332334 3.8901173896369117 17.69456565384055 0.9952641522939507 0.15728220343589783 -2.9489127616536384 -3.065410614013672 13.51612153284996 6.464266031992854 29.253023862856512 0.8765701235445339
ID_95e5e13ae,0.14999476075172424 -0.05054795960192234 -3.107494831085205 -9.881457269690632 15.074255864798083 82.46678383028578 0.9999999848187449 0.11541798710823059 3.0506373708419323 -3.1020922660827637 -9.603051603238459 2.943114007503728 13.671832951818748 0.9767369194513992 0.1596674770116806 0.025073848828892197 -3.100261926651001 -5.038359295049687 4.430917136499683 17.890009173019006 0.9652865584937201
ID_aa7aa518e,0.17704591155052185 3.0930004321840374 -3.121217727661133 -3.78143881163702 14.911466829654678 87.15461996367799 0.995311484549334 0.15980926156044006 2.9923530614286786 -3.1158089637756348 -5.421016681835096 8.91373218296537 51.258539268691884 0.999999988211009 0.1560608446598053 0.021431506365976134 -3.0919055938720703 4.972393284389599 14.888197183623305 83.62184376924903 0.9999999999299309 0.16318437457084656 -0.0240257895193233 -3.0949313640594482 5.00899714066876 11.557176625937695 63.44275022974347 0.999999999979515 0.15465253591537476 0.43295789944089935 -3.0839169025421143 -11.284563503910816 3.540231830420361 18.5195237398352 0.9832224338500307 0.16364313662052155 3.133624025378326 -3.1180484294891357 -5.45509941675583 6.810871136925396 35.29296253055395 0.999902913576765 0.13556523621082306 -0.021176605251666276 -3.098327159881592 0.5578153570185633 6.002969952450021 30.389790798062354 0.999997574126583 0.15427260100841522 1.5984831283225103 -3.100983142852783 12.029224264980549 7.684894345931779 37.177215362754566 0.9987418867759358 0.15871231257915497 3.136852996797571 -3.113414764404297 -4.904613135884123 4.194474524102566 19.044896960283673 0.999999989107483
ID_5ef969c1f,0.14837941527366638 -0.07895134480234775 -3.1041183471679688 -2.431241318565444 17.025540769135723 97.00498492457947 0.9999775878498458 0.1358080804347992 -0.10216525283593517 -3.107914447784424 4.741017743189559 13.596657327621012 75.86941133378045 0.9997793639925572 0.14166951179504395 0.07285820608842894 -3.096008062362671 3.9186240687793696 8.042806156831007 40.785628660898375 0.996676567701555 0.14179947972297668 3.0886103624562264 -3.1120872497558594 8.898305417435074 4.964718697895496 25.131170594085056 0.9999513667868811 0.14988242089748383 1.236430615779811 -3.0784292221069336 7.529281910839017 3.964354907355605 16.878780722644535 0.9925188489649958
