ImageId,PredictionString
ID_18fb86d04,
ID_ce06d4dc1,0.14060676097869873 0.016735832437353586 -3.092644214630127 -10.149761954996057 5.241751417427703 30.282646417659798 0.6848266460221256
ID_afe07078f,0.10473090410232544 -2.987514814616176 -3.076242208480835 -23.740073027970446 19.044539927706754 120.01410706359187 0.9793231464818699 0.12750203907489777 -3.0992635394195487 -3.1002516746520996 -16.76056872872718 7.114492111807685 45.92496563626281 0.9999871436100303 0.15147589147090912 0.07002433102429052 -3.0982069969177246 -11.794393287023215 16.058568167912917 97.63014022920291 0.9999993907352138 0.12920299172401428 0.07216399511049655 -3.095093250274658 -9.477350927618474 17.408074817666705 104.94814669769119 0.9038526039402633 0.12714014947414398 -0.02674372786510521 -3.10317325592041 -4.856077204498979 13.453294259194209 81.32860762891363 0.9999978576213803 0.1611986756324768 3.024372496433636 -3.0982232093811035 -15.576441734107199 4.467548372413358 28.38388365415063 0.9997215334477563 0.13373705744743347 -0.03408497675304583 -3.1096596717834473 6.479103290906635 10.39421368208249 59.52753575204277 0.984098385079458 0.13707837462425232 -0.006406987501084366 -3.089542865753174 20.471215248247788 26.274782441154997 144.77712261185903 0.9999955537807511 0.16516992449760437 0.014008628720887232 -3.069786310195923 10.869705945683608 11.696890766751656 63.65689392783337 0.9999976932300348 0.13228729367256165 0.07918096479524155 -3.070192813873291 8.783966092503357 6.893009208351525 35.52898764612331 0.7109280829037324 0.17013265192508698 0.03882605491785388 -3.0914201736450195 9.447895191833647 6.057130397942232 30.66117411372598 0.9999902423002718 0.1412680447101593 -0.055277956234306244 -3.085655927658081 8.215285476376126 4.5163508503396015 20.405921340024243 0.9995030101574278
ID_37caf75aa,0.15248990058898926 -0.03064746321163558 -3.0853934288024902 -26.238230758654986 6.557558847723322 41.00203812125898 0.9999857331747992 0.1270364373922348 -0.005993168155444649 -3.0877604484558105 -21.377016395644315 8.718653143810759 53.5571649217086 0.9999993550332714 0.14412736892700195 0.007368932026698953 -3.0725491046905518 -27.390615256806708 11.862348020112282 75.48903248540188 0.9994566559120039 0.1436436027288437 0.1326777850609144 -3.049656867980957 -17.555591355586035 12.702319025996182 77.85476454836572 0.9777417835340991 0.16976948082447052 0.07280557388617097 -3.083216667175293 -15.707212800709593 13.083848357235034 79.533126575124 0.987149954006874 0.16554997861385345 0.017417840263308698 -3.085317611694336 -16.476460837157244 10.883866995609253 62.88595361250011 0.9999989165056975 0.16463422775268555 0.1285102558598408 -3.0992183685302734 -10.641699590978746 10.92568039897657 62.000483378153014 0.9999997982279875 0.16359783709049225 0.0074121901240172755 -3.0935769081115723 -11.703291714238791 14.809568226368471 87.12226323205864 0.9999997721509808 0.12817895412445068 0.172177119837662 -3.085615873336792 -6.830186386116056 12.462467700278527 71.90169386587367 0.9999999372018178 0.14621160924434662 0.07553205786014751 -3.1010217666625977 -6.743680249340426 4.0457498282563 18.465845824453005 0.9994314718124222 0.08115819096565247 0.1903039541035201 -3.102356433868408 6.371800504843469 3.480521160569471 9.879899024991019 0.9915263828683207
ID_7655363ca,0.16689172387123108 2.930279076576709 -3.0840487480163574 -21.108636053886546 5.8715326042537805 36.23532950881696 0.9996673142361446 0.16012319922447205 -3.046511704329535 -3.1204729080200195 -20.801634259279446 7.4306198397034855 42.77030661223396 0.9999999986439345 0.1429295837879181 -3.0012790636908253 -3.0944530963897705 -22.915213936536603 9.304104980893515 53.840251221526046 0.9999994592913107 0.15087947249412537 1.5826502458765992 -3.0800538063049316 22.41679200589796 7.0556726152820355 31.85131741063342 0.9637088440685049 0.15324319899082184 2.0568934007788466 -3.108813762664795 8.115093118992954 5.090595449436584 20.360585893810466 0.9999992073649112
ID_ecb7edbb8,0.15411043167114258 -1.1458582112756526 -3.0971908569335938 10.220101086682108 7.159527691358694 36.84197665339956 0.7802914597810905 0.14089925587177277 -1.234704367085687 -3.102328300476074 1.2430035683115617 5.285540289140625 25.07745057426429 0.9999436388578776 0.140835240483284 -0.9101946470999299 -3.1297903060913086 7.518644110285953 4.577046533415377 22.178313136137092 0.958857796002687
ID_e3b680bf6,0.15370680391788483 0.02810609691843428 -3.081604242324829 -4.710082244330311 13.911342829232394 79.2923272692968 0.9999877886593437 0.16115929186344147 0.010482675140509929 -3.081256628036499 -2.810585984734258 11.27757972454944 64.81566157590076 0.9999997257028681 0.14926207065582275 -0.001298789872578092 -3.0960943698883057 -4.582770168763514 9.259088337437715 49.516987909037006 0.9999976029558344 0.15600959956645966 0.014338277257943417 -3.0849862098693848 -0.5985613005966627 7.875196690491774 40.293499931078124 0.999998803922902 0.15923945605754852 0.030753359710517694 -3.0789883136749268 6.548547272213118 13.170182813382162 68.81294162007127 0.9993670845464985 0.14517731964588165 -0.03827225999472501 -3.0916829109191895 -3.330691960073265 3.199957683720847 12.173808509104223 0.9999999773369398
ID_c51c8de2b,0.1456122249364853 -0.02337004772128111 -3.0994393825531006 3.8788506982375974 15.251375859341952 86.37256350766346 0.8881071402217207 0.15475916862487793 -3.1233231049133106 -3.097064256668091 18.005514467875223 11.520824599026463 61.570642747147396 0.9350448226847525 0.1568104773759842 3.1147978323221635 -3.1083312034606934 18.556300003059082 10.768666443946769 57.44325578778773 0.9999745696832846 0.1439187377691269 3.1161731081034185 -3.098304510116577 16.3122808546466 8.607695892473599 46.11475783116905 0.9999968640821068 0.16376206278800964 -2.551364254154402 -3.095360279083252 4.345164621389304 1.2547187524523677 6.961696479302899 0.9987608102376708 0.15873196721076965 0.012261169957419871 -3.085090398788452 -3.3363781988694243 10.381573567115044 53.94942075939928 0.9997686574886506 0.1572517454624176 -0.043812796565423036 -3.1003243923187256 0.703016967495278 7.241786458158902 38.53310953019159 0.9978097653326132 0.1364593207836151 3.1080584367240895 -3.106235980987549 13.1470157251116 10.30812443505073 53.79305742419932 0.9768234221695294 0.15353068709373474 3.056940315183388 -3.1185407638549805 18.03517103408873 8.91058861579347 45.10613317706577 0.9997840141360766 0.13803038001060486 3.0686401660191422 -3.1031439304351807 80.834995394451 35.00052077608054 180.4741486502463 0.834491527535553 0.16458141803741455 -3.1269630997163915 -3.1115758419036865 20.568272752290802 8.060583011200592 40.585782067759574 0.9999999949009597 0.1640309989452362 0.005329740596065183 -3.0998477935791016 4.325171672619959 7.9031442501007065 37.78935067385254 0.9709039354733063 0.15809403359889984 0.007038754208265757 -3.0872409343719482 0.04874999621437173 4.591953543465042 19.497527182137738 0.999896395445171
ID_bbe2505b7,0.16056782007217407 2.4609486969629217 -3.0979652404785156 -4.414999924412462 3.972715306121174 19.454711675670325 0.9938642956056066 0.1761971116065979 2.3380990374827593 -3.096841335296631 -2.4781789555665927 6.737532660852542 32.26619150078577 0.9963554799763481 0.17823858559131622 2.4016961267991044 -3.1119885444641113 0.0611632565353006 7.367331734824517 36.60003553269403 0.9999874680558424 0.1715485155582428 2.4444218346097495 -3.1042208671569824 2.345355881075313 6.442137544240145 30.705979158777446 0.9999998280812019 0.1766807585954666 1.9406051209902793 -3.1054515838623047 8.89980465234567 8.431069555207214 40.42919691531783 0.9999871606044116 0.16233710944652557 2.3033703812857436 -3.096503734588623 15.149636336942022 8.75426280559827 42.53606498244977 0.9999836094515455
ID_b2f337d86,0.16319908201694489 -3.09068127266307 -3.1131653785705566 -20.153991452160025 6.727494814700672 36.08508199647726 0.7220417392163592 0.1370764672756195 3.0191471218536514 -3.1102540493011475 -15.205930371421143 5.043452990676161 24.95874867503421 0.9983599770451421 0.14085406064987183 0.011045422126073038 -3.09455943107605 -3.993338982918494 8.705368812510047 43.179100263104104 0.9998403333764142 0.1660480499267578 -0.0421850039755319 -3.095648765563965 4.052258717972037 9.155883224455375 42.823255460682816 0.9996994822283964 0.1849491000175476 0.06271077591992262 -3.0791802406311035 9.717525875404421 8.00623903953532 34.97133630496596 0.9999999683689015 0.16139689087867737 0.015484413939852762 -3.076754570007324 -3.488137587446339 4.695697400036515 18.99746650675257 0.9999885166116586 0.1609591245651245 -0.10981220450157962 -3.079803943634033 9.54858825951089 4.8947762698217145 18.77669875399487 0.9139835780342997 0.17097076773643494 -0.03503010133007044 -3.081108570098877 7.420857549845574 5.279830679618179 19.187452513506763 0.9999996486734615 0.15358670055866241 -0.02717893740327464 -3.0854969024658203 10.997474243884767 4.880297328992394 16.647055745156315 0.999904187831319
ID_99bc4d11b,0.167256698012352 -1.935357530190749 -3.0949041843414307 12.554173857479086 18.009562671542433 101.2504270973482 0.987913520482403 0.15657386183738708 -0.10338047242514287 -3.0976574420928955 17.285843796170212 16.81007293517193 92.03276281165913 0.992206982079016 0.17469346523284912 0.3995903448899917 -3.0937623977661133 353.7371628951207 260.2769455417173 1430.1615264909046 0.9884416056301975 0.17492520809173584 0.025970641467165226 -3.0717971324920654 13.788964389545404 9.240638851299433 49.73788372359762 0.9631692124631527 0.14208976924419403 0.022107340217123284 -3.08817458152771 12.20440019953884 7.71899971582549 41.70958760717098 0.8373518605466003 0.1497604250907898 -0.08643480207345312 -3.0907225608825684 10.04355339639728 5.859373791506939 29.660977358653874 0.999734925161925 0.16331107914447784 -0.04602486263212848 -3.0824735164642334 8.2629132040462 4.328112794638659 20.63659510302812 0.9999947533726904 0.16617117822170258 -0.021980403663029693 -3.0802793502807617 2.396214000112625 5.648454944719929 25.66626216399097 0.9999951297800903 0.15587632358074188 -0.04368244681188073 -3.0819954872131348 7.124276921202913 3.2235626535716584 12.879452109373826 0.7419232750124524
ID_9bd02b06b,0.15441086888313293 -0.10286749803837415 -3.1308302879333496 -17.658770403114012 13.892222379178701 83.58570248819706 0.8901196649597063 0.13575579226016998 -3.099012221845862 -3.0939972400665283 -13.813616915738667 14.96728360655297 89.86249401685308 0.9915250323511572 0.1444605141878128 -3.0572138124886243 -3.1055073738098145 -12.483486406434556 7.959447801148661 45.87316773566767 0.7589639788761289 0.15020078420639038 -3.125511934922416 -3.112325668334961 -11.170108194925701 10.729528963601357 60.90548644901279 0.8985627947090827 0.14020086824893951 -3.1172058720498055 -3.117870330810547 -13.831207850837064 6.780020412211821 35.800514961448414 0.9999999995899862 0.15370388329029083 -0.0238963522894029 -3.099040985107422 -4.646269189787008 5.783740291729017 30.902104034331796 0.9999994194504853 0.16123194992542267 0.048637559558830465 -3.091639280319214 -2.0634178072028586 5.16547369936508 27.521908391672504 0.691598819066009 0.13470035791397095 -3.073625460539189 -3.118846893310547 -15.519138072830213 4.932533798937697 24.251493811643442 0.999999999682539 0.1492973417043686 0.023988036214189115 -3.096179485321045 -4.691739264912067 2.9058701569993493 9.065141528868878 0.9999984783471936
ID_3eb110281,0.17175889015197754 1.7495620710721238 -3.1319875717163086 -22.00701425220705 9.278737655040786 53.63319660650305 0.7242651740817163 0.13553903996944427 3.076279893622597 -3.0900216102600098 -0.21895160016765447 21.71263109566406 124.08747035882821 0.9999795976088438 0.14031802117824554 3.1228898230276965 -3.105679512023926 -4.476955560312394 9.495808184182412 51.36288796794827 0.9999910000306597 0.18293175101280212 -0.01973735937648702 -3.0862555503845215 1.5994676212531167 9.256941454411068 49.222034324365985 0.9541669059322272 0.2442372441291809 0.049007788857056304 -3.09734845161438 1.556615368744643 9.426404110302949 45.82424133052274 0.9573724279912518 0.19914188981056213 -0.0557329911819698 -3.099393844604492 3.977645975720511 8.72021653195599 41.252982801712 0.993251898360497 0.1625388264656067 0.06586856090138682 -3.0494258403778076 7.864339649697019 10.162021219748143 49.31580721857432 0.9985353035531739 0.15211883187294006 -0.02023068624350425 -3.0813236236572266 3.8074279731837537 4.017042351443967 13.704387843639815 0.9999999992118587
ID_223276b96,0.14187009632587433 -3.1064213589234364 -3.095310688018799 -16.775261792504892 8.230425925473991 44.164588608291005 0.5845743080651958 0.16739419102668762 0.9282267199330944 -3.0738186836242676 2.62458396765908 8.453028789339582 41.78227792618768 0.9993698325483849 0.16987474262714386 1.2417518275001886 -3.094233512878418 6.0245543718446655 7.40793496371697 35.330557339602315 0.9999969194613496 0.15198582410812378 -1.4619779348126172 -3.0896527767181396 -1.3088874530618655 6.594071083207516 30.167588591611157 0.9996425384601602 0.16764354705810547 -1.4694019963736231 -3.0942306518554688 10.98937679922958 7.827682088111056 35.021754791635715 0.9999994913444283 0.1672644168138504 1.4593887206866247 -3.087080478668213 15.087078966141224 8.646006882223068 39.1214728355763 0.9959391141809002
ID_1f8605bdc,0.14454828202724457 -0.02122009244397003 -3.0962066650390625 -9.473382764375264 5.220504883519995 23.939071207357394 0.999999985785837 0.1782298982143402 -0.011397928116127295 -3.104217767715454 -5.07451268055723 6.120499773926213 28.159191797623016 0.9999999958164061 0.1431286782026291 0.03268714046801933 -3.09096622467041 -4.28867427185727 4.138217270066535 15.927975578806533 0.6925769622277962
ID_089d5b041,0.1487598717212677 0.02527847136981572 -3.1045494079589844 -9.227644348201878 4.794138360872079 21.79207310615354 0.999999992548947 0.1458694487810135 -0.19938848607630627 -3.076931953430176 -4.186970450781086 6.0839828593509235 27.84283830794372 0.9970004579899818 0.1756257563829422 0.026675855719658494 -3.0877187252044678 -10.922373594872584 3.6955458448855034 15.677012750844678 0.9999998725187729 0.16594797372817993 0.05567648289929937 -3.0640106201171875 -7.378501511786736 4.511505826616573 19.494064838686967 0.7391620010153489 0.15373936295509338 -0.0320774867682243 -3.0834126472473145 -7.178591249366132 3.2090517660963984 12.855440127425005 0.9999999419418903
ID_b4fc9fa2c,0.1604672074317932 3.1319335318727566 -3.1272425651550293 -9.904064238053676 13.070726394671086 75.49172666796487 0.9927772099562561 0.1529555767774582 0.02506291104433137 -3.0861968994140625 2.015515975671891 8.837048290621128 45.18485092137504 0.9999999999420301 0.15453951060771942 -0.0331271919169642 -3.101565361022949 -0.36735684697853943 5.70312142397732 27.74448539243975 0.99981300467888 0.16243478655815125 0.02604394006110148 -3.0910348892211914 2.3861838504865807 5.551406981221102 26.34320094699584 0.9867598210319912 0.16770818829536438 3.1378807194278244 -3.123974084854126 -4.991871077192536 4.080457285633818 16.407425701642097 0.9997573302647809 0.15729063749313354 0.03703929874845905 -3.087667942047119 3.4947180406298153 4.470945195802275 16.1074508577974 0.9999974690138455
ID_0a2bb53de,0.1647339016199112 -3.1393339165898695 -3.1134331226348877 -34.298521821928944 14.213176915179444 90.73262821076409 0.9999176879738124 0.16569288074970245 -3.072586384151676 -3.1247811317443848 -28.360469566454576 8.07099905571377 46.64007509377317 0.9999846395798391 0.16097992658615112 -3.1249725236353454 -3.112581729888916 -17.851964402178087 6.265904658651514 35.543099045789006 0.9999986860017529 0.14285728335380554 0.11005418309568547 -3.072805404663086 -11.841202262731498 8.0069671729255 46.091014250497985 0.9975552948047709 0.16475488245487213 0.037695947662810945 -3.0973949432373047 -11.857370887147288 7.65471205182952 40.41406656732892 0.9999999997319926 0.16642343997955322 0.015389682234723414 -3.0762388706207275 -9.205096030296021 8.129609500212425 42.84022087286359 0.9999999991715642 0.17902466654777527 0.0233464546863612 -3.053367853164673 -9.235572279022698 8.659011038412597 45.71558545471044 0.9925593294435342 0.1719685196876526 0.07352402043069257 -3.069530487060547 -8.635191814107602 8.929702546147151 47.804555222688286 0.9974728522818371 0.18489623069763184 0.21971171981457102 -3.0696816444396973 1.2479391273351748 8.899857904039994 45.96734478587828 0.9999998063147564 0.15366852283477783 0.017202142666258455 -3.0779097080230713 -6.901066161527601 5.763565748952202 28.20759963316867 0.9999999999645253 0.1473129838705063 0.06263601008602274 -3.093691110610962 -4.097351162050156 6.800757744045567 32.64900713195249 0.9916846028719842 0.17045512795448303 0.08316313792221779 -3.0829901695251465 2.956402986809189 7.689865202628357 38.05323253510492 0.9999999958505303 0.15834322571754456 -2.3614171918252005 -3.093764305114746 10.9973279806812 6.760499015357502 30.971676111256848 0.9966507372363669 0.16522546112537384 0.10637114818611648 -3.0813369750976562 3.4978106145065024 5.831135077206034 24.312251498598307 0.9999672020083312 0.15289542078971863 0.058744929936763966 -3.078117609024048 4.249673491137812 4.899633231416446 19.61610168222166 0.9999996718849158 0.14767113327980042 0.05364569107297772 -3.083461284637451 4.745084869632859 4.276160063848954 15.385282039673115 0.9997518962643372 0.16627463698387146 0.07607533582249122 -3.0445947647094727 4.363255024891918 2.8446966782526064 8.178219787605107 0.999115363319958
ID_58921d231,0.1727488934993744 0.045419757590899945 -3.0946311950683594 3.680266013089724 4.692781452561874 18.487389044753577 0.999999983464104 0.16583804786205292 0.011565989190420116 -3.1008872985839844 -3.8080197457232727 4.910025381686562 18.014147682754622 0.9836614958728062 0.16837872564792633 0.06395820423499383 -3.0885491371154785 11.007414328022616 6.846011308571503 23.83129360174719 0.9998295381248974 0.16639675199985504 -0.1253820574738972 -3.054727077484131 8.862349822867706 4.478231111425253 14.052190429557037 0.5130747513101174
ID_f89d8e6cd,0.16408514976501465 0.12485868361933844 -3.0804882049560547 -4.203560192100652 8.966001958599188 47.20133255363866 0.9999909193344728 0.16363006830215454 0.10815231274706297 -3.085538864135742 -0.49877563869435054 7.136474299105644 38.00972412465112 0.9993693152113133 0.17077438533306122 -0.06570645690427522 -3.1024866104125977 2.797506456175058 8.838348606451095 46.93912278054254 0.9999283526745517 0.15632404386997223 -0.005090681265806488 -3.095001220703125 -3.3386631868497463 6.43062201746263 30.753203918832988 0.9861751844760694 0.15319368243217468 0.03656421060044231 -3.0775740146636963 3.934943677935032 7.654863551769935 37.21820961753232 0.9999997759043215 0.15643268823623657 -0.008141548066029054 -3.0896949768066406 3.542971567547719 4.52611632648274 19.373674690755394 0.9999976022332443 0.17925776541233063 0.06782223730255649 -3.0735654830932617 -0.2017481736481714 3.934270606899017 15.767088532483346 0.9855513736610876
ID_9f9c04c6f,0.13360479474067688 2.9730226611673753 -3.0739006996154785 17.92658332231797 12.30361746645219 68.51883528554478 0.9620766711245361 0.1430412232875824 0.010891255780064236 -3.0941669940948486 -8.440931867195316 16.706805039620416 97.19939150577906 0.9874539514069213 0.16301214694976807 -0.009477644127526507 -3.0790722370147705 -5.424512814324964 23.630058765429144 137.7173009229545 0.999064513934347 0.14951422810554504 -0.0005627837985300423 -3.1008338928222656 -3.022003173810359 18.955227841097248 108.44925899389447 0.97805431084261 0.14165019989013672 0.008606334467538248 -3.0948996543884277 -0.23265316680629727 14.131629038348814 80.87625231991932 0.9862598703010127 0.148599773645401 -3.1073709573798474 -3.086757183074951 3.6029642170074663 19.35148584679411 109.37228757744377 0.940739303521238 0.1507299691438675 -3.1342080218829427 -3.121227741241455 5.176513590677758 9.928480307781061 54.608736708621116 0.7558956238590694 0.14511620998382568 -2.674608183732997 -3.103877544403076 199.31310595748982 191.68421306906558 1070.1707569933528 0.9999998363800114 0.1389346718788147 -0.0301890123347401 -3.0989747047424316 -7.4426384715090474 9.097522209149258 48.65249405739801 0.9998878735141206 0.15998925268650055 0.06222343758294727 -3.106494426727295 -3.6975433373047597 9.42515692275987 49.59219605660198 0.999998403046383 0.1618698686361313 -0.027443254172398568 -3.079895496368408 2.126584138836335 6.78442567588357 32.38063477490592 0.851069411991757 0.13736344873905182 3.1005733476844273 -3.119220733642578 9.096396794819746 5.23381922378055 23.647007346183653 0.9998929798552098 0.1491807997226715 0.0095717884814581 -3.0883066654205322 2.5992813767632827 3.9332016155593337 16.720072925126324 0.9997870880880384
ID_0591a0910,0.1465291976928711 -0.0102008984272816 -3.0941500663757324 -20.49214511921141 12.811930272900549 74.71311003895555 0.8624282806007963 0.13683293759822845 -0.01712988470198781 -3.101428985595703 -15.691942009686569 13.711086800577341 78.15276891918931 0.9998405127733638 0.17177234590053558 -0.08063037251674868 -3.086660861968994 -16.070245976909703 16.43078659164268 96.24253835927173 0.8411087261538005 0.17552132904529572 -0.1153952964827098 -3.0975260734558105 -17.09825399232684 19.64593654975256 115.29690941176591 0.8476441843987101 0.17547115683555603 0.05660914986341257 -3.0546505451202393 -19.76305338297146 6.085402015828706 32.43918667055723 0.9115771435148199 0.1625870168209076 0.09771438983080129 -3.089367151260376 -17.395857631520773 9.02055652854596 48.37268753656141 0.5216814350125049 0.1314833164215088 -0.014487262324266687 -3.031041145324707 -10.484567022982992 6.59812429586159 32.811593199095924 0.6772705488432657 0.1627388894557953 -0.10203088031865341 -3.0836284160614014 -4.058540968998341 8.73283611266852 43.28245267267083 0.9968983531128892 0.132078155875206 -0.03588602180490226 -3.0827858448028564 -13.402643786986728 4.598823959219271 21.43616159880916 0.9996323673565555 0.16466401517391205 0.029362633130411864 -3.085117816925049 2.664156469074397 8.893006707236713 41.5935877444969 0.9385028631709377 0.13551905751228333 -0.027116600502169665 -3.0658411979675293 -6.527226874332843 4.48594709907425 18.199025648828755 0.9995228702849527 0.13916441798210144 0.019391274481498813 -3.084280490875244 -3.330805427663652 5.390945753474825 22.168348474716527 0.9998871987480915 0.14968296885490417 0.03148012972741912 -3.0878806114196777 3.7117531201733156 4.519839801025244 17.133110761675372 0.974026222580309 0.14949241280555725 -0.00768760390152637 -3.084073066711426 -3.681127006665898 4.048264447455081 12.785248844536062 0.9998232961529475
ID_1a96a868e,0.13601753115653992 3.134712073736287 -3.097076177597046 -11.413350701314785 7.05825723753387 36.15221791015083 0.999999952049747 0.15774482488632202 -3.113984598203243 -3.1118931770324707 -11.957399009286227 8.157987267221806 43.20324014944979 0.9999999969981319 0.1762874573469162 -1.7119983103763874 -3.1103572845458984 -0.571443514483732 8.212944505625114 43.68888746140497 0.9949520718787205 0.14730338752269745 -3.1216029537179604 -3.1095404624938965 -10.913961110753048 6.2095072120784405 30.991702525487153 0.9999999798487846 0.16052457690238953 -1.809660392151653 -3.1174683570861816 10.761332374972294 7.598584337827975 36.165026682975714 0.9998982738862889 0.17043299973011017 -1.7192996659729944 -3.1066641807556152 13.848468545738386 6.2465547425318535 30.015608668362866 0.9995975475588814 0.15369483828544617 0.15818502603985393 -3.0838866233825684 -2.652647781167683 5.436111555260494 24.75966646787237 0.9991306036073316 0.15499535202980042 3.112585318692689 -3.108355760574341 -10.770105562471993 3.9595290056675148 17.211687653807125 0.9999999967493867 0.14964230358600616 0.16299104654060287 -3.082512378692627 0.027621034378964696 3.5800836855419003 12.831431973893714 0.9898964594622084
ID_f164fabf2,0.15140073001384735 -0.006295815372897331 -3.094409465789795 4.879879525238935 11.929671834070952 66.45624178234165 0.9704791647007629 0.16134388744831085 -0.004751030715800101 -3.110232353210449 5.618435357179509 11.06496080757964 57.974871988319194 0.9984019286190667 0.1544910967350006 -0.013950591636146717 -3.081165075302124 1.772551631036082 7.508860809800463 37.21370889636369 0.9999914546399764 0.15562066435813904 -0.016736556058015252 -3.103137731552124 4.182581128784129 6.143584807191934 29.19215529193327 0.9999986179014744 0.1200714036822319 -1.8287118119340153 -3.0669007301330566 -11.34152527834596 4.087858178845812 18.618282675774946 0.9988558684036979 0.16701680421829224 -1.7215800755608004 -3.081946611404419 -15.037753216771382 5.494735808432562 24.04327055186884 0.5305791600031511 0.17383833229541779 0.04343768924886216 -3.0756936073303223 -5.318408351765693 6.725447334760205 29.433379408025985 0.9999994554209034 0.16050013899803162 3.0714592343314306 -3.093411922454834 -4.841404816411893 4.166612980903527 14.504956307970255 0.9982686903570714 0.16364699602127075 -0.0016030693679490037 -3.0779027938842773 -5.367180862422986 3.533429092634995 9.795786487879292 0.9819376599059361 0.15114328265190125 0.06357129802036973 -3.083695411682129 2.7260960010884934 2.117255046608009 5.541214346908969 0.5002971268040821
ID_2749c3f78,0.14303649961948395 -1.583574607879214 -3.1050915718078613 -11.791200935822841 13.379302620905522 76.47177278520945 0.9999980337538553 0.16075655817985535 3.1252677782197673 -3.109818935394287 -7.571214921063577 17.408776283281927 101.760967685875 0.9999998815457685 0.18310929834842682 -0.08228825193519766 -3.0898430347442627 3.373142065858955 12.690763333192182 70.96788308850552 0.9085183498328009 0.13045582175254822 -0.20002022940721872 -3.088611602783203 0.010593991519928101 6.092961505081758 32.00603984030882 0.7138263516473862 0.1471889466047287 -0.1703264158448562 -3.112553119659424 3.292531617104295 9.986061263768738 53.28466803761278 0.997875654552691 0.15252277255058289 0.04530256371530006 -3.104135274887085 5.678523233697027 11.65661826457381 62.40943994771168 0.9999630579228121 0.1621512472629547 -3.12195316228076 -3.123793125152588 -9.143225848994518 4.917688973927286 23.975475132500897 0.9999999895370096 0.14315737783908844 0.05540132360736136 -3.0922906398773193 0.367022791679248 4.717989420462613 21.39499187473036 0.9999996243537613 0.18107081949710846 -0.0510746410201682 -3.0890564918518066 6.1529955570885395 5.846345121372707 26.896459982274003 0.9954690977517133 0.14879164099693298 3.1274288240350887 -3.1086273193359375 -9.207355586686734 3.2341717766975 13.764225618782584 0.9999893436068855 0.14866295456886292 0.04151464888668127 -3.0828819274902344 6.682598662194817 3.958414867528683 13.65701959938029 0.9999999866543112
ID_1a5257d65,0.16263437271118164 3.0474446291627784 -3.123806953430176 -33.27894254497862 17.01228581107829 106.57606229304824 0.9984431289087491 0.14266394078731537 3.0128622701522296 -3.1229407787323 -29.693230522071914 14.473375716061046 85.01904669767575 0.8463676045707651 0.16382500529289246 -3.1325121004979914 -3.1109306812286377 -12.745939222149122 8.468115053316868 49.11082420669816 0.9999989817619189 0.16057758033275604 0.01525185364357183 -3.1028480529785156 -3.7264517354980407 8.499658252465219 47.62282703254715 0.9999995757413652 0.14605191349983215 -0.3720340506100275 -3.097108840942383 11.97562937793939 11.3214292670701 60.5403256492604 0.9269797179385443 0.17940399050712585 0.02031369792283399 -3.0901689529418945 12.892151161117123 7.464734464914608 36.31802499297834 0.9998888076112014 0.16804823279380798 0.03607630884455301 -3.08359956741333 12.212244845032723 6.340605101224418 29.257050452724833 0.9999998907679147 0.158334419131279 0.011361161562478326 -3.105719804763794 12.59716390865354 5.74920333668339 24.924404919190884 0.745763389929928 0.1811431348323822 0.007443880459486287 -3.0709660053253174 13.518823590596153 5.418731134291691 20.476193726102387 0.9994373909423089
ID_e88770830,0.15506847202777863 3.13890325150936 -3.1065282821655273 -25.28474224459766 10.903573016014308 63.459467887913945 0.9999997905445651 0.16138502955436707 3.096930400687863 -3.113687515258789 -23.86080291093157 14.95211616461571 87.47961069570782 0.9999999999998372 0.15116189420223236 3.0996511710609753 -3.1135406494140625 -22.245741841391343 15.614464879053715 90.26149808885935 0.9997512935034357 0.16094490885734558 3.0594276785395413 -3.1139650344848633 -18.505130317243108 15.267526578641746 88.06884427363832 0.9999998340200582 0.17480355501174927 0.06014348082536088 -3.0846617221832275 -0.016510091955483204 14.490718555967712 77.77560697255335 0.9999968639595531 0.16130505502223969 0.022451360727502742 -3.0865373611450195 11.041122072421668 9.165853429893167 44.03425909607778 0.932351845172346 0.1749117225408554 -0.08039705347158058 -3.1004481315612793 12.583959102649608 8.148497343077562 36.498145605275255 0.9975594324067881 0.1832890808582306 0.08573176221263823 -3.063096284866333 13.274313681805365 7.955504208833603 34.24334288487071 0.9999999776907669 0.16442382335662842 0.002477637105066324 -3.0881259441375732 13.915583321681861 7.281471941142261 31.195282936126354 0.9999865129102596 0.1705564707517624 -0.011644067762323676 -3.0838963985443115 12.829384022558186 5.7973260322507105 23.189160227805395 0.9999909228414207 0.14988072216510773 -0.03799284315766066 -3.077821731567383 12.014895822907919 4.609597686267214 16.65485799315752 0.9999042667385147
ID_5eb629235,0.14471878111362457 0.006936656555118627 -3.0899951457977295 -3.0150974774318717 7.65007237900624 40.093788608332545 0.9812578891793052 0.16801397502422333 -3.0944883798679967 -3.1177849769592285 0.13932080661435586 10.558736507889142 56.86747160206959 0.8208937446923416 0.15055996179580688 -3.090121020909447 -3.098341941833496 1.8622725716416397 7.350095667677549 39.05468891499536 0.9999993596800444 0.204795241355896 -1.5269971981724164 -3.095679998397827 -10.851158636956686 5.954834594385894 29.40353915433221 0.9737566984791238 0.1407066285610199 0.8218224374006184 -3.094676971435547 -11.387846366108974 4.378566098555999 20.099473074654874 0.7358474060638318 0.15395724773406982 -3.1182584787705476 -3.09439754486084 5.362235046516064 3.353877208768444 13.931633532074105 0.9942329277814689
ID_3dc4de7a4,0.16815504431724548 3.108097414289136 -3.0810043811798096 -5.780676852761424 16.596668951738618 97.75252386226518 0.9995245430918939 0.16897781193256378 0.10008117532215756 -3.0778422355651855 4.835587332345426 7.615624563258772 38.572922452709385 0.9998283181605889 0.14988559484481812 0.044729546395108566 -3.089423179626465 4.550307027916267 6.258068184267002 31.810758671451868 0.5739559213548538 0.1616227626800537 -0.010924892082010225 -3.085866689682007 4.659637292725252 5.087804881565752 23.074460029637585 0.9999999195399163 0.16035965085029602 0.05346294701495441 -3.0702037811279297 3.7826620478106734 2.664399720206565 8.761032728083402 0.9996725855621537
ID_298d74636,0.16655084490776062 1.2322958210541264 -3.103632688522339 -14.444140029484057 11.719764769112832 68.0278888437346 0.8521378533762233 0.1576082408428192 1.772397890369422 -3.125481367111206 -15.844635307833167 8.984719583747195 48.164426205703045 0.6510879474721565 0.1640147864818573 -3.132459427592504 -3.1127660274505615 -10.63447915716257 8.248612284688784 43.97987089785869 0.9999999998874374 0.16076380014419556 0.019439508159655765 -3.0875039100646973 5.0949232725143 12.26903945210857 64.6391456041222 0.9989066576382214 0.10650558769702911 -0.03024739494249325 -3.0924441814422607 4.46420596827048 8.77511588262743 46.77062840185257 0.9474293995382774 0.16004441678524017 -3.1399960152552087 -3.1159565448760986 -9.827798172612631 5.681901052625147 27.98082687993263 0.9298756900323377 0.15489433705806732 -3.1348341916547176 -3.119694709777832 -10.693121589410435 7.813943214353012 39.24334576813252 0.9999999990170185 0.15690353512763977 -0.03805676062712181 -3.092355489730835 -1.8838691884902403 6.572076083718417 31.41377817435706 0.9999999572973 0.16034150123596191 0.5219533302063376 -3.086444854736328 6.273572847317685 6.942111129598401 33.09768705596372 0.529694626155079 0.19189602136611938 -0.2836486213736943 -3.1048402786254883 10.065458220803759 8.864325032602089 40.733595147014604 0.9998306906668886
ID_521f0b21f,0.12812919914722443 -3.089555817530904 3.0980029106140137 -14.592415649401465 4.533091466823207 23.898981911003347 0.8320716775612743 0.15215694904327393 -3.065150963642855 -3.113492012023926 -18.8633851354404 6.477940630751307 34.42519277426368 0.9999813255066758 0.15388432145118713 -1.8695128134412575 -3.0875818729400635 -11.129918200468067 12.59264519414283 68.13049398401411 0.9997645810722691 0.15118461847305298 0.03980705987852771 -3.096428871154785 -9.124870625059405 15.92193853405985 87.26404210347683 0.9999948422844221 0.15346911549568176 -2.979432847053805 -3.1087327003479004 -9.155349384604564 7.357591282993 36.49058853876109 0.8452271778879286 0.1763705462217331 0.01061689220151436 -3.083777904510498 -2.858135517922658 8.39753255595513 41.64887697850901 0.7449327839689438 0.16028553247451782 -0.03127758904167733 -3.07326602935791 6.454883271984621 13.495806563062477 68.16022358499255 0.9841014733282998 0.1707817167043686 -0.569579611621813 -3.0968587398529053 16.248633697846067 10.28395433179722 49.532477632454736 0.887587019652681 0.15182450413703918 -3.082063158773741 -3.112694263458252 -12.3602193269618 5.605740130378901 26.21929113281005 0.9999955595819116 0.18454769253730774 0.04697669384621761 -3.0792880058288574 4.7347427760745555 7.612619840393521 33.94046038752185 0.9889075165230137 0.1759820133447647 -0.6352652952618603 -3.0910189151763916 14.208433771504083 8.474968460899522 38.82476932864325 0.9999388939702557 0.1769578754901886 0.10191146815513676 -3.0708160400390625 5.365611096146819 6.713559125040249 28.78025662973683 0.9995960754816473 0.16177153587341309 -0.0005702192706471841 -3.083181381225586 9.40232786034701 7.7917542474356205 32.04019359138579 0.9999311572785669 0.1651776134967804 -0.06994370714054467 -3.073401927947998 7.410596360840194 5.431102572719578 20.913166053024195 0.9954896678216764 0.16849379241466522 -0.05315625585703274 -3.073516368865967 7.946453928806619 5.124335148297983 18.44649761918798 0.9999829378358231 0.15033170580863953 -0.0010704477146223663 -3.0873138904571533 9.639337867512241 4.321569792516024 12.813970446609446 0.7470623565949401
ID_f83fe5925,0.14948129653930664 3.059028125808135 -3.084148406982422 592.5778407388752 493.1989766549366 2737.902535800856 0.9999981496330425 0.14364896714687347 3.0026496391141793 -3.0890681743621826 348.8026613776517 271.5997013573208 1496.4463478550426 0.9998902243926948 0.15028011798858643 3.070561674971292 -3.1139941215515137 4.33107017122756 7.217181891992634 37.74786380750901 0.9999601352496136 0.17190688848495483 3.0374613579652165 -3.1103882789611816 7.720765395099187 7.415142506790743 37.728860666650974 0.999942958920354 0.13516220450401306 3.1027715842021366 -3.0581541061401367 14.545987550709038 7.693362341867974 35.008704662358525 0.9457042329700293 0.14528650045394897 3.0564512024556185 -3.102416515350342 10.222934998837278 5.210300795682604 22.1575126052243 0.9068106926046391 0.12523211538791656 3.064879006718864 -3.0787885189056396 10.623393271003678 3.9488520072187376 15.764587916606358 0.5183725751594253 0.17143061757087708 -3.1306445461584476 -3.088618040084839 8.859475621685139 3.5519124698984204 13.41894418003983 0.7072046180452926 0.16392715275287628 0.10337354949903492 -3.0836966037750244 -7.162572581198292 2.7871578153963954 9.997948259138322 0.8263729108133236
ID_818a14ac7,0.15784326195716858 -3.1099828959048397 -3.09251070022583 -31.872886874805474 7.512505279724349 46.474632620839174 0.999999954048333 0.1584823876619339 0.0886271171393801 -3.085439682006836 -31.093930260940315 12.379500269925362 77.94909737743113 0.9999999479363941 0.1789579689502716 3.0708853332893145 -3.108860492706299 -37.35127899384413 16.59648711910581 103.74437310342246 0.9999614770529273 0.15680702030658722 -0.732281962041462 -3.0728254318237305 -34.484669566136716 17.86393656844817 113.53713582869185 0.9999993815501812 0.12342134863138199 0.17264983390436905 -3.0710930824279785 -2.865651600296319 15.476538087096916 89.36699540348802 0.9990078973573538 0.15780317783355713 0.16522251203312122 -3.1076369285583496 -0.3533097031485708 28.27975749971259 164.5953458672196 0.999236202691787 0.14658747613430023 -0.11234082861853102 -3.0896294116973877 5.4932730495357145 6.8455144763498526 32.93296037117326 0.9999999772657647 0.15089353919029236 0.1721662555421245 -3.082601547241211 11.776449250529584 5.299615003845114 22.536116838477326 0.9999633153927184 0.1405983567237854 0.0050827692608016225 -3.082888603210449 2.3089307719533414 4.617732951012148 18.491113185918103 0.9999976353739365 0.1357131004333496 -0.1472808865506682 -3.069014310836792 12.624661632151293 4.202972167992856 16.816840712552885 0.752078769251514
ID_124673c47,0.15282464027404785 2.9821224248186162 -3.0855822563171387 -44.88483199574381 10.442624784318415 66.54315426465581 0.999676709334981 0.15301944315433502 3.037219323165829 -3.0648958683013916 -36.000671323758226 10.98376613790507 67.21128594182917 0.9992008410501999 0.19700106978416443 -0.4058095387260439 -3.0938353538513184 -11.276165949597557 9.233043642279677 53.43696982594286 0.7480157128983499 0.19901959598064423 -1.1853467526196557 -3.1125619411468506 -11.441009794281618 10.058937966859109 56.688511475305724 0.9838577254459362 0.1799425482749939 0.09341502750351462 -3.078622817993164 -8.289525542225794 15.967616547322287 92.3410272052171 0.9994559202692864
ID_35e87c9c8,0.18048729002475739 -0.02123956768753838 -3.081733226776123 -0.38165521076520303 4.185087753222408 15.118076937518913 0.9055964371443731 0.1595086306333542 -0.08771301198604094 -3.075164794921875 -3.1269432035112823 4.97659577983111 13.796631982600953 0.9413824961304962
ID_fe4a3f32a,0.17567192018032074 -0.017914002820439298 -3.084122896194458 2.181831449569733 12.942376732863712 72.90905029497236 0.9999998307170161 0.1667255163192749 -0.07883728563043908 -3.101017475128174 2.763323028738785 6.725958109371288 35.59668074486749 0.999999737435315 0.15965698659420013 0.04206667892693437 -3.0760061740875244 2.9765164321028914 6.291074324000421 31.259255393954927 0.7125105097344641 0.17533642053604126 -0.01971750273367118 -3.0920846462249756 3.0780553015589525 5.76064817199803 28.099186625482734 0.9985962790296705 0.16542869806289673 0.009883704746518222 -3.067870616912842 7.00118176027583 9.23326591152922 45.74481259224908 0.9999999999998521 0.1514114886522293 -0.004596579155701802 -3.0866665840148926 6.966500838546149 7.699305041389318 36.82818382014676 0.9999999943241704 0.18033446371555328 -0.0305379554077672 -3.0863113403320312 6.413332839265339 5.414358351900837 23.32204133276371 0.9228268798622152 0.15324313938617706 -3.115729918544591 -3.1219162940979004 -5.618611550110822 3.5442951024600906 14.217437803781642 0.999958864955762
ID_b4803dad5,0.1534799188375473 -0.004555380135993453 -3.0693633556365967 1.7161184922038355 10.637792199867848 56.59700940962447 0.7916725070853589 0.17657698690891266 0.014654015058819287 -3.082495927810669 2.839976570467675 8.521442678741804 45.26377330658929 0.9879244470407444 0.15777593851089478 -0.019697500367648963 -3.0965261459350586 -0.8476579370726849 5.725776939911083 27.509428002460915 0.9999998429591093 0.1342988908290863 0.0020454812990006233 -3.0902295112609863 4.659609580587617 8.70503008327288 43.152314528207945 0.9999914979984876 0.14840765297412872 0.07432917871175683 -3.0919978618621826 7.09927947030354 3.740627322376542 14.385623772936627 0.9976627814145618 0.16367670893669128 0.0066247062669131 -3.085528612136841 2.984706466580018 3.340373493421754 11.413089617666534 0.9999970918197952
ID_8edf7f1e2,0.14228853583335876 3.126609213745748 -3.091660976409912 -30.670859698302372 12.705258875193262 74.73925025484809 0.9999901362780073 0.15532609820365906 0.04066545438498875 -3.087338924407959 1.4413725997838698 15.231272686696066 86.57220513554368 0.9999977993284801 0.18537648022174835 0.05475197876546113 -3.090203046798706 15.398776640511093 7.221656292696843 31.2072028397474 0.9999900590106867
ID_32f8110e0,0.17548495531082153 3.088990561751278 -3.119044542312622 -4019874617.016452 2416411661.883228 15545545786.17305 0.9999999999895006 0.1452236920595169 2.9741106211639217 -3.1048779487609863 -24.704071999520465 16.337033394209225 101.94350525384388 0.9999968465469318 0.14859341084957123 3.140494359926042 -3.086576461791992 -10778104.090337392 8011624.043313881 50769177.348390184 0.9999535996897485 0.168660506606102 -2.8173798196574196 -3.107301712036133 -19.6494743227781 5.627008561876521 34.58704948427069 0.9954203635166664 0.11935290694236755 -3.096229947874299 -3.1057186126708984 -16.323264464467673 5.613332420171628 34.417462348973515 0.9999916309261716 0.13073326647281647 -3.059644248199972 -3.0891780853271484 -13.50200093078053 5.757881401281255 35.48877053010268 0.9985727998250943 0.13535605370998383 3.092389779711098 -3.1196439266204834 -17.309226253272058 9.292995033890234 56.513878328009405 0.9999999999999987 0.15484851598739624 0.05467288516468769 -3.0804762840270996 -37.24571579043393 57.369427230752144 344.2558631839462 0.999999999999668 0.15632931888103485 0.020875361123025973 -3.079420566558838 -2.6453636262325206 9.777063131352318 55.76071353166969 0.9999999978377572 0.15801012516021729 -0.0004014255732386112 -3.0932512283325195 -0.7476197361221419 5.3505526695818855 25.39907961120054 0.9999987234025792
ID_c441a81c5,0.13503269851207733 -3.050710647813913 -3.101609230041504 -15.230239234756441 24.734824361437187 143.58102689626233 0.9997449690230112 0.15102963149547577 3.1405914971249245 -3.0991125106811523 -8.512879316857235 19.00357604028571 110.97704429510297 0.99999999922128 0.18530362844467163 3.04430183378786 -3.0841879844665527 -10.495658951581545 30.407846082425134 177.2696566658873 0.6658030427009707 0.1479620337486267 0.04800238604697124 -3.096198558807373 1.7551826313315668 19.10578444118224 109.45687602873457 0.9999999981397063 0.14165560901165009 3.1132077346070206 -3.118906021118164 -11.64093618593105 8.928809830605221 46.841960837740146 0.9999998924675539 0.14731952548027039 -3.092589735124527 -3.111419677734375 -10.955469846603755 5.249352923505277 25.642982125317822 0.9999986154186743
ID_6f1cbf7b8,0.1402488499879837 0.008690091966771583 -3.101041555404663 -13.249269035439415 10.788806819968528 65.48111448681733 0.9999999999981688 0.1383039355278015 0.07472408472698025 -3.081805467605591 -16.52595698831689 15.137885295130355 91.36879156942976 0.9999996033834161 0.15084308385849 -0.01854207001693575 -3.1003522872924805 -8.650504652597736 10.744937046661128 63.89603571683835 0.9999999998421161 0.15590497851371765 0.3996058313226051 -3.061890125274658 -11.549936909192887 16.165000015580446 96.3567376137135 0.9765551013308664 0.17977824807167053 0.0961257259646459 -3.068770408630371 -7.331977567115045 13.8820496255417 82.12584080859494 0.9999999516306973 0.16069133579730988 0.07501137712955891 -3.085240364074707 -2.788180464112632 16.68702207277895 97.3820700957406 0.9999999932691384 0.13619700074195862 -0.15123049913346598 -3.085057020187378 -15.063826491845267 5.75896078355062 32.64793455604291 0.9999962026853196 0.15940377116203308 -0.029115261998917476 -3.0766897201538086 -7.471454552732658 4.514199743365053 25.940601155636735 0.6276722727201474
ID_5b0b480bb,0.1301274597644806 -0.03863684432711296 -3.0770998001098633 -14.128967158177176 14.745095372234944 84.97453165918644 0.9955101769022074 0.15457545220851898 0.03890353361900654 -3.0814809799194336 -11.991269981337 8.19659460836242 43.794397154126315 0.999882066293327 0.16593340039253235 -0.01817343609510708 -3.073665142059326 -11.076297593450798 4.186314265182471 18.268072099408826 0.994301803041495
ID_2710bd411,0.1580428183078766 0.026052111840283068 -3.082772970199585 -24.766861206067 7.0432619067710345 43.927029893277115 0.9972328477043192 0.12271775305271149 -0.09234067352553929 -3.0996270179748535 -22.945116460305567 10.828451812285069 67.55516364688597 0.9999999980676177 0.1264815479516983 -0.03365895094805191 -3.0897648334503174 -20.36701739447173 13.503912091290719 83.22405479584297 0.9999999999951064 0.12973305583000183 0.026294620702231812 -3.1070423126220703 -19.797763421120305 14.968137551561707 91.95004250036577 0.9999999768730193 0.14055714011192322 -0.026709222453937264 -3.0834226608276367 -11.546424895694972 11.061589525253511 64.23144760548415 0.9997918225530077 0.1479724496603012 -0.0038745811757174486 -3.0874199867248535 -1.5775824248858026 18.708222059342035 105.027381314281 0.8104641129872038 0.16817273199558258 0.05620944521808545 -3.0679023265838623 4.517596076686366 12.883501619303908 71.85233742914289 0.9995422232811141 0.16550767421722412 0.10039201869183287 -3.0759658813476562 6.292838300117677 14.510625338126552 79.71335377942249 0.9999999954224794 0.14598682522773743 -0.0341607053321847 -3.0875978469848633 5.526789149650096 9.401804953842602 48.87779067395227 0.9999999910489593 0.16145005822181702 0.05820249013297766 -3.0645883083343506 6.1364941299162155 7.4864536523638 35.61209871883116 0.9999995688765051 0.17266160249710083 0.05105498357622601 -3.077787160873413 9.725104124222034 6.196821817079481 28.462805623178795 0.761344076963875 0.18119986355304718 -0.03276912688989817 -3.097810745239258 5.920305312483331 5.277524516017224 22.509731732001395 0.9999937917008344 0.16721218824386597 0.03927052354619189 -3.0964622497558594 -3.087279058613879 3.639212173965486 14.58730697634746 0.9999938908936522
ID_e9e080023,0.11240862309932709 0.0077038987975568156 -3.078432321548462 -24.895547934068052 24.330689168368295 149.40023168773786 0.9990158069084056 0.14453184604644775 -0.15567583150173797 -3.0896613597869873 -24.566563026538812 12.145827706809467 76.08280181888318 0.9999999999759415 0.14526602625846863 -0.0588606737650394 -3.1036858558654785 -29.287460106720303 17.374674975911763 109.07264477016683 0.9999999999903664 0.12601988017559052 -0.00581453070584435 -3.087149143218994 -22.702001897397516 15.055412862181617 91.61751462052466 0.9989028953170866 0.13420625030994415 0.007761943259979425 -3.095517635345459 -20.06179535344878 18.119435886061048 108.67780358525071 0.9999968181720137 0.1533631682395935 -0.06935285365389204 -3.098693370819092 -23.079424831018027 5.858300998844006 33.66682238916192 0.9999999996270623 0.16352549195289612 -0.009165391423590243 -3.0850353240966797 5.04564013288971 7.7701827391478435 41.033143103571476 0.8018626948854465 0.15246175229549408 3.1067751988186623 -3.0706496238708496 11.81919189443955 7.11909712407632 29.533788561856518 0.999989297092682 0.1370609700679779 -0.0686010035625158 -3.0926928520202637 5.547365654252812 4.58363294605218 18.69731924350216 0.9925807382782912
ID_04ea999fc,0.1529684215784073 -0.01967313784419548 -3.0862529277801514 0.05311678764578812 10.06957584258758 56.74151788590448 0.9577362675985547 0.1427643895149231 3.099579220297124 -3.103113889694214 87.73157861771307 78.13353836045158 433.80657808555054 0.99997975083792 0.1669462025165558 -3.137929487643995 -3.125059127807617 9.108385213173893 6.024515225964857 32.83311716704756 0.957378430648512 0.14650791883468628 -0.40140034353545706 -3.103278636932373 -2.122272975298694 6.617851820080324 35.1942570054342 0.9998005789447532 0.1544828861951828 -3.128000124664737 -3.1091909408569336 4.648386847481526 7.140195505963748 36.421227380929565 0.9999998846774281 0.15066395699977875 3.100740884698413 -3.1120710372924805 8.75590824217639 4.885245571227758 24.72887392853247 0.9956522463189864 0.15283797681331635 3.1241254885735215 -3.104626178741455 9.21782857674193 4.367588134572178 20.64988485079432 0.9999830234345507 0.16430823504924774 3.140266700622666 -3.0985355377197266 9.170819620830201 3.4526262632216516 14.607250204062485 0.9997669559233071 0.1559019386768341 -0.03444424039138712 -3.0850319862365723 -5.631668657690965 4.195197100360549 16.239609970793378 0.999983928675642 0.17518335580825806 0.01634965885146107 -3.079440116882324 -5.463549182321603 3.1283295886799265 9.44190254247538 0.769347308674152
ID_5510e0e03,0.14594262838363647 3.1288806509510114 -3.1136908531188965 -12.994995451845353 6.649840110042061 38.29882576581548 0.9999999999974061 0.14325706660747528 3.0406657522195055 -3.109055519104004 -9.125169537116255 7.601770953912088 43.137456431336894 0.9999987406412117 0.15115894377231598 3.065648379634938 -3.1123709678649902 -9.345653384318991 10.552375038667183 60.28043747719712 0.9999999999999969 0.14101368188858032 3.0949816053552595 -3.102654457092285 -7.419304561520852 14.278431236779458 83.93722223376088 0.9999988329628855 0.1531469076871872 0.07597912213704812 -3.0658862590789795 1.4391054706226247 15.714256311622368 89.76911630879566 0.9998263630003031 0.15666630864143372 -3.1165669676785908 -3.118429183959961 -12.896336065226583 6.193176252308598 32.59156048301435 0.9999999999996536 0.20696836709976196 -0.07012931481691399 -3.088526964187622 3.3668908032432223 10.777724010568287 57.043921018475565 0.9946181383988169 0.1414017230272293 3.1258644365376576 -3.1136724948883057 -13.00402115398121 5.442589638741854 26.70413255695022 0.999996854764392 0.13535168766975403 -0.0502084778905574 -3.1047134399414062 -0.8150140093991534 6.112108062858554 30.27562211866988 0.9999858889340796 0.14783975481987 -3.1308283394753813 -3.1037402153015137 -11.561844683625143 3.7744895982272437 17.184801399736678 0.9999491002206432 0.13409870862960815 0.009107234470126919 -3.0933074951171875 3.3083497368518895 5.436826178404556 23.1681434761764 0.9264403951968132
ID_d4d060b51,0.15330219268798828 -3.0973874617717345 -3.105947971343994 -28.471492381836363 11.676122456555545 74.32066749854037 0.9999999933663202 0.157746821641922 3.11635431579156 -3.1101226806640625 -26.574745665812475 11.946108783450828 74.99303553432286 0.997332641057687 0.15876835584640503 3.1380454629865384 -3.108048915863037 -25.906169414502497 15.0322689067813 92.752304863228 0.999999778775183 0.1587422639131546 -3.068953971286529 -3.1062159538269043 -26.92187760095578 6.570238671624796 38.36446729657831 0.9999999706213769 0.14543180167675018 -3.132158151968792 -3.1139650344848633 -13.635248757344785 10.465462842027557 59.28832898976031 0.9993735846679395 0.12702003121376038 0.015511774673516693 -3.1051583290100098 -3.9216435210793823 11.590473353898293 66.56095893116746 0.9999999994179336 0.15891137719154358 0.058051160216071006 -3.0772645473480225 -1.0291945710641335 13.669958710706926 76.76709022771045 0.9917201364211649 0.15100765228271484 -0.052700873528953626 -3.106034755706787 0.10219365291946654 10.704055328869673 59.636932715198704 0.9958141081551147 0.1521136313676834 -0.026971727545721618 -3.0895659923553467 -0.443604313935134 6.625140495380858 33.69795690415399 0.987161658705572 0.17002037167549133 0.05863631229957049 -3.080019474029541 12.407010902164847 12.60347068313589 65.80615650059909 0.9999999979383982 0.1362314075231552 -1.5098078204651795 -3.107503890991211 29.509370253955197 14.021959616308763 71.23697996143079 0.999999676052843 0.17563077807426453 -1.6376281438394389 -3.0414726734161377 24.309312251670434 9.851807513647763 49.45811232750652 0.9999919974365316 0.1721920669078827 0.03684516588688113 -3.092717170715332 12.412474009088596 10.9425738572128 54.13010726807611 0.9999999997027205 0.15344500541687012 0.08203754736639833 -3.0737743377685547 13.477726736332931 10.826432339824773 51.05687000932159 0.9997160505770858 0.15390123426914215 -0.005463492655934388 -3.0997366905212402 2.740284792600102 5.506167556038609 24.371230294603556 0.9997019602744169 0.16638964414596558 0.050283222080402944 -3.0850489139556885 11.286165410329014 7.014998500857618 31.83207347508978 0.999999999999784 0.17455452680587769 0.0009126768066838017 -3.082404613494873 11.911781129176973 6.4959147125066465 27.65140831474043 0.9971446282643011 0.15230903029441833 0.034962253404816 -3.0788938999176025 12.198920547978794 5.889832094004988 23.395307339695744 0.9999999999012243 0.1588274985551834 -0.026588426200482844 -3.0625834465026855 12.024388945564318 4.845765233064817 17.39626079801236 0.9999988314449424
ID_c8a27d85f,0.1434807926416397 3.119279215570254 -3.1138575077056885 -9.751165116873027 5.634615569777211 30.091053127281047 0.9999999975316867 0.15647149085998535 -3.0969615463646845 -3.1042771339416504 -5.456622248351758 6.2903923777764765 32.94130112158861 0.9999826102271097 0.15196801722049713 0.0018435225870501197 -3.097813606262207 4.944728005238732 5.371940735626497 22.858650828567256 0.9999944277698339 0.16656020283699036 3.1399743525893844 -3.117659330368042 -4.892579962333554 2.4931309515747295 8.92562270167908 0.999984358436458
ID_7ce563e3a,0.1463574320077896 0.04254024156207668 -3.093127727508545 -4.217794689086082 16.39876771671761 96.10577770603913 0.9987071461990404 0.1552664190530777 -2.998540416574944 -3.083019971847534 -29.617731668456855 8.222446972342047 47.81533731435724 0.9999009531053102 0.15727461874485016 -0.08439631711258921 -3.0849857330322266 -1.4507473132361237 11.31911522126071 64.42479402752672 0.998751589143892 0.1498650163412094 -0.024200715823275175 -3.0934343338012695 3.4867869934910067 12.829174475555206 72.09567752123337 0.9999999445709693 0.13584387302398682 -3.0959759238295885 -3.1152400970458984 -13.637163015398222 6.514308405884887 34.50772762302137 0.9997255968598826 0.16702157258987427 0.045276626748512024 -3.091198205947876 7.047562567663228 9.507128523437098 49.60019002797336 0.9999999751184212 0.14342482388019562 -3.1315105968876105 -3.108856439590454 -15.810876643122684 4.41845327424986 21.620766184338578 0.995331165132526 0.1559109389781952 -3.119164542717279 -3.1241040229797363 -12.59894590532393 5.3660422117986375 25.09808395647769 0.9275557440583941
ID_b4bf2f347,0.1464509516954422 -0.05310389648463741 -3.0944244861602783 -19.739774008288595 7.991639341261919 48.446340555833544 0.9999999997915907 0.1432878077030182 -0.006683826318320849 -3.0738611221313477 -18.57111290014577 8.567843776933985 52.413602127936834 0.9999998480677537 0.13614781200885773 -0.024291416724326588 -3.08835506439209 -20.166971223966456 9.57196543496173 59.75379299445101 0.9233042123905298 0.15362560749053955 -0.08917790303886909 -3.085723876953125 -18.054599750111255 5.039587989479337 28.877267241508513 0.9999999990132351 0.14200147986412048 -0.03575758900661244 -3.089935779571533 -4.754795506582714 8.05828781103263 45.84675144072188 0.9999999999999134 0.1615382432937622 0.040419500556983796 -3.077828884124756 -4.262881563105514 17.38515759413759 97.56714924164989 0.8193865024502526 0.14980141818523407 0.07324240165911275 -3.094040870666504 5.109678208845739 15.468170626366177 86.97891445368201 0.999999958067777 0.13555416464805603 -0.07801519156705403 -3.110887050628662 0.631060736106298 6.571421027200731 34.90642618055953 0.999999994515016
ID_dc7d38630,0.14886771142482758 0.07790806342141214 -3.0816521644592285 -6.40724942693856 14.685340950458182 86.6089609325661 0.7132851333896602 0.16868673264980316 0.13807020524303848 -3.084972858428955 -4.893245616490301 8.159352049355011 47.228727944368664 0.9999999322012175 0.12387314438819885 0.08674517439232642 -3.0829663276672363 -1.0799805113138081 7.067910600205364 38.91147375110364 0.9769741094348464 0.15428201854228973 0.03315119831942624 -3.094691276550293 1.7952903950850274 9.777973651302343 54.272778286803145 0.9999999989053232 0.19629508256912231 0.0032334504436190843 -3.1006078720092773 -4.675763153585134 5.906926227098623 31.098131790030386 0.9996774623465996 0.15370537340641022 0.05848098318159156 -3.0810086727142334 3.232612940164043 5.682986263948172 29.424347989987822 0.9999726043344989 0.1580919325351715 0.020513742423564744 -3.088589906692505 -4.87161488770709 5.102315018301341 24.764425780264574 0.9999956457034811 0.15578868985176086 0.05379066911750023 -3.093458414077759 3.7813563159863186 4.428089037574627 20.296284413879068 0.9999957505318481 0.09463478624820709 0.07763492747526114 -3.0930652618408203 -0.0037689880379309084 3.71179057596071 15.53990192275183 0.8045249522225051 0.15580126643180847 0.014014607204381347 -3.0888893604278564 2.6101679894501357 2.947702172579754 10.557489097146828 0.9997389640448376 0.17575997114181519 0.06241675665149703 -3.077949047088623 -4.032762152814562 2.430059680934714 8.26759412887214 0.9939610760397677
ID_5428a3a8f,0.17137141525745392 0.008975615972074604 -3.112306594848633 11.218723307871556 10.592296987916386 50.83909635373207 0.9910789587685696 0.16161662340164185 0.00011754605315147042 -3.0935416221618652 10.945600456254901 9.7429383521423 47.90843758910955 0.9999999963260799 0.16194915771484375 0.03553352891944027 -3.0909311771392822 11.73091268674623 7.899066805874402 35.63035397757932 0.9999998874053644 0.16417928040027618 -0.008468262899847518 -3.098766326904297 -3.3193487476238643 5.171128594314894 22.140838205849896 0.9999997549842053 0.1686965525150299 -0.024500105174715514 -3.0611605644226074 13.004702180043548 7.886104683282165 33.787542581593755 0.9999999970184461 0.14916598796844482 0.031018376645205382 -3.0862174034118652 12.978548161525847 6.750786934598603 27.22745239738061 0.9999998893102864 0.18490278720855713 -0.051374916924373674 -3.037097454071045 10.587747617396193 4.768676919637733 17.08999276164551 0.9999305228300693
ID_beb50a6f0,0.1508379429578781 -0.009863785487293475 -3.0836448669433594 -2.9865612266717423 7.776995003240379 41.481709588724506 0.7176095138133027 0.15716680884361267 -0.19835335720303363 -3.077493906021118 -3.4252554555602486 4.653225604138679 19.877049173045297 0.999900221842362 0.16281403601169586 0.04708832576035849 -3.0852062702178955 -0.4333372392556633 4.070952713034889 15.42599350217343 0.9986270318791552
ID_910d907cc,0.15355120599269867 -0.028060516085853086 -3.0868277549743652 -33.687590175997876 10.508735092492735 69.17843818668103 0.9999999660946106 0.13892731070518494 0.03147461687191645 -3.0602099895477295 -359.9592500880131 155.1629203590012 1020.2591825200898 0.9961766770405507 0.16795065999031067 -0.42253933296814417 -3.084616184234619 -15.798159959473045 4.308066012417785 26.59454941753011 0.9169997155285093 0.13236962258815765 -0.03334736571997413 -3.079864263534546 -9.557701541532408 13.389522651717503 79.66031422731186 0.9984293133245358 0.14054763317108154 0.07418840765673705 -3.0847432613372803 -7.571200008919945 8.77282791882918 48.886376723032164 0.9999999438766056
ID_7973af9f9,0.16039107739925385 -3.1293511965209486 -3.115662097930908 -4.739375504105074 11.799045573171012 63.43521170347747 0.9999228548477825 0.15715783834457397 -0.010770883189535558 -3.1063146591186523 4.012491108627016 11.992636855130957 62.7101124369909 0.9999999913550123 0.14799118041992188 -0.02885388947330179 -3.083042621612549 8.954081610317063 15.837977292590203 83.49108294548994 0.9999807756561133 0.14465345442295074 -3.0826532504228226 -3.109206438064575 -8.945025903504172 6.021192613830125 29.48101162914015 0.9999997198742608 0.14782878756523132 3.120374886314444 -3.1130356788635254 -10.098628927892285 4.840205699754709 22.127921879316375 0.999999999362734 0.15678992867469788 3.1353600535189328 -3.0991077423095703 3.8484565335559124 4.966152949143972 22.520804251399746 0.827790264123715 0.17378011345863342 -3.1368397767825726 -3.106293201446533 -9.898436963672289 3.5260081291534644 15.114526484529598 0.7649708154875118 0.1387392282485962 0.04999272787085046 -3.091224193572998 0.8817612438644051 4.2327811328827325 17.990782331064 0.9999999913079894 0.14591211080551147 0.33076457479047133 -3.107304811477661 6.787790116122438 5.004379045542016 20.022457838083938 0.9999999809765171 0.1377505660057068 0.002582399167480956 -3.098937511444092 5.889468027900462 3.6054180991470415 12.355404347219903 0.9999975492922691 0.16383951902389526 0.0139319937003523 -3.063086986541748 3.8703382035842635 1.9736350288852438 4.846806884196184 0.8129656884633674
ID_f765cad92,0.17059867084026337 -0.06724253738374171 -3.091771125793457 0.08895574490188977 21.123423292400417 121.11253697479613 0.9811407279717034 0.14464892446994781 3.141455754651103 -3.1039748191833496 20.80856987918411 14.866042097256114 79.43876973437209 0.9612679486408516
ID_ea4983b8e,0.17683133482933044 0.053380679890132295 -3.0950324535369873 5.780897620721224 11.742281953820985 61.355802681656904 0.9999999993060327 0.18419960141181946 -0.032239888656824645 -3.0213170051574707 6.18204989823695 11.25990343511424 55.20560412635251 0.9995147169868408 0.16440649330615997 -0.014837395835650122 -3.0715091228485107 5.999864356776544 8.385349224120773 38.55100523753115 0.9999998071217479 0.15420866012573242 0.05285925525164678 -3.0785889625549316 5.1467521683689 6.094209468716301 27.044817497629374 0.527954894219209 0.1574714332818985 0.019418194297358676 -3.0657718181610107 4.935261458082937 4.954289710997066 18.79887431862077 0.9999992471302886 0.16027219593524933 0.015843884933257914 -3.07725191116333 5.4267058114397395 3.6972403025040115 12.58855164054796 0.9999999639134045
ID_e3a9cccfb,0.1670607179403305 -3.116346015137237 -3.1250557899475098 -11.038593947869655 9.757243005938312 56.55732960909278 0.9999998600861684 0.16894322633743286 3.1102254091800723 -3.0805439949035645 -12.282954452709227 11.580357546773659 67.44812042446885 0.9990028727539538 0.16085930168628693 3.100421524398409 -3.112051486968994 -9.3487305345472 12.049273272366335 69.75806822868915 0.8115911644126137 0.15789693593978882 3.0858381866454647 -3.1065773963928223 -9.876485322764294 13.783949613582257 81.06405992391767 0.9998840541219942 0.151762917637825 -3.109009192840453 -3.1190547943115234 -10.231432075421699 7.441158683052256 39.75052978029584 0.9999999999954963 0.14738795161247253 3.1410102556589914 -3.1355528831481934 -12.452654847509791 10.81971293330306 58.333093379256134 0.9998719465218195 0.14109735190868378 3.0801325823194365 3.122109889984131 -9.429627068245804 4.1038574370274645 19.93567198515342 0.91539133758057 0.15627582371234894 -3.069914288974926 -3.1141486167907715 -10.533011442737665 5.633970954574609 27.59588956836439 0.9999815156767703 0.1464884877204895 0.08623087670459725 -3.0841269493103027 -0.3344423580427678 5.611850906189398 24.92266564597532 0.9986142760081328 0.15650545060634613 -3.106327061374795 -3.1133909225463867 -10.810828342442303 4.011527258875793 17.305752993022377 0.9999999934729766
ID_fd8ff86ab,0.15904474258422852 -2.6557823879879083 -3.095715045928955 -18.675760352518115 4.8018362551294524 27.168515324626377 0.9999951782952508 0.1780419945716858 -2.4198708469261865 -3.0965147018432617 -10.612218735383237 4.60989113856842 24.79734125252201 0.9558183199176932 0.15457683801651 -2.5201162384393525 -3.10957670211792 -12.594028556042895 4.323266037204289 21.0907340050085 0.9999911768396448 0.1555337905883789 2.5406795056495275 -3.0709338188171387 16.13179518405007 5.707097350915514 22.843231260800906 0.925785994716295
ID_822983735,0.1595202535390854 2.2454032740521703 -3.1310458183288574 -7.041069008652706 5.601024774722986 27.398328437673182 0.7566996565939379 0.17503076791763306 2.4734514034869655 -3.114297389984131 -0.6986803959986473 7.6964477007765275 37.034824182886325 0.9999995763381354 0.1650865077972412 2.521000554038182 -3.1015067100524902 8.324127945788812 10.686732672399772 53.029573067407775 0.9999999895501724 0.17458902299404144 2.4142056804836796 -3.0907795429229736 11.640954401840418 11.382965743570914 56.257621790097716 0.9999998579446359 0.17889903485774994 2.453286793070584 -3.1021034717559814 19.61666602852292 15.182184917047794 74.424830302959 0.9999999915251961 0.17137973010540009 0.09942825179569315 -3.061772108078003 51.67804300091295 16.091958914814665 71.39408259620114 0.9907259995756384 0.17186951637268066 -0.1540427120883547 -3.0768063068389893 45.745909330266876 13.63473247406484 62.14132308963514 0.9997150289447243 0.16794492304325104 2.476530948536826 -3.0842530727386475 -5.8788619685683825 4.259120678120063 17.46212938794011 0.9999997959723704
ID_70a367b7e,0.15242107212543488 -0.14519583797538582 -3.1193809509277344 -43.210843464066684 18.139951417734082 118.23105443627784 0.9999091702410119 0.12217580527067184 -0.06398418269909614 -3.084294557571411 -25.490690754717733 9.956122792918418 61.4988412682263 0.9999958529191734 0.0763949602842331 -0.36165408890268663 -3.07893705368042 -18.588386992644264 13.061910498870855 79.86199568626881 0.6083990111984302 0.13164818286895752 -0.10255157843027171 -3.087597131729126 -5.743181389972772 16.48803906992725 97.0970434496884 0.9999999670775399 0.16836676001548767 0.009933842012371734 -3.1020357608795166 -18.186615813380147 9.851025044953591 56.79097507323688 0.9741851923322046 0.1333421915769577 0.03816349381313986 -3.0956363677978516 -5.299083907627341 10.143269598518755 57.146290209399915 0.9999999998032514 0.14674673974514008 0.0340747066971641 -3.0740227699279785 -2.314943261426803 8.775498718042195 46.253356337561215 0.9999994976739367 0.14046677947044373 0.03280396627937803 -3.093310594558716 -3.5079620822525253 3.400484712781835 12.872010469474622 0.9999109200922748
ID_8ddd4a836,0.14063015580177307 0.03957029961314596 -3.083486318588257 -33.40946017565265 7.556715831725247 47.76719358541526 0.999999923603666 0.16935618221759796 0.05627700630251336 -3.07077956199646 -42.06975855214069 14.166116820253336 88.0304040377502 0.9999999717870257 0.1520252674818039 -0.01782048042126375 -3.0905330181121826 -31.017989455523605 16.50028040752899 97.32315896945062 0.9599603123860433 0.15665273368358612 0.07125120818304688 -3.08270001411438 -3.8375251746992736 17.47764647010542 99.26881518623453 0.9999995518260524 0.17233771085739136 0.04371653995970901 -3.079597234725952 -6.363838165987709 7.05559551717776 36.9835479509326 0.9999684841460506 0.14134573936462402 0.10614872340658318 -3.0806140899658203 -3.9316773410040713 8.948418002609856 45.48949781037051 0.967455812679162 0.1630144715309143 0.04436137262986089 -3.077152729034424 3.4701232779844444 19.429918958860974 104.86290454868055 0.9999999417334421 0.14324098825454712 -0.01904880223410943 -3.069364070892334 -4.478939979959237 4.667606964301918 22.64465838674284 0.9999998924642712
ID_69183a385,0.17415854334831238 -3.1007144642141737 -3.1155507564544678 -3.9416916517777225 3.2261910727055523 13.08230300037401 0.9818053330524659 0.16654378175735474 3.0982506822145655 -3.119330883026123 -3.769075570011469 4.384277714271168 17.64190425930378 0.9996799849874155 0.17920346558094025 -0.1797798694157944 -3.084378242492676 3.0849811022326064 4.75433963673292 19.151180207291933 0.5393801776269834 0.1516009420156479 -2.993245735497171 -3.0899813175201416 -9.594062810380798 4.392460738033515 17.033455506570576 0.9998049814903641 0.15222026407718658 -2.8342581918119327 -3.106447696685791 -7.614439430645946 5.172944080931177 20.05977580185602 0.9565115571260845
ID_8d2791fc9,
ID_84f2f637e,0.14375591278076172 -3.1011082321092682 -3.116150379180908 -10.356018775158875 7.986909151112796 42.518229737151046 0.9999999843844771 0.12377838790416718 -3.1211318474847634 -3.0905263423919678 -12.16011603769347 10.545944336836264 56.769304664590365 0.9997712888646426 0.1454259604215622 -3.1176512930103986 -3.094597816467285 -11.944472532660582 13.215328196711388 72.0689236952589 0.9999998873848581 0.16065114736557007 3.128354915815691 -3.108236074447632 -3.415200262338657 8.70235711339689 47.048532553311944 0.9999996831037815 0.17217546701431274 0.10771308477293717 -3.0781853199005127 -0.8393017009257008 12.84881902337006 68.80459199784295 0.9808069592493606 0.1599901169538498 3.0552351186516313 -3.1128644943237305 -9.84862247746658 5.7441193610635715 28.175178170239697 0.9999999991812847 0.1524067223072052 -3.134698046234018 -3.1128039360046387 -11.413727423003659 7.897734727989816 39.66398804468443 0.9999999790808727 0.18381193280220032 0.09186737304066027 -3.0930206775665283 5.3331738522218535 7.507456529006469 33.659292598935025 0.9999996716939789 0.1851472556591034 0.01813900342223642 -3.0177712440490723 5.456623753309082 6.086141866585963 27.603380010006852 0.9999940925107434 0.15387462079524994 -3.126843543172871 -3.108243465423584 -9.475229313587192 3.5982135683551273 15.542121744224103 0.9999213842638649 0.167405366897583 0.008410127157239839 -3.0642850399017334 5.851685787079562 5.52033893767107 23.648878197040325 0.9999999986795074 0.1708993911743164 -0.007717549496537094 -3.0838499069213867 5.975013704520468 4.69365653639248 16.86405539516143 0.9999328712101794
ID_6188e27be,0.15880775451660156 -3.1205522238429144 -3.108436107635498 -8.568210209260421 11.004554000556078 63.913293792900156 0.8806392853943299 0.17145679891109467 3.1331498726611824 -3.105166435241699 -9.027873878529446 12.847456487688374 75.57916898794053 0.9999103804218109 0.11221325397491455 -3.091990508385318 -3.1222658157348633 -2.9474833491767742 10.710135102303207 61.29233748646532 0.9959882073337691 0.15939047932624817 0.12615369594271458 -3.0872392654418945 6.6465349089867365 11.550654190939747 61.42458827229296 0.9999993157015432 0.1475926786661148 -3.097397038218816 -3.1023383140563965 -9.717440399689371 5.177339926676832 25.519343609749473 0.9999138595733433 0.1486993283033371 3.1085226107626402 -3.099107503890991 -7.4815034247548144 2.9285547583029508 13.278123736415374 0.9995249648417988 0.15037406980991364 -0.022476461570964373 -3.1008737087249756 0.4718514584214362 5.719054161970379 25.40090053309843 0.9536272972512535 0.17132222652435303 0.035986129087139544 -3.065277099609375 5.813312595391394 5.5680976819379016 23.667800127566377 0.9999874943213917 0.19777877628803253 0.04451848912697598 -3.0546178817749023 5.477330374978112 4.24639619888224 16.140386462226193 0.9901277266562807
ID_dc5878537,0.1441359966993332 3.0427280844955598 -3.1146883964538574 -14.740254932080205 14.322732016919081 83.40159712760033 0.999999893427227 0.16287581622600555 -0.19087585983018154 -3.1126646995544434 3.4929942399638154 13.379598234048762 71.60522849293504 0.9999999496786448 0.16840361058712006 -0.05886446754599259 -3.091097116470337 3.1554220109550086 8.17823217877821 40.57868152901703 0.9999932287477467 0.16215229034423828 0.041248670825254644 -3.0359323024749756 5.116504866293308 8.39200318502012 41.57767798983482 0.859770802055721 0.1843869984149933 0.05268678406070986 -3.089381456375122 4.221250543070924 5.447505685729878 24.708933974471798 0.8569111951590376 0.17496328055858612 -0.016436829089233003 -3.093416690826416 -0.9424544016281089 5.054771155136422 21.161646987149343 0.9999960974052973 0.160572811961174 0.006655927858311855 -3.06455659866333 4.074024409075786 4.789170250308291 19.002733185016684 0.9999998214738105 0.15328210592269897 0.04133223247652967 -3.0723986625671387 4.340307992586899 3.954701450583301 14.164576534446768 0.9999999421905128
ID_5d0c7468e,0.16073569655418396 3.1266722643797698 -3.125835418701172 -9.746699063794233 3.1842086534124237 14.848088225651274 0.9694937299232234
ID_f4161f129,0.12020430713891983 0.10217519684923769 -3.0858821868896484 -2.147498529386357 14.647667110001809 82.54514346959323 0.9976281478461322 0.15397953987121582 0.02624983961140068 -3.092130661010742 1.5984659357739643 10.528692603142247 54.18617139695184 0.999999999810087 0.14395929872989655 0.057665742948481466 -3.0830941200256348 2.440391152933541 4.59710776593364 19.543915987050305 0.9995862745199268
ID_bbf2e7374,0.15901176631450653 3.093668366942152 -3.1191658973693848 -13.13860321068269 21.60849981057448 127.15416520832851 0.9945718416667548 0.15983416140079498 -3.1194901820807113 -3.112480640411377 -10.430685665488125 7.21345439481104 37.71997935633795 0.999999499174033 0.17583471536636353 3.12087826015246 -3.110661506652832 -11.587150890444216 14.068218850891554 77.01797090190861 0.9999994439498004 0.178619384765625 -2.460291187019578 -3.1011486053466797 11.744581069031423 7.242365833677536 33.1482529640553 0.9999138382948342 0.14124494791030884 0.00639715495725179 -3.0996575355529785 2.2461380253544774 3.472852857019686 13.220950216158258 0.6548065605644167
ID_efdc95f06,0.13388271629810333 -0.026669805437554966 -3.0725460052490234 -375.05566718282057 150.2714621084497 1002.1966702038637 0.9998928508873827 0.15027505159378052 0.023111914988226796 -3.0788657665252686 -29.809707616165987 19.578085358155874 122.70758991986874 0.999999976653991 0.14910879731178284 0.01974514730426031 -3.07623291015625 -15.375030440270832 6.001837317322645 37.455546855965395 0.9995442116415064 0.18126681447029114 0.035371757097672166 -3.083679676055908 -19.567651661153416 14.621197861326209 89.70882296565748 0.9999966085439579 0.14209330081939697 -0.009345562261851386 -3.080831527709961 -3.1299502862553856 18.691289941324428 109.36996366635698 0.9999993238054141 0.13879267871379852 -0.0732745163833969 -3.097115993499756 3.745726049098573 20.085499556925487 115.55485675638245 0.9130911375351602 0.14848002791404724 0.004196393395208195 -3.0965683460235596 5.6435053709411 20.660060999543543 118.38704721809594 0.9999999999446794 0.1574680358171463 -0.06493608177655699 -3.094034194946289 -0.23728327476483607 11.123688519031548 63.15646912088727 0.9999487700568569 0.15759338438510895 0.018809642484003925 -3.0818986892700195 -4.435569760842291 7.952924072778086 40.696618064623046 0.9999998750478923 0.14946535229682922 0.027471840615066117 -3.078892707824707 -3.227465995943025 3.0771549791422537 11.137234419613527 0.931818921677586
ID_cf4f677c7,0.14728325605392456 -3.138398917602263 -3.077601432800293 -7.277100124829737 16.530300780575445 97.81214715458681 0.9999999582084644 0.1247013658285141 -0.14798629644127526 -3.073676109313965 1.9758672915902535 19.923118968340322 115.12797355091026 0.8341310683099157 0.13769850134849548 -3.092287884929963 -3.107478141784668 -7.335721542455412 13.969381153626152 81.80344772706597 0.9999999994004058 0.19619587063789368 0.11178716804349924 -3.099215507507324 -1.1410529725075922 15.008116959191462 86.01643700483503 0.9796542738114683 0.1496533900499344 0.11730827499196946 -3.101801872253418 1.9499990020032354 19.270992201585155 109.06825620537346 0.9999979176596004 0.15163110196590424 3.1070088888786143 -3.1368892192840576 -5.8560235300911785 8.973124626901408 47.88382957814233 0.9996007853821468 0.13985328376293182 3.0957527118705968 -3.1128225326538086 -5.656796677091728 5.782481282983191 28.179145423928194 0.9999189044751867 0.15487724542617798 -3.1081904647473615 -3.1110291481018066 -5.901826510080142 2.221028382789402 7.589918375042931 0.997420302184332
ID_27a33218b,0.14931032061576843 -3.080556423604962 -3.101773738861084 -29.281741396764275 6.776172266467121 41.77183210851538 0.9999764600227421 0.15445497632026672 3.0911708211658513 -3.1069352626800537 -31.104521678148956 7.778864200082529 49.680491382648526 0.999999999997264 0.13296645879745483 -3.121355512501082 -3.110470771789551 -23.856082769129756 6.79694436777 42.256160758543544 0.9411895648177694 0.13667666912078857 0.11697897767511621 -3.098250150680542 -7.317153900252773 14.32302605030538 83.05582918888453 0.9228781248053238
ID_81d82a824,0.1386815756559372 3.0936858617671983 -3.1096315383911133 8.0903572425401 22.497181036152025 128.53936219362484 0.6755479318984617 0.16415806114673615 -0.0251435654742447 -3.0972611904144287 -1.6549693289047878 19.06948994514944 109.70309295421961 0.9999898085363411 0.13420192897319794 0.11976022970807529 -3.0982823371887207 1.8446828257494863 17.126989273561517 96.84312302475517 0.9999911770751998 0.1652245968580246 -0.005143121837366947 -3.1025753021240234 -3.1496864340249773 9.996796990594037 53.46472174855028 0.5106623942882034 0.14412423968315125 -0.12915170314777763 -3.082136631011963 0.6513090648729267 7.519990166232418 40.03705988762872 0.9703142416623743 0.18338173627853394 -0.06686125579519424 -3.0914814472198486 0.7038914274712357 8.877720765935816 43.02597891135657 0.6796424155493799 0.16089409589767456 0.004060394966455717 -3.0586941242218018 -2.891051755087747 5.005829808937087 21.414285898244152 0.999288489312034
ID_9f8495aa0,0.1265764981508255 0.031655148600914035 -3.0857114791870117 -2.6461449701827062 10.608663043070502 60.40685088368212 0.9999998492771255 0.14604657888412476 0.013728467651311999 -3.1148953437805176 -1.3439698791746229 19.27765309814192 111.73971619855091 0.999999999760395 0.15978288650512695 -0.0996011108144105 -3.074749708175659 3.5903213870020947 14.351917803303191 80.86023540705115 0.5527104618866453 0.16428408026695251 -0.19220654793020175 -3.095475435256958 6.267693618711459 17.52221848743729 98.77556199256497 0.9748174823641351 0.14913620054721832 0.13005831141981058 -3.093092918395996 9.898604604541703 15.703118209805854 80.9385955238796 0.9999374058281224 0.15334761142730713 0.09440379482660322 -3.0798614025115967 13.432890179499424 15.105339993254695 79.10283327887097 0.9998964418707132 0.1482086479663849 -0.04815972437298356 -3.0832293033599854 10.692349240922708 11.185845732695057 58.70220572682177 0.9990970342894929 0.1590404063463211 0.06210682131234227 -3.058116912841797 10.960593362762081 9.779208565484874 47.99549017280401 0.9999999514110899 0.14733831584453583 0.0012749088980490396 -3.099761486053467 -2.1155521404524 5.023140832785338 22.745692576137294 0.966319397524287 0.15944166481494904 -0.001995133699909359 -3.088397741317749 9.272524458714146 5.627835169464216 23.003200915503854 0.999999861154995 0.15784494578838348 0.04048296278257946 -3.0919132232666016 10.648482292827943 5.385066914244176 20.377571880848482 0.9999999789502731
ID_a9a8c1292,0.16316485404968262 2.7879025997100237 -3.10432767868042 -11.14518315414938 9.703538412997348 55.203559989951884 0.9996723969765046 0.16415071487426758 3.127964001226063 -3.1101222038269043 -10.592870509340518 12.20134124163366 71.27509734860683 0.999997725093581 0.1713883876800537 0.06584577316850153 -3.08271861076355 4.051785017201527 16.020488739033347 90.7667997194175 0.9438080392745551 0.15268871188163757 2.973212373656623 -3.115020751953125 -3.623825102277911 9.174931049382455 49.33799829722127 0.9999999999952767 0.1415286362171173 0.05235766129035026 -3.0774073600769043 4.564722627415349 9.334880542794897 49.664514376815866 0.999310428847604 0.1604417860507965 -0.013284722032928114 -3.0228447914123535 3.8775463942599067 7.165458053370096 34.370881547672035 0.9999999999884297 0.17399755120277405 -0.018555831105533507 -3.0480194091796875 4.098184225297932 6.412300400553958 28.558094874314175 0.9999621175065391 0.1501399576663971 -3.127186252071969 -3.099583387374878 -8.167334400052859 2.783369540776822 12.162312745176624 0.9995023702190897 0.17275963723659515 0.03154668562442603 -3.0747523307800293 4.481654257313054 5.647207707345105 24.076966787544002 0.999951297959384 0.16193576157093048 -0.017442290626261493 -3.0848305225372314 4.1023017492459 4.1088216570882885 16.444763541257153 0.9999945939936272
ID_1411dc012,0.16795538365840912 -3.117940840831523 -3.113164186477661 11.933191962308458 15.22433736140832 85.6727673469155 0.9596413571786393 0.15998683869838715 -0.0016579182582134768 -3.0900816917419434 -2.1672355803951437 13.212171043120327 76.55007635496104 0.9990569186769591 0.13888773322105408 0.02549903306396631 -3.0818324089050293 -1.199939461315314 16.318613290822277 92.40344078274522 0.6024849986686032 0.13637827336788177 0.026871771816681447 -3.0913891792297363 2.526136982281456 15.35911290966684 85.76049899014188 0.9998340759515914 0.1634494811296463 -0.01653996219857224 -3.09413743019104 0.1694918811213218 8.312335610422553 42.74477274151598 0.9509723711846725 0.15905003249645233 -0.022560143355722106 -3.0848474502563477 -9.493396458090093 5.1781554749275545 25.126725760849023 0.999998761215181 0.15570005774497986 -0.010450462923008797 -3.0869040489196777 -9.786982914186073 5.9625856923469565 29.22752448331029 0.9999965428638836 0.14327459037303925 -0.002646513579659423 -3.0810399055480957 -9.498642542325584 4.5834588686957884 20.83666553220056 0.999999684011826 0.17054060101509094 -0.06547548015142018 -3.067525863647461 -10.298896537247066 4.118488316281053 17.79876285476015 0.6118823416866458 0.15088611841201782 -0.12239990268706294 -3.0736966133117676 -9.372370345517659 3.324853871109814 12.656598826892528 0.9986881809972641
ID_b60f5638c,0.12021490186452866 0.06264396027964235 -3.1143150329589844 -1.5576315831945118 20.001117246253152 116.66050431907954 0.9999999155963337 0.12516924738883972 -0.06623879794255871 -3.0986404418945312 0.20276940394992168 18.464561598962206 107.01633254920343 0.9999926552607702 0.12907814979553223 -0.04074384004124633 -3.081009864807129 -3.800615838779821 -10.179090345950728 -63.48002756302551 0.8076792035019329 0.14222291111946106 -0.1424706129991617 -3.1030361652374268 12.524899114523404 20.465306741514116 115.22159978022633 0.9999754627697307 0.1112101823091507 0.030078588284445817 -3.101516008377075 -1.8259645633502022 9.655648492936256 54.54625631796159 0.9999999974265612 0.16167256236076355 0.031099879848276755 -3.082284450531006 0.42493604430491005 4.871343135798098 23.051683297056407 0.8421908330813892 0.145847886800766 -0.13558703670221345 -3.0947210788726807 -0.6329457152474616 3.6435595248353376 14.588302373921639 0.9989235270409447
ID_237729793,0.16031645238399506 -3.1103058874290133 -3.125530481338501 -10.327560968062595 9.18699284836234 48.071406627843004 0.9999999999993183 0.15581375360488892 -3.1068298293080594 -3.1015539169311523 -11.148674051097853 10.466104882172134 55.56608109702512 0.9999617368938001 0.13554097712039948 -3.118593808710052 -3.0988662242889404 -13.12804951593967 14.358321273977507 79.20477096763217 0.9999830876681656 0.15958446264266968 -2.9356581746479713 -3.1041383743286133 -12.151098316454297 16.219160102156206 89.9428521977723 0.9999999851419921 0.15440711379051208 -2.986969121179529 -3.110898971557617 -11.731086938163504 17.577163453427463 97.86800382336091 0.9945142956391674 0.1360544115304947 -0.100429504962151 -3.1122469902038574 0.1521292008333332 11.249721618066093 60.26176125736986 0.9999999996574049 0.14104047417640686 0.026179024328715203 -3.0896902084350586 0.8968961531022087 9.540614485776192 49.33635006783502 0.9999999852252179 0.15845853090286255 -0.2189191852525937 -3.104712963104248 3.2036613636748763 14.00336168562395 72.22687816683886 0.6998659375812469 0.14811362326145172 -0.22133576239096056 -3.080153226852417 12.427274036636556 17.18497127298094 89.6064638996578 0.7206191893389765 0.16172419488430023 0.9219804421069311 -3.0924363136291504 16.503892041843642 12.029035712680072 62.259286745807835 0.999936125923506 0.1698164939880371 -3.0935166754117227 -3.108987808227539 -4.007827202782246 6.330199579101812 29.04457881566595 0.9999971919545895 0.140632763504982 -0.007058504498793345 -3.091562271118164 0.001992099004562766 5.036988481893009 21.34061854403576 0.9931856916018741 0.14898790419101715 -3.137990968440016 -3.114769458770752 -3.006677252283218 2.644364748255621 8.607622236045636 0.9999532224046577 0.1333685666322708 0.06752169043803428 -3.0715742111206055 6.3048933781388365 4.0734092832486075 13.2269173860759 0.9999994598798669
ID_73b210da5,0.15089163184165955 -0.824454175574985 -3.08156681060791 -36.63353322987861 -22.43778598003967 -131.86132758254507 0.9975256555826559 0.12701793015003204 -1.4092610080283834 -3.1065549850463867 15.461914100526613 6.221794499571079 33.540890252913 0.7505926605939252 0.1399349868297577 -1.2860181132293098 -3.0813612937927246 -76.80304855791356 -27.3271537543576 -148.6886677835266 0.9998271812765165 0.16326424479484558 -1.2856798126339741 -3.0915920734405518 0.0004102280461915365 0.00010831613039459121 0.0006375677187426148 0.999317359194483 0.1454571932554245 0.2681499316889953 -3.0993471145629883 -11.248611440301028 10.014926233774446 52.948729540076954 0.688442004852557 0.16233840584754944 0.30723192032842256 -3.08813214302063 -5.417016651112246 7.549690055472069 38.75548273369843 0.9508420372297727 0.1520530879497528 -3.1230527020430583 -3.124321699142456 3.414058730075586 6.957601123314804 36.76897619098486 0.9908779665796036 0.1780444234609604 -0.06410203975811161 -3.070626735687256 -6.535636272538024 5.474377238829027 23.959095733652713 0.9375956389762017 0.16710597276687622 0.006035725294882166 -3.077888250350952 -6.446316792595719 4.695731625440458 19.309609696708737 0.9999837128195165
ID_c6628179f,0.14664778113365173 -3.093745906498452 -3.0919106006622314 -22.150404716101477 5.721935277189036 30.889320944282026 0.9999999839607805 0.1478896290063858 -3.0746386913517174 -3.1083779335021973 -15.685009369304172 5.143475130491361 26.48506605060541 0.9999999999509894 0.1557515263557434 3.0789448584717083 -3.1099143028259277 -18.33267007224956 6.451172550616933 34.22585788551728 0.9999999916455816 0.1601964235305786 -3.0725417951881893 -3.101538896560669 -19.576207517832074 7.432789605846164 40.160959864435995 0.999999999728824 0.16238540410995483 3.132577474707194 -3.121744155883789 -16.80708059691888 7.317858934430891 39.05510902408338 0.7706810023032854 0.11727119237184525 0.06677709433318886 -3.0872652530670166 -2.4187137217303216 15.791364126022565 84.86940647995753 0.6303132710925307 0.15990115702152252 0.04216387279641987 -3.0842697620391846 -2.061087469686928 9.045543458391716 44.788108612266285 0.9999886452203671 0.142137348651886 -0.03314537610597267 -3.110823154449463 -1.1064506897134507 7.900027721234493 38.409054298502916 0.9740285569803506 0.22198860347270966 -0.0701845162751018 -2.970839262008667 11.07508106300957 9.053817479865092 41.444596648251775 0.9940035905358662 0.1733958125114441 0.08753136034845228 -3.0276660919189453 13.512733838289858 9.9247509781858 45.08495475283002 0.9990377118145887 0.18500787019729614 0.022555531774028904 -3.088308572769165 12.290389751571608 8.317860478693794 35.872572660481694 0.999999996704275 0.18209856748580933 -0.03165574215446811 -3.0893373489379883 13.212829313052826 8.022573338394823 32.98938308666246 0.9999999855034416 0.16338126361370087 0.03881950782486059 -3.087939739227295 12.453042772763073 6.320374771842214 25.289328664640614 0.9999999999868248 0.159402996301651 -0.0353066242345187 -3.069119453430176 13.253127813374398 6.045657428429443 22.075643387435253 0.9999999999998894
ID_f188d7b12,0.14479315280914307 -0.08870916016571802 -3.0927562713623047 -29.491978775473537 7.773811817586485 49.55557177538849 0.9999995203295979 0.12939603626728058 -0.029241507624162007 -3.075453519821167 -19.829633865940774 7.291939854655774 44.98319472299852 0.9997761552812956 0.14376208186149597 -0.0016690075885146918 -3.0864553451538086 -21.630568575532912 11.32151975053906 70.1743004565418 0.9999997953177476 0.3069838881492615 0.05216791236099909 -3.090100049972534 -5.658674173496646 21.602863434007016 127.40003423564 0.9902084062752067 0.14516863226890564 0.08953948343925913 -3.0962376594543457 -7.552085493240716 12.192998826539284 71.5022516326688 0.9999999999984066 0.11409252136945724 0.15436542484199076 -3.0879955291748047 -6.331347608723516 18.679374673323437 105.60722222436803 0.9999999986487522 0.18593521416187286 0.05773994654794919 -3.1232194900512695 -5.5745021820957605 6.3135579228717065 33.07186029590342 0.9996286572368002 0.14700014889240265 0.01880086749345901 -3.091993808746338 -1.2924194431416387 8.76253269265664 45.29638018857167 0.9999999995252011 0.15706664323806763 0.0030281187411681167 -3.100188970565796 -3.0404568363428743 3.3468649290221584 13.397783041027296 0.9999999991846134
ID_35ff1963d,0.18428519368171692 -0.8181074985588042 -3.0920097827911377 2.6982162715032314 3.8465826163706818 14.817558883541883 0.6611672697370884 0.18890927731990814 -0.9479648440774664 -3.095811367034912 5.189646353827612 6.636633173082198 25.735717656992648 0.8941487380381182 0.15693557262420654 0.010192529999354388 -3.0840742588043213 -0.2472358826198979 5.380770533411996 19.741185246021995 0.983550111565889 0.19410502910614014 -0.002938369937986397 -3.0853359699249268 -2.773863232328188 3.6433708059129812 12.541676406196766 0.9874030286746469
ID_9a18f5678,0.14353814721107483 2.914243780145337 3.1210765838623047 -11.187484882126991 5.785410538806035 28.36040854457348 0.8588962403909917 0.1344020962715149 3.1405940390884295 -3.119696855545044 -6.452542080810199 4.075072405464886 17.393860220944653 0.999038667141024
ID_db699f0ba,0.13459785282611847 -2.0938275331231755 -3.110647201538086 -42.911266404235725 10.7803339258015 68.32603647824834 0.999828804798909 0.1731143593788147 -3.1124157560836885 -3.1010212898254395 -28.88741911744317 10.4447193168079 64.87638614810679 0.9996005217375171 0.10848503559827805 -3.040546916161407 -3.0912132263183594 -35.65567317461011 19.074256935036445 119.72388543850306 0.9987266619444775 0.10726785659790039 3.114676012631175 -3.110513210296631 -26.053541790288556 21.776726841944342 132.68987237932566 0.9999999968983555 0.12338164448738098 3.073628346839323 -3.097557544708252 -23.85655481700288 23.597967624682074 142.64930784227732 0.9999952250573816 0.14536041021347046 3.1289203221494586 -3.0879406929016113 -15.135601187600484 18.669534387194687 111.3564310931108 0.9999999214042239 0.1394551694393158 0.3515836563686595 -3.108578681945801 -4.471765974253622 26.591600644612864 156.62154952009308 0.9997922457067155 0.1613897681236267 0.06130511731004115 -3.0841541290283203 -3.568139144984214 8.590032160294061 48.74599586840285 0.9999046039146966 0.13429957628250122 -0.02213168011427863 -3.0980987548828125 -6.487620186051453 6.735619761733015 35.23049686285741 0.9994427390633482 0.15354430675506592 0.07435073435347607 -3.0773119926452637 -3.2515967950015536 6.691567599812953 35.64269775566888 0.9999999989650092 0.1485576033592224 0.09251923869693728 -3.0947141647338867 -0.7186582628423666 10.404862773370706 55.58260590763842 0.9999164652554936 0.16498515009880066 -0.028685106180933062 -3.0992305278778076 12.679169540599606 12.194375804761373 62.57195384236131 0.8373624863690776 0.14664816856384277 0.0700004268121732 -3.083026885986328 13.473575608293267 11.19767923821953 58.74124179718988 0.9999999999779805
ID_fcfc2f0e3,0.15973211824893951 -0.007721058166014669 -3.097245693206787 0.21768300800903945 15.97094451787459 85.04002139994 0.6281598209409995 0.1457904875278473 0.006708313414030674 -3.092461347579956 1.2992931500236673 13.807466194392475 72.42754609318528 0.9997395296155491 0.15820229053497314 -3.117569937316146 -3.107818603515625 17.043445609161967 9.415329304653463 48.1027316451025 0.9999924357615891 0.16617119312286377 3.0928443939338752 -3.102466106414795 17.969405004159228 5.033171660234207 25.459470993769145 0.6381989547548748 0.14004956185817719 3.1358199629665777 -3.106509208679199 19.351034055422645 5.818757548790562 27.415743380459904 0.8595229803653758 0.15907296538352966 0.07772194026077911 -3.0954113006591797 -5.37818994074888 4.294270168344466 19.89002538309239 0.8695155038754668 0.14781208336353302 -0.021710864998411013 -3.0774238109588623 -5.8336372750641985 2.64070234565983 9.059263220058808 0.997075255837112
ID_66e5f439a,0.1475362330675125 -3.0501649296486275 -3.107412338256836 7.419405486292131 12.671552532685755 69.8550029050977 0.9729820257575327 0.1419162005186081 3.112322069248018 -3.099602222442627 9.255880148843582 8.827390875032677 43.41625902980627 0.9981214216004833 0.15444129705429077 -0.43209430198114157 -3.085038661956787 -6.915030401151032 5.003579165840211 22.81522479480504 0.9703473999734968 0.1626931130886078 -3.0794738463023883 -3.1138129234313965 7.370553755700785 5.499949065909784 25.14506280425764 0.9999898906038389 0.15187114477157593 0.008911874307551162 -3.0840086936950684 -5.556857808844848 3.3720767285485267 13.502632471636128 0.8195352171149303 0.1579453945159912 -3.123730054325298 -3.10243558883667 7.042037220251013 3.12406235225934 11.184408515720285 0.9998384504978791
ID_145aff094,0.14644719660282135 0.2292043607164647 -3.078117847442627 -7.697722093761386 11.187542229926354 63.36473832967013 0.9999999969165114 0.14690199494361877 -0.007898076751673214 -3.0813844203948975 -7.0060899642647785 13.065810501611 74.34909354088799 0.9999999900283251 0.15444539487361908 -0.014253897840656643 -3.0863420963287354 -12.523500135782783 9.064236200243284 47.68041043509885 0.9999999992439534 0.16205570101737976 0.03790440844071621 -3.0685606002807617 -9.116414235703944 10.14406172812466 54.6008184098277 0.9999999324891081 0.15642809867858887 0.07452733349120892 -3.0931732654571533 -10.647843154683285 5.724121585842398 28.030137345669694 0.9990365169038715 0.16314315795898438 0.012680033459264783 -3.0824718475341797 -6.847588212879353 6.889921877111788 33.84531140331006 0.9999999981120644 0.14997047185897827 0.04362195814425152 -3.0929064750671387 -2.3213209866934834 6.320565761450376 30.163371255296916 0.9999931084009592 0.14249402284622192 0.04025764333531482 -3.0993220806121826 8.94550631367799 7.8644261397783435 36.404289922032646 0.9969827879355727 0.15176799893379211 0.04429626504918992 -3.0916531085968018 -4.097258226490684 3.1013886472428633 11.72977611424637 0.9999990906196415
ID_5f80c94a6,0.166255921125412 2.77855925160689 -3.1065826416015625 -2.263859519201904 7.226687057942348 37.8652990901728 0.9999999975617366 0.15069502592086792 3.046668679401446 -3.1029112339019775 -0.7231734378521012 10.479676804079876 55.935477325637684 0.9999844397300149 0.12172767519950867 -0.04678032422110595 -3.0907835960388184 2.5616980326205403 7.8100944652811215 40.86390446068973 0.6492773617039029 0.14037083089351654 -3.1415835525416704 -3.103278875350952 -5.977833005376865 3.4779250622175963 15.032503008879889 0.9999999887341177
ID_b0dd0220a,0.14798873662948608 -3.10846590119432 -3.0888633728027344 -9.13032597269741 20.615397346822256 122.5960277073885 0.9996910210253431 0.13665403425693512 -3.1210984996248508 -3.1088457107543945 -8.390788106576354 16.63680497270651 96.16532244449976 0.9996669213342099 0.17494294047355652 0.0441082210055618 -3.094886302947998 1.3678104009719927 18.93419027330268 108.74449820726782 0.9853656183261763 0.1496858149766922 3.1157389974749203 -3.1182780265808105 -5.986643428409791 6.202215379909014 29.70585979550253 0.997865213636348 0.14493824541568756 3.111314882506268 -3.119140863418579 -4.475704733683497 3.099602114652312 11.337507516186925 0.6080237590460807 0.1662440299987793 -3.059921011806537 -3.131898880004883 -4.721823416377972 1.7850903010379469 6.07240051033314 0.7003209467339039
ID_ed6b208cd,0.14480173587799072 -1.8757226271477583 -3.0961673259735107 -10.791240180395043 -2.692014078884029 -16.849167137537652 0.9141621659321643 0.14179281890392303 -0.02200965374554326 -3.0986506938934326 -6.395669586453905 11.34718104350737 59.91151832185905 0.8462314334739868 0.16813485324382782 0.018292953002485058 -3.0827958583831787 -2.370712437772864 9.38489535395842 48.30345819829004 0.6027092071312834 0.14790697395801544 -3.1065163040566883 -3.105775833129883 3.837530934875144 9.26687493923425 49.33216185303484 0.9999975589560578 0.18878069519996643 0.00304658094546539 -3.0885655879974365 -4.0137846269328605 7.829700311076654 38.50816581847173 0.9840427945035412 0.19247379899024963 0.009224100376780557 -3.0817134380340576 -2.2157464529133386 10.18390976777761 51.1478770529522 0.742283729911572 0.15303009748458862 -0.05231464912165461 -3.0738043785095215 -4.1635434258209685 4.153217263837555 14.45839814438104 0.9999995590771914
ID_92244eb19,0.13745549321174622 -0.11127060629922293 -3.0914883613586426 -5.602382014991372 17.012363889174267 95.81177106012242 0.866078541502661 0.15614569187164307 -0.06680906338337543 -3.0906972885131836 2.6358226314364708 10.597888380306715 58.56165837567409 0.9999935395880043 0.16491587460041046 3.058743082197988 -3.1037039756774902 142.39718880372752 117.85856814141174 651.2839018353507 0.98592583663666 0.14780965447425842 -0.05546148059907831 -3.103651523590088 -15.271836652367364 6.65540423233464 33.42270832917336 0.999551427895898 0.18137989938259125 0.7066001758235945 -3.0805845260620117 -9.45768467784554 5.159350986053157 24.90354608681507 0.9560999272979196 0.18153581023216248 -0.03719476568816871 -3.0895254611968994 2.7579663321553505 6.380931288016253 30.714779608660546 0.9467814432281011
ID_e825cd6ba,0.11797792464494705 0.23461528953931415 -3.0442094802856445 -22.501445306270565 7.160782181017227 41.04979634288526 0.9999998671166032 0.1311696618795395 2.1027515382470776 -3.0972900390625 7.945724386153571 8.788530528556805 45.31843983147788 0.999994997221182 0.1529228836297989 1.6411029555288983 -3.1097750663757324 -2.868461666741511 5.5222193427775945 26.82347729322027 0.9910911300654057 0.14952078461647034 1.2170476664942351 -3.114712715148926 15.0674118064151 11.909684541015489 56.70512337139889 0.9999997461581036
ID_984c81491,0.16887493431568146 -0.028068919309064768 -3.102607488632202 4.091551207171699 22.72954834672643 123.62779115113533 0.5384484885348246 0.17376498878002167 -0.02041837514635833 -3.0895402431488037 12.329936623121021 7.939817665428298 33.62939383444307 0.9860616346358793 0.17644983530044556 -0.013522534225304857 -3.0828709602355957 4.688414877085655 5.033748039878535 20.201982424155815 0.9568037395106556 0.15779143571853638 0.08083246616667537 -3.0621700286865234 14.168381990410591 6.3020001418449985 23.79308549146946 0.9484721956255393
ID_886b3e1ee,0.13448196649551392 -0.016021319586563717 -3.083343505859375 2.937895697985725 10.96685460792432 61.33371784182878 0.9999990394662877 0.12126421928405762 -3.112310408317539 -3.0794332027435303 10.899269586340113 6.356150667743458 32.17467531819191 0.9999448776734591 0.15714550018310547 3.1005014890118883 -3.1195433139801025 -10.10196047032108 4.696827983487727 22.892661392727696 0.9999997747863826 0.16750222444534302 -0.04364947713852314 -3.0874228477478027 -0.4117128874059452 6.405888706635977 31.793922522962703 0.9999904900354888 0.15666669607162476 -3.0757616256089255 -3.1030707359313965 -10.448678906151587 3.51173767584764 15.955731272723515 0.9999999999798412
ID_95e5e13ae,0.1460060030221939 0.04260804948129614 -3.0741329193115234 -11.865232191879047 19.286957383191357 113.12248435259323 0.9999998298936111 0.14582757651805878 -0.08419142251836043 -3.0903987884521484 -10.59373857567077 16.03607760234792 88.38564673549236 0.9999220784561645 0.16693684458732605 0.004497833657669377 -3.0910532474517822 -4.682033864028649 4.08175813696929 16.554851321116473 0.99999766985954
ID_aa7aa518e,0.1714085042476654 3.111500681886497 -3.1249642372131348 -5.62820050509747 9.24412227873256 53.23982150278183 0.9999997788418461 0.16124549508094788 0.027168155355457302 -3.0664708614349365 6.385743341238434 17.133473932739793 95.4720171953313 0.9999999635029986 0.15730710327625275 0.008435436585863678 -3.0871644020080566 5.765279561516739 13.208565092255812 72.61474464267552 0.9999998257136176 0.15790444612503052 0.7195571732851233 -3.1002633571624756 -13.115328372754435 4.218057118532706 22.078283131155963 0.9119705430294888 0.1675349473953247 0.008614930607751207 -3.117189884185791 0.5663129285952223 6.118445036015675 32.273259107445 0.9999989583137159 0.14524713158607483 1.4755907736027973 -3.0899853706359863 11.424151670380208 7.292961150043719 35.209491848981145 0.9999681055728786 0.1525714248418808 -3.071798860226181 -3.1229467391967773 -4.961531141988667 4.179722070707776 19.149914337799707 0.999999599394205
